{"layer_1": {"weights": [[0.059608206152915955, 0.04371654987335205, 0.01394672691822052, -0.0045117586851119995, 0.022487342357635498, 0.0294487401843071, -0.008485071361064911, 0.06852863729000092, -0.06014793738722801, 0.007503710687160492, -0.018203243613243103, 0.009079352021217346, -0.07637494802474976, 0.015113919973373413, -0.05142424255609512, -0.0328114777803421], [-0.025764554738998413, 0.0595613569021225, -0.01564844697713852, -0.03451240807771683, -0.041478659957647324, 0.067936971783638, 0.017018727958202362, -0.03276737406849861, -0.04609058052301407, 0.05409829318523407, -0.022855035960674286, 0.049046292901039124, 0.07078106701374054, -0.06659911572933197, -0.04166341572999954, 0.04779630899429321], [-0.05987092852592468, 0.05871492624282837, 0.0021062493324279785, -0.03497394546866417, -0.033592287451028824, -0.06349735707044601, 0.028476521372795105, 0.03489813208580017, -0.06578359007835388, -0.04305283725261688, -0.015255004167556763, 0.07716350257396698, -0.03631358593702316, 0.07272723317146301, 0.0369311198592186, -0.047574590891599655], [0.042777255177497864, -0.037628985941410065, -0.07211924344301224, -0.06710656732320786, 0.08485275506973267, -0.028581246733665466, 0.010996177792549133, -0.035602275282144547, -0.06446077674627304, -0.02164282649755478, 0.061999231576919556, 0.0159444659948349, -0.014405369758605957, 0.08354340493679047, 0.012134090065956116, -0.03200890123844147], [-0.05353119224309921, -0.06441625952720642, 0.083762988448143, 0.05282709002494812, 0.008954517543315887, 0.05324484407901764, 0.06436751782894135, -0.06796683371067047, -0.05296839773654938, -0.06495725363492966, -0.05895834416151047, -0.06676650047302246, -0.023883596062660217, 0.06824459135532379, -0.040911778807640076, 0.02719651162624359], [0.03701110929250717, -0.04978397116065025, -0.0009005069732666016, 0.02013261616230011, 0.011873140931129456, -0.0763312429189682, 0.06442402303218842, -0.00937332957983017, -0.051026590168476105, -0.0010188370943069458, 0.0805768072605133, -0.055935055017471313, -0.06726281344890594, -0.0413261353969574, -0.0228874534368515, -0.07250093668699265], [0.05491553246974945, -0.0328851044178009, 0.0069488659501075745, -0.07504924386739731, 0.022588185966014862, -0.03136828914284706, -0.08259966224431992, -0.01469208300113678, 0.08435449004173279, 0.016572222113609314, -0.02545139193534851, 0.0839141309261322, -0.07517839968204498, 0.03365889936685562, -0.0016897022724151611, 0.050163328647613525], [0.030211299657821655, 0.03749217838048935, 0.033715762197971344, -0.07137885689735413, -0.024439141154289246, -0.015769854187965393, -0.03267652168869972, -0.0315227136015892, 0.04307451844215393, 0.0771467536687851, 0.024880632758140564, 0.0034768208861351013, 0.07826580107212067, -0.08314106613397598, 0.06619139015674591, -0.04036001116037369], [0.07196412980556488, -0.028636377304792404, -0.08249836415052414, -0.08423061668872833, 0.03944481909275055, 0.01841510832309723, 0.07770191133022308, 0.020372025668621063, -0.03286280483007431, -0.08168036490678787, 0.061101898550987244, -0.05778320133686066, -0.04460621997714043, -0.05105225369334221, -0.061464823782444, -0.0016684159636497498], [0.08387593924999237, 0.08197015523910522, -0.005587585270404816, 0.03402873873710632, -0.013779520988464355, -0.07920799404382706, -0.07416465878486633, 0.028072506189346313, -0.011090002954006195, 0.06048160791397095, 0.010862402617931366, 0.03410932421684265, -0.017653539776802063, -0.016189292073249817, 0.015320248901844025, -0.046433787792921066], [-0.025157887488603592, 0.051338568329811096, -0.0741247907280922, -0.0057006701827049255, -0.03821343928575516, 0.08414806425571442, -0.0801098421216011, 0.008395560085773468, 0.018502838909626007, -0.05021282285451889, -0.027198556810617447, -0.07830546796321869, -0.06661269813776016, -0.04985353350639343, 0.009023480117321014, 0.07398578524589539], [0.04622146487236023, 0.030008189380168915, -0.05944858118891716, -0.0015769004821777344, 0.05915720760822296, -0.06028119847178459, -0.024942882359027863, 0.02030244469642639, -0.0017990544438362122, -0.08028842508792877, 0.04671740531921387, -0.03310021385550499, 0.079241544008255, 0.058240264654159546, 0.07987610995769501, 0.018290020525455475], [0.0801355168223381, -0.07359772175550461, 0.0886102244257927, 0.3696141242980957, 0.034587252885103226, 0.02547939121723175, 0.26967668533325195, 0.22386601567268372, -0.08261315524578094, -0.04247836023569107, 0.11507421731948853, -0.2721578776836395, 0.05974563583731651, -0.2659202516078949, -0.06725998967885971, 0.17437121272087097], [0.3732309639453888, -0.04695472493767738, 0.1433582454919815, 0.30087634921073914, 0.048867180943489075, 0.04474255442619324, 0.423461377620697, 0.5676911473274231, -0.035473138093948364, -0.1673128604888916, 0.5391462445259094, -0.32149818539619446, -0.03559162840247154, -0.400424987077713, 0.056585054844617844, 0.3155657649040222], [0.4594994783401489, 0.09121798723936081, -0.011352203786373138, -0.21526362001895905, -0.03577017784118652, 0.00575602799654007, 0.41713401675224304, 0.4262586236000061, 0.043781381100416183, -0.07462380081415176, 0.5203174352645874, 0.2706950902938843, -0.08618925511837006, -0.2619248926639557, 0.04535501077771187, 0.16778303682804108], [0.08555221557617188, 0.07615972310304642, 0.0028599053621292114, -0.0991467759013176, -0.058672480285167694, -0.004254549741744995, 0.11829773336648941, 0.06567215919494629, 0.03638137876987457, -0.007669003214687109, 0.09740441292524338, 0.15067914128303528, -0.0483536534011364, -0.10883969813585281, -0.05181409418582916, 0.08298903703689575], [0.05359557271003723, 0.04454295337200165, -0.06287943571805954, 0.008745789527893066, -0.06801901012659073, 0.020384393632411957, -0.024924691766500473, -0.004659742116928101, -0.04543483257293701, -0.0028631463646888733, -0.08076132088899612, -0.02237357199192047, -0.05107800289988518, 0.07285960018634796, -0.02451900765299797, 0.03054676204919815], [-0.043126631528139114, -0.051864903420209885, 0.0552201122045517, 0.0003935471177101135, -0.009526267647743225, 0.07425892353057861, 0.053470149636268616, -0.06043221428990364, -0.019135355949401855, 0.01448018103837967, 0.042230501770973206, 0.06814277172088623, -0.06263414025306702, -0.06058034300804138, 0.08432173728942871, -0.08095777779817581], [0.012943804264068604, -0.06163603812456131, -0.03150511905550957, 0.022027596831321716, 0.03986310958862305, 0.054642826318740845, -0.07605146616697311, -0.009853452444076538, 0.07538305222988129, -0.001886516809463501, 0.028667263686656952, 0.060558661818504333, 0.06500820815563202, 0.05710873007774353, -0.0009208843111991882, -0.01003234088420868], [-0.04119512438774109, -0.022278591990470886, -0.0721631795167923, 0.06776942312717438, 0.045713260769844055, 0.04125107824802399, -0.08556340634822845, -0.019107751548290253, -0.05623640492558479, 0.08161599934101105, 0.06562007963657379, -0.05171586945652962, 0.005719110369682312, 0.05101527273654938, -0.0073630958795547485, -0.035682760179042816], [-0.07950757443904877, 0.053132131695747375, -0.04647018760442734, 0.07491941750049591, 0.08422727882862091, 0.035138942301273346, 0.06516675651073456, 0.08080872893333435, -0.06531418859958649, 0.01824474334716797, 0.06443540751934052, 0.049182116985321045, 0.0034780800342559814, -0.00864408165216446, -0.01296854019165039, 0.034758321940898895], [-0.05381426960229874, 0.02033044397830963, -0.07357659190893173, -0.04864341765642166, -0.078250952064991, -0.004384569823741913, -0.08102220296859741, 0.029093824326992035, 0.04176478087902069, -0.0359223335981369, -0.039374664425849915, 0.06029979884624481, 0.07025770843029022, -0.06266936659812927, -0.08543557673692703, -0.038394808769226074], [0.05087943375110626, -0.04427001625299454, 0.07390192151069641, 0.05559377372264862, 0.06236673891544342, 0.029150955379009247, 0.0355931892991066, 0.058741211891174316, 0.06342430412769318, -0.08315272629261017, -0.01937631517648697, -0.08625179529190063, -0.04071368649601936, 0.05249430239200592, -0.02975766733288765, -0.07336448132991791], [0.07573255896568298, -0.028898272663354874, -0.04296397045254707, -0.04743065685033798, -0.04539293795824051, 0.055568188428878784, 0.05360376834869385, 0.042198434472084045, 0.0453406423330307, -0.029246017336845398, -0.06043560057878494, -0.07561765611171722, -0.017913244664669037, 0.07830171287059784, 0.03978660702705383, -0.030056707561016083], [0.07220371067523956, 0.017362363636493683, 0.036069631576538086, 0.07394881546497345, 0.07716299593448639, 0.053467437624931335, -0.03119106963276863, -0.06175440922379494, -0.07347959280014038, -0.032053541392087936, 0.011013872921466827, -0.08230824023485184, 0.00915345549583435, -0.02173386514186859, 0.085999995470047, -0.06806918233633041], [0.003085196018218994, 0.046658143401145935, 0.037261269986629486, 0.07809148728847504, -0.003406122326850891, -0.0017854869365692139, -0.02585790306329727, 0.05907033383846283, -0.058283496648073196, -0.01664215326309204, 0.06880003213882446, -0.00396139919757843, -0.030792485922574997, 0.0498243123292923, 0.05406689643859863, -0.04564308375120163], [-0.03326217457652092, -0.0034993886947631836, -0.062346067279577255, 0.07093869149684906, -0.07213691622018814, 0.033414945006370544, -0.05728714168071747, -0.058195143938064575, 0.009257085621356964, -0.08290000259876251, 0.044000044465065, -0.08594276010990143, 0.07046593725681305, 0.08655695617198944, -0.06982621550559998, -0.03161083534359932], [0.01792311668395996, 0.08331616222858429, 0.016277559101581573, -0.027098331600427628, 0.05958998203277588, 0.08015140891075134, -0.07042689621448517, -0.013901114463806152, -0.008334815502166748, 0.05321842432022095, 0.03598619997501373, 0.06760512292385101, 0.05994115769863129, 0.07051853835582733, 0.008330024778842926, -0.06742770224809647], [0.015706978738307953, -0.04672105610370636, -0.027982961386442184, 0.018552787601947784, 0.025255732238292694, 0.06096167862415314, -0.08210698515176773, 0.06449034810066223, 0.06282612681388855, -0.022728465497493744, 0.0007037967443466187, -0.021271273493766785, -0.054692476987838745, 0.01463259756565094, -0.039024047553539276, -0.01990179717540741], [-0.012902244925498962, 0.0014899149537086487, 0.08089415729045868, 0.048566192388534546, 0.08142495155334473, -0.0608501210808754, 0.022754520177841187, -0.023570887744426727, -0.03407946974039078, -0.03475435823202133, -0.08370248973369598, -0.04735014960169792, 0.07384096086025238, -0.049564674496650696, 0.07175374031066895, 0.010780468583106995], [-0.061355121433734894, -0.07391637563705444, -0.04017432779073715, -0.05867534875869751, 0.03923572599887848, 0.01502317190170288, 0.05294196307659149, 0.05807672441005707, 0.046169355511665344, -0.06956706941127777, 0.009935654699802399, 0.05413961410522461, 0.07286131381988525, 0.06733851134777069, 0.051549702882766724, 0.06518208980560303], [0.015476427972316742, -0.04411480948328972, 0.014330625534057617, -0.07845284789800644, 0.04558822512626648, 0.05642758309841156, 0.020490296185016632, 0.00418785959482193, -0.0216376855969429, -0.008746989071369171, -0.06007542461156845, -0.03746110200881958, 0.008514761924743652, 0.023233816027641296, 0.07255381345748901, -0.01708095520734787], [0.06862635910511017, -0.07793387025594711, -0.07882136106491089, 0.08820843696594238, -0.20263192057609558, 0.06851890683174133, 0.07699829339981079, -0.02414288930594921, -0.0223211869597435, -0.0674394816160202, -0.037827104330062866, -0.005740555003285408, 0.11554187536239624, -0.0031186712440103292, 0.06644393503665924, 0.20433227717876434], [0.23214438557624817, -0.10072733461856842, 0.10483605414628983, 0.3038373589515686, -0.3425067365169525, -0.034477390348911285, -0.015343718230724335, 0.16372685134410858, 0.03299512714147568, -0.04014613851904869, -0.06213663890957832, 0.01837514527142048, 0.23689600825309753, -0.062397297471761703, -0.007470354437828064, 0.3423524498939514], [0.23597122728824615, -0.06230119615793228, 0.44238078594207764, 0.4454779028892517, -0.1958395093679428, -0.022121958434581757, 0.12940694391727448, -0.03663317859172821, -0.1992974877357483, -0.09376345574855804, -0.02754560112953186, -0.19596153497695923, 0.14735879004001617, -0.4808695614337921, -0.26724007725715637, 0.47613081336021423], [0.08489013463258743, -0.061842966824769974, 0.5005905628204346, 0.5736252665519714, -0.16702638566493988, 0.026278004050254822, 0.34084340929985046, 0.09617090970277786, -0.18684078752994537, -0.11630960553884506, 0.027951907366514206, -0.46625348925590515, 0.2905556261539459, -0.7293712496757507, -0.43139609694480896, 0.8314299583435059], [-0.0009464769391342998, 0.01558405626565218, 0.4151441752910614, 0.7611175179481506, -0.03712131083011627, 0.003478817641735077, 0.6576968431472778, 0.20936830341815948, -0.11056419461965561, -0.2429066002368927, 0.4599434435367584, -0.5564595460891724, 0.1520465761423111, -0.8134254217147827, -0.3178996443748474, 0.9836921691894531], [0.2229672521352768, -0.043622732162475586, 0.3130950331687927, 0.8762862682342529, -0.32448774576187134, -0.12626951932907104, 0.5615691542625427, 0.39752110838890076, -0.21471861004829407, -0.29160988330841064, 0.22921136021614075, -0.395599901676178, -0.27414971590042114, -0.8130847811698914, -0.3156491816043854, 0.9937267899513245], [0.7311447858810425, 0.03480064868927002, 0.15817402303218842, 0.6609331369400024, -0.26853588223457336, -0.43024542927742004, 0.6851961016654968, 0.4419247508049011, -0.25560978055000305, 0.46561571955680847, 0.10825841873884201, -0.24757878482341766, 0.155748650431633, -0.8611530661582947, -0.45679622888565063, 0.992453932762146], [0.8279043436050415, -1.1247456073760986, 0.2507748305797577, -0.5645754933357239, -0.7689443230628967, -0.6165243983268738, 1.8346104621887207, 2.221677303314209, -0.18405567109584808, 0.5926908850669861, 0.6273429989814758, -0.07139676809310913, -0.21323661506175995, 0.9508556127548218, -0.39509817957878113, 0.9308779835700989], [0.6670791506767273, -1.8280521631240845, 0.40693023800849915, -0.33251816034317017, -1.5314617156982422, -0.5602807402610779, 2.4860594272613525, 2.8607563972473145, -0.22945401072502136, -0.19757388532161713, 1.2135987281799316, -1.086709976196289, -0.011723197065293789, 1.3746302127838135, -0.6546928882598877, 2.202979564666748], [-0.3151271939277649, -1.0396956205368042, 0.7959663271903992, 1.2133857011795044, -1.4379916191101074, -0.06251024454832077, 0.09586301445960999, 2.824596405029297, -0.013698574155569077, 0.6313773393630981, 0.2796146869659424, -0.9752387404441833, -1.258913278579712, 1.2655079364776611, -0.2780015766620636, 2.8565258979797363], [-1.034478783607483, -0.07068199664354324, 1.2265002727508545, 0.3828178346157074, 2.1766645908355713, -0.10343999415636063, 0.9041604399681091, -0.5216501951217651, 0.17998403310775757, 0.9649383425712585, -0.8115835785865784, -0.1329452395439148, -1.171549916267395, 1.8710801601409912, 0.6780024766921997, -0.9923818111419678], [4.178958415985107, 0.6663623452186584, 1.114756464958191, 3.856705665588379, -2.1334145069122314, 0.26157358288764954, -1.001528024673462, -0.7173989415168762, 0.5064896941184998, 0.29378965497016907, -0.07871370017528534, 0.4329453110694885, 0.626958429813385, -0.3281421661376953, 0.6752924919128418, 0.2607382535934448], [2.3235559463500977, 0.958685040473938, 0.18790914118289948, 1.3949528932571411, -0.9733555316925049, -0.3184995949268341, 1.452653408050537, 2.709336042404175, -1.6101189851760864, 1.3875062465667725, 2.5901083946228027, 0.11493510007858276, 0.25381234288215637, 1.156541347503662, 0.1492728441953659, 0.8785852789878845], [2.0858724117279053, 0.4551795423030853, 0.2991181015968323, 1.8699408769607544, -1.0749964714050293, -0.48706215620040894, 1.5529183149337769, 2.1040635108947754, 0.0015758030349388719, 1.3029435873031616, 1.5811078548431396, 1.0268081426620483, -0.8970665335655212, 0.6375826597213745, -0.19433975219726562, 0.4571785032749176], [1.3109636306762695, -0.6184603571891785, 0.036538396030664444, 1.6845510005950928, -0.9768668413162231, -0.3240709900856018, 0.1741214394569397, 0.9189261198043823, -0.6063679456710815, -0.43388646841049194, 0.3629395365715027, 0.2554469704627991, 0.6553590297698975, -1.17433762550354, -0.1159367635846138, 1.3835147619247437], [0.2940850853919983, -0.15205609798431396, 0.10590426623821259, 0.8066259622573853, -1.0353493690490723, -0.3215467035770416, 0.5115450024604797, 0.21796633303165436, -1.1133239269256592, -0.733989417552948, 0.4284924566745758, -0.9702267050743103, 1.4355932474136353, -0.9288620948791504, -0.8195847272872925, 1.4109121561050415], [-0.18475030362606049, -0.03523888438940048, 0.06426751613616943, 1.856474757194519, -1.9568437337875366, -0.12517660856246948, 1.042134165763855, 0.284224271774292, -1.1424998044967651, -0.5832429528236389, 0.11119123548269272, -1.3101383447647095, 2.1986708641052246, -1.372741460800171, -1.3293428421020508, 1.7855160236358643], [0.026964543387293816, 0.022106919437646866, 0.05783195421099663, 0.9766331911087036, -0.845768392086029, -0.2070649415254593, 0.7444350719451904, 0.4001924991607666, -0.8776095509529114, -0.30777543783187866, -0.48016828298568726, -0.594120979309082, 1.3520280122756958, -0.8415707349777222, -0.7544760704040527, 1.2862707376480103], [0.6967740058898926, -0.06102720648050308, -0.040818314999341965, 0.7747325301170349, -0.9579171538352966, -0.0636691153049469, 0.007565164007246494, 0.47078466415405273, -0.9942195415496826, -0.04151257127523422, -0.07480623573064804, 0.1916295289993286, 0.7101462483406067, -0.2565881907939911, -0.7296192646026611, 0.9787948727607727], [0.7281033992767334, 0.08519032597541809, 0.05485105141997337, 0.737037181854248, -0.9677076935768127, 0.010699592530727386, 0.08930155634880066, 0.49044305086135864, -0.9611160159111023, -0.11364591121673584, -0.0803418755531311, 0.1420287787914276, 0.5952471494674683, -0.17527596652507782, -0.680432915687561, 0.962125837802887], [0.03192862123250961, -0.05848175287246704, -0.05943448096513748, 0.04973438382148743, 0.052142202854156494, -0.031345658004283905, 0.028132326900959015, -0.05126449093222618, 0.03616876155138016, -0.018902555108070374, 0.01219099760055542, 0.03879830241203308, 0.029602564871311188, 0.024462781846523285, -0.02196510136127472, 0.040921613574028015], [-0.02948148548603058, 0.08524423837661743, -0.02350877970457077, -0.07827512919902802, 0.06953129172325134, -0.0790545791387558, 0.07168848812580109, -0.018473416566848755, 0.0008553266525268555, 0.03764953464269638, -0.06706081330776215, 0.07800683379173279, -0.07136458903551102, 0.04178847372531891, 0.08269761502742767, 0.026066504418849945], [0.07412475347518921, 0.06282496452331543, -0.07542645931243896, -0.08354631066322327, 0.03771742433309555, -0.040194954723119736, 0.0016347169876098633, 0.012390390038490295, -0.04127148166298866, 0.06472094357013702, -0.05458701029419899, -0.07680638134479523, 0.03445281833410263, 0.0711926519870758, -0.037375371903181076, -0.05214160308241844], [-0.022890590131282806, 0.046838000416755676, 0.03281630575656891, 0.056829556822776794, -0.0060889944434165955, 0.041836127638816833, -0.00906246155500412, -0.037750665098428726, -0.06915386766195297, -0.0690363198518753, 0.018426500260829926, -0.04746854305267334, -0.02004009485244751, -0.005806036293506622, 0.001425430178642273, 0.01580643653869629], [0.023924849927425385, 0.0024648532271385193, -0.076710045337677, 0.00958135724067688, -0.04389181360602379, -0.05870761722326279, -0.05830271914601326, -0.014583311975002289, -0.04346269369125366, -0.07878909260034561, 0.005797326564788818, -0.007906608283519745, 0.045919328927993774, 0.08017593622207642, -0.057090431451797485, -0.02995898202061653], [0.018257029354572296, 0.012543946504592896, -0.07438220083713531, -0.03405890613794327, -0.05004483461380005, -0.04477805271744728, 0.07417060434818268, -0.004223808646202087, 0.08266420662403107, -0.018844887614250183, 0.042013704776763916, -0.010114751756191254, -0.06638330221176147, -0.03684968128800392, 0.023247361183166504, 0.0840340107679367], [0.16017304360866547, -0.04333725944161415, 0.07797033339738846, 0.0627332478761673, 0.03457790985703468, -0.03115186095237732, 0.008009830489754677, 0.006986514665186405, -0.0053238533437252045, 0.08540520071983337, -0.04367548227310181, 0.09622886776924133, 0.1254047155380249, -0.10445033013820648, -0.06973714381456375, 0.012154612690210342], [3.332831382751465, -1.2772692441940308, -0.011942204087972641, -2.99372935295105, -4.896287441253662, -0.6726789474487305, 4.197937488555908, 4.1643171310424805, -3.843648910522461, 4.625743865966797, -0.23559777438640594, -0.09478792548179626, 1.4318513870239258, 4.000485897064209, -0.21795448660850525, 1.8491878509521484], [1.900931715965271, -0.9036621451377869, 0.6622985601425171, -1.6760140657424927, -4.09259557723999, 0.006034289486706257, 3.5717804431915283, 3.7155234813690186, -3.49147367477417, 3.9902095794677734, -1.433740258216858, -0.05114251747727394, 1.289975643157959, 3.343122720718384, 0.5514731407165527, 1.9097929000854492], [-0.873497486114502, 0.04956885427236557, 0.40140700340270996, 2.26625394821167, -0.22757168114185333, 0.06004921346902847, 0.5721654891967773, 0.7740996479988098, -0.040858350694179535, 0.7160425186157227, 0.5192099809646606, -1.543506145477295, -1.0838207006454468, -1.3335919380187988, 0.6276084184646606, 1.280124306678772], [-0.9749916791915894, -0.462688148021698, 0.5806514620780945, 3.0443966388702393, -0.3514745235443115, -0.41083282232284546, 0.4176265597343445, 0.8741931319236755, -0.8048798441886902, 1.0206292867660522, 1.4629178047180176, -1.9102401733398438, -0.8661878108978271, -1.9016144275665283, 0.37440726161003113, 1.8833651542663574], [-0.39225107431411743, -0.8031051158905029, 0.6531535387039185, 3.1559882164001465, -0.7382559180259705, -0.7544531226158142, 0.5965295433998108, 1.0750857591629028, -0.7885705232620239, 1.656525731086731, 1.3936080932617188, -1.5154311656951904, -0.9461032152175903, -1.89516282081604, 0.12378169596195221, 1.9628584384918213], [-1.1084816455841064, -0.5858651995658875, -0.5640164613723755, 0.7542570233345032, 0.004819422960281372, -0.589544951915741, -0.8440856337547302, 2.169616460800171, -0.5102870464324951, -1.183154821395874, 0.559363603591919, -1.2713810205459595, 0.40649253129959106, -0.996362566947937, 2.340116024017334, 2.3961851596832275], [1.7439064979553223, -0.6581856608390808, -6.427901268005371, 2.158682107925415, 3.08857798576355, -6.056488513946533, 0.53678959608078, 1.23699152469635, -0.2930755615234375, 4.615948677062988, 2.9033076763153076, 2.5042834281921387, -1.6949068307876587, -2.1192879676818848, -1.5337693691253662, 1.5838550329208374], [0.5313661098480225, 1.180482029914856, 2.21266770362854, 3.570596933364868, 1.0729633569717407, 1.221303105354309, -0.4860057532787323, -1.0795845985412598, -1.1380728483200073, 2.7688684463500977, 3.688288688659668, 4.552157402038574, 1.0013668537139893, -3.3727476596832275, 2.6638877391815186, 3.5685975551605225], [0.6395949125289917, -2.9012787342071533, 2.757641315460205, 0.8425843119621277, -5.6382927894592285, 2.288295030593872, -5.953738689422607, 3.653921365737915, -1.3031367063522339, 0.17933565378189087, -1.0808508396148682, 1.359127163887024, -0.8563585877418518, -5.609806060791016, 0.6453237533569336, 8.139277458190918], [-1.0476675033569336, 1.157532811164856, 3.6888978481292725, -1.0380953550338745, 1.28560209274292, 1.1022919416427612, 4.02043342590332, -2.886429786682129, -3.238028049468994, -0.3531007170677185, 1.7075358629226685, 1.3264293670654297, -2.9043209552764893, -3.763601064682007, 1.1663156747817993, 2.298657178878784], [4.5744757652282715, 3.381253719329834, 0.829304039478302, 4.456475257873535, 1.82572603225708, -1.6483583450317383, -1.3533565998077393, -0.0037175489123910666, -2.0025975704193115, 3.1404850482940674, 0.14867402613162994, -0.7411260604858398, 1.4454041719436646, -4.9267754554748535, -2.4384899139404297, -1.8939838409423828], [1.2521495819091797, 5.557406902313232, -0.6382462978363037, 0.6314027905464172, 3.4439635276794434, 0.2786754071712494, 2.1544504165649414, 1.202293038368225, -0.3897293210029602, 3.340348482131958, -5.580216884613037, 0.8599252700805664, -0.11633488535881042, -2.017054319381714, -1.2539812326431274, 2.4374890327453613], [-0.5383771061897278, 3.3337488174438477, -0.5684359669685364, 0.3696293532848358, 0.22131377458572388, 2.220747947692871, 1.4486163854599, 1.3007551431655884, -0.10607092082500458, -0.7934772968292236, 0.8518447279930115, 2.160459041595459, -0.46079394221305847, -2.0668962001800537, 1.7281739711761475, 2.2895233631134033], [-0.23788663744926453, -2.2325820922851562, -1.5553205013275146, 2.2602479457855225, -2.2948672771453857, -0.7981675863265991, -3.432549238204956, -0.21990656852722168, -0.9757101535797119, 1.1780495643615723, 0.05726251006126404, 1.65082848072052, -0.9970912337303162, -3.0365102291107178, -0.06408513337373734, 1.598854422569275], [0.9380845427513123, -2.7837777137756348, 0.6671222448348999, -0.1340780258178711, -0.48119017481803894, -0.33935341238975525, 0.6359569430351257, 2.0132837295532227, -0.02359052188694477, 0.048939839005470276, -8.074143409729004, -1.6775836944580078, -0.37478765845298767, -2.604057550430298, 1.5388295650482178, -0.5948053002357483], [-0.14006061851978302, -4.174882888793945, 1.6844980716705322, -1.3673182725906372, -2.351297378540039, 1.2331622838974, 4.871530055999756, -0.11713067442178726, 1.3673739433288574, -1.227291464805603, -6.844558238983154, 2.3513870239257812, -0.9844213724136353, -2.868360996246338, 0.8361068964004517, 0.1178165152668953], [1.0563623905181885, 2.160843849182129, -6.677759647369385, -1.0952353477478027, 3.8192152976989746, 5.3767008781433105, -1.6609013080596924, -1.3832170963287354, -0.43830278515815735, -0.40297386050224304, -4.296783447265625, -4.142263889312744, 2.70232892036438, 1.325024962425232, -0.5557708144187927, 0.9196571707725525], [5.991590976715088, -0.3050485849380493, 5.028407096862793, -1.4808707237243652, 5.414971828460693, -1.3007413148880005, -3.182192802429199, 0.5639228820800781, 0.02836473472416401, 1.2352746725082397, -2.1014678478240967, 1.1376043558120728, -0.38397061824798584, -1.6369823217391968, -4.0124735832214355, 0.8021107912063599], [-1.088753581047058, -0.1619400531053543, 3.0798003673553467, 3.1859583854675293, 3.089916467666626, -3.566985845565796, 5.935957431793213, 0.32285940647125244, -2.8914191722869873, 2.100980043411255, 3.412431478500366, 2.2325711250305176, -0.5177233219146729, -0.10393470525741577, -1.5371110439300537, 4.451829433441162], [-3.0815932750701904, -0.07448755949735641, 2.3322126865386963, 2.9574544429779053, 0.3529033064842224, 2.093517780303955, 2.7532691955566406, -1.572027325630188, -2.209944248199463, 2.989086389541626, 2.5354135036468506, 0.3465704023838043, 1.6971381902694702, 1.4556047916412354, -1.2271015644073486, 2.049152135848999], [0.01659845933318138, -0.11294380575418472, 0.1709425300359726, 2.468312978744507, -0.833920955657959, 2.192910671234131, 1.8717912435531616, -0.4047679305076599, 1.8300180435180664, 1.1211445331573486, 1.5782240629196167, -2.1627020835876465, 2.5098698139190674, -1.928006887435913, -1.826202630996704, 0.927489161491394], [2.239915370941162, 0.04598654806613922, -0.130115807056427, 0.49007749557495117, 0.7923613786697388, -0.5281482934951782, -0.47997406125068665, -0.28865846991539, 2.8541767597198486, 0.892779529094696, 0.6674157977104187, 2.149928569793701, -0.8755929470062256, -1.3220908641815186, -1.752480387687683, -0.7751943469047546], [0.9127399921417236, -0.05239541828632355, 0.07431231439113617, 0.05922212079167366, 0.14473743736743927, 0.031981129199266434, 0.4225993752479553, -0.9687814116477966, 1.672196388244629, -0.37907570600509644, -0.06550480425357819, 1.381511926651001, -0.24778786301612854, -0.46184179186820984, -0.878118097782135, -0.9682574272155762], [0.030578598380088806, 0.05050182342529297, -0.0627077966928482, -0.04716316610574722, 0.038830116391181946, -0.05782580003142357, -0.0056865885853767395, 0.07931075990200043, -0.06787323951721191, 0.024206794798374176, -0.07219536602497101, -0.06953056156635284, -0.07505467534065247, 0.0056229159235954285, -0.06797562539577484, -0.041955187916755676], [0.02652069181203842, 0.05434146523475647, -0.07841099798679352, 0.03640832006931305, 0.05530792474746704, -0.08050231635570526, -0.04814903065562248, -0.0760401040315628, 0.066348135471344, -0.061764173209667206, 0.0663672387599945, 0.03717358410358429, -0.08492634445428848, -0.061490632593631744, -0.041623957455158234, -0.07329338788986206], [0.08156730234622955, 0.04215368628501892, -0.026617489755153656, 0.08027294278144836, 0.06540726125240326, -0.07251352816820145, 0.01459648460149765, -0.02940366417169571, -0.07203368097543716, -0.020769581198692322, -0.07234764844179153, 0.04368510842323303, -0.06350747495889664, -0.07807202637195587, -0.06626011431217194, 0.0328361913561821], [-0.06419993937015533, 0.061642393469810486, 0.04198688268661499, -0.031667470932006836, -0.07420622557401657, 0.0498146116733551, 0.008423104882240295, -0.07818108052015305, -0.07731340825557709, 0.023810356855392456, 0.06725291907787323, -0.07831791788339615, -0.01845109462738037, -0.0018317177891731262, 0.041144952178001404, -0.016614504158496857], [0.6753143668174744, 0.056398823857307434, 0.0638890340924263, 0.1765773743391037, -0.1379735767841339, -0.24465367197990417, -0.6320242285728455, -0.2533109188079834, 0.06514625996351242, 0.16653171181678772, -0.5712395906448364, 0.6893389821052551, 0.46918049454689026, -0.24196957051753998, 0.5347127318382263, -0.6069794297218323], [3.5700604915618896, -1.7320796251296997, 0.08995974808931351, -2.717172622680664, -5.379509925842285, 2.7256345748901367, 4.840289115905762, 4.713757038116455, -4.5740838050842285, 3.8151795864105225, 1.4778705835342407, 1.739128589630127, 2.8929450511932373, 3.330305337905884, -0.6228809356689453, 1.3347821235656738], [1.070611834526062, -0.3881963789463043, 2.1154839992523193, 1.230657935142517, -5.5905609130859375, 4.493332862854004, 3.5448479652404785, 3.5473334789276123, -4.00368595123291, -0.32740598917007446, 3.185076951980591, 2.387838125228882, 4.363393306732178, 0.3540119230747223, 0.553555965423584, -1.3692328929901123], [-3.015162467956543, 1.9208742380142212, 1.0151453018188477, 4.248605728149414, 0.015574956312775612, -0.44812941551208496, 3.8203272819519043, 6.133166790008545, -2.0795328617095947, 0.7908751964569092, 2.521806001663208, -3.816432237625122, 0.36459314823150635, -1.3789758682250977, -2.382075786590576, 6.116894721984863], [1.0762358903884888, 2.5870537757873535, 0.2122575044631958, -1.1923891305923462, -2.645927667617798, -1.2420434951782227, -5.051087856292725, 5.7553205490112305, -2.5878489017486572, 2.113466739654541, 0.9110771417617798, 2.695279359817505, 0.9708649516105652, 0.8671085834503174, -5.2427496910095215, 3.760646104812622], [4.8547749519348145, -1.2875233888626099, 2.2324514389038086, 0.05733367055654526, 3.084350824356079, -3.0879433155059814, -7.430410861968994, 0.2343282252550125, -1.057723879814148, -7.931371212005615, -2.5413241386413574, 1.277554988861084, 2.8456311225891113, 0.3953710198402405, -6.716116428375244, 2.7986433506011963], [1.2287322282791138, -2.034271240234375, -3.513502359390259, 0.5118286609649658, -6.023455619812012, -0.2936438024044037, 3.3149383068084717, 6.6219329833984375, -1.5139355659484863, -5.603890419006348, 2.0934815406799316, 4.964199066162109, -0.3636818528175354, 0.4322134554386139, -7.039456844329834, 3.9857633113861084], [-0.7476496696472168, -1.7370537519454956, 1.2053073644638062, -2.178238868713379, 2.2985737323760986, -1.1706061363220215, 2.169076681137085, 0.22111478447914124, -2.8973958492279053, -4.696252822875977, 0.17804791033267975, 1.9073036909103394, 1.7131041288375854, 1.376704454421997, -3.462785005569458, -0.3684503436088562], [0.32338032126426697, -4.4225873947143555, 1.5262107849121094, 0.9698827266693115, -1.990230917930603, -0.38473987579345703, 0.1943551003932953, -0.7397642135620117, -0.5732406973838806, -1.2453619241714478, 2.4021425247192383, -1.0597845315933228, -0.7990846037864685, -0.6742827296257019, -0.05946744605898857, -0.19211286306381226], [0.5035176277160645, -1.119999885559082, -0.07287394255399704, -2.170401096343994, -1.1416653394699097, -2.4137532711029053, -1.4282892942428589, -0.6445633172988892, 1.9982714653015137, 0.8054341077804565, -0.9133614897727966, 0.4574034810066223, -2.2255754470825195, 0.7756245732307434, -2.2997310161590576, 2.571765899658203], [0.8441881537437439, -0.5047194957733154, -0.7277687191963196, -2.485595464706421, 0.9558758735656738, -0.20807242393493652, 2.2193262577056885, -1.233949065208435, -4.137465000152588, -1.3621816635131836, -0.11724372208118439, 1.5672029256820679, -3.232633352279663, -0.9290798902511597, -1.5516223907470703, 2.8551409244537354], [0.9448174238204956, -2.1174123287200928, 0.8524245619773865, 2.3357224464416504, -4.197440147399902, 0.8113640546798706, 1.925210952758789, -2.028310775756836, -2.9345314502716064, -0.8167403340339661, 4.032473564147949, 0.19377240538597107, -2.1502716541290283, -1.4980064630508423, 0.6692823171615601, 0.8730044960975647], [-0.3598564565181732, -3.3459625244140625, 0.34770163893699646, -1.5579646825790405, -2.3996825218200684, -0.7552322149276733, -0.0920523852109909, -0.36018431186676025, -1.7668015956878662, 2.9680075645446777, -1.2768794298171997, 1.3539934158325195, -0.7416510581970215, 0.6842209696769714, -1.0555450916290283, 3.622302532196045], [1.49307382106781, 0.09176155924797058, 0.4773167669773102, -0.700743556022644, 0.8904379606246948, 1.814225673675537, 0.19848088920116425, -0.9213576912879944, 0.6758695244789124, -0.2317732870578766, 0.7394427061080933, 1.3469959497451782, 0.11867838352918625, -0.15221858024597168, -0.11823059618473053, 0.5097834467887878], [0.534528374671936, 1.7646584510803223, -1.148154377937317, 0.4258732795715332, -0.0708693414926529, 1.9589396715164185, 1.6672629117965698, -0.3968891203403473, -0.5419838428497314, 0.19552893936634064, 0.7817102074623108, 0.04105342552065849, -2.32140851020813, 0.2708147168159485, -0.8730208277702332, 1.6389695405960083], [0.8932281732559204, -1.8078783750534058, -0.059046901762485504, -0.3770081698894501, -3.02748703956604, 0.24914078414440155, -0.48258697986602783, 1.9203743934631348, -1.9891815185546875, -0.19141747057437897, 0.33852043747901917, 0.21002092957496643, -0.21601177752017975, -0.4292202293872833, 1.4189074039459229, -1.5881210565567017], [-0.1907365322113037, -1.0023294687271118, -0.01639455556869507, 0.9349401593208313, -1.0117117166519165, 0.5297832489013672, 1.5239593982696533, -1.7612898349761963, 0.3603878915309906, 0.6826396584510803, -1.260724663734436, -0.008028940297663212, 1.0555298328399658, -0.46245718002319336, -0.5916869640350342, -0.18727003037929535], [-0.4682174324989319, -0.19367796182632446, 0.8888565897941589, -0.03845444321632385, -0.309635192155838, -0.765455424785614, -0.36966612935066223, -1.3090667724609375, 0.4444461762905121, -1.0042455196380615, 1.4234726428985596, 2.3689324855804443, 1.0487865209579468, 0.2372707724571228, -0.9283165335655212, 1.7792099714279175], [0.12805403769016266, -2.084808826446533, -0.4235817790031433, -0.7186189889907837, -1.7218360900878906, 3.803555488586426, -1.5994081497192383, 0.9531880021095276, -0.597549557685852, -0.9062407612800598, 1.502020239830017, -1.2648900747299194, 2.085432291030884, 3.3095500469207764, -1.3058133125305176, -0.3230462670326233], [3.071118116378784, -1.311644434928894, -0.2523430287837982, 0.2590622007846832, -0.2655637860298157, 0.35678979754447937, 3.0326883792877197, 1.8461698293685913, 3.3678243160247803, -1.7385942935943604, -2.3719844818115234, 0.8368485569953918, -0.7770425081253052, -2.533299684524536, 1.9065003395080566, -1.8212493658065796], [0.00698030786588788, 1.1484590768814087, -3.29343581199646, -1.6847306489944458, -2.5009281635284424, -3.133819580078125, 0.7328819632530212, -1.3772495985031128, -2.478369951248169, -1.1439520120620728, -0.5492287874221802, -1.885519027709961, 1.7176611423492432, -0.5377028584480286, -2.043987274169922, -0.4759060740470886], [1.2634977102279663, -0.1352800577878952, 0.045499514788389206, -2.4406583309173584, -1.064112663269043, -2.023627281188965, 0.6312543749809265, -1.419121503829956, 2.105844020843506, 1.273621678352356, 0.7303204536437988, -0.42390045523643494, -2.1030211448669434, -3.548389196395874, 4.871469497680664, 0.5509245991706848], [3.8025944232940674, 2.3609321117401123, -0.9472023248672485, -1.0703434944152832, -5.429910182952881, 3.8340179920196533, 5.00445556640625, 6.398631572723389, -7.869123935699463, -3.8297836780548096, 11.037437438964844, -0.27006930112838745, -1.6342251300811768, -4.811831951141357, -2.246516466140747, 3.270693302154541], [-7.199043273925781, -3.202608346939087, -1.2731659412384033, 8.238762855529785, -6.378852844238281, -0.715989351272583, -0.422018438577652, 4.098449230194092, 1.7269163131713867, 6.397109031677246, 1.626695156097412, -0.2917456030845642, 0.3094377815723419, 5.96429967880249, 2.171025514602661, 1.3414907455444336], [3.294053792953491, 0.06894499808549881, -0.047474220395088196, -0.16570426523685455, 0.44285768270492554, -0.019963867962360382, -1.8610658645629883, -1.5047646760940552, 1.7539055347442627, -3.9302496910095215, 3.300161361694336, -0.39940497279167175, 4.362286567687988, 1.2914562225341797, -5.888350486755371, 4.339958190917969], [0.07262648642063141, -0.029664896428585052, 0.030633747577667236, 0.0692838579416275, 0.06168420612812042, -0.01068788766860962, 0.08551435172557831, 0.042333394289016724, -0.0699911117553711, 0.014604002237319946, 0.05938413739204407, -0.004778116941452026, -0.009774722158908844, -0.06851290166378021, 0.05985763669013977, -0.01701589673757553], [0.05667516589164734, -0.05437679588794708, -0.008446022868156433, 0.012103714048862457, -0.05506289750337601, 0.027961835265159607, 0.04478062689304352, -0.050541698932647705, -0.020890571177005768, 0.07686661183834076, -0.013469576835632324, -0.020047076046466827, -0.03374526649713516, -0.009135819971561432, 0.08296312391757965, -0.007378377020359039], [0.07870941609144211, -0.05756768584251404, -0.004963697865605354, -0.18372415006160736, 0.05125519260764122, 0.13166852295398712, -0.09634307771921158, -0.07676789909601212, -0.05795878916978836, 0.06392496824264526, -0.01877235807478428, -0.04394974559545517, 0.07514572888612747, 0.013012253679335117, 0.030287398025393486, 0.08132194727659225], [-0.28133267164230347, -0.05857611820101738, -0.15612252056598663, -0.2925969660282135, -0.05786452069878578, 1.19563627243042, -2.2556376457214355, -0.3343827724456787, 0.30263441801071167, 2.7262520790100098, -1.1258964538574219, 2.8369357585906982, -2.168262004852295, 2.233295202255249, -0.6376607418060303, 0.9659508466720581], [-5.348611354827881, 0.14768657088279724, 6.396664142608643, 4.172952175140381, -2.696657180786133, 2.8790340423583984, -5.213270664215088, 0.6097995042800903, 2.0024642944335938, 1.117804765701294, -1.9298405647277832, -0.9108342528343201, -1.2168023586273193, 9.013615608215332, 9.32485580444336, 1.439368486404419], [0.9009567499160767, 0.7359263300895691, 0.7522727251052856, 3.059109687805176, 3.3264620304107666, -3.220850706100464, -3.5133919715881348, -5.196699619293213, -8.071806907653809, 2.909395694732666, -3.0205843448638916, 2.438707113265991, -1.3131890296936035, 0.48863497376441956, 5.047497272491455, -2.017331123352051], [3.279263734817505, -2.1090149879455566, 0.006718216929584742, -2.2129478454589844, 1.9543408155441284, -0.09019487351179123, -0.18467441201210022, -3.06445050239563, -2.281714677810669, -9.308595657348633, 5.483916759490967, -1.4194929599761963, -7.694579601287842, -0.9219518303871155, -3.1417088508605957, 3.8422932624816895], [1.8479065895080566, -3.3508267402648926, -0.8068384528160095, -0.5222875475883484, 2.2535653114318848, -0.14877524971961975, -0.023207135498523712, -0.5125303864479065, 0.6929572820663452, -3.5434165000915527, 0.41023313999176025, 2.3731234073638916, -0.40231290459632874, 1.8418514728546143, -0.19492702186107635, 2.702843189239502], [1.922188401222229, -0.39016062021255493, -3.303807258605957, 0.009897329844534397, 0.49867168068885803, 2.5288753509521484, 2.353147029876709, -2.192838668823242, 1.4682210683822632, -1.7641024589538574, -2.025217294692993, -0.06460826098918915, -0.6095374226570129, 3.290745973587036, -4.255059242248535, 0.1662949025630951], [2.326408863067627, -1.2398287057876587, 0.8235316872596741, 0.6330875158309937, -1.3655229806900024, 2.382349729537964, -3.1357030868530273, -3.068624258041382, -1.5580263137817383, -0.4828137457370758, 2.494340419769287, -2.4555253982543945, -4.936450004577637, 0.3029249906539917, -2.4227447509765625, 0.915592610836029], [0.12720800936222076, -5.8806586265563965, -0.5270149111747742, 0.7261530160903931, -0.4106387197971344, 1.3969972133636475, 1.8335529565811157, -2.5064644813537598, -7.178323268890381, -0.43114498257637024, 3.686150074005127, -0.18960696458816528, -3.458127975463867, -0.1650911569595337, -0.7505864500999451, 0.5995032787322998], [3.116762161254883, -4.842533588409424, -0.729917049407959, -2.0441951751708984, -2.386713981628418, 0.9901787042617798, 0.9279375076293945, -0.1447329819202423, -5.908311367034912, -0.8892716765403748, 0.9901360273361206, 1.2822966575622559, -2.098170280456543, -0.9185131192207336, 0.15695007145404816, 1.853798508644104], [-0.23545905947685242, 3.0492289066314697, 0.09723631292581558, 0.723121166229248, -1.7806569337844849, 0.37673547863960266, -0.2583673596382141, 0.03807569295167923, -2.017051935195923, 0.70862877368927, 0.991489052772522, 0.604981005191803, -0.8566495180130005, 0.0518837533891201, 1.1852974891662598, -0.8676097989082336], [0.9633368253707886, 0.29055947065353394, -0.01792953908443451, -0.10004463791847229, 0.46867820620536804, 1.1300019025802612, -0.024808164685964584, 0.8091482520103455, -1.1775989532470703, 1.6091004610061646, -0.6958944201469421, 0.4541983902454376, -0.8862857222557068, 1.2083415985107422, 0.10712089389562607, 0.43699580430984497], [1.7718466520309448, -3.7674965858459473, -0.5550429224967957, 0.9118770956993103, 0.4239007234573364, -0.21792687475681305, -1.3936033248901367, -0.6599136590957642, -0.7842099070549011, -1.7803021669387817, 0.699078381061554, -0.8790616989135742, 0.5508321523666382, 0.767069399356842, -0.7269423604011536, 0.2664315104484558], [0.2885960340499878, 1.7449226379394531, -0.5047847628593445, -0.8456375598907471, -0.3178599178791046, 0.6354000568389893, 1.3848419189453125, -0.47110986709594727, -1.5609065294265747, 1.5034655332565308, 0.4316580295562744, 0.025538453832268715, -0.5989848375320435, -0.15062442421913147, -0.7527103424072266, -0.28746458888053894], [0.7445365190505981, -0.08271680772304535, 2.1915836334228516, 1.6076607704162598, -0.47342243790626526, 0.4711568057537079, 0.3768523335456848, 0.48322588205337524, -0.7211341261863708, 1.3783279657363892, 1.4305717945098877, -0.4635191261768341, -0.642202615737915, 0.27246376872062683, 1.0444176197052002, 0.18097634613513947], [0.6876072883605957, -0.9731897115707397, -1.1225005388259888, 0.36793071031570435, -0.023117128759622574, 0.09873173385858536, 0.3022499680519104, -0.932479977607727, -0.2627960443496704, 1.3039377927780151, 0.20866608619689941, 0.5265582203865051, 0.3373541533946991, -1.0878978967666626, 0.49024462699890137, 1.6522998809814453], [0.04014534503221512, 0.16410969197750092, 0.9779622554779053, -0.7557054162025452, -1.0191588401794434, -0.9994197487831116, 1.1298472881317139, -0.5913432836532593, 0.0113770617172122, 1.3291727304458618, 0.27698299288749695, 0.547886073589325, -1.1058132648468018, 0.29120752215385437, 0.6640505194664001, 1.123818278312683], [-0.0542965792119503, 0.6621018052101135, 1.2324085235595703, 1.314168095588684, -0.3904185891151428, 0.7453249096870422, 0.9860916137695312, 0.2565288841724396, 0.03099488466978073, 0.7616776823997498, 0.14864301681518555, 0.5571082234382629, -0.5925208926200867, -0.8111092448234558, 1.4300726652145386, -0.3503134250640869], [1.206961750984192, 1.4620622396469116, 0.8042369484901428, 0.8272035121917725, 0.19007909297943115, -0.23411203920841217, 0.08277817815542221, 0.5546515583992004, -2.409820318222046, 0.03329324349761009, 2.089402437210083, -0.19973011314868927, -0.21959717571735382, -1.2866250276565552, 1.3442562818527222, 1.5256052017211914], [-1.0888975858688354, -2.9073586463928223, -1.0191476345062256, -0.08263392746448517, 0.16094113886356354, 0.0038000806234776974, 0.3864705562591553, -0.4050932228565216, 0.10822553932666779, -0.2294294387102127, 0.09506090730428696, 0.76189786195755, -0.6261154413223267, 2.1095261573791504, 0.26908111572265625, -0.9673283696174622], [0.4524974822998047, -1.97434401512146, 1.6509557962417603, -0.12080506235361099, 0.6221027374267578, 0.638511061668396, 0.90199214220047, -0.6303262710571289, -0.9072766900062561, -0.9156854152679443, -0.4159432649612427, 0.07886847853660583, -0.2217380404472351, 0.04553549736738205, 0.4874982237815857, -1.1624571084976196], [-2.3939602375030518, -1.9736406803131104, 1.060696005821228, -2.784663438796997, 1.2439041137695312, -0.7400632500648499, -0.6926515102386475, -0.2986055910587311, -0.6761297583580017, 0.4424923062324524, -0.07901015877723694, -2.963050603866577, -0.20483332872390747, 0.20328564941883087, 0.16508492827415466, 0.8549706339836121], [-0.16004163026809692, -1.0679517984390259, 2.6752119064331055, 1.3293075561523438, -1.002314567565918, -0.6764108538627625, 0.08055710047483444, 0.36853742599487305, -0.2966289818286896, -1.8283072710037231, -3.765403985977173, -2.2873470783233643, 1.124067783355713, 1.111175298690796, 0.3932764530181885, -2.5276007652282715], [-0.23326018452644348, 0.6193898320198059, -3.414616346359253, 0.584895670413971, -4.820706844329834, 0.11566438525915146, 0.12622655928134918, -2.521296501159668, 0.2849057912826538, -1.396175742149353, -3.492100954055786, -1.4592639207839966, -0.03926073759794235, 2.084181308746338, 2.354067325592041, -0.3489120900630951], [-2.7419381141662598, -0.28730228543281555, 10.489456176757812, -0.15883281826972961, 0.6337640881538391, 0.9373196363449097, 7.280444145202637, 1.6106928586959839, 1.4057798385620117, 1.8308864831924438, -7.307042121887207, -7.173703193664551, -0.5878880620002747, 4.189828395843506, -0.2915739119052887, 0.37250903248786926], [5.662243366241455, -5.194281101226807, 4.273190498352051, 3.9217710494995117, -0.8833972215652466, -7.039334774017334, 6.155491352081299, -3.184887647628784, 2.6466007232666016, -4.32988977432251, 0.48943695425987244, -0.5081184506416321, -4.769089698791504, -3.2794058322906494, 2.862938642501831, 5.910367488861084], [4.041039943695068, -3.2231457233428955, -0.08503348380327225, -0.021703965961933136, -0.6479828953742981, 0.03951343894004822, -3.0638298988342285, -1.1896510124206543, -0.820722758769989, -1.7383058071136475, -3.847576141357422, -0.4165418744087219, 4.311553001403809, -0.7151506543159485, -4.296011924743652, 4.2898173332214355], [0.07522070407867432, -0.07943534851074219, 0.004224099218845367, 0.07216392457485199, -0.024011053144931793, 0.038983702659606934, -0.07827965915203094, -0.01710466295480728, -0.02578984946012497, -0.05969662219285965, -0.08151285350322723, -0.07144546508789062, -0.010306008160114288, 0.07475383579730988, -0.04698776453733444, 0.011099934577941895], [-0.0807584896683693, -0.018994048237800598, 0.07668308913707733, 0.05458174645900726, 0.05782577395439148, -0.06077735871076584, 0.06676375865936279, 0.05160608887672424, -0.07158921658992767, 0.07448877394199371, 0.02231321483850479, 0.0592673122882843, -0.03415549546480179, 0.026076458394527435, -0.03699628263711929, -0.04424243047833443], [4.517712593078613, -0.8774710893630981, -0.5635641813278198, -3.1828575134277344, 2.4623591899871826, -1.0002907514572144, -4.87945032119751, -1.5744562149047852, -1.3833922147750854, 4.132826328277588, -1.2907158136367798, 1.202871561050415, -0.24889035522937775, 1.8692766427993774, 1.6452022790908813, 0.842363178730011], [4.435094833374023, -0.6415325999259949, -0.1668274700641632, 2.024796485900879, -1.5484800338745117, 4.836901664733887, 0.8030466437339783, 2.573866367340088, -0.770294725894928, -0.6014590859413147, 0.2698424756526947, -0.17243510484695435, -2.5373568534851074, 3.293294668197632, -4.815890789031982, -0.935086190700531], [5.28292989730835, 1.070029377937317, 5.168927192687988, -6.5652384757995605, -3.5804948806762695, 1.2161459922790527, 1.9098265171051025, -6.643029689788818, 2.3250679969787598, -2.679884672164917, 0.3174663782119751, -2.6870458126068115, -2.0554192066192627, 0.773982048034668, -0.9528440237045288, 2.7960095405578613], [1.1510833501815796, -0.7206069827079773, 0.5453455448150635, 2.7274858951568604, -0.3709753155708313, -0.8521275520324707, -1.590714454650879, -3.1903531551361084, -7.571640968322754, 2.256624221801758, -2.774872303009033, 1.5819741487503052, 5.37391471862793, 1.9298040866851807, -1.3744438886642456, -3.512598991394043], [2.7843730449676514, -3.127843141555786, 1.4129878282546997, -0.4820444881916046, 0.779888391494751, -0.9900780320167542, 0.9013065695762634, 0.5751638412475586, -5.719244956970215, 1.6713213920593262, -0.512366533279419, 2.4194552898406982, 1.453265905380249, 0.22168560326099396, 0.6367401480674744, 0.5075767636299133], [0.6202332973480225, -0.4091544449329376, 0.27411332726478577, -0.3016844689846039, -0.507449746131897, 0.8365081548690796, -0.22813458740711212, 0.15141795575618744, 1.3044276237487793, -1.3194100856781006, 0.9377161860466003, 1.1657058000564575, -1.515407919883728, 0.35674232244491577, -0.025602860376238823, 1.640350580215454], [0.38264134526252747, 0.699277400970459, -1.227307677268982, 0.4505009651184082, -0.2536284923553467, 0.4990306496620178, -0.8219513893127441, 0.7976099848747253, -2.4361350536346436, 0.19682151079177856, 0.8052508234977722, -0.2826502323150635, -1.6679942607879639, -0.5872429013252258, 1.9681546688079834, -2.6368110179901123], [-0.443708598613739, 0.2786516547203064, 1.0792535543441772, -1.1193879842758179, -0.5911194682121277, -2.0840582847595215, 0.3924034833908081, 1.0543924570083618, -0.8661065697669983, 0.17978933453559875, -0.2706593871116638, -1.5970529317855835, 0.0169326514005661, -0.06511007994413376, 0.04832705482840538, -0.7185733318328857], [-0.10342975705862045, -1.2968803644180298, -0.07924049347639084, 1.6405755281448364, 1.8222053050994873, 1.263655424118042, 0.8551306128501892, 1.2426955699920654, -1.4554429054260254, -1.103185772895813, 0.1460021585226059, -1.5438965559005737, 0.616908609867096, -0.039192307740449905, -1.6965972185134888, -0.677094042301178], [-0.8374955058097839, -2.8675284385681152, 0.7213436961174011, -1.0989947319030762, -0.6573631763458252, 0.7240356206893921, -1.0036871433258057, -0.4975375831127167, -1.648126244544983, -1.1652153730392456, 1.9940310716629028, 0.7193053364753723, -0.8519632816314697, 0.6492617130279541, 0.42861518263816833, 0.3317197561264038], [0.20113115012645721, 0.2816266417503357, 0.9291803240776062, -0.2213210016489029, 1.358201026916504, -0.34259817004203796, 0.09546253085136414, -0.11869247257709503, -1.5905601978302002, 0.09127530455589294, 1.0755635499954224, -0.24393320083618164, -0.5556530356407166, 0.3631398677825928, 1.5854384899139404, 0.3667549192905426], [0.15692304074764252, 0.29162704944610596, 0.17462961375713348, 0.4693593680858612, -1.3327256441116333, 0.5213508605957031, -0.11716245859861374, 0.43135198950767517, -1.610572099685669, 0.5401408672332764, 1.2697514295578003, -0.21959690749645233, -1.5561726093292236, -0.1345110833644867, 0.687623918056488, -0.38304463028907776], [0.48872995376586914, -0.4219566583633423, -0.6231712698936462, -0.23941141366958618, -0.563892662525177, -0.35519030690193176, 0.47579944133758545, -1.047533631324768, -0.8844845294952393, -0.7083929181098938, 0.9398374557495117, -0.17266452312469482, -1.4179911613464355, -0.01210067979991436, -0.31529921293258667, 0.25432315468788147], [-0.4662884771823883, 0.004568554926663637, 0.7780842781066895, -0.1446865200996399, 0.38886332511901855, 0.07005131989717484, -0.6036927103996277, 1.360759973526001, -1.2377879619598389, 0.8000001907348633, 0.39885765314102173, -0.45765626430511475, 0.9008635878562927, 0.0498332679271698, 0.07352123409509659, 0.5665742754936218], [0.4221034646034241, -0.7859061360359192, 0.5883798003196716, -0.12748540937900543, 1.4084739685058594, 0.8726035356521606, 1.7089877128601074, -0.21249401569366455, -0.30845367908477783, 1.6667625904083252, 1.0882600545883179, 0.8614041209220886, -0.82228022813797, 0.13751128315925598, 0.14306290447711945, -0.9118963479995728], [0.9681451916694641, 0.3187594711780548, -0.20008210837841034, 0.1369987428188324, -1.1573210954666138, 0.6703075766563416, 0.8207225799560547, -0.5302143096923828, -0.764504611492157, -0.4237125515937805, -0.3663799464702606, -0.2549133002758026, -0.13216978311538696, -0.5990594029426575, -0.32892027497291565, 0.5169365406036377], [-0.8695387840270996, -1.2200298309326172, -0.9602130651473999, 1.0718201398849487, 0.6079215407371521, 0.6664000153541565, 1.0863076448440552, 1.0826565027236938, 0.4710797965526581, 1.6032757759094238, 1.037719964981079, 0.4871923625469208, -0.2660973370075226, -0.2517406642436981, -0.5733814835548401, -0.1037471741437912], [0.1081540584564209, -2.058932304382324, -0.23121444880962372, -0.19686579704284668, -0.6092959642410278, -0.506428599357605, 1.2564162015914917, -0.9346088171005249, -0.2599391043186188, 1.643877387046814, -1.435372233390808, -1.1530799865722656, 0.8729549050331116, 0.03825452923774719, -1.268822431564331, 0.8252271413803101], [-0.2145823836326599, 0.442658931016922, 0.9252609014511108, -1.063151478767395, -0.22578370571136475, 0.813609778881073, -0.4121614992618561, 0.06469479948282242, 0.6142476797103882, 0.1347348541021347, 0.8005627393722534, 1.5700161457061768, -1.1102192401885986, -1.7531263828277588, -0.7333974242210388, 1.627130389213562], [0.9649028182029724, 0.7220438718795776, -0.9575834274291992, 0.8311439752578735, -0.557866096496582, 0.9537101984024048, 1.232080340385437, -1.7674416303634644, -0.48166778683662415, -0.07968487590551376, 0.21869544684886932, -0.4942862093448639, 0.08489321917295456, -0.849538266658783, -0.23566964268684387, -0.7699608206748962], [0.22389665246009827, -1.5704163312911987, 0.18573909997940063, 0.567387580871582, -0.21414390206336975, 0.8141888380050659, 1.1860562562942505, -1.033325433731079, 0.5024793744087219, 2.345200777053833, 1.0015997886657715, -0.7512658834457397, 0.5606982111930847, -1.8155306577682495, -1.9069143533706665, -1.3692705631256104], [0.20438770949840546, -0.7970007658004761, 2.39383864402771, 0.4559841454029083, 1.7528464794158936, -0.2603728771209717, 0.8512365221977234, 0.25189220905303955, -2.540707588195801, 0.07137706875801086, -1.851865291595459, 1.2046741247177124, -0.39449572563171387, -2.7464568614959717, -2.5098729133605957, -2.7735190391540527], [1.3624773025512695, 1.969546914100647, -3.3707399368286133, -5.124492645263672, 0.35677987337112427, 1.3911404609680176, 0.049143023788928986, -0.4975328743457794, 0.5918139219284058, 0.3633987605571747, 1.4826140403747559, -1.7464979887008667, -0.36812296509742737, -0.38700205087661743, -0.7220961451530457, -2.01159405708313], [-0.9089328050613403, -0.9771865606307983, 1.1865960359573364, -2.589362144470215, 3.9242966175079346, 1.296053409576416, -1.1270244121551514, 2.669588088989258, 1.9333884716033936, -1.9284535646438599, 2.0696568489074707, -1.0928786993026733, -0.6070550680160522, -1.2069751024246216, 2.4851326942443848, 1.8102179765701294], [2.2790942192077637, 2.600813865661621, -0.25999897718429565, -3.585996389389038, -2.169466495513916, -0.4897003173828125, 8.745108604431152, -3.8730859756469727, 1.499866008758545, 4.610244274139404, 7.188721179962158, -1.2324284315109253, 1.9196923971176147, -2.942294120788574, -0.2617470622062683, 3.28316593170166], [4.157556533813477, -2.377551794052124, -0.17321334779262543, -1.0973421335220337, 0.13427357375621796, 1.3623788356781006, -3.2083981037139893, -1.9310075044631958, 0.13518044352531433, -0.9312578439712524, -3.482862949371338, -0.43594250082969666, 3.9133408069610596, -0.8321377635002136, -3.9104108810424805, 3.7941887378692627], [0.06334951519966125, -0.044477153569459915, 0.07040344178676605, -0.019747808575630188, -0.02781587839126587, -0.0005039870738983154, 0.011377722024917603, 0.04290056228637695, -0.0761687234044075, 0.06894327700138092, 0.06155994534492493, 0.05207972228527069, 0.009657792747020721, -0.05309436842799187, 0.08030432462692261, 0.0046594515442848206], [0.5686870217323303, -0.06708038598299026, 0.3965323567390442, 0.009862144477665424, -0.16389566659927368, 0.3282391428947449, 0.2191992849111557, -0.32843735814094543, 0.49453964829444885, 0.3315924108028412, 0.1936848759651184, 0.6007252931594849, -0.5217589139938354, 0.2759120762348175, -0.251469224691391, 0.22207334637641907], [-2.2040035724639893, -0.16756963729858398, 3.0564017295837402, 3.8546950817108154, 0.7146940231323242, -0.636723518371582, 1.6892640590667725, -3.3827290534973145, -4.164772987365723, 1.2303491830825806, 1.15996515750885, -2.6281754970550537, 1.7644009590148926, 1.8918262720108032, 5.945741176605225, -0.09508614987134933], [2.9687905311584473, 1.2112064361572266, -2.5314764976501465, -1.2561721801757812, 0.20364335179328918, -3.647634983062744, 1.6014271974563599, -3.6106207370758057, 2.511775016784668, 1.4172402620315552, -4.684133052825928, -2.097745180130005, -2.0773262977600098, 1.4740759134292603, -0.1336406171321869, -0.2495565265417099], [0.44471555948257446, 4.671619892120361, -1.83295738697052, -0.3600749671459198, 3.0654757022857666, 0.09041070938110352, -0.558811366558075, -0.5264756083488464, 1.5898268222808838, -1.3610678911209106, -3.1230039596557617, 3.167056083679199, 0.8365626931190491, 0.221047043800354, 2.116773843765259, 2.1617465019226074], [-1.9796059131622314, -0.8212202191352844, -1.5584425926208496, 0.9343400597572327, -0.9087166786193848, -0.3332061767578125, 0.6863185167312622, 0.14392244815826416, -0.3349286913871765, 2.9143552780151367, -3.34767484664917, 1.3121768236160278, -0.6492680311203003, 1.111371636390686, 1.8976408243179321, 2.192552328109741], [-0.5375165939331055, 1.4051604270935059, -0.278939813375473, 0.17624466121196747, 0.8527668118476868, 1.9725059270858765, -0.8619400262832642, 0.16839715838432312, 0.06731221079826355, -1.1845849752426147, 1.2829346656799316, 1.481389045715332, 3.485193967819214, 1.8089685440063477, 0.9229264855384827, 1.4441161155700684], [0.08149221539497375, -1.5087083578109741, 0.35178887844085693, 0.45222756266593933, 1.59145188331604, -1.5514942407608032, -0.943545401096344, -0.5399442911148071, -1.660688042640686, -0.3945330083370209, 2.06227970123291, 0.8701282143592834, 0.7810159921646118, 0.345643550157547, 0.03704845905303955, 0.41045424342155457], [0.10672193020582199, 0.7926408648490906, -0.05624924972653389, 0.46360331773757935, -0.31498605012893677, 1.273305892944336, 0.7340734601020813, -0.33318573236465454, -2.7272517681121826, 1.2931344509124756, 0.9883365035057068, 0.03780483454465866, -0.9712743163108826, 1.6893367767333984, 1.2636268138885498, -0.8537993431091309], [-0.8411557078361511, -0.4987800121307373, 0.5561034679412842, 0.008011173456907272, 1.8318415880203247, -0.46487465500831604, 0.21264494955539703, 0.4752500057220459, 1.0192087888717651, -2.6637966632843018, 0.818211019039154, 0.8371520042419434, -2.3321533203125, -0.30968302488327026, 0.27390411496162415, 0.041487522423267365], [0.6969934701919556, -1.1640068292617798, 1.18107271194458, -0.10295397788286209, -0.7412505149841309, 0.8293470144271851, -0.07537201792001724, -2.0215911865234375, 0.20319266617298126, 1.2259883880615234, 1.5522934198379517, 0.8488644957542419, 0.3280702829360962, 1.0455187559127808, 0.21086782217025757, -1.0362036228179932], [-0.4111933410167694, 2.1709187030792236, 0.004039792809635401, 0.37890052795410156, -0.8803797960281372, -0.32652992010116577, 0.22306127846240997, 1.302607774734497, -1.5980230569839478, 0.17044289410114288, -0.23734822869300842, 0.3575810194015503, -1.9569271802902222, -0.942631721496582, 1.5577075481414795, 1.0390688180923462], [-0.22418759763240814, -1.5548324584960938, -0.6131553053855896, -1.0811779499053955, -0.6507463455200195, 0.11257969588041306, 0.3857501149177551, 0.09028105437755585, 0.031851887702941895, -0.28486326336860657, 2.492100715637207, -0.16228649020195007, 0.502817690372467, -0.6704183220863342, -0.9091988801956177, -0.7117488980293274], [0.10260803997516632, -0.5437396764755249, 0.9516308903694153, -0.29713472723960876, -0.8446929454803467, 0.32828477025032043, -0.8788866400718689, -0.7655179500579834, -0.8408482074737549, -0.3580344617366791, 0.7130329608917236, 0.46418410539627075, 0.07706567645072937, -0.2565480172634125, 0.556524932384491, -0.5719460844993591], [-0.3917684555053711, -0.32841020822525024, -0.2361394464969635, 0.6820665597915649, -0.23242272436618805, 0.03156282380223274, -0.4174865186214447, 0.1899629384279251, 0.06063828989863396, 0.3955700695514679, 0.29086291790008545, 0.14629481732845306, 0.7698004245758057, 0.10218074917793274, -0.33613312244415283, -0.6104686856269836], [0.42023375630378723, -1.3137505054473877, 0.15975192189216614, -0.7514731287956238, 0.996295690536499, 0.3075984716415405, 0.12506502866744995, -0.6981760263442993, -0.2532597482204437, -0.2008289098739624, 1.8403860330581665, -0.2795546054840088, 0.03944713622331619, -0.1503581553697586, -0.010382543317973614, 0.40513503551483154], [0.5479064583778381, -0.4524462819099426, 0.5700446367263794, 0.7742876410484314, -0.7189082503318787, 0.9087392091751099, -0.3722856938838959, -0.006265498232096434, -0.7130087018013, 0.02781553566455841, 1.5320030450820923, 0.34867429733276367, 0.2708183526992798, 0.6250692009925842, 0.7896042466163635, 0.9098383784294128], [-0.3534969687461853, -0.6585026383399963, -0.8578147888183594, 0.2722473740577698, -0.1480024755001068, 0.5210230350494385, -0.40717780590057373, -0.18677698075771332, 0.1686909794807434, 0.250935822725296, 1.4528712034225464, -0.011877934448421001, -0.7410159111022949, 0.025623317807912827, 0.6154652237892151, -0.12431936711072922], [-1.9226312637329102, -0.011781693436205387, 0.7476219534873962, -1.4239113330841064, -0.8850356340408325, -0.9686764478683472, 0.13872580230236053, -1.728067398071289, 0.272394597530365, 2.314709186553955, 0.4642218053340912, 0.47935914993286133, 1.1409153938293457, -1.9986284971237183, 0.4054381251335144, -0.3770062029361725], [0.6961222887039185, 1.6650745868682861, -0.7429177761077881, -0.19599758088588715, 0.8872657418251038, 1.4485442638397217, 0.7760351300239563, -0.39638638496398926, -0.19051843881607056, 0.47806087136268616, 0.34030234813690186, 0.18948666751384735, 0.07311072200536728, -0.22221453487873077, -0.1567186713218689, -0.09112966805696487], [-0.6983736157417297, -1.6073638200759888, 0.34806498885154724, -0.16409000754356384, -0.994807779788971, -1.232657790184021, 0.4777103662490845, -1.0366084575653076, 1.015835165977478, -0.28191545605659485, 0.6234807372093201, -0.2949678897857666, 0.7945873141288757, -1.280503273010254, 0.4940178692340851, 0.6811543703079224], [-1.0215833187103271, -0.1977258175611496, 0.07604870945215225, -0.269819051027298, 0.8296258449554443, -0.09649212658405304, -0.15079374611377716, 0.027849944308400154, -0.3482414186000824, 0.17208850383758545, -1.4076606035232544, -0.665773868560791, 0.8732132315635681, 2.1009063720703125, -0.7947974801063538, -1.2607494592666626], [-0.7364668846130371, -0.1120879203081131, -0.5066088438034058, -0.7950766682624817, -0.3746282458305359, -0.33939144015312195, 0.03679583966732025, 0.6614983081817627, -1.2740505933761597, -0.8830474615097046, 1.6112322807312012, 2.59309983253479, -0.6023942828178406, 1.008517861366272, 0.5699123740196228, -0.9358705282211304], [-0.6288670301437378, -1.972231149673462, 1.4776443243026733, -0.9001437425613403, -0.06488213688135147, 0.022019892930984497, 0.8632580637931824, -0.16955013573169708, 1.6819602251052856, -1.0065696239471436, 0.33241385221481323, 0.09095119684934616, 0.4139544665813446, 0.9738503694534302, 0.9694684147834778, 0.9528915882110596], [-0.06745284050703049, -1.7914366722106934, 0.7114893198013306, -0.5305537581443787, 0.39643150568008423, -0.6733987927436829, 0.2467801868915558, -1.9201315641403198, -1.4247393608093262, -2.1077773571014404, 1.667831301689148, 0.07900077849626541, 2.5041637420654297, 0.043197326362133026, -0.8556267023086548, -0.302860826253891], [-0.6994593143463135, 2.215749979019165, -0.45998066663742065, 3.251957416534424, -2.212460517883301, 1.309496283531189, 3.0907206535339355, -3.5876147747039795, 0.7506961822509766, -1.238808035850525, -5.422979354858398, -2.182673692703247, -3.8820579051971436, -4.301220893859863, 0.5497885346412659, 0.48659342527389526], [3.449124813079834, -1.0553237199783325, -2.2816503047943115, 1.998570203781128, 1.7812062501907349, 0.495598167181015, 8.837623596191406, -0.4175648093223572, -3.6140663623809814, 0.20685678720474243, 4.729122161865234, -6.119345664978027, 2.374300479888916, 0.19745121896266937, 2.2242119312286377, -5.416224479675293], [-4.796568870544434, 1.4163014888763428, 9.167646408081055, -6.354280948638916, -0.9781060814857483, -0.2210693061351776, 5.076634883880615, 5.479379177093506, 4.8902974128723145, 0.16015708446502686, 3.863002061843872, -0.6103007197380066, 3.602908134460449, -3.4271788597106934, -0.19785328209400177, 4.535802841186523], [-0.024659089744091034, 0.05787346512079239, -0.08329443633556366, 0.0906074121594429, 0.05540750175714493, -0.06880871951580048, 0.002694542519748211, -0.0689602643251419, 0.06201048195362091, 0.07223536819219589, 0.05777813866734505, -0.0004997068317607045, -0.03457023203372955, -0.027091052383184433, -0.028205526992678642, -0.0653069019317627], [0.2132381647825241, 1.538878083229065, 0.8845897316932678, 0.04786452278494835, 1.6416246891021729, 0.6895318031311035, 1.5770678520202637, 0.7436609268188477, 4.338192939758301, 1.2307754755020142, -0.9840851426124573, 0.8293341398239136, -1.5139122009277344, 3.8788604736328125, 2.3450350761413574, -2.382014513015747], [0.8964098691940308, 2.11277174949646, 1.654247522354126, -4.041615962982178, 0.2619614899158478, 8.58804988861084, -0.6641440391540527, 0.12323472648859024, 3.1263082027435303, -3.683358669281006, 3.6303629875183105, 2.961862802505493, 2.800534248352051, -0.9914201498031616, 0.41581466794013977, 0.3797176480293274], [0.23954899609088898, 2.507023811340332, -3.025942087173462, -1.2391867637634277, 2.4338676929473877, -0.7338616847991943, -1.0818918943405151, -2.8738315105438232, 6.900060176849365, 3.5206997394561768, 0.5389693975448608, -0.1291949301958084, -2.746323347091675, 3.311203956604004, 2.8730947971343994, -1.452385663986206], [2.8226144313812256, -0.27280741930007935, 1.8216803073883057, -0.5584782361984253, 3.2081596851348877, -2.243204355239868, -3.149892807006836, -0.9389411211013794, 0.3173810839653015, 1.1550167798995972, 1.2810524702072144, 2.7563750743865967, 3.690582036972046, -0.22795644402503967, -1.7669384479522705, 4.0501708984375], [2.664353370666504, -0.9265196323394775, 2.397127628326416, 1.5076075792312622, -0.9115392565727234, -0.20765866339206696, 1.2991317510604858, 0.18251892924308777, -0.2632829546928406, 0.9505006670951843, 1.2425798177719116, -0.5641477108001709, -0.07068268209695816, 0.39451050758361816, -2.713624954223633, -0.49362292885780334], [-0.3999587595462799, 1.2745236158370972, 0.35560983419418335, 1.1014138460159302, 1.288757085800171, 0.39879342913627625, -0.7650318145751953, -1.455137848854065, -0.21848353743553162, 0.45913660526275635, 1.9594128131866455, -0.8548988699913025, -1.9268879890441895, 1.8208762407302856, 1.4502456188201904, -1.1698442697525024], [0.08136461675167084, 0.5239943861961365, 1.2727701663970947, 0.008106433786451817, 0.004359588958323002, 0.4629824459552765, 0.13425952196121216, 2.0823709964752197, 0.7022575736045837, 0.6395983695983887, 0.6269248127937317, 0.11170259863138199, 0.447020560503006, 0.7201690673828125, -1.1113452911376953, 0.006740034092217684], [-0.9328941702842712, 0.37481728196144104, 0.5316699743270874, -0.27483808994293213, -0.6099573373794556, -0.7572672367095947, 0.3389773368835449, 0.6138051748275757, 0.9635346531867981, 0.07904601842164993, -0.961916446685791, 1.1636481285095215, -0.5030778646469116, 0.5654116868972778, -0.19740092754364014, 1.2760179042816162], [-0.40725177526474, -1.0847965478897095, -0.31255605816841125, 0.4690207540988922, 1.0849592685699463, -0.6707862019538879, -0.205037459731102, 1.2347966432571411, 0.7516413331031799, -0.18967565894126892, 0.036967452615499496, -0.9812897443771362, 0.060623668134212494, 0.9894189834594727, -0.48154380917549133, -0.19793875515460968], [-0.03880323842167854, 0.49980002641677856, 0.05197787284851074, 0.5342153310775757, -0.7149926424026489, 0.025487728416919708, 0.8871703147888184, -0.5718780755996704, 0.017624694854021072, 0.9766585826873779, 0.04806765541434288, 0.456763356924057, 0.27244672179222107, -0.6727257966995239, 0.628684401512146, -0.7926140427589417], [-0.3947629928588867, -0.861319899559021, -0.5622710585594177, 0.9742159247398376, -0.22373296320438385, 0.40027162432670593, -0.9561911821365356, -1.1965961456298828, -0.6298480033874512, -0.722239077091217, 0.9168300628662109, 0.1615518182516098, -0.6528287529945374, 0.1533932387828827, -0.6989875435829163, -0.16806195676326752], [-0.1660909503698349, -0.28391918540000916, -0.14936058223247528, 0.1720222681760788, 0.4696713089942932, 0.7677878737449646, -0.4927654564380646, -0.7509522438049316, 0.6945555806159973, 0.1209830790758133, 0.5136144757270813, 0.14799104630947113, 0.5799165368080139, 0.4427395761013031, -0.11723505705595016, -0.9268049597740173], [-0.48014727234840393, -0.0021513416431844234, -0.45723897218704224, -0.8298462629318237, -1.2465614080429077, -0.004358081612735987, -0.06457231193780899, -0.8505397439002991, 0.48123374581336975, -0.437845379114151, 1.2904036045074463, 0.3514729142189026, -0.6478465795516968, 1.0280911922454834, 0.2359321415424347, 0.2731076776981354], [0.11302030831575394, -0.10529322177171707, 0.9357338547706604, 0.3232634961605072, 1.3485242128372192, 0.43886932730674744, -0.5232300758361816, 0.06320247799158096, -0.5170804858207703, -0.2333870828151703, 1.5568442344665527, 0.254000186920166, -0.1341697871685028, -0.9339836239814758, -0.7102468609809875, 0.3480890095233917], [-0.16046088933944702, -0.17880181968212128, -0.0022392659448087215, -0.15811508893966675, -1.2469300031661987, -0.6867173910140991, -0.18423141539096832, -0.23759885132312775, 0.14186620712280273, 0.19376175105571747, 1.3908319473266602, -0.20930728316307068, 0.5928308367729187, 1.2712961435317993, 0.6549533009529114, 0.46835970878601074], [0.5467143058776855, -0.4107773005962372, 0.11548636108636856, 0.2219688594341278, 0.04617922380566597, 0.5277866125106812, -0.44099026918411255, -0.2935100495815277, 0.32102248072624207, 1.5590434074401855, 0.7164099812507629, 0.14921800792217255, 0.40440064668655396, -1.6158113479614258, 0.15850995481014252, -0.09184373915195465], [-0.14198188483715057, -0.037128206342458725, -0.49604007601737976, -0.5190255045890808, 0.3876633942127228, 0.2734650671482086, -0.1368129700422287, 1.0059618949890137, 0.028657354414463043, -0.614514946937561, -0.26795223355293274, 0.0774528831243515, 1.4274094104766846, 1.3251287937164307, -0.16362597048282623, -0.37490326166152954], [-0.5818105936050415, -0.320780485868454, 0.6981292963027954, 0.8739381432533264, -0.47771155834198, -0.41361621022224426, 1.6871509552001953, 1.016507863998413, 0.5003406405448914, 0.681028425693512, 0.26178309321403503, -0.188174769282341, 0.024347659200429916, 1.3871194124221802, 0.26990145444869995, -0.10394060611724854], [-0.9539839029312134, -1.269866943359375, -0.7143315672874451, 0.3773798644542694, 1.2496103048324585, 1.111226201057434, 1.2552870512008667, -0.43010658025741577, 0.028363360092043877, 2.369969367980957, -0.30940383672714233, 0.14737340807914734, 1.3530687093734741, -1.0911012887954712, -1.0025068521499634, 0.5271803736686707], [-0.5706411600112915, -0.1452009081840515, 1.5047216415405273, 1.3177217245101929, -0.39167678356170654, 0.09380056709051132, 1.1186094284057617, 0.5535134077072144, 0.6578735113143921, 0.5215207934379578, -1.2884503602981567, 0.8495882749557495, 1.1600897312164307, 0.4944456219673157, 1.109157681465149, -0.23047345876693726], [-0.07933502644300461, -0.9702397584915161, 0.4334529638290405, 0.8263522386550903, 0.9402458667755127, -1.3920514583587646, 0.20997712016105652, -0.2552035450935364, 0.037999361753463745, 1.1811782121658325, 1.3099517822265625, -0.5081223249435425, 1.0447139739990234, -1.1124111413955688, 0.08048583567142487, -1.728402853012085], [1.4246488809585571, 0.634488582611084, -1.9299278259277344, -1.9384791851043701, 1.7028367519378662, 0.8401496410369873, 0.670638382434845, -0.30172666907310486, 0.07313189655542374, 0.8181275129318237, 0.6717990040779114, -1.3893040418624878, 2.23681902885437, 0.23705556988716125, -0.40830373764038086, -0.06078239530324936], [0.8577038049697876, -0.14098550379276276, -2.1966192722320557, -1.2334961891174316, -0.35136285424232483, 0.2453363984823227, 0.9655236005783081, 0.7937279939651489, -0.9701939225196838, 0.4324477016925812, -2.1417016983032227, -0.24941891431808472, 3.7498528957366943, 2.6006126403808594, 2.1361560821533203, -3.4607956409454346], [-0.21137820184230804, -1.7687597274780273, 2.7801904678344727, 0.47032371163368225, -0.15666887164115906, 2.6884610652923584, 0.9057924747467041, 0.925085723400116, -0.6194301247596741, -0.2914707660675049, -4.037677764892578, 0.9316972494125366, 0.15709595382213593, 2.965710163116455, -1.3241266012191772, -0.3917311728000641], [-2.73930287361145, -0.5292659997940063, -1.0910817384719849, 2.7328498363494873, -2.2969419956207275, -0.012600494548678398, -2.8205769062042236, -3.1425013542175293, 0.5475165247917175, 0.21763378381729126, -1.7626475095748901, -1.7573485374450684, -2.573408842086792, -2.338141918182373, -3.850172758102417, 0.49074098467826843], [-0.147114098072052, 0.050704263150691986, 2.237522602081299, -3.517287015914917, 3.038776397705078, 2.4112932682037354, 8.119380950927734, -2.1894190311431885, -0.2859030067920685, -0.2709672451019287, -1.0821672677993774, -1.3185300827026367, 4.459034442901611, 1.6453005075454712, 3.4445953369140625, 0.59857577085495], [-5.537755966186523, 3.106464385986328, 6.9850664138793945, -2.840223789215088, -3.9479308128356934, 1.0580828189849854, 6.888210773468018, 3.8474719524383545, 3.5322303771972656, -3.1232364177703857, 2.115004539489746, -1.1183871030807495, 4.8346381187438965, -5.392307281494141, 0.5780465602874756, 8.061607360839844], [4.6463212966918945, 1.242080569267273, 0.00021340459352359176, 0.2921557128429413, -6.2925567626953125, -0.019075555726885796, 6.179214000701904, 3.5993666648864746, -6.130439281463623, 5.014986991882324, 0.06339417397975922, -0.11090437322854996, 0.11422357708215714, 6.072541236877441, -0.9683354496955872, 0.5092160105705261], [2.682314157485962, -3.7020962238311768, -0.6243215799331665, 2.960712194442749, -0.09103047847747803, 0.31514567136764526, 3.3873634338378906, 0.03835165873169899, 0.3051950931549072, -2.6788220405578613, -1.1117314100265503, 0.8681067824363708, -5.35798454284668, -1.5513256788253784, -1.3331114053726196, 1.4460417032241821], [-4.0031538009643555, 4.157631874084473, -0.43071475625038147, 2.1803805828094482, 0.1046437993645668, -0.597634494304657, 1.5444117784500122, 3.3186590671539307, 6.055851459503174, -5.450960636138916, 4.030688762664795, -3.7892746925354004, 0.1819474846124649, 4.274904251098633, 1.823732614517212, 0.45170858502388], [-1.6470204591751099, 2.5684919357299805, 0.4798305034637451, -0.42677509784698486, 1.6380559206008911, -1.2160011529922485, 2.504019021987915, -0.6561311483383179, -3.213486909866333, -2.020719528198242, -0.5739054083824158, -1.300977110862732, 1.2322192192077637, 3.8509268760681152, 5.945071697235107, -0.6272211074829102], [-0.1654551923274994, -0.462626188993454, -1.073469877243042, 0.9036546945571899, 2.597884178161621, -0.4895665943622589, -2.3101577758789062, 0.19054776430130005, 0.8494922518730164, -6.658664226531982, 2.7410714626312256, -0.6371185779571533, -2.0429885387420654, 0.4236518442630768, 3.0051109790802, 0.8099414110183716], [-0.36256104707717896, 1.2572085857391357, 0.5013313889503479, 0.8358765840530396, 0.08650699257850647, 1.6469871997833252, 1.143758773803711, -0.3671149015426636, 0.6972322463989258, -2.5665781497955322, -2.1195778846740723, 1.498119592666626, 0.3201931118965149, 2.282650947570801, 0.30097272992134094, -0.2919701635837555], [1.0241459608078003, -0.7293769717216492, 0.23254971206188202, 0.8904674053192139, -1.2271699905395508, -0.413888156414032, 1.0888713598251343, 1.3296787738800049, -0.14278002083301544, 0.15490970015525818, -1.1949466466903687, -1.5380182266235352, 0.8741010427474976, 1.1178804636001587, 1.14088773727417, -0.5829864144325256], [2.4499118328094482, -0.710767388343811, -1.0539199113845825, 0.24368053674697876, 0.5200003385543823, 0.39430493116378784, 1.5028603076934814, 0.7616686820983887, 0.7541297078132629, -0.6360039710998535, -1.3310322761535645, 0.0840788409113884, 0.8363362550735474, -1.0170681476593018, 1.4701292514801025, -1.2145651578903198], [-0.5406773090362549, -0.018972937017679214, -0.14611241221427917, 1.013856053352356, -0.20777790248394012, -0.6521342396736145, -0.5732569098472595, -2.413435697555542, -0.2579891085624695, -0.9977501630783081, 3.5527288913726807, 0.2387509047985077, -0.003892655950039625, -0.35320544242858887, 1.3988258838653564, -1.4444081783294678], [-0.14484110474586487, -0.7573535442352295, 0.9357547760009766, -0.21685658395290375, -0.13888521492481232, 0.769501805305481, 0.722089946269989, -0.49728551506996155, -0.7369967699050903, 0.41001445055007935, -0.01644481159746647, 0.5761569738388062, -0.08722514659166336, -0.7779098749160767, 0.21520477533340454, -0.385511189699173], [-0.6719127893447876, -0.4004446566104889, -0.4243221879005432, 0.5258362293243408, -0.6380693316459656, -0.44791311025619507, 0.12901583313941956, 1.4336336851119995, 1.0851062536239624, -0.6917378902435303, -0.720788836479187, 0.492320716381073, -0.6978840231895447, 0.6677166223526001, 0.7544292211532593, -0.9144946336746216], [-1.535788893699646, -1.0010749101638794, 0.35346150398254395, 0.39833730459213257, -0.5113598704338074, -0.04576382040977478, 0.9009495973587036, -0.17586645483970642, 1.4384020566940308, -0.48648208379745483, 0.6427323222160339, 1.2164032459259033, -0.7814044952392578, -0.41097620129585266, 1.018355369567871, -0.05731447786092758], [0.4636520743370056, -0.05652817338705063, 0.5788471102714539, 0.681087076663971, -0.1303984671831131, -0.2719249129295349, 0.6888486742973328, -0.17127567529678345, -0.6106746792793274, -0.0597018264234066, 0.26403024792671204, -0.4790273606777191, 0.8035650849342346, 0.055620744824409485, -0.6812388300895691, -0.9849029183387756], [-0.3841519355773926, -0.4482191205024719, 0.906510055065155, -1.2714515924453735, -0.45087629556655884, -0.33408480882644653, -0.00867372378706932, 0.8300482630729675, 1.0360438823699951, -0.8747794032096863, 0.7676481008529663, 0.28178271651268005, 0.5721920132637024, -0.13894063234329224, 0.8457448482513428, -0.3247547447681427], [1.0461857318878174, -0.5202574133872986, -0.9690369963645935, 0.7994531393051147, -0.5215064287185669, 0.8138809204101562, -1.2573009729385376, -1.6665948629379272, -0.6296760439872742, -0.4689105451107025, 1.0939240455627441, 0.8713475465774536, 0.7029843926429749, 0.6700748801231384, -0.24635149538516998, -0.5204421877861023], [0.34015873074531555, -1.0569144487380981, -0.17079266905784607, 1.2130732536315918, -0.6729053258895874, 0.8405141234397888, -0.18338187038898468, 0.5218412280082703, -0.30211296677589417, 0.08103210479021072, 1.0028802156448364, 0.31758251786231995, 0.5798336863517761, 0.9342283606529236, 0.13728418946266174, -0.31696194410324097], [-0.5301849246025085, 0.5942303538322449, 0.16930316388607025, -0.7704533934593201, -0.6469719409942627, 0.35329779982566833, 0.24257053434848785, -0.2878020703792572, 1.4715214967727661, 1.0993459224700928, 0.3827104866504669, -0.4279676079750061, 0.39987435936927795, 1.604673147201538, -0.21790121495723724, 0.0024515914265066385], [0.2982730269432068, -0.9187111854553223, 0.328983336687088, 0.18151739239692688, -0.009706150740385056, -1.707903265953064, 0.9093791842460632, -0.1226213276386261, 0.2880789041519165, -0.10365482419729233, -0.3550899922847748, 1.7487268447875977, 1.2470532655715942, -0.028397386893630028, -0.2630891501903534, -0.10580244660377502], [-0.06287835538387299, 0.22406288981437683, -0.036855243146419525, -0.3414720892906189, 0.7337528467178345, 0.8096987009048462, -0.0974622517824173, -0.894632875919342, 0.2174025923013687, 1.9362431764602661, -0.26622217893600464, 0.2537495195865631, 1.2052406072616577, 0.909506618976593, 0.6357070803642273, -0.7183927893638611], [0.18374744057655334, -0.3347393572330475, 0.6455662250518799, -1.0859776735305786, 0.45941227674484253, 0.009141849353909492, 0.31193605065345764, -1.2742880582809448, 0.388071745634079, 0.8019964098930359, 1.2088360786437988, 0.10451523959636688, 0.19657428562641144, -0.8368270993232727, 0.47607964277267456, -0.4077102839946747], [0.7662371397018433, 1.3533518314361572, -0.782386064529419, 0.8666101098060608, 0.7337197661399841, 0.37052178382873535, 1.5788378715515137, 0.35503649711608887, 0.8048753142356873, 0.2161521017551422, -0.669382631778717, 0.7916755080223083, 1.1795623302459717, 1.722301959991455, -0.7845430374145508, 0.7580533027648926], [-1.823492407798767, 1.4330731630325317, 0.7670539617538452, -0.7730609178543091, 0.23850929737091064, 0.9653134942054749, 0.40888673067092896, -0.3506380617618561, -0.5677459836006165, 0.45461076498031616, 0.10075680911540985, 0.38673821091651917, 0.7234067916870117, 0.12213627994060516, -0.6439039707183838, 1.0621109008789062], [1.269958734512329, -1.1378576755523682, 1.0913578271865845, -0.38247764110565186, 0.501706600189209, 1.413649082183838, 0.7044700980186462, 0.4073978066444397, 0.962748110294342, 0.14941923320293427, -0.016012458130717278, 0.039544835686683655, 0.10316918045282364, 0.9001647233963013, 0.8582444190979004, 0.049885623157024384], [-1.2900233268737793, 1.837066411972046, 0.09051301330327988, -2.061450719833374, 0.15604537725448608, 0.05798102170228958, 0.5029014945030212, -1.0322046279907227, 0.17579790949821472, 0.49913835525512695, 0.44876828789711, 1.3070372343063354, -0.7302777767181396, -1.4526687860488892, -1.3659690618515015, 0.16847161948680878], [0.18041598796844482, 1.5451604127883911, 0.773465633392334, -0.18057338893413544, 0.9501920938491821, 0.8072426915168762, 2.28001070022583, -0.7221956253051758, -0.5371320247650146, -0.856873631477356, -0.9917734265327454, -0.04725747928023338, 1.430643916130066, 1.1031851768493652, 2.7800400257110596, -0.12534642219543457], [-0.050149671733379364, 0.12551349401474, -0.9489834904670715, 2.051847457885742, 0.3007911741733551, -0.33393463492393494, -0.7084606289863586, -3.15887713432312, -3.584693670272827, -4.149606227874756, 4.14517068862915, 1.5054057836532593, -0.228801891207695, -2.206857204437256, 3.98525333404541, -3.154440402984619], [-0.8691098093986511, -0.6511784791946411, 2.0953428745269775, -5.75676155090332, -1.0283583402633667, -2.3084731101989746, 4.715480804443359, 4.43123197555542, 0.25086697936058044, 0.6341016888618469, -8.729061126708984, 3.6786820888519287, 0.24468301236629486, -1.777768611907959, 3.6723451614379883, 4.930815696716309], [-1.3525927066802979, -1.9503602981567383, 1.4101225137710571, -0.41527724266052246, -2.148703098297119, 2.7529265880584717, 2.9273040294647217, 1.5043741464614868, 3.8243281841278076, 4.714970588684082, 2.595473527908325, -0.4469946026802063, -3.1336565017700195, -0.8860860466957092, 3.4616310596466064, 0.4093174338340759], [0.07701088488101959, 0.1177135556936264, 0.006468213628977537, 0.042288731783628464, 0.030031396076083183, 0.013905702158808708, -0.08702494949102402, -0.04769923910498619, 0.11831876635551453, 0.14956004917621613, 0.006332725752145052, 0.03273284062743187, 0.02691507339477539, 0.24914024770259857, 0.4083045721054077, -0.34745359420776367], [-2.9329943656921387, 0.7259507179260254, -0.15693578124046326, 0.501160204410553, 3.7393150329589844, 0.8851641416549683, -0.6021467447280884, 2.407182455062866, 3.14794921875, 2.4393184185028076, -1.375773310661316, -0.23453277349472046, 0.5383739471435547, 0.8837584853172302, 4.219484806060791, -4.858250617980957], [-1.8113259077072144, -1.3213629722595215, 3.759807586669922, -0.12321633845567703, 2.2718918323516846, -7.004859447479248, 0.46752217411994934, 2.3210670948028564, 4.664912223815918, -2.6085100173950195, 2.185037851333618, -2.749722957611084, -3.327221155166626, 6.683628559112549, 0.8598090410232544, -0.7015393972396851], [2.7654919624328613, 1.6239136457443237, -0.8243035674095154, -0.08324509859085083, 1.0712075233459473, -2.165433645248413, 2.9382705688476562, -0.1014479324221611, -3.535198926925659, 3.0969607830047607, -2.967534065246582, 2.2994332313537598, -9.389012336730957, 4.708817481994629, 3.657210350036621, 0.18762342631816864], [1.7389005422592163, 1.3320749998092651, 0.014848317950963974, 0.09310437738895416, -1.262982726097107, -0.4406832754611969, -1.9549102783203125, -0.6973585486412048, 1.257836103439331, 0.30766740441322327, 1.1182997226715088, -3.353069543838501, -2.6237311363220215, 2.556457996368408, -0.9173758029937744, -0.6633956432342529], [1.8166446685791016, -0.7781142592430115, -1.0137226581573486, -0.4525396525859833, 2.0734870433807373, 1.7046326398849487, -0.33571115136146545, -0.0764014795422554, 0.44666996598243713, 0.11282806843519211, -0.5361971259117126, 1.1596418619155884, 0.9646319150924683, -0.9599589109420776, -2.2463557720184326, -0.6259139776229858], [-0.6188047528266907, 0.4680211842060089, 1.330014944076538, -0.1504165232181549, -0.8990330696105957, 0.003643787233158946, 0.4828198254108429, -1.2127331495285034, 0.9165364503860474, 1.4507018327713013, -0.8293036818504333, 0.5323352813720703, -4.180635929107666, -0.48531660437583923, 3.5147106647491455, 0.1945224106311798], [1.0165042877197266, 1.6939584016799927, 0.46763578057289124, 0.7936757206916809, -0.696387529373169, 0.4495880901813507, -0.6059033274650574, -0.6557356119155884, -0.9846856594085693, 0.7324245572090149, -0.22258616983890533, 0.7298498749732971, 0.5875697135925293, -0.0145200714468956, -0.5620110034942627, 0.23278312385082245], [-0.2628316581249237, -0.10487104952335358, -1.1577434539794922, 0.7219358682632446, 0.3060958683490753, 1.170310616493225, 0.6570374965667725, 0.7314860820770264, 0.8816409707069397, 1.2461265325546265, -0.2991618812084198, 0.693364679813385, -1.1171040534973145, 0.22244401276111603, 0.7773134708404541, 0.6984333395957947], [0.17713230848312378, 1.0648081302642822, 0.978422999382019, 0.36103543639183044, 0.17270708084106445, -0.1579921990633011, 0.3069254755973816, -0.4910130798816681, -0.07559233903884888, 0.4102246165275574, 1.1275098323822021, -0.7137416005134583, -1.2383579015731812, -0.15300041437149048, 0.5162313580513, 0.5665306448936462], [-0.21280957758426666, -0.42675283551216125, -0.49442803859710693, 0.30814433097839355, -1.365954041481018, -0.5593146681785583, 0.03305969387292862, 1.0687857866287231, 0.762650728225708, 1.168473720550537, -0.5889483094215393, 0.6872580051422119, 1.239636778831482, -0.34839338064193726, -0.26483026146888733, -0.17760419845581055], [-0.8266980051994324, 0.4275999963283539, 0.7460569739341736, 1.5221880674362183, 0.10685669630765915, 0.33195918798446655, -0.5026469230651855, -0.6883014440536499, 0.2630728781223297, -0.7161966562271118, -0.9374415874481201, 0.02499493956565857, -0.6922686696052551, -0.7826874256134033, 0.6300576329231262, -0.13766717910766602], [-1.0021406412124634, 1.1805449724197388, -1.3831387758255005, -0.6631571650505066, -1.481758713722229, -0.04248261824250221, -0.11377155035734177, 0.33722299337387085, 1.4354445934295654, -0.8667476177215576, 0.1267370879650116, 0.21838799118995667, -0.3802747428417206, -0.033746834844350815, -0.8976261615753174, -0.06023307517170906], [-0.3600003123283386, 0.5433415174484253, 0.3840083181858063, -1.019039511680603, 0.6824320554733276, -0.26771116256713867, 0.48077163100242615, -0.069001205265522, 1.2472225427627563, -0.017059890553355217, -0.4052519202232361, 0.03149855509400368, 1.8706456422805786, -0.0038379684556275606, 0.2455339878797531, -0.4455171525478363], [0.7452709674835205, 1.102542519569397, -0.01509868074208498, -1.4998447895050049, -1.0311262607574463, -0.6534608006477356, -0.4266355335712433, 0.7120064496994019, 2.0927016735076904, -0.7881779670715332, -0.613723874092102, -0.4306500554084778, 0.15831348299980164, 0.046273838728666306, 0.2456531822681427, 0.023239264264702797], [1.3151050806045532, 0.7176500558853149, 0.11108159273862839, 0.4884415566921234, 0.3995988070964813, -0.2954898774623871, -1.4879345893859863, -0.500135064125061, 0.21968641877174377, -0.5495091080665588, -0.09346970915794373, 0.22952255606651306, 0.5383319854736328, -0.8114677667617798, 0.8534742593765259, 0.5759868621826172], [0.6258378624916077, 1.0933293104171753, -0.4348432421684265, -0.48161789774894714, 0.036906272172927856, -0.19379033148288727, -1.1234852075576782, -0.06289497017860413, -0.2174074500799179, 0.7425966858863831, -1.87897527217865, 0.620206356048584, -0.38079962134361267, 0.7728888392448425, 0.138132244348526, 0.37058988213539124], [-0.07321019470691681, 2.126220464706421, -0.39594128727912903, 0.9502692818641663, 0.19111454486846924, 0.9609401822090149, -0.7903884053230286, -0.14897850155830383, 0.22801318764686584, -0.13336218893527985, 0.5478890538215637, 0.21803931891918182, 0.10614623129367828, 1.6851876974105835, 1.3738958835601807, 0.42135298252105713], [-0.1838640421628952, 1.0732682943344116, -0.48977723717689514, 0.2899126708507538, 1.0102169513702393, 0.27286192774772644, -0.5725211501121521, -0.2472561001777649, -1.5864200592041016, 0.9465022683143616, 1.1798133850097656, 0.6139451861381531, -0.3149208128452301, -0.4845395088195801, 0.6947519779205322, -0.03947431966662407], [-0.5201759338378906, -0.32005563378334045, -0.09546606987714767, -0.4661468267440796, -1.0492913722991943, -0.8740096688270569, 0.04505925253033638, 0.07280991226434708, -0.26709166169166565, 1.6119166612625122, -0.5683826208114624, 0.39118605852127075, -0.19498874247074127, -0.41046231985092163, -0.3244818150997162, 0.1874266415834427], [-0.6103132963180542, 0.20937025547027588, 0.48131483793258667, 0.9288227558135986, 0.6003629565238953, 0.29782021045684814, 1.2197389602661133, -0.1890973299741745, 1.262267827987671, 2.0881807804107666, -1.285500168800354, -1.0228041410446167, 0.19258059561252594, 0.6798503994941711, -0.3159094452857971, 1.027148962020874], [-0.12635768949985504, 0.9801551103591919, -0.8982841372489929, -0.7639846205711365, 1.5850024223327637, -0.04214748740196228, 0.8122060298919678, -0.8283078670501709, -0.23349522054195404, 0.8387104272842407, -0.7864322662353516, -0.13658350706100464, -0.24949605762958527, -0.013996228575706482, 0.7356573343276978, 1.4542534351348877], [-0.4681533873081207, 0.4971271753311157, -0.696937084197998, 0.3215755820274353, 0.13426607847213745, 1.3000730276107788, 0.49481433629989624, 0.6287984848022461, -0.2718367576599121, -0.2053588181734085, 0.16936296224594116, 1.2469096183776855, 0.06598279625177383, -0.1920282393693924, -0.21924695372581482, -0.30551719665527344], [-1.1649715900421143, 0.44304874539375305, 1.719204306602478, 0.3639910817146301, -0.4856330156326294, -1.80075204372406, 0.4530872106552124, -1.196811318397522, -0.5936195850372314, 0.4057062268257141, 0.6664880514144897, -1.8339241743087769, -1.100806713104248, 1.481626033782959, 0.048199258744716644, -0.20217490196228027], [2.4228692054748535, 0.4275659918785095, -0.8935673236846924, -0.011848187074065208, 0.31683477759361267, 0.04229268804192543, -0.20692576467990875, 2.5859696865081787, 0.5497863292694092, -3.514190912246704, -2.176464557647705, -0.12716978788375854, 1.5070645809173584, 1.276188611984253, 2.0534355640411377, -0.6707268953323364], [0.3861171305179596, 3.213775873184204, 2.1488943099975586, 2.2561287879943848, -1.9393748044967651, 3.612196683883667, 3.6206016540527344, -2.0946097373962402, 0.6610109806060791, 0.1393771916627884, 1.331874966621399, -0.49613186717033386, -3.2369234561920166, 0.5766914486885071, 1.288978934288025, -2.322817087173462], [0.1865646243095398, -0.7734039425849915, -2.2008965015411377, -0.6231001615524292, -2.9928629398345947, 1.0365451574325562, 2.2676711082458496, -0.44746294617652893, 1.7421547174453735, -1.9504303932189941, -4.269174098968506, -0.5596489906311035, -1.846574068069458, -3.6716785430908203, 3.677619457244873, -0.8892026543617249], [2.596235513687134, 1.9637393951416016, 2.9254441261291504, 0.15891021490097046, -2.6762638092041016, -0.12552866339683533, -1.8017393350601196, 0.7699381113052368, 6.325695037841797, -0.11557107418775558, 0.020505079999566078, 1.359992265701294, -3.6632440090179443, -1.4710041284561157, 1.6282703876495361, -2.508988857269287], [0.08448052406311035, 0.2666254937648773, 0.0881548598408699, 0.09644120931625366, 0.1354232132434845, 0.042496565729379654, -0.19134756922721863, 0.0166501272469759, 0.13944019377231598, 0.16351069509983063, 0.016417568549513817, 0.016460750252008438, -0.04689262434840202, 0.3457057774066925, 0.31022021174430847, -0.3921189308166504], [0.18460389971733093, 0.6913915276527405, 0.12570777535438538, 1.996043086051941, 4.042079925537109, 0.12183832377195358, -2.221404552459717, 2.0898327827453613, 1.2928041219711304, 0.641082227230072, -0.6574833393096924, -0.31689170002937317, 0.4964706301689148, 1.5704597234725952, 5.154142379760742, -1.9148776531219482], [1.1923696994781494, -1.9017642736434937, 3.347097158432007, 0.25118133425712585, 4.130855083465576, -2.812978744506836, 1.6567662954330444, 1.5151251554489136, -0.7428661584854126, -0.4400991201400757, 3.3346011638641357, 0.46564221382141113, 4.365084171295166, 4.22608757019043, -2.0758445262908936, -3.355020523071289], [-0.9157619476318359, 1.1713074445724487, 3.591549873352051, 2.941941976547241, 0.1479102373123169, 0.29261189699172974, 1.6979011297225952, -2.600003957748413, 1.5893458127975464, -0.40276944637298584, 1.4940365552902222, -0.3900867700576782, -5.100701332092285, 2.7729218006134033, -1.6796432733535767, 2.2929975986480713], [2.318486452102661, 1.681797981262207, 0.7544607520103455, 0.6449615359306335, -1.349500060081482, -1.0417786836624146, -1.17686128616333, -5.338466644287109, -2.193786382675171, -0.7186076045036316, -2.0160529613494873, -1.0931627750396729, 3.422880172729492, 1.1193479299545288, 2.493408203125, -0.08028014749288559], [-1.2837129831314087, 0.01263616606593132, -0.6912170052528381, 1.2653194665908813, 0.04676908254623413, 0.15997257828712463, 0.4064655303955078, 2.904261589050293, 1.8426496982574463, 1.2686599493026733, -1.5426108837127686, -2.0910286903381348, 0.014515552669763565, -0.3783712685108185, -1.603104591369629, 0.841690719127655], [0.5613443851470947, -0.49853065609931946, -0.229768306016922, 0.16097669303417206, -0.9897584915161133, 0.6574652791023254, -0.5761352777481079, 0.4948798418045044, 1.9960225820541382, 1.010670781135559, 1.490011215209961, -0.021735157817602158, -0.4108576476573944, 0.2974607050418854, 1.55266535282135, 0.010445866733789444], [0.5084412693977356, 0.2207694947719574, -0.8412396311759949, -0.503524899482727, -0.18803174793720245, -0.1747608184814453, -0.4979764223098755, -1.4000506401062012, 0.38196879625320435, -0.7147968411445618, -1.4935728311538696, -0.5628932118415833, -0.5777832269668579, 0.26885393261909485, 0.19510386884212494, 0.07584365457296371], [0.31092169880867004, -0.4712693691253662, 0.4641624391078949, 0.4016192555427551, -0.8561709523200989, 0.8195175528526306, 0.9604876041412354, 0.17923718690872192, 1.8060543537139893, -0.9404758214950562, -0.6505242586135864, 1.4466907978057861, -0.0954560711979866, -0.7447214722633362, 2.2201640605926514, -0.5980875492095947], [0.4431077539920807, -0.2765163481235504, -1.049652338027954, 1.7380964756011963, -0.7988464832305908, -0.20532357692718506, 0.26493653655052185, 0.5037621855735779, 1.2812193632125854, -0.5600152015686035, -1.3924713134765625, 0.44740602374076843, 1.5684490203857422, 0.07365357130765915, 0.9866653084754944, -0.2810173034667969], [0.1166912242770195, 1.3121635913848877, 0.06313039362430573, -0.36354610323905945, -1.120506763458252, -0.35724297165870667, 0.48845183849334717, -0.9243468046188354, 0.9857795834541321, -1.5120855569839478, -0.015360821038484573, -0.7641627788543701, -0.3939109742641449, 0.5143557786941528, 0.13064545392990112, -0.030479876324534416], [0.2228161096572876, -0.25186485052108765, 0.25847911834716797, 1.6179040670394897, 0.5962987542152405, -0.7387744784355164, 0.3111574947834015, -0.5120618939399719, 0.809762179851532, -0.07512487471103668, -0.1583355814218521, -1.0695701837539673, 0.6825609803199768, 0.8382580280303955, -0.20138703286647797, -1.099953293800354], [-0.3316221535205841, 0.007690207101404667, 0.831152081489563, -0.11530283838510513, 0.39215174317359924, -0.03318072482943535, 0.4562671482563019, 0.2381007969379425, 0.5827081799507141, 0.5534389019012451, -2.5907328128814697, -0.4162595570087433, 1.0234493017196655, -0.11308377981185913, 0.8902243375778198, -0.02405690774321556], [0.6907529234886169, 0.7149804830551147, 0.8355607986450195, -1.5196858644485474, -0.10495202988386154, -0.9431770443916321, -0.15394280850887299, 0.25402548909187317, 1.5449877977371216, -0.4236113429069519, -1.6152244806289673, -1.5092045068740845, 0.28340551257133484, 0.7830140590667725, -0.4983600676059723, -0.9057242274284363], [-0.17364083230495453, -0.30265119671821594, -0.4967697262763977, -0.41264817118644714, -1.0845623016357422, 0.8559092879295349, -0.9681326150894165, 0.732960045337677, -0.19494768977165222, -0.7595998644828796, -1.7312297821044922, -1.5958203077316284, -0.7874315977096558, 0.28214147686958313, 1.0831907987594604, -0.027151212096214294], [-0.029962915927171707, 0.6740785837173462, -0.8856118321418762, -1.1651861667633057, -0.47123974561691284, -0.23789836466312408, 0.19042550027370453, 0.3284807503223419, -0.3942306935787201, 0.3566701412200928, -1.1029257774353027, -0.563602089881897, -0.06239848956465721, 0.741831362247467, -0.11854111403226852, -0.6757572889328003], [0.1926041841506958, 0.020465705543756485, -0.1855355203151703, 0.6632373332977295, -1.3650596141815186, -0.1745961308479309, -1.049433708190918, -0.28505876660346985, -0.7801002860069275, 0.09965458512306213, 0.09014614671468735, 0.5751352310180664, -0.6962877511978149, 0.9218840599060059, 0.773150622844696, -0.6569520831108093], [1.5525110960006714, 0.6549367308616638, -0.1469467580318451, -0.41874727606773376, 0.736019492149353, -0.11105649173259735, -0.5311355590820312, -0.6210574507713318, -0.39615553617477417, 1.3074588775634766, -0.6540372967720032, -0.866122305393219, -1.4023629426956177, 1.167187213897705, -0.7900413274765015, -0.7659503221511841], [-1.4197285175323486, 2.517400026321411, -1.2209327220916748, -1.162142276763916, -0.26833149790763855, -1.3910245895385742, 0.014345251955091953, -0.6761040687561035, 0.4098506569862366, 0.4500049650669098, -0.06972087174654007, -1.3227818012237549, -0.9245230555534363, 0.24682986736297607, 0.38829678297042847, 0.6040138602256775], [0.038045600056648254, 1.2188693284988403, -1.4776110649108887, -0.9425731301307678, 0.17897744476795197, -0.030397571623325348, -1.624767780303955, 0.1638241410255432, 