{"layer_1": {"weights": [[-0.011664062738418579, -0.0830792635679245, 0.058081597089767456, -0.02550598606467247, -0.06587502360343933, -0.04361189156770706, 0.0679636299610138, 0.01756753772497177, -0.05561710149049759, -0.029573120176792145, -0.08083337545394897, -0.0850687101483345, 0.07391338050365448, 0.08583442866802216, -0.04377659782767296, 0.03886999189853668], [-0.056027576327323914, -0.05216243863105774, 0.07717657089233398, -0.05886729061603546, -0.06469597667455673, -0.01779162883758545, 0.03700573742389679, -0.0729755237698555, -0.056937847286462784, -0.03201495110988617, 0.05487935245037079, -0.040541090071201324, -0.03261170908808708, -0.024165891110897064, -0.05195643752813339, 0.054152265191078186], [0.03292344510555267, 0.05790349841117859, 0.00873885303735733, -0.007601968944072723, -0.04314108565449715, 0.059819966554641724, -0.04029813036322594, -0.008111000061035156, 0.07954274117946625, -0.0016927942633628845, 0.002208016812801361, 0.023834392428398132, -0.06521489471197128, -0.0619230791926384, -0.08635319769382477, -0.015126824378967285], [-0.050845179706811905, 0.05755835771560669, 0.05820237100124359, -0.039530057460069656, -0.05643580108880997, -0.020828217267990112, 0.007868386805057526, -0.057000741362571716, -0.024268075823783875, 0.016564704477787018, 0.01895737648010254, -0.08168443292379379, -0.036511700600385666, 0.08569759130477905, -0.07606802135705948, -0.08453761041164398], [-0.025271058082580566, 0.016100607812404633, 0.05624859035015106, 0.05330115556716919, 0.07427221536636353, -0.07571534067392349, -0.007766760885715485, -0.022171035408973694, 0.012430258095264435, -0.028716839849948883, 0.0019228532910346985, 0.06363004446029663, 0.07697722315788269, -0.030704114586114883, -0.07314317673444748, 0.07706058025360107], [0.04282677173614502, 0.0038913190364837646, -0.04345061257481575, -0.023725293576717377, -0.0674678385257721, 0.001142248511314392, -0.01650650054216385, -0.024437036365270615, 0.05835655331611633, -0.010253027081489563, 0.0543484091758728, 0.05707259476184845, 0.01903742551803589, -0.06363819539546967, -0.05344081670045853, -0.06858475506305695], [0.07206445932388306, 0.05724531412124634, 0.033768147230148315, -0.021260559558868408, 0.04209829866886139, -0.005191601812839508, -0.06213834881782532, 0.035131923854351044, -0.031841717660427094, -0.02757568657398224, 0.03687860816717148, 8.081644773483276e-05, -0.006571836769580841, -0.045707568526268005, -0.028162531554698944, -0.06266622990369797], [0.04013286530971527, -0.008699417114257812, -0.009235881268978119, 0.07250842452049255, 0.01640317589044571, 0.007933758199214935, -0.033941976726055145, 0.05401316285133362, -0.061064817011356354, 0.07400676608085632, -0.005968473851680756, -0.05770593881607056, 0.05301716923713684, 0.03463662415742874, 0.00867372751235962, 0.0038352012634277344], [0.08113695681095123, -0.0788796991109848, -0.03468605503439903, 0.05582159757614136, 0.03359478712081909, -0.062330085784196854, 0.002468220889568329, -0.025727473199367523, 0.07359862327575684, -0.036744896322488785, -0.04431157931685448, -0.03473569452762604, -0.03875382989645004, -0.01836978644132614, -0.06013546884059906, -0.011076577007770538], [0.02714288979768753, -0.05116986483335495, -0.012331023812294006, -0.06878313422203064, 0.020063534379005432, -0.05977918952703476, 0.05483236908912659, -0.06525476276874542, -0.018972240388393402, 0.07874573767185211, 0.06215779483318329, -0.020113706588745117, 0.07816576957702637, -0.0250825434923172, -0.012797683477401733, 0.004948578774929047], [0.07181951403617859, 0.04054202139377594, 0.0811246782541275, -0.03519332781434059, -0.05636852979660034, -0.0024903565645217896, 0.046315476298332214, 0.08320070803165436, -0.01882438361644745, 0.0038721784949302673, 0.04567632079124451, -0.06210928037762642, 0.07500885426998138, -0.08517186343669891, 0.07338911294937134, 0.022833846509456635], [-0.07639363408088684, -0.00044465065002441406, -0.08203137665987015, -0.08336789906024933, 0.07691095769405365, -0.06733790785074234, 0.042877212166786194, 0.07035930454730988, -0.08519954979419708, -0.019262857735157013, -0.06350243836641312, 0.007334478199481964, 0.03688757121562958, 0.0024235397577285767, -0.054761625826358795, 0.010831363499164581], [-0.016157809644937515, -0.07538940012454987, -0.07099894434213638, -0.11821240186691284, 0.02374926581978798, 0.04866010695695877, -0.0533105805516243, -0.05725628510117531, 0.05012844130396843, 0.0158119834959507, 0.027315594255924225, 0.04871346056461334, -0.07435872405767441, -0.0035816149320453405, 0.019511697813868523, -0.0074643660336732864], [-0.028848007321357727, 0.4936023950576782, -0.005075544118881226, -0.10021895170211792, -0.025841297581791878, -0.0772247165441513, 0.20707064867019653, 0.4815785586833954, 0.06687580049037933, -0.010703397914767265, -0.1613071709871292, -0.10991618782281876, -0.02046903409063816, 0.30804237723350525, 0.4420660734176636, -0.08093781769275665], [0.0385286808013916, 0.5242050886154175, -0.07494272291660309, -0.08091562986373901, -0.025453107431530952, -0.06393445283174515, 0.26592645049095154, 0.6098631620407104, -0.08561328798532486, -0.00946592353284359, -0.1026042178273201, -0.10422549396753311, -0.07838568091392517, 0.32883524894714355, 0.4201452136039734, -0.10153013467788696], [-0.08188872039318085, 0.02764832228422165, 0.006561987102031708, 0.04429499804973602, -0.03984043374657631, 0.006771601736545563, -0.07213588058948517, -0.02006995677947998, -0.06745734810829163, 0.041738882660865784, -0.0782017707824707, 0.07537597417831421, 0.008105382323265076, 0.01402273029088974, -0.07089874148368835, -0.06329032778739929], [0.07602296769618988, -0.012736916542053223, 0.05328081548213959, -0.0776904970407486, 0.08417226374149323, 0.03091028332710266, -0.07980407029390335, -0.0396534688770771, -0.04193420708179474, -0.07440652698278427, 0.0011601522564888, 0.013199754059314728, 0.0740826278924942, 0.010005354881286621, -0.02311195433139801, -0.033839914947748184], [-0.020057812333106995, 0.0058741942048072815, 0.020923465490341187, -0.046203773468732834, -0.0006091296672821045, -0.058635413646698, -0.07120099663734436, 0.021949365735054016, 0.049423396587371826, -0.08125696331262589, -0.043726157397031784, 0.06865397095680237, 0.004915647208690643, 0.04723680019378662, 0.03784839063882828, 0.04277952015399933], [0.015297122299671173, 0.06415709853172302, -0.019121728837490082, 0.052509233355522156, 0.008898124098777771, -0.0270608551800251, 0.014309629797935486, -0.0399346686899662, -0.050402555614709854, 0.04862786829471588, 0.015361711382865906, -0.06390517204999924, 0.016250237822532654, 0.035362161695957184, 0.07194462418556213, 0.0459965318441391], [-0.02137184888124466, 0.07898025214672089, 0.06073988974094391, 0.052195802330970764, -0.06281515955924988, -0.07194146513938904, -0.0570741631090641, 0.018437199294567108, 0.06895332038402557, 0.035735636949539185, 0.060741737484931946, 0.002262219786643982, -0.08287867158651352, -0.08587569743394852, 0.00597003847360611, -0.07761000841856003], [-0.08423864841461182, 0.07705651223659515, -0.030611202120780945, -0.026107821613550186, -0.003788270056247711, -0.026809409260749817, -0.05783085897564888, 0.0009753778576850891, -0.07945134490728378, -0.07890439033508301, -0.020870402455329895, -0.03379744291305542, -0.028553228825330734, -0.002587132155895233, -0.06212718039751053, 0.046324267983436584], [0.06407566368579865, 0.0015257373452186584, 0.03564867377281189, -0.08036097884178162, -0.027588550001382828, 0.08119764924049377, 0.04733970761299133, 0.010772541165351868, -0.035408519208431244, 0.07467249035835266, 0.023092254996299744, -0.022822722792625427, -0.05515238270163536, -0.0841345489025116, 0.0771145224571228, -0.055872365832328796], [0.04946833848953247, -0.026618439704179764, -0.049653686583042145, -0.06562231481075287, 0.004688195884227753, -0.05822756141424179, 0.0026060640811920166, -0.06536316871643066, -0.011280059814453125, 0.027630336582660675, -0.001681506633758545, 0.07611982524394989, 0.04268105328083038, -0.0563095398247242, 0.038616687059402466, 0.05672907829284668], [-0.003833979368209839, -0.06539729237556458, -0.08536256104707718, -0.03263384476304054, -0.05768227577209473, -0.055907487869262695, 0.02072475105524063, -0.03995610028505325, -0.009693332016468048, 0.03158589452505112, -0.017880477011203766, 0.012282006442546844, -0.07663213461637497, 0.08199383318424225, 0.023017138242721558, 0.039437130093574524], [-0.06533145159482956, -0.02005944401025772, 0.060434490442276, -0.0034042373299598694, 0.06151854991912842, 0.06314393877983093, 0.03425569832324982, -0.07181716710329056, 0.01709596812725067, 0.001353040337562561, 0.027723684906959534, -0.01188485324382782, 0.01682247221469879, -0.006483033299446106, -0.02013443410396576, -0.006583854556083679], [-0.001090116798877716, 0.03544112294912338, -0.0018080547451972961, -0.04961234703660011, 0.011261045932769775, 0.0580282062292099, -0.07836897671222687, -0.04421785846352577, 0.014058344066143036, 0.0720357596874237, -0.002284228801727295, 0.021592631936073303, 0.052926331758499146, 0.03823309391736984, -0.04819521680474281, -0.0638398826122284], [-0.0011580660939216614, -0.040080152451992035, -0.0726063996553421, 0.08325840532779694, -0.0403045117855072, 0.07591204345226288, 0.047904253005981445, 0.05187271535396576, 0.07407492399215698, 0.07751119136810303, -0.008537761867046356, -0.04285288602113724, 0.036296285688877106, 0.06066955626010895, 0.05673816800117493, -0.03668113425374031], [-0.04245704784989357, -0.004598379135131836, -0.07516206800937653, 0.02065180242061615, 0.04301978647708893, -0.04853016510605812, 0.000562027096748352, -0.039453186094760895, -0.08164551109075546, 0.047119513154029846, 0.014070987701416016, 0.07931509613990784, -0.05982261151075363, -0.07846994698047638, 0.058881476521492004, 0.012273237109184265], [-0.025696296244859695, 0.03545914590358734, 0.05853201448917389, -0.027018610388040543, 0.027824118733406067, 0.03661046177148819, 0.006820559501647949, 0.08418166637420654, -0.055265117436647415, 0.057444602251052856, 0.030006490647792816, -0.01576448231935501, -0.06820349395275116, -0.038061391562223434, -0.012992389500141144, 0.04749782383441925], [0.013533756136894226, -0.02293413132429123, 0.008438512682914734, 0.023310542106628418, -0.032657280564308167, 0.009152136743068695, 0.06604844331741333, 0.036079198122024536, 0.039167389273643494, -0.04764338955283165, -0.007758870720863342, 0.0003390759229660034, -0.08247614651918411, 0.07542949914932251, 0.04076765477657318, -0.029373828321695328], [-0.061234645545482635, 0.0837138295173645, -0.004027985036373138, -0.05946291238069534, -0.02590840682387352, 0.04730100929737091, -0.07743716984987259, -0.036084357649087906, -0.06095259636640549, -0.05073801800608635, -0.02465449646115303, 0.015342675149440765, -0.0838932991027832, -0.06299859285354614, -0.019868433475494385, -0.0315878763794899], [0.059287846088409424, 0.0664469450712204, -0.02293013036251068, 0.06760463118553162, -0.03081648051738739, -0.010268040001392365, -0.021745383739471436, 0.031285181641578674, -0.010356761515140533, -0.007697507739067078, 0.07457701861858368, -0.050399187952280045, -0.0011556297540664673, -0.04261479526758194, 0.005229637026786804, -0.01632913202047348], [0.030094720423221588, -0.059300001710653305, 0.051673516631126404, -0.0233069509267807, -0.06885992735624313, 0.004292912781238556, 0.040965497493743896, -0.05341608077287674, 0.009810671210289001, 0.08528216183185577, 0.024622760713100433, -0.011594608426094055, -0.03712313994765282, -0.08199591934680939, 0.006342709064483643, -0.07424452900886536], [-0.0741787999868393, -0.06425519287586212, -0.021665625274181366, 0.03115745633840561, 0.029949650168418884, -0.014302089810371399, -0.08296818286180496, -0.00677509605884552, 0.07559725642204285, 0.031107671558856964, -0.001326821744441986, 0.03066258877515793, -0.04755609109997749, -0.07706926763057709, -0.01111215353012085, -0.08313189446926117], [-0.012172916904091835, -0.006006751675158739, -0.04737001284956932, -0.33639976382255554, 0.048970457166433334, 0.3282510042190552, -0.16915015876293182, 0.022672122344374657, -0.054558224976062775, -0.2578512132167816, 0.06052253767848015, -0.32336288690567017, 0.04807474464178085, -0.25081485509872437, 0.16212418675422668, 0.25787219405174255], [-0.0791475772857666, 0.01113158743828535, 0.057537540793418884, -0.2938310205936432, 0.034804925322532654, 0.20055443048477173, -0.11929434537887573, 0.008313672617077827, 0.08246809244155884, -0.2905225157737732, -0.0041244542226195335, -0.29291579127311707, -0.027424458414316177, -0.2117476761341095, 0.12355020642280579, 0.2864365875720978], [0.3874283730983734, 0.09959085285663605, -0.014776244759559631, -0.17407506704330444, -0.031167447566986084, 0.03483082726597786, -0.02838754653930664, 0.0775202140212059, -0.0847935825586319, -0.13093209266662598, 0.19005127251148224, -0.17964352667331696, -0.07407041639089584, -0.147186741232872, 0.44068390130996704, 0.4753836691379547], [-0.4176841974258423, 0.029839148744940758, 0.08371154218912125, -0.23076851665973663, 0.576484203338623, 0.5947548151016235, -0.14609917998313904, -0.4405840337276459, -0.01756143383681774, -0.2714766263961792, 0.4496958553791046, -0.3621300458908081, -0.16271686553955078, -0.4243416488170624, -0.07158201187849045, 0.6192277669906616], [-0.6454339027404785, -0.15363134443759918, 0.008012880571186543, -0.4402190148830414, 0.7252042889595032, 0.7531546950340271, 0.031170614063739777, 0.4174533486366272, 0.09205378592014313, -0.31860217452049255, -0.4731352627277374, -0.7351568937301636, -0.28606438636779785, -0.5458772778511047, 0.792664110660553, 1.043938159942627], [1.4774831533432007, -0.10253142565488815, 0.0170980766415596, -0.5516712665557861, -0.788872241973877, 0.17352896928787231, -0.029304493218660355, -0.37396240234375, 0.1300661265850067, 0.2363979071378708, 0.6478609442710876, 0.49370869994163513, -0.08969532698392868, 0.4064447283744812, 0.8922492265701294, 0.20327290892601013], [0.8690714836120605, -0.3307381570339203, 0.05603955313563347, -0.47722986340522766, -0.3235742747783661, 0.6395924091339111, -1.1044138669967651, -0.2326788455247879, -0.06082845479249954, -0.0447828434407711, 0.3435334861278534, -0.15349197387695312, -0.03370214253664017, 0.5600860118865967, 1.417297601699829, 0.6035035252571106], [-0.8184358477592468, 0.8808040022850037, 0.7155925631523132, -1.250404715538025, 0.33295658230781555, -0.7570169568061829, -1.4143344163894653, 0.04347715526819229, 0.009319954551756382, 1.7261035442352295, 1.5206612348556519, -1.0874381065368652, -0.23177537322044373, 1.254679560661316, 1.569419026374817, -0.23213902115821838], [0.5857755541801453, 0.3446260690689087, 2.0528805255889893, 1.0933362245559692, 0.029026906937360764, 1.7231863737106323, -1.1200196743011475, -1.8987886905670166, 0.015720335766673088, -0.6894502639770508, -1.117610216140747, -0.04520697891712189, -0.0952143520116806, -0.24100933969020844, 0.12383383512496948, 0.6720357537269592], [-0.004776712507009506, 0.40535351634025574, 2.175421714782715, -0.6270022392272949, 0.7568786144256592, -0.37286972999572754, -0.004265940748155117, -0.5795419216156006, 0.2728925049304962, 1.213152527809143, 0.17848052084445953, -0.8488503098487854, -0.21763338148593903, -1.0324437618255615, 0.7116867303848267, 2.1407370567321777], [-0.3848433494567871, 0.17112556099891663, 0.283948689699173, -0.36218300461769104, 0.2106407880783081, -0.3256104588508606, -0.0379687175154686, 1.17568838596344, 0.040794916450977325, 0.6099629402160645, 1.1749317646026611, -0.31845933198928833, -0.1540825515985489, -0.40483981370925903, 1.2842901945114136, 0.8396413922309875], [-1.0219683647155762, -0.931155264377594, 0.4972419738769531, -0.19672617316246033, 0.2549588978290558, -0.19770188629627228, -0.4685932993888855, 0.5235700607299805, 0.5862557291984558, 0.47742772102355957, 1.2404744625091553, -0.2430000603199005, -0.1472928822040558, -0.4133421778678894, 0.581301212310791, 0.9382641911506653], [-0.24297337234020233, 0.06837998330593109, 0.23463207483291626, -0.6479935050010681, 1.0413105487823486, 0.7007302641868591, 0.13391812145709991, 0.3353548049926758, -0.6818910837173462, -0.1350950300693512, 0.20291449129581451, -0.42446261644363403, -0.10220331698656082, 0.05833752080798149, 0.6781377792358398, 0.43626174330711365], [-0.5733337998390198, 0.2466365247964859, -0.16770216822624207, -0.6022489666938782, 0.7420777082443237, 0.6418602466583252, -0.7247437238693237, -0.01950005069375038, 0.5065561532974243, -0.2772905230522156, -0.6768813729286194, -0.7470223307609558, -0.10785035043954849, -0.1250346302986145, 0.5565613508224487, 0.6460561752319336], [-0.7983600497245789, 0.1465146690607071, -0.14522075653076172, -0.7091299891471863, 0.7490046620368958, 0.6486419439315796, -0.6806477308273315, 0.22993236780166626, 0.4782927334308624, -0.22885476052761078, -0.32768580317497253, -0.7131289839744568, -0.1721222698688507, -0.695271909236908, 0.3573592007160187, 0.7389481663703918], [-0.2823658883571625, -0.03831995651125908, -0.1511591225862503, -0.3609447479248047, 0.329434335231781, 0.4710206687450409, -0.3782823979854584, 0.09889061003923416, 0.17167618870735168, -0.1896359920501709, -0.20828501880168915, -0.39642611145973206, -0.12944234907627106, -0.32989636063575745, 0.17910777032375336, 0.512378454208374], [-0.1698164939880371, -0.04551754146814346, -0.057753078639507294, -0.7053402662277222, 0.5430863499641418, 0.6622425317764282, -0.06760483235120773, 0.02687305025756359, 0.1870303452014923, -0.39155399799346924, 0.1564180552959442, -0.5574352741241455, -0.3406359553337097, -0.4745229482650757, 0.013947035185992718, 0.724164605140686], [0.07013064622879028, 0.056546878069639206, 0.08234377205371857, -0.6000543832778931, 0.4951978325843811, 0.3942335247993469, 0.04916544258594513, -0.059858281165361404, 0.019727468490600586, -0.27416566014289856, 0.25832751393318176, -0.41455262899398804, -0.39728397130966187, -0.2736937701702118, -0.03930790722370148, 0.5939835906028748], [0.036460019648075104, -0.011138483881950378, -0.0428624227643013, -0.05657932162284851, 0.05576184391975403, 0.01759149134159088, 0.06659092009067535, 0.044036343693733215, 0.07001262903213501, 0.002047128975391388, -0.06004220247268677, -0.009061925113201141, -0.029983386397361755, -0.04684886708855629, 0.056985169649124146, 0.017601527273654938], [-0.05480075255036354, -0.07182011753320694, -0.08314591646194458, 0.08268092572689056, 0.049808621406555176, -0.06948584318161011, 0.0294136181473732, 0.07796168327331543, -0.0409354604780674, -0.020969383418560028, -0.033827897161245346, -0.04269600287079811, 0.0353354886174202, -0.04886343702673912, 0.08037464320659637, 0.07493434846401215], [-0.07097505033016205, -0.08449160307645798, 0.03377072513103485, 0.04308179020881653, 0.07571595907211304, 0.03734186291694641, 0.005717933177947998, 0.009445741772651672, 0.08095657825469971, 0.08020757138729095, 0.05270589888095856, 0.03968958556652069, -0.03768322989344597, 0.03009086102247238, -0.0021640360355377197, 0.08093789219856262], [-0.05481599271297455, -0.012492947280406952, 0.03391319513320923, 0.07650473713874817, 0.0579342246055603, -0.002331577241420746, 0.010835640132427216, -0.04100535437464714, -0.02567381039261818, 0.04836820065975189, -0.03999161720275879, 0.03997635841369629, 0.057597264647483826, 0.03908644616603851, 0.04420359432697296, -0.078767329454422], [-0.013959676027297974, -0.05849606543779373, 0.0457242876291275, 0.08134318888187408, 0.006745733320713043, 0.02646108716726303, -0.04780392348766327, 0.01517362892627716, 0.05583490431308746, 0.034485362470149994, 0.08232726156711578, -0.060467541217803955, -0.027196988463401794, 0.00873883068561554, -0.0655975192785263, 0.04001052677631378], [0.05534164607524872, 0.012004174292087555, -0.05042652785778046, -0.06187622994184494, -0.005556486546993256, 0.04835072159767151, 0.08079922199249268, -0.013607032597064972, 0.044468462467193604, -0.025018885731697083, 0.08469593524932861, -0.07347769290208817, 0.005148120224475861, 0.02998735010623932, -0.07970942556858063, 0.05706040561199188], [0.02534927800297737, -0.035437583923339844, 0.08345009386539459, -0.035500235855579376, 0.0008807480335235596, 0.0852976143360138, -0.032973457127809525, -0.06649403274059296, -0.005223281681537628, -0.08575563132762909, -0.04107441008090973, -0.05902538448572159, -0.058966584503650665, 0.07599209994077682, 0.09847268462181091, 0.0314193069934845], [0.004707418382167816, -0.01973455399274826, -0.024854902178049088, 0.08447137475013733, 0.026817381381988525, 0.06445394456386566, -0.009605534374713898, 0.05993823707103729, -0.05265849828720093, -0.016301095485687256, -0.037627726793289185, 0.08115483820438385, -0.03292875364422798, -0.06639969348907471, 0.004409655928611755, 0.06408695876598358], [-0.1367020457983017, 0.19958645105361938, -0.04596751555800438, -0.348783403635025, 0.5098353028297424, 0.4772641956806183, -0.34176376461982727, -0.19700822234153748, 0.27813705801963806, -0.25939515233039856, -0.10300880670547485, -0.3370136022567749, -0.1170121356844902, -0.49599066376686096, -0.16417759656906128, 0.5715336203575134], [-0.04497693106532097, 0.1217208057641983, -0.09046424925327301, 0.04671896621584892, -0.0200551375746727, 0.03191124647855759, -0.012027016840875149, -0.009057637304067612, -0.024489976465702057, 0.01734788715839386, 0.008869078941643238, -0.057427212595939636, 0.05441978573799133, -0.004619658458977938, 0.01938406005501747, 0.059412889182567596], [0.5669518113136292, 0.6016108989715576, -0.01946094073355198, 0.23954349756240845, -1.1836756467819214, 0.5136194825172424, 0.2591284215450287, -0.24592472612857819, -0.014612277038395405, -0.9770494699478149, -0.06462828069925308, -0.10821986198425293, 0.32878944277763367, 0.3995896279811859, 0.5736011266708374, 0.13329431414604187], [-0.3675667643547058, 0.04785943031311035, -0.25762638449668884, 0.6032885313034058, 0.27042660117149353, 1.4809883832931519, -0.16845546662807465, -1.072975754737854, -0.09086045622825623, -0.4022533595561981, -0.28665053844451904, -0.21058624982833862, 0.6966272592544556, -1.207879900932312, -0.30331259965896606, 1.3129801750183105], [0.08906234055757523, 1.2405154705047607, -0.21933145821094513, -0.8365132212638855, -0.3712863624095917, 1.160874843597412, 0.2805601954460144, 1.1974852085113525, 0.034510623663663864, 0.032136790454387665, -1.530380368232727, -1.7108885049819946, -0.11875192075967789, 0.1807011067867279, 1.2816941738128662, 1.2093693017959595], [0.4628088176250458, 0.5808234214782715, -0.3389802873134613, -0.9851730465888977, -1.6933571100234985, 0.14035508036613464, -0.4781947731971741, 0.5027085542678833, -0.07951851934194565, 0.4838108420372009, -0.41702181100845337, -1.2608141899108887, -0.7698075175285339, 0.3118707835674286, 0.9302816390991211, 0.8758425116539001], [0.10747595131397247, 0.8087962865829468, 0.7827498912811279, -2.107330799102783, 0.24687066674232483, 0.6106544137001038, -0.423534631729126, 0.7196964025497437, 0.05742202699184418, 0.0682208314538002, 0.726897120475769, -0.5128183960914612, -1.0385513305664062, -0.23342935740947723, 1.0409332513809204, 1.478650450706482], [-0.19089661538600922, -0.8629022836685181, 0.6385847330093384, -1.5213741064071655, 1.061262845993042, 0.5462114214897156, -0.31464657187461853, 0.6324031949043274, -0.6450948715209961, 0.6248209476470947, 0.5390749573707581, -0.02354264073073864, -0.6037338972091675, -0.03913787379860878, 0.18237054347991943, 1.0526715517044067], [0.7460139393806458, -0.37166908383369446, -0.27238544821739197, -1.2682515382766724, 0.029472222551703453, 0.1108487918972969, 0.5967298150062561, -0.10250287503004074, -1.5178992748260498, -0.7961838841438293, -0.4954802691936493, 0.44983068108558655, -0.8350626230239868, 1.0147974491119385, 0.6983514428138733, 0.3486364185810089], [0.2825026512145996, 0.07221317291259766, 0.36821937561035156, -0.7362162470817566, 0.2745295464992523, 0.8408674001693726, 0.94661545753479, 0.2594592273235321, -0.3540395200252533, -2.8552327156066895, -0.24338720738887787, -0.07252568006515503, -1.1621371507644653, 0.32822510600090027, -0.6882305145263672, 0.5853335857391357], [0.8684646487236023, -0.46235978603363037, -0.06408621370792389, -0.8801910281181335, 0.07066898047924042, 0.45862409472465515, 0.3275125324726105, 0.3625860810279846, -0.0967322513461113, -1.5147161483764648, -1.0078327655792236, 0.07172118127346039, -1.0577654838562012, 0.4750830829143524, 0.28211402893066406, 0.013238166458904743], [-0.9321397542953491, -0.9147036075592041, 0.2390601933002472, -1.477476954460144, 0.19282886385917664, 0.6723026633262634, 1.0547157526016235, 0.32070931792259216, -0.9972738027572632, -2.6587109565734863, -0.2934446632862091, 0.09249389171600342, -1.6692739725112915, -0.20733287930488586, -0.5038740634918213, 0.07835449278354645], [-0.10994649678468704, 0.0179588720202446, 0.712697446346283, -0.662893533706665, 0.2693924307823181, 0.7912630438804626, -0.0033632824197411537, -0.5986239314079285, -1.4303584098815918, -0.057656340301036835, -0.7290119528770447, -0.462516188621521, -0.754505455493927, 1.2375835180282593, 0.5414623618125916, -0.446519136428833], [-0.9285282492637634, -0.32174673676490784, 0.508894681930542, -0.5050848722457886, -0.3033967912197113, 0.8142373561859131, 0.6314069628715515, -0.3352018892765045, 0.0004561072855722159, -0.3912104666233063, -0.809299647808075, 0.2764390707015991, 0.8591776490211487, -0.17176035046577454, 0.8324841260910034, -0.1927233636379242], [-1.7868684530258179, -1.1104888916015625, 1.4013530015945435, -1.4032385349273682, 0.9595050811767578, 1.0101096630096436, -0.08833536505699158, -0.07316583395004272, -1.7995915412902832, -0.7319775223731995, -0.5503141283988953, -0.4516795873641968, -0.8949893116950989, -0.16452482342720032, 0.4486352801322937, 0.483402281999588], [-0.564871072769165, -0.36293449997901917, 0.7891416549682617, -0.6810211539268494, 0.7019966840744019, -0.23908422887325287, 0.6880199313163757, 0.29973089694976807, 0.6974667906761169, -0.29127010703086853, -0.5126268863677979, 0.1922149956226349, 0.3957584798336029, -0.5056630373001099, 0.8102278113365173, 0.006291300989687443], [1.2174657583236694, -0.4663754999637604, 1.8950797319412231, -0.8293575048446655, 0.7101820111274719, 1.4472154378890991, -0.7331485748291016, -0.9704173803329468, -0.4006935656070709, -1.297898292541504, -1.083981990814209, -0.299546480178833, 0.9836497902870178, 0.17370139062404633, -0.26106953620910645, 1.4643161296844482], [-2.1585264205932617, -0.7586693167686462, -1.0182011127471924, -0.09394915401935577, 0.8541227579116821, 0.15105022490024567, 0.5830759406089783, 0.7312696576118469, -1.0489933490753174, -0.9634144902229309, -0.042178671807050705, -1.4457660913467407, -1.7079029083251953, 1.770962119102478, 2.098499059677124, -0.1677449494600296], [0.083600714802742, -0.7250257730484009, -0.8434931039810181, 0.5767698884010315, -0.5021751523017883, 1.7905495166778564, -1.240196943283081, -1.1850422620773315, -1.0249320268630981, -0.42434459924697876, 2.302924394607544, 0.3661782741546631, -0.9214048981666565, 0.5041202902793884, 1.9607305526733398, 0.1871810257434845], [0.009151410311460495, -0.21546684205532074, 0.5651547908782959, -1.014088749885559, -0.5263304710388184, 0.28379493951797485, -0.18943284451961517, 0.2558957636356354, -0.43325117230415344, -0.2641758918762207, 1.272229552268982, -0.8215019702911377, -0.39119774103164673, -1.1111911535263062, 1.1722471714019775, 1.7687562704086304], [0.43510958552360535, 0.8429324626922607, -0.22162121534347534, 0.4118860363960266, 0.8124014735221863, -0.3443010747432709, 0.3536669909954071, 0.9142297506332397, -0.8466072082519531, 0.6216790676116943, -0.756792426109314, -0.5992873311042786, -0.20275859534740448, 0.5543377995491028, 0.7614405155181885, 0.942972719669342], [0.41707906126976013, 0.38201090693473816, 0.05939313769340515, 0.31675684452056885, 0.006037116050720215, -0.57723069190979, 0.6612571477890015, 0.6057318449020386, 0.013620010577142239, 0.46496322751045227, -0.5349458456039429, 0.393799364566803, -0.07428911328315735, -0.4184785485267639, 0.19670875370502472, 0.5361484289169312], [0.07432812452316284, 0.07887707650661469, -0.0507543720304966, -0.015362575650215149, 0.08474914729595184, -0.042335350066423416, 0.0407465398311615, 0.016514942049980164, -0.03710203990340233, -0.004544258117675781, 0.00020086020231246948, 0.027666889131069183, 0.031953439116477966, 0.051400721073150635, 0.000639207661151886, 0.04668068885803223], [0.023150913417339325, -0.04141423851251602, 0.03226340562105179, 0.05515602231025696, -0.07078511267900467, -0.018333733081817627, -0.01105111837387085, 0.039173245429992676, -0.03701453283429146, 0.009131960570812225, 0.05266343057155609, 0.002885468304157257, 0.06968438625335693, -0.06370046734809875, -0.08246445655822754, 0.045446544885635376], [-0.05590298771858215, 0.011248037219047546, 0.03470965474843979, -0.023401640355587006, -0.0834180936217308, 0.0210370272397995, -0.043604396283626556, -0.0789862796664238, -0.008027210831642151, 0.025656752288341522, -0.005884639918804169, 0.02010899782180786, -0.04094359651207924, -0.08059972524642944, 0.06021648645401001, 0.055868685245513916], [0.05924545228481293, -0.07922094315290451, -0.07543143630027771, -0.045966800302267075, -0.08284547179937363, 0.0844242125749588, -0.08028227090835571, 0.031796976923942566, 0.018782630562782288, -0.08387194573879242, 0.00861174613237381, 0.025175437331199646, 0.03642471134662628, 0.036618925631046295, -0.07654490321874619, 0.058367401361465454], [-0.009391216561198235, -0.06307055801153183, 0.04868799448013306, 0.05635663866996765, 0.0963517352938652, 0.08277256041765213, -0.06022859364748001, 0.043454788625240326, -0.039926927536726, 0.02881018817424774, 0.059629350900650024, -0.031558725982904434, -0.04613470658659935, -0.0836264118552208, -0.02915383316576481, 0.10087285190820694], [0.5965445637702942, 1.1894792318344116, -0.7639508843421936, -1.3096318244934082, 1.376006841659546, -0.23459795117378235, -0.6336017847061157, -0.44153279066085815, 0.207756906747818, 0.19203341007232666, 0.49868330359458923, -1.363781213760376, -0.7632487416267395, -0.137466162443161, -0.29886510968208313, 1.0848445892333984], [0.5073406100273132, -1.169053316116333, 1.085971474647522, 1.1638360023498535, -1.2899585962295532, -0.5825818181037903, 0.3483487069606781, 0.31283414363861084, 0.0073860143311321735, -1.8263728618621826, 1.6552680730819702, -0.40940529108047485, 0.07024417817592621, -1.0718764066696167, 0.6420210599899292, 1.3717998266220093], [-0.23702570796012878, -0.6524612903594971, 1.102569341659546, 0.24161605536937714, 1.5772913694381714, 0.48200663924217224, -0.4617278575897217, -0.5420342683792114, -1.5780266523361206, -0.6880785822868347, 0.04858332499861717, 0.9096279144287109, -0.8360466361045837, 1.0098098516464233, -0.3873730003833771, -0.5975550413131714], [-0.46193692088127136, -0.6768169403076172, -0.5346775054931641, -1.5699033737182617, 1.7751682996749878, 0.16058854758739471, 0.5409470200538635, 0.6788279414176941, -1.6413458585739136, 0.13668496906757355, -0.47230949997901917, -0.2466835081577301, -0.891342043876648, 0.5514487624168396, 1.0700113773345947, 0.683013916015625], [0.8727697134017944, 0.49117758870124817, -0.6875289082527161, -1.4679702520370483, 0.2813444137573242, -0.09586618840694427, 0.12892837822437286, -0.19426921010017395, -0.07737550884485245, -0.33785825967788696, -1.377677083015442, 0.7258701920509338, -0.6451894640922546, 1.009475827217102, 0.10688479244709015, -0.2103581428527832], [-0.21561644971370697, 0.5374240875244141, 1.427968978881836, -0.010872462764382362, 1.040697455406189, 0.512092649936676, 0.522695004940033, 0.7297286987304688, -1.2776670455932617, -1.3995193243026733, 0.44223639369010925, 0.7481183409690857, -2.3884634971618652, -0.6853413581848145, 0.8076357245445251, 1.8813828229904175], [0.36025887727737427, -0.9835432767868042, 0.6310017704963684, -1.573516845703125, 0.13784129917621613, -0.3604605793952942, -0.4104912281036377, 0.7828150987625122, -1.7394012212753296, 0.49168911576271057, 0.5897099375724792, 1.0678387880325317, 0.09520119428634644, 0.18807755410671234, 0.334880530834198, 0.5499554872512817], [0.11827251315116882, 0.5769398808479309, -0.7502769231796265, -0.31431815028190613, 0.18907275795936584, 0.44360166788101196, -0.4787750244140625, 0.03452549874782562, -0.1316613405942917, -0.12554682791233063, 0.47253578901290894, 0.5303001999855042, -1.1038453578948975, -0.04192671924829483, 0.8190979957580566, 0.16516709327697754], [-0.24226441979408264, -0.2422615885734558, -0.8418456315994263, 0.22314804792404175, 0.39978209137916565, 0.21937982738018036, 0.6608327031135559, -0.8651442527770996, 0.7534756064414978, -0.9935348629951477, -0.10759390890598297, 0.17215339839458466, -1.8302923440933228, 0.6849073171615601, 0.38785475492477417, 0.28974345326423645], [0.819908082485199, -0.013848284259438515, -0.6667320728302002, -0.5813319683074951, 0.4772960841655731, 0.0013191071338951588, 0.5271015167236328, -0.3708009421825409, -0.0394030399620533, -0.24922792613506317, 0.006556839682161808, 0.8658066987991333, -1.5567203760147095, -0.15873421728610992, 0.6849181056022644, 0.35530292987823486], [0.5091955661773682, -0.10164378583431244, -0.11643893271684647, -1.2337039709091187, 0.31397634744644165, 0.5048506855964661, 0.5674479603767395, 0.42859968543052673, -0.4794296324253082, -0.6192055344581604, -0.5445584654808044, 0.1688995659351349, -0.7572261095046997, -1.0616704225540161, 0.9907496571540833, 0.4588094651699066], [-0.3432895541191101, 0.6049833297729492, 0.4564124643802643, -1.4755253791809082, 0.6234535574913025, 0.18481867015361786, 0.27225467562675476, -0.1688438206911087, 0.34276533126831055, -0.5272209048271179, 0.1939876824617386, 0.539888858795166, -0.5428035855293274, 0.97568279504776, 0.4127180576324463, -0.320516437292099], [0.44391295313835144, 0.3467559814453125, 0.27969664335250854, -1.2001938819885254, -0.4941754937171936, 0.09725575894117355, -0.37644830346107483, -0.8220160007476807, -0.6416599750518799, -1.6391932964324951, 0.9179320335388184, 0.6174686551094055, -0.43665358424186707, 0.5096051096916199, 0.9510228037834167, 0.4107021987438202], [0.21410079300403595, 0.6189717650413513, 0.7069173455238342, -0.6316178441047668, -0.012045972980558872, 0.25191035866737366, 0.13215182721614838, 0.5114026069641113, -0.5288531184196472, -0.8291303515434265, -0.5352791547775269, 0.7223190665245056, -0.8243506550788879, -0.02983970195055008, 0.1348215937614441, 0.026797370985150337], [-0.2540419101715088, -0.3135766088962555, 0.9382842183113098, -0.21824532747268677, 0.6181050539016724, -0.045422762632369995, 0.5881215929985046, 0.05932234600186348, -0.06688067317008972, 0.11636893451213837, -0.360383540391922, -0.057847633957862854, -0.6490308046340942, 0.5139483213424683, 0.2626236379146576, -0.7302045822143555], [-1.00149667263031, -0.16011318564414978, -0.30548232793807983, -0.5851698517799377, 0.19093552231788635, -0.3634740710258484, 0.234949991106987, -0.33250200748443604, 0.6051123142242432, -0.04114845022559166, 0.21750009059906006, 0.08548496663570404, -0.0621751993894577, -0.4882059097290039, -0.027848947793245316, 0.035203807055950165], [-1.1351542472839355, 0.21631047129631042, -0.625773549079895, -0.4505223333835602, -0.03367118537425995, -0.1836819052696228, -0.27134469151496887, 0.1726798266172409, 0.15932512283325195, -1.2317646741867065, -0.9282867908477783, 0.15548007190227509, -0.6406387686729431, -0.5190194845199585, 0.8259530663490295, 0.698310911655426], [-1.4106162786483765, -0.11303608864545822, 0.2967541515827179, -0.5845458507537842, 0.36552658677101135, -0.966553807258606, 0.06921342015266418, -0.39644739031791687, 0.29506197571754456, 0.8068641424179077, -0.4728994369506836, 0.4633117914199829, -1.2690407037734985, -0.048705216497182846, -0.9999200105667114, -0.604397177696228], [-0.5258160829544067, 0.1720370501279831, -0.45099905133247375, -0.31739458441734314, -0.5656511187553406, -0.5826456546783447, -0.9304558634757996, -0.45964401960372925, -1.7022695541381836, -0.4718892276287079, 1.1352319717407227, -0.3264099061489105, -0.0339164137840271, -0.3737207353115082, -1.4032530784606934, 1.4415500164031982], [-0.8494409322738647, 0.04881799593567848, 0.37124040722846985, -0.07359793782234192, 0.40133845806121826, 0.05916512757539749, -0.02084895223379135, 0.3611030578613281, 0.1705130636692047, -1.2650490999221802, -0.8734629154205322, -0.049209777265787125, 0.9412553310394287, -0.2838127911090851, -0.07982423156499863, 0.5662685632705688], [-0.8443881869316101, 0.8719623684883118, 0.039023783057928085, -0.9334139227867126, 0.7095552086830139, 1.88496732711792, -2.0427119731903076, 0.38440200686454773, 0.21275196969509125, 0.7853111028671265, -1.2238848209381104, -0.21647226810455322, -0.9485500454902649, -0.11314640194177628, -0.4617721140384674, -0.2850796580314636], [-0.9391682744026184, -0.9567869901657104, 1.7664060592651367, -0.5726746916770935, 0.10747476667165756, -0.011733241379261017, -1.653541922569275, -1.2829779386520386, -1.9234567880630493, 1.1365751028060913, 1.791159749031067, 0.09419026970863342, 0.009523233398795128, -0.6245054602622986, 1.21620512008667, 1.1842595338821411], [1.099367380142212, 0.676419198513031, -1.4152811765670776, 0.28616052865982056, 0.9575648903846741, 0.17981402575969696, -0.4623033106327057, 0.06257344782352448, -0.6320033073425293, 1.2727259397506714, 0.46035733819007874, -0.5686604380607605, 0.6036424040794373, 0.5849204063415527, 0.6162075400352478, -0.44441813230514526], [0.08384543657302856, -0.7566967606544495, 0.0146932452917099, -0.1602940708398819, 0.8330447673797607, 0.6912052631378174, -0.35222554206848145, -0.711600124835968, -0.4091610908508301, -0.025035109370946884, -0.21835677325725555, -1.1060035228729248, -0.4262208640575409, 0.9530559182167053, 0.29248398542404175, 1.2556465864181519], [-0.003646254539489746, 0.03868933022022247, -0.014277525246143341, -0.04643120616674423, -0.03636464849114418, 0.05081331729888916, 0.011557191610336304, 0.06686240434646606, 0.024298548698425293, -0.014485545456409454, -0.02658841758966446, 0.05069120228290558, 0.0776100903749466, -0.018788330256938934, -0.051857903599739075, 0.06442266702651978], [-0.05091271921992302, 0.04401078820228577, -0.016321785748004913, -0.037793733179569244, -0.06149670481681824, 0.03175599128007889, -0.006780587136745453, 0.04316592216491699, -0.03435191512107849, -0.04847635701298714, -0.05935665965080261, 0.06888644397258759, 0.026951715350151062, -0.06402038782835007, 0.023827888071537018, -0.005512341856956482], [-0.03324288874864578, -0.05201053246855736, -0.060281239449977875, 0.05026686191558838, 0.016674362123012543, 0.03510665148496628, -0.06577122211456299, 0.02211529016494751, 0.0648711770772934, 0.05545276403427124, 0.05494764447212219, 0.019535712897777557, 0.031959615647792816, 0.0861731469631195, 0.03549879044294357, -0.02340560406446457], [0.8434663414955139, 0.026600204408168793, 0.6114329695701599, -0.007746793329715729, -0.8299039006233215, -0.7843748331069946, 0.9060355424880981, 0.8811697959899902, 0.833013653755188, 0.7142766118049622, -0.7870557308197021, 0.5131118297576904, -0.05416493117809296, -0.022639146074652672, -0.6858246326446533, -0.5889931321144104], [-0.9559252262115479, 0.463840514421463, -0.46125325560569763, 0.3292274475097656, 1.8038314580917358, -0.3473258316516876, 0.3015373945236206, -0.06972824037075043, 0.06791101396083832, -0.25258833169937134, 0.7663094401359558, 0.26131853461265564, 0.9301539063453674, -1.0558463335037231, -0.5699694156646729, -1.0020909309387207], [0.9554129242897034, -0.6010451316833496, 1.0008805990219116, 0.6918859481811523, 2.582977533340454, -0.7919836044311523, -0.9723243117332458, -1.0989058017730713, -0.09536349028348923, 1.5793501138687134, -0.8855680227279663, 1.5032222270965576, -0.42637547850608826, 0.12495848536491394, -0.49220511317253113, 0.3662586510181427], [0.281825453042984, -0.5897133946418762, 0.687816321849823, -1.3363908529281616, -0.22753320634365082, 0.6380918025970459, 0.36607077717781067, 0.6458655595779419, -0.5307019948959351, -0.4848511517047882, -0.3385322093963623, 0.004474068991839886, 0.5574565529823303, 0.3962676227092743, 1.085190773010254, 0.7202959060668945], [-0.1165475994348526, 1.3390083312988281, 0.10928672552108765, -1.4704476594924927, 0.5198248624801636, -0.007978937588632107, -0.5587869882583618, -0.19532445073127747, -1.1837332248687744, 0.05093695968389511, -0.6987064480781555, 0.912652850151062, 0.3151896595954895, 0.9446584582328796, 0.2208554744720459, 0.5053938627243042], [-1.2539278268814087, 0.2742557227611542, 1.3641152381896973, -0.315542608499527, -0.03450585529208183, -0.8978192806243896, -0.31263989210128784, 0.6281001567840576, -1.3047679662704468, 1.3421858549118042, 0.1262633502483368, 0.5011528134346008, 0.3411511182785034, -0.2845882475376129, 0.4169321656227112, -0.6458221077919006], [0.7636377215385437, 0.09672638773918152, 0.6754574179649353, -1.3232938051223755, 0.6129052639007568, 0.9837424755096436, -0.675494372844696, -0.7927489280700684, -0.31180843710899353, 0.2143215835094452, -0.5970092415809631, -0.061659879982471466, -0.6246268153190613, 0.314840704202652, 0.6581196784973145, -0.4149802625179291], [-0.15750432014465332, -0.0022187044378370047, -0.7415610551834106, -2.8101091384887695, 0.10647017508745193, 0.3084275424480438, 0.3219241797924042, 0.227469339966774, -0.7560747265815735, 0.06169954687356949, -0.3113103210926056, 1.1357321739196777, -0.9898714423179626, 0.2663131356239319, 0.991607666015625, 0.5523823499679565], [0.37047064304351807, -0.9464403986930847, 0.07488461583852768, -0.444235235452652, 0.41916269063949585, 0.0799180418252945, 0.014283757656812668, -0.1418578177690506, -1.0261578559875488, -0.1887550801038742, -0.39833390712738037, 0.7783726453781128, -0.1441032737493515, 0.49781057238578796, 0.19842363893985748, 1.1721142530441284], [-0.03213974088430405, 0.553375780582428, 0.8124666810035706, -1.547454595565796, 0.2496582716703415, -0.12137889862060547, 0.17012722790241241, -0.4991912543773651, 0.39932316541671753, 0.4411417543888092, -0.029225561767816544, 0.49693381786346436, 0.2901791036128998, -0.6144904494285583, 0.6153764724731445, 0.10765977203845978], [-0.37311476469039917, 0.45588886737823486, 0.13623854517936707, -1.0482183694839478, 0.0976889505982399, 0.13687168061733246, 0.14220787584781647, -0.03138011693954468, -0.53886479139328, 0.3069184422492981, -0.10448434203863144, 0.7960589528083801, -0.15704861283302307, 0.23940381407737732, 0.37284162640571594, 0.29036659002304077], [0.07479534298181534, 0.1225375384092331, 0.37993571162223816, -0.8022894263267517, -0.3367432951927185, -0.4589707553386688, -0.14216724038124084, 0.0119789969176054, 0.016487667337059975, 0.057667989283800125, 0.5523564219474792, 0.07817380875349045, 0.23981402814388275, 0.006325711030513048, 0.3278927505016327, -0.55755615234375], [0.825197160243988, 0.018142590299248695, 0.29987019300460815, -0.8935065865516663, 0.004271040670573711, -0.04703937843441963, -0.07098610699176788, -0.15463469922542572, -0.25173500180244446, -0.5513257384300232, -0.2819618880748749, 0.549014687538147, -0.24560754001140594, -0.5180684924125671, 0.668372631072998, -0.3243961036205292], [-0.39544981718063354, 0.3897547125816345, 0.2829577326774597, -0.4216720461845398, -0.4101913273334503, 0.09133648127317429, 0.2009383887052536, -0.29116272926330566, -0.16634047031402588, -0.2977340519428253, 0.19539672136306763, 0.08682487905025482, -0.1496228128671646, 0.2516820728778839, 0.0062314230017364025, -0.7996252775192261], [-0.33166924118995667, 0.0008480570977553725, -0.2011631280183792, -1.0256272554397583, -0.1943204402923584, -0.0728599950671196, 0.09891752153635025, 0.5625753998756409, -0.16872818768024445, -0.37947383522987366, 0.6083494424819946, 0.19114387035369873, -0.1580973118543625, -0.3282789885997772, 0.2957838177680969, -0.11868920177221298], [-0.030444711446762085, -0.6850966811180115, -0.08962663263082504, 0.1543133556842804, 0.1254839450120926, 0.2898291051387787, -0.18710356950759888, 0.2917196452617645, -0.527034342288971, -0.4086465835571289, 0.23436763882637024, 0.38746878504753113, 0.21787866950035095, -0.1259179562330246, 0.02582612819969654, 0.045016076415777206], [0.1415426880121231, -0.08569929003715515, -0.08051418513059616, -0.4521809220314026, -0.3290961682796478, -0.3365098536014557, 0.2038930058479309, -0.1093248501420021, -0.2504602372646332, 0.3589746654033661, 0.4791524112224579, 0.0003778511891141534, -0.012306046672165394, 0.06516982614994049, -0.3309937119483948, 0.02607152983546257], [-0.07222718745470047, 0.2670383155345917, 0.6247913837432861, -0.42128849029541016, -0.18397065997123718, 0.11563696712255478, -0.016197020187973976, -0.07106412202119827, -0.025480378419160843, -0.6956169009208679, 0.06312309950590134, 0.5073293447494507, -0.12813907861709595, 0.3340132534503937, 0.2525500953197479, -0.47024649381637573], [-0.7915500998497009, -0.07937008142471313, -0.1913025677204132, -0.30105069279670715, -0.057417187839746475, 0.17416834831237793, 0.31206247210502625, -0.32257193326950073, 0.03552204370498657, 0.01001868024468422, -0.3950613737106323, 0.05499931424856186, 0.1958487182855606, 0.002745414152741432, 0.10476843267679214, -0.14108431339263916], [0.29361018538475037, -0.10267630219459534, 0.6194278001785278, -0.4482133686542511, 0.4554472863674164, 0.3114210069179535, 0.1002059057354927, 0.13955940306186676, -0.014488136395812035, 0.2673666775226593, -0.4707050025463104, 0.20773851871490479, 0.23126505315303802, 0.18626493215560913, -0.343318909406662, 0.15351487696170807], [-0.7932724952697754, -0.33696088194847107, -0.22371716797351837, -0.2312750667333603, -0.11218210309743881, 0.00042610184755176306, -0.20755116641521454, -0.28299105167388916, -0.34182336926460266, -1.0336530208587646, 0.49855542182922363, 0.7122278809547424, 0.025362521409988403, 0.4415154457092285, -0.07721066474914551, -1.0413671731948853], [-0.2251894772052765, -0.25866660475730896, -0.5706566572189331, -0.2754826843738556, -0.08274366706609726, -0.5998755693435669, -1.1265623569488525, -0.32554301619529724, 0.26515549421310425, 0.14448589086532593, 0.26927661895751953, -0.06760694086551666, 1.3092790842056274, -0.37950146198272705, -0.46225273609161377, 0.17440994083881378], [-0.273727685213089, -0.15951143205165863, 0.1028243750333786, -0.36088675260543823, 0.6105687618255615, -0.7159314751625061, -1.7772319316864014, -0.33683034777641296, 0.7548868656158447, 0.3452048599720001, 0.6400542855262756, 0.3563801348209381, 0.23957008123397827, -1.583386778831482, -0.9483463764190674, -0.2427660971879959], [-0.41148608922958374, -0.10457520931959152, 0.4738249182701111, -0.40466979146003723, -0.393958181142807, -0.6038355231285095, 0.551286518573761, 0.3503293991088867, -0.41678792238235474, -0.2985585033893585, 0.41605380177497864, -0.24030540883541107, 0.10119791328907013, 0.4826042950153351, 0.35391148924827576, 0.1814877688884735], [-0.038175541907548904, -1.6204824447631836, 0.21814283728599548, 0.6977765560150146, -0.1776452511548996, 0.37066563963890076, -0.6274673342704773, -0.09329652041196823, -0.3492679297924042, -1.161370873451233, 0.16705821454524994, 0.9169987440109253, 0.5851119756698608, -1.0592931509017944, 0.5433923006057739, 1.0145823955535889], [-0.05781989544630051, -0.04570159688591957, -0.07172001898288727, 0.20671328902244568, 0.6462801694869995, 1.026674747467041, -0.8242886662483215, 0.3038090169429779, -0.22611922025680542, 0.667149007320404, 0.6303225755691528, -0.7833189368247986, 0.13730064034461975, 0.6661412715911865, 0.17129375040531158, 0.5387923121452332], [0.05481475591659546, -0.053220029920339584, 0.06558698415756226, 0.07610853016376495, -0.03068586066365242, -0.021282359957695007, 0.05273859202861786, 0.010436400771141052, 0.02104475349187851, 0.06576347351074219, -0.04012124240398407, 0.0672064870595932, -0.08036145567893982, 0.08305886387825012, 0.08003486692905426, 0.08492240309715271], [0.08479326963424683, 0.050138041377067566, -0.050078943371772766, -0.020340003073215485, -0.03109293058514595, 0.005697950720787048, -0.006825022399425507, 0.052902951836586, -0.026178251951932907, 0.006922975182533264, 0.0036998093128204346, 0.027576081454753876, -0.03034529834985733, -0.0686284676194191, 0.012959621846675873, 0.003807470202445984], [-0.2303469181060791, 0.9465116858482361, 0.04122704267501831, -0.6076906323432922, 0.12399100512266159, -0.030614124611020088, 0.35313501954078674, 0.7974846363067627, 0.8801528215408325, -0.18583890795707703, -0.8772655725479126, -0.33727923035621643, -0.1092754602432251, 0.09470044821500778, 0.3884527385234833, 0.34705761075019836], [0.5647749900817871, 0.312426894903183, 2.347659111022949, -0.6642438173294067, 0.37751081585884094, -0.8315739035606384, -0.6533097624778748, -0.8344743847846985, 0.8157998323440552, 0.649547815322876, -0.6661621332168579, 1.672153115272522, -2.5328657627105713, 1.1829429864883423, 0.17926669120788574, 1.686696171760559], [-0.11835787445306778, -1.4993906021118164, 0.15356072783470154, -0.8699201345443726, 0.4083420932292938, 0.7354415059089661, -0.12747788429260254, 0.5262676477432251, -0.8809763193130493, -0.30279234051704407, -0.2577481269836426, 0.8101686835289001, -0.14388945698738098, 0.22459082305431366, -0.6395168900489807, 1.9146265983581543], [0.15083974599838257, 0.5639612674713135, 0.5335658192634583, -1.9686906337738037, 0.9169715046882629, -1.289514422416687, -0.6906452178955078, 0.24402041733264923, 0.08287064731121063, 0.6900386810302734, -0.04164403676986694, 0.7900521159172058, 0.668982207775116, 0.14302439987659454, -1.4466904401779175, 0.22703687846660614], [0.2230377197265625, -0.3009016811847687, -0.07995136082172394, -0.30815744400024414, -0.0491383895277977, -0.621696412563324, 1.1069430112838745, -0.2651500999927521, 0.48078736662864685, -0.11259667575359344, 0.3023447096347809, 1.2851758003234863, -0.06814321875572205, 0.7524451017379761, -0.33389729261398315, 0.2729772627353668], [0.2413032501935959, -0.43931806087493896, -0.6659181714057922, 0.5883057117462158, 0.8562577366828918, 0.17140914499759674, -0.04067819193005562, -0.5764583349227905, -0.4547068774700165, 0.0076935007236897945, -0.15833048522472382, -0.2116946280002594, -0.5818336009979248, 0.5446926951408386, -0.7312332391738892, 1.0951902866363525], [-0.42474982142448425, 0.21627910435199738, -0.05061390623450279, 0.4795249104499817, 0.12792275846004486, -0.5003475546836853, 0.7881327867507935, -0.2984238266944885, 0.8365793228149414, 0.3348901867866516, 0.4067568778991699, 0.7477134466171265, 0.5288419127464294, -0.036736104637384415, 0.5756281614303589, -0.44294777512550354], [-0.055735994130373, 0.6421952247619629, 0.06657060235738754, -0.635466992855072, -0.16329121589660645, 0.19627851247787476, 0.1517360508441925, -0.7910003066062927, 0.24155452847480774, 0.09317712485790253, 0.2222163826227188, 0.3407706618309021, 0.014853968285024166, 0.5322132706642151, 0.322469025850296, 0.19168829917907715], [-0.13371968269348145, 0.3037078380584717, 0.3547639846801758, -0.3429563641548157, 0.6636399030685425, 0.5316773056983948, 0.00551473256200552, 0.3219338357448578, -0.06618816405534744, 0.2274738997220993, 0.3193458914756775, -0.17927612364292145, 0.45107534527778625, -0.1430005431175232, 0.4130021929740906, -0.1866106241941452], [-0.17883983254432678, -0.07894767820835114, 0.1987677663564682, -0.3531663715839386, -0.26777467131614685, -0.1869252324104309, 0.23863980174064636, -0.4288959205150604, 0.12186182290315628, 0.6836866140365601, -0.003818237455561757, 0.35061144828796387, -0.2598058879375458, -0.33317703008651733, 0.2025330662727356, -0.26310038566589355], [-0.07472727447748184, 0.0835609957575798, 0.3980296552181244, 0.26744621992111206, 0.006455959752202034, 0.17134825885295868, -0.1860441267490387, 0.0900857225060463, -0.15879133343696594, 0.09928804636001587, -0.019169460982084274, 0.5028005838394165, 0.05375637486577034, -0.33844444155693054, 0.4670763909816742, -0.2302989959716797], [0.18371012806892395, -0.09864074736833572, 0.4030626118183136, -0.47881945967674255, 0.2536957859992981, -0.13063864409923553, -0.17869475483894348, -0.2235179841518402, -0.0457475520670414, 0.5331836342811584, 0.2022121250629425, 0.05960972607135773, -0.12524646520614624, 0.3815329372882843, 0.2995438575744629, 0.3919095993041992], [0.022408101707696915, -0.02170306257903576, 0.0780712217092514, -0.2522643208503723, 0.08550168573856354, -0.12895067036151886, -0.10646610707044601, -0.09977351129055023, 0.12470299005508423, -0.05511629581451416, 0.1606551855802536, 0.3913172781467438, 0.08846551179885864, -0.09671557694673538, 0.4797818958759308, -0.2901597023010254], [0.5120029449462891, -0.19489869475364685, 0.019075924530625343, -0.2896820306777954, -0.0525176003575325, -0.14822573959827423, 0.13590921461582184, -0.01659529283642769, 0.03456571325659752, -0.24718034267425537, 0.14156784117221832, -0.08486872911453247, -0.34821149706840515, -0.475247323513031, 0.23447345197200775, -0.3913849890232086], [-0.09025949239730835, 0.4638364613056183, 0.3437475264072418, -0.2812363803386688, -0.03990475460886955, -0.04744275286793709, 0.19426211714744568, -0.1850508153438568, -0.5237210392951965, 0.150365948677063, 0.3702274560928345, 0.2237841635942459, 0.08948779106140137, 0.15816207230091095, 0.05701187625527382, 0.06540995091199875], [0.24906446039676666, 0.29352763295173645, -0.19862602651119232, 0.13707855343818665, -0.011230994015932083, 0.22918850183486938, 0.42356225848197937, -0.1181376725435257, 0.22346702218055725, -0.051926784217357635, 0.2367766946554184, -0.026581289246678352, -0.3036264479160309, 0.015087185427546501, 0.10968896001577377, -0.2427523136138916], [-0.5204577445983887, -0.054503731429576874, 0.0034096932504326105, 0.2714393734931946, 0.19144602119922638, 0.36466461420059204, 0.02101004682481289, 0.38121306896209717, -0.16789431869983673, -0.31047624349594116, 0.35964348912239075, 0.6311953663825989, -0.07627320289611816, 0.470347136259079, 0.0770861953496933, -0.04593684524297714], [-0.25836098194122314, 0.15303181111812592, 0.3883192241191864, -0.3643028736114502, -0.2239399403333664, -0.0005772638251073658, 0.1417609304189682, 0.093717560172081, -0.19912125170230865, 0.05689992010593414, -0.028446272015571594, 0.1239333376288414, -0.6313838362693787, 0.39754292368888855, 0.20548534393310547, 0.13713744282722473], [-0.9717531800270081, 0.2810707688331604, -0.13891007006168365, -0.024840444326400757, 0.3035120368003845, 0.19659045338630676, 0.4668642282485962, -0.16025173664093018, 0.2966494858264923, -0.5173730850219727, -0.25408095121383667, 0.5570659637451172, -0.025526363402605057, 0.1699173003435135, 0.2798019051551819, -0.030389346182346344], [0.19754447042942047, -0.26206713914871216, -0.2578268349170685, -0.7197328209877014, -0.36730048060417175, 0.48916319012641907, 0.1169726699590683, 0.16490928828716278, -0.5278271436691284, -0.1768745630979538, -0.08650115132331848, 0.15127518773078918, -0.391849547624588, 0.019460609182715416, 0.07009603083133698, 0.4329700767993927], [-0.1412295252084732, 0.20544351637363434, -1.0168884992599487, 0.23060625791549683, -0.551849901676178, -0.4164988398551941, 0.14343798160552979, 0.11125830560922623, -0.22399765253067017, 0.1185862347483635, 0.7536166310310364, 0.10098160803318024, 0.04191085696220398, -0.00891442596912384, -0.27388760447502136, 0.1696958988904953], [-0.9795519709587097, -0.2714374363422394, 0.7240911722183228, -0.3794926702976227, -0.4085710048675537, 0.0343221053481102, 0.08681192994117737, -0.45159512758255005, -1.0763576030731201, -1.3078067302703857, -0.6549105644226074, -0.32049286365509033, -0.13341255486011505, 0.2616533637046814, 0.2553779184818268, 0.614240825176239], [-0.5119945406913757, -1.1183918714523315, -0.821783185005188, -0.5352850556373596, 0.523556113243103, 0.5697765350341797, -0.4935500919818878, -0.4837625026702881, -0.6528654098510742, -0.04799278825521469, -0.677252471446991, 0.02826869674026966, 0.18625907599925995, 0.5230665802955627, -0.18097975850105286, 0.45789873600006104], [-0.1130768284201622, 0.440329909324646, 0.20744279026985168, 0.3712071478366852, -0.15372058749198914, 0.06176729500293732, -0.8074369430541992, -1.6281263828277588, -0.23219826817512512, 1.038015604019165, 0.1588970273733139, 0.9793928861618042, 0.8031828999519348, -0.12064830213785172, 0.840489387512207, -1.2021596431732178], [-0.48312801122665405, -1.3412439823150635, -1.0407031774520874, -1.2706834077835083, -0.44024407863616943, 1.3020790815353394, 0.4074731767177582, 0.08610878884792328, -0.6953142285346985, -0.7653403282165527, 1.3559012413024902, 0.9894503951072693, 0.520148754119873, -0.9648565053939819, 0.3490908443927765, 2.0382518768310547], [-0.0380275696516037, -0.17647987604141235, 0.07550539076328278, -0.4296647012233734, 0.02830716036260128, 0.6449020504951477, 0.2564571499824524, -0.6981702446937561, 0.9225044250488281, -0.46581876277923584, 1.1515381336212158, -1.3358319997787476, 0.38086146116256714, 1.3932610750198364, -0.1539088934659958, 1.4045300483703613], [0.009038962423801422, -0.08136457949876785, -0.015091761946678162, -0.05780032277107239, 0.07793934643268585, 0.05314427614212036, -0.05276088789105415, 0.015731140971183777, -0.017885036766529083, 0.06613075733184814, 0.06344462931156158, 0.04669180512428284, -0.019449181854724884, -0.01913907378911972, -0.06164109334349632, -0.005618870258331299], [0.056283995509147644, -0.02415855973958969, 0.08502127230167389, 0.00179213285446167, 0.06580346822738647, -0.04576106742024422, 0.07255317270755768, 0.003392428159713745, -0.0354817770421505, 0.03637427091598511, -0.009646646678447723, -0.017504028975963593, 0.03729379177093506, -0.05193593353033066, -0.049757108092308044, -0.06497865915298462], [-1.4478203058242798, -0.7265141606330872, 0.022936232388019562, -0.10641645640134811, 1.1063592433929443, -0.5233616232872009, 0.5857486724853516, -1.4798893928527832, 0.26403382420539856, -0.5585819482803345, 1.3265928030014038, 1.135761022567749, -0.4750363528728485, -0.8848585486412048, -0.3337632119655609, 1.5920460224151611], [-0.7392613291740417, 0.7108803391456604, -0.677579939365387, 1.3631123304367065, 0.4993191361427307, -0.4218706786632538, -1.1998244524002075, 1.3395490646362305, 0.8086628317832947, 0.29198506474494934, -0.3522142767906189, 0.7997892498970032, 0.9266546368598938, 0.12217748165130615, -1.4674861431121826, 0.12065667659044266], [-0.4416814148426056, -0.9567590355873108, -0.6651991605758667, 0.19328513741493225, 0.0351451151072979, 0.5434529185295105, 0.17960752546787262, 1.267358660697937, 0.09502880275249481, -0.08047262579202652, 0.5302519798278809, 0.9919361472129822, -0.037893909960985184, 0.8981516361236572, -0.5421434044837952, 1.3670939207077026], [0.12781091034412384, 0.81252521276474, -0.29542967677116394, -0.34356391429901123, 1.1590172052383423, 0.8245709538459778, 0.5066665410995483, -0.7712283730506897, 0.7145348787307739, 0.12489132583141327, 0.9419917464256287, 0.010092359967529774, 1.1699919700622559, 0.007880756631493568, -0.16261805593967438, 0.42040443420410156], [0.3165389597415924, -0.5055873394012451, -0.15495187044143677, 0.18081936240196228, -0.2903166711330414, 0.024339981377124786, 0.21201062202453613, -0.1652248650789261, 0.2685048282146454, 0.18208274245262146, -0.724561333656311, -0.0699303075671196, -0.2134009748697281, -0.10755719244480133, 0.5629891753196716, 0.7788822650909424], [0.1511349081993103, -0.588195264339447, 0.2810099124908447, -0.13198135793209076, -0.23325741291046143, 0.4573153257369995, 0.13490821421146393, 0.38565120100975037, -0.21909800171852112, 0.28393256664276123, -0.09623788297176361, 0.27456042170524597, 0.034173328429460526, -0.06478472799062729, -0.06973236054182053, -0.2504686415195465], [-0.11137983202934265, -0.19726994633674622, 0.634742021560669, 0.039521969854831696, 0.5117135643959045, -0.30205366015434265, -0.13010814785957336, 0.1459684669971466, 0.12701429426670074, 0.15329976379871368, -0.2860533893108368, -0.19971956312656403, -0.004184728022664785, 0.1872197538614273, -0.02417071908712387, -0.3021353781223297], [0.052020035684108734, -0.6190358400344849, 0.002095423173159361, 0.751867949962616, -0.24579820036888123, 0.015480946749448776, 0.1541707068681717, -0.45409995317459106, -0.06107773631811142, 0.26322755217552185, -0.2148057371377945, 0.8476269841194153, -0.07275265455245972, -0.07934147119522095, 0.36865460872650146, -0.32369211316108704], [0.11069965362548828, 0.10052687674760818, 0.02783026732504368, 0.12579835951328278, -0.10212349146604538, -0.23221634328365326, 0.4521174430847168, 0.08015982061624527, 0.2526457607746124, -0.19516049325466156, 0.11916716396808624, 0.10099565982818604, -0.3004875183105469, 0.05794810131192207, 0.49029889702796936, 0.26307088136672974], [0.18956829607486725, 0.16665172576904297, -0.02864031493663788, 0.0647166296839714, -0.010919753462076187, 0.21360322833061218, 0.1969154179096222, -0.5750619769096375, -0.10721243917942047, -0.09480760991573334, -0.48553892970085144, 0.08596467971801758, -0.0021424072328954935, -0.2092808037996292, 0.0409303680062294, 0.14987285435199738], [-0.09149904549121857, 0.19028976559638977, 0.06186792626976967, -0.05793238431215286, 0.07687459141016006, 0.050651438534259796, 0.21449622511863708, -0.2022748738527298, 0.48242509365081787, 0.7782316207885742, 0.0645332783460617, 0.048264022916555405, 0.06500352174043655, -0.20982341468334198, 0.2469802349805832, 0.40494710206985474], [-0.23263832926750183, -0.15845800936222076, 0.35238218307495117, 0.2678033411502838, -0.13167554140090942, -0.029800038784742355, 0.12594085931777954, -0.45803409814834595, -0.22783571481704712, 0.6261414885520935, -0.16833214461803436, 0.41053473949432373, -0.15460893511772156, -0.1098497286438942, 0.16102121770381927, 0.5427478551864624], [-0.004345105495303869, 0.3082956373691559, 0.008846424520015717, 0.349543035030365, -0.1219373270869255, 0.22693373262882233, 0.06716252118349075, 0.13453756272792816, 0.3585169017314911, 0.45908239483833313, 0.21300165355205536, 0.16339628398418427, -0.08131367713212967, -0.6273390054702759, 0.494383841753006, 0.38023316860198975], [0.24310491979122162, 0.19901861250400543, 0.03211908042430878, 0.5211359262466431, 0.21809498965740204, 0.235326886177063, -0.18546198308467865, 0.10922212153673172, 0.06947561353445053, 0.05193684250116348, -0.05385637655854225, -0.09329187870025635, -0.27287012338638306, -0.1927349716424942, 0.30290934443473816, 0.1220034658908844], [0.24506530165672302, 0.07576311379671097, 0.35994386672973633, 0.05687367171049118, 0.1508549302816391, -0.038344044238328934, 0.09131083637475967, -0.09350918233394623, 0.1585828959941864, 0.08028384298086166, 0.007332607172429562, 0.37368980050086975, -0.3030626177787781, -0.07379814982414246, 0.214522123336792, 0.03556818142533302], [-0.163657084107399, 0.3353002369403839, -0.036256756633520126, 0.5122715830802917, 0.081250861287117, 0.02989203855395317, -0.006957418285310268, -0.0524120107293129, 0.2836219072341919, -0.47182461619377136, 0.17062032222747803, 0.10747209936380386, -0.01219483744353056, -0.21003977954387665, 0.5476911664009094, -0.34281274676322937], [-0.05114220827817917, -0.4694119691848755, -0.04875994473695755, -0.03962794318795204, -0.3132699131965637, 0.07256028801202774, -0.17626416683197021, 0.0370657704770565, 0.5891280770301819, -0.13573746383190155, -0.32343050837516785, 0.17366379499435425, -0.08565693348646164, 0.023343641310930252, 0.7648327946662903, -0.7750567197799683], [-0.2170870155096054, 0.4484652876853943, -0.2407594472169876, 0.07001848518848419, -0.5779096484184265, -0.1310553103685379, -0.1901906281709671, 0.3188939392566681, 0.2410254031419754, -0.37074166536331177, 0.025284767150878906, 0.18553301692008972, 0.23241175711154938, -0.32759997248649597, 0.6423336863517761, -0.20732034742832184], [-0.6273912191390991, -0.30278337001800537, 0.12180665880441666, 0.07698153704404831, -0.5418035387992859, 0.2848356068134308, 0.059717461466789246, -0.2048722803592682, 0.14345817267894745, 0.37263432145118713, -0.06931012123823166, 0.012690233066678047, -0.01670917496085167, -0.13890542089939117, 0.5799543261528015, -0.10313303023576736], [-1.0076152086257935, -0.013598225079476833, -0.19190818071365356, -0.29230746626853943, 0.4522680938243866, -0.6160945892333984, -0.4733583629131317, 0.08683975785970688, 0.614825427532196, 0.5108048319816589, -0.005022470373660326, 0.6653434038162231, 0.2996043264865875, 0.03540654107928276, 0.2060476839542389, -0.11743320524692535], [-0.3318580090999603, 0.3574632704257965, 0.3337625563144684, 0.18952621519565582, -0.4767530858516693, -0.04768795892596245, 0.10336560755968094, 0.02026176266372204, -0.1948213428258896, -0.00018763172556646168, -0.03146853670477867, 0.3759934604167938, -0.36830583214759827, -0.028985384851694107, 0.12648579478263855, 0.131239652633667], [-0.027037443593144417, -0.2043444812297821, 0.13730131089687347, -0.0028786787297576666, -0.49526679515838623, 0.19993431866168976, -0.22080098092556, -0.045740123838186264, 0.2538592517375946, 0.07731842994689941, 0.208854079246521, -0.10431462526321411, -0.33951035141944885, 0.1946215033531189, 0.17124660313129425, -0.237981379032135], [-0.1999048888683319, -0.20266900956630707, -0.5480678081512451, 0.6127991080284119, -0.7780396938323975, 0.11522537469863892, 0.6472285389900208, -0.36054062843322754, 0.3638589382171631, -0.9501346349716187, -0.025339700281620026, 0.4411950707435608, -0.09265666455030441, 0.0879063680768013, -0.42714443802833557, 0.0667107030749321], [0.3292078971862793, -0.6757643222808838, 0.40348151326179504, -1.134529948234558, -0.13105830550193787, 1.3139622211456299, 0.041596148163080215, 0.06023363396525383, 0.5646661520004272, -0.8752973675727844, -0.05044494569301605, 0.5791462659835815, 0.16367357969284058, -1.0667375326156616, 0.8116492033004761, 0.7166410088539124], [-0.21892422437667847, 0.500007688999176, -0.2352023422718048, 1.0563476085662842, 0.2035287469625473, 0.6207492351531982, 0.6433825492858887, -0.5961200594902039, 0.5089595913887024, -0.6136528849601746, -0.048491284251213074, 0.8022879362106323, -0.0984860509634018, 0.09468893706798553, 0.4073731601238251, 0.396208792924881], [0.010337263345718384, -0.8450098037719727, 0.3360927700996399, -0.04014691710472107, 1.065096139907837, 0.48400261998176575, 0.6460601687431335, 0.3411301076412201, -0.8672056794166565, -0.093142569065094, -0.8858687281608582, 0.052715979516506195, 0.7467363476753235, -0.6517608761787415, -0.5504502058029175, 0.8408691883087158], [0.03437163680791855, -0.08081762492656708, 0.01590084284543991, -0.061593253165483475, -0.05090850591659546, 0.03472016751766205, 0.011779733002185822, -0.03274847939610481, 0.0005541592836380005, -0.0652519166469574, 0.07240729033946991, 0.07918326556682587, 0.029160313308238983, 0.059899553656578064, 0.019978605210781097, 0.008554980158805847], [0.38584575057029724, -0.29402637481689453, 0.2659279406070709, -0.6860613226890564, -0.12597696483135223, -1.0189841985702515, 1.275484323501587, 1.2691527605056763, -1.3596339225769043, -0.45071008801460266, 0.710324764251709, 1.7646605968475342, -0.7299486994743347, -0.9033030271530151, 0.7263248562812805, 1.1259220838546753], [-1.1506010293960571, -0.5986750721931458, -0.47309231758117676, 0.1488112211227417, 1.0558114051818848, -0.5650258660316467, 0.32626521587371826, 0.01799161732196808, 0.0921713337302208, 0.3069356679916382, 1.4710280895233154, 0.30538102984428406, -0.1884279102087021, -0.5490770936012268, 1.2038028240203857, 1.3255729675292969], [-0.36663535237312317, -0.6289128661155701, 0.15363401174545288, 1.0493286848068237, -0.5643888115882874, -0.609200656414032, 1.020704746246338, 0.2975611984729767, 1.5869077444076538, 0.36473315954208374, -0.5956195592880249, 0.6330599784851074, 0.574398398399353, -0.44634759426116943, -0.052207909524440765, 0.5548362731933594], [-0.06507658213376999, 0.17037542164325714, -0.11809064447879791, 0.4516122341156006, -0.20755687355995178, 0.7775396704673767, 1.6664283275604248, 0.33844470977783203, -0.31491896510124207, 0.6427526473999023, -2.0372910499572754, 1.6197501420974731, -0.042495328933000565, -0.3278379440307617, 0.7378987073898315, -0.7844658493995667], [0.012369389645755291, 0.47255662083625793, 0.2169993668794632, -0.6965166926383972, -0.24820376932621002, -0.34017282724380493, 0.6212735176086426, -0.3101346492767334, -1.1186273097991943, 0.029064282774925232, 0.5641865730285645, 0.32713010907173157, -0.15843069553375244, 0.31612429022789, 0.23338249325752258, -0.5899326801300049], [-0.17140215635299683, 0.05218425765633583, 0.3851730525493622, 0.5250380039215088, 0.2956279516220093, -0.3916252851486206, 0.121492400765419, -0.13509944081306458, 0.13093864917755127, 0.45812666416168213, -0.10393840074539185, 0.22110885381698608, -0.15946879982948303, -0.5693514347076416, -0.267081618309021, -0.13763456046581268], [-0.28800007700920105, 0.1173388808965683, -0.15664970874786377, 0.26851850748062134, -0.5969967246055603, -0.1512240767478943, 0.4000975787639618, 0.22674137353897095, 0.3428683876991272, -0.23774971067905426, 0.0010452937567606568, 0.044967200607061386, 0.26665106415748596, 0.2512739300727844, -0.35501229763031006, 0.6525279879570007], [-0.5694437026977539, -0.2459646612405777, 0.2804205119609833, 0.3023196756839752, -0.0562266930937767, 0.3287432789802551, 0.2095201313495636, -0.6059311032295227, -0.5160254836082458, 0.4531351327896118, -0.13168402016162872, 0.3897593021392822, 0.6392585635185242, 0.04316633939743042, 0.4211259186267853, 0.0965697392821312], [-0.10869647562503815, 0.18151722848415375, -0.2203960418701172, 0.289048433303833, 0.8312269449234009, 0.37495800852775574, 0.2631406784057617, 0.26886656880378723, -0.1678183525800705, -0.1641039252281189, -0.03313777968287468, 0.13775107264518738, 0.30449360609054565, 0.20807024836540222, -0.26702266931533813, 0.22424696385860443], [-0.1001916155219078, -0.01983359083533287, -0.07947567850351334, 0.13606879115104675, -0.2831912338733673, 0.29527127742767334, 0.8428784608840942, -0.19169478118419647, 0.3200775682926178, 0.29387351870536804, 0.7257330417633057, -0.25055545568466187, 0.29488253593444824, -0.4488336741924286, -0.05674726888537407, 0.0848902016878128], [0.04091145098209381, 0.2642629146575928, 0.3275225758552551, 0.31782266497612, 0.10155825316905975, 0.5236192345619202, 0.5660238862037659, -0.42983347177505493, -0.15896540880203247, 0.6149795651435852, 0.20377479493618011, 0.1529349684715271, 0.005228477995842695, 0.11690299957990646, 0.42556527256965637, 0.05931713432073593], [0.20583967864513397, 0.3102076053619385, 0.27586033940315247, -0.2019660323858261, 0.04569794982671738, -0.07762708514928818, 0.10485418885946274, -0.07008231431245804, 0.19996577501296997, 0.3090743124485016, 0.08052442222833633, 0.23166823387145996, 0.13288600742816925, -0.2865372896194458, 0.2592136561870575, 0.1990060806274414], [-0.2546864449977875, 0.04178549349308014, 0.3612153232097626, 0.2698516249656677, 0.28685325384140015, 0.040736597031354904, 0.31666144728660583, -0.1294834464788437, -0.09791884571313858, 0.43361812829971313, 0.205681711435318, -0.016825677827000618, -0.12540453672409058, -0.05103011801838875, 0.2708446681499481, 0.030117217451334], [0.17075304687023163, 0.33685022592544556, 0.4310489296913147, 0.018411239609122276, 0.15214446187019348, -0.0709829032421112, 0.16179507970809937, -0.12294043600559235, -0.03698150813579559, -0.10260456055402756, 0.039324868470430374, 0.14344006776809692, -0.305829793214798, -0.08738307654857635, 0.27768561244010925, 0.31144899129867554], [0.5447949767112732, 0.05144032835960388, -0.15399467945098877, 0.0791117250919342, 0.17646372318267822, 0.23184415698051453, -0.19739460945129395, -0.19655252993106842, 0.0725114569067955, -0.14895464479923248, 0.32191002368927, -0.12025036662817001, -0.001791548216715455, -0.4466710090637207, 0.7622737288475037, -0.23668338358402252], [-0.010081595741212368, -0.24294452369213104, 0.13221868872642517, -0.061349108815193176, -0.09775819629430771, 0.37504398822784424, -0.10823351889848709, 0.11700180917978287, 0.268733948469162, 0.10556154698133469, 0.11931714415550232, 0.11004798859357834, -0.20551568269729614, -0.18736445903778076, 0.7919675707817078, -0.4865633249282837], [0.15245464444160461, -0.04155363515019417, 0.08982300013303757, 0.07288430631160736, 0.012472105212509632, -0.11354965716600418, 0.2732779383659363, -0.314223051071167, 0.340065598487854, 0.20922444760799408, 0.0706511065363884, -0.2564316689968109, 0.143549382686615, -0.03978985920548439, 0.26853740215301514, -0.3721448481082916], [0.12382380664348602, 0.2090245485305786, -0.32646116614341736, -0.04535984992980957, 0.2996271550655365, 0.05443786457180977, 0.09427621215581894, -0.19086341559886932, 0.3352699875831604, -0.06689158827066422, 0.154166117310524, 0.5895181894302368, 0.34889960289001465, 0.2950480580329895, 0.4218604862689972, -0.10029085725545883], [-0.914960503578186, 0.057863328605890274, -0.12722232937812805, 0.025449493899941444, -0.09221040457487106, -0.15657229721546173, 0.27082642912864685, 0.21413977444171906, 0.14873071014881134, 0.16889582574367523, 0.20671233534812927, 0.39721575379371643, -0.2926078736782074, -0.028425270691514015, 0.12823492288589478, -0.6379796862602234], [-0.1830396205186844, -0.14864949882030487, 0.09234201908111572, 0.38709577918052673, -0.4406268298625946, 0.08544892817735672, -0.3543194830417633, 0.2700214982032776, 0.19147084653377533, -0.15860776603221893, 0.1431727111339569, 0.2078450322151184, 0.017441099509596825, 0.1269308626651764, 0.03631959855556488, -0.2185162901878357], [-1.2723976373672485, -0.23859019577503204, -0.19080600142478943, 0.23175251483917236, 0.18108586966991425, 0.01601022481918335, -0.04091700166463852, 0.020981187000870705, -0.05901118740439415, 0.2821211516857147, -0.29551464319229126, 0.31890010833740234, -0.3069641888141632, 0.020373042672872543, 0.15996110439300537, 0.005113482940942049], [-0.6002300977706909, -0.0787816122174263, 0.027481622993946075, -0.1941448301076889, -0.4471227824687958, -0.02488798089325428, -0.0361502431333065, 0.3085096776485443, -0.09803726524114609, -0.19374719262123108, 0.47666892409324646, 0.056525200605392456, 0.33797571063041687, 0.09721865504980087, 0.2593187987804413, -0.1864842176437378], [-0.14043423533439636, -0.1305529773235321, -0.46340543031692505, -0.26346009969711304, -0.1217193678021431, -0.012572654522955418, 0.3050885796546936, 0.32194292545318604, 1.0015292167663574, 0.2639673054218292, 0.28041836619377136, 0.7042253613471985, 0.6287182569503784, -0.4028373658657074, -0.30767908692359924, -0.18127422034740448], [0.7998086214065552, -0.5662534832954407, 0.5087772011756897, -0.3149499297142029, 0.8774245977401733, 0.4107874631881714, -0.42787766456604004, -0.10807157307863235, -0.4481092095375061, -0.3669113516807556, 0.26462841033935547, 0.08759160339832306, 0.3951767385005951, 0.42598992586135864, -0.05479659140110016, 0.2453015148639679], [-0.43315643072128296, 0.06834316998720169, 1.1015459299087524, 0.5002447962760925, 1.170551061630249, 0.4513862431049347, -0.23603402078151703, 0.5876140594482422, -0.27775323390960693, -0.5220426917076111, 0.436302125453949, -0.8457944393157959, -0.13596698641777039, 0.33958205580711365, 0.09044063091278076, -0.7976222038269043], [-1.0904922485351562, -0.030406927689909935, 0.7652714848518372, -0.06251025199890137, -0.553356409072876, 0.7053403258323669, 0.2949315011501312, -0.05212612822651863, 0.694351851940155, -1.8703471422195435, 0.35272538661956787, 1.0164422988891602, 0.646371066570282, 0.43133866786956787, -0.13579702377319336, -0.5826839208602905], [-0.7288272976875305, -1.5463216304779053, 0.7786940336227417, 0.8752195835113525, 0.385322630405426, -0.2272891253232956, 0.5679633617401123, 0.10558727383613586, 0.8949110507965088, -0.3572627007961273, -0.17727030813694, -0.34299159049987793, 0.5111554265022278, 0.42502325773239136, 0.22326608002185822, 1.671640157699585], [0.0091562420129776, 0.45634517073631287, -0.06807208806276321, -1.6757954359054565, 1.3680201768875122, 0.4276452958583832, 0.011889799498021603, 1.2986361980438232, 1.1012651920318604, 0.23057687282562256, 1.5998036861419678, -1.416643738746643, -0.09270410239696503, 1.0927414894104004, 0.923037052154541, 0.8787805438041687], [0.159479558467865, 1.416040062904358, -1.1952875852584839, 0.0245001632720232, 0.0859750360250473, 0.18052764236927032, 0.6114547848701477, 0.5015519857406616, -1.7037949562072754, 1.1364458799362183, -1.195337176322937, -1.0820341110229492, 0.8871930241584778, 0.1997462660074234, 1.1622027158737183, 0.6100862622261047], [0.26535341143608093, 0.5777649283409119, -0.4073624014854431, -0.44376644492149353, 0.9059478044509888, -0.6327828168869019, 0.44880110025405884, 0.9210827946662903, 1.488308072090149, 0.5067286491394043, -0.22728590667247772, 0.16126129031181335, 0.47067955136299133, 1.0553609132766724, 0.2149375081062317, 0.5673387050628662], [-0.13778379559516907, -0.3608226776123047, 0.1867668777704239, -0.027826128527522087, -0.2322516292333603, 0.06801625341176987, 1.2400214672088623, 0.5114573836326599, -0.8493174314498901, -0.5652275085449219, -0.17969968914985657, 1.2423015832901, -0.5681894421577454, -0.07628019899129868, 0.09644388407468796, -0.4830667972564697], [0.06088633835315704, -0.4903459846973419, 0.32631009817123413, 0.18458518385887146, 0.8838303685188293, 0.13609611988067627, 0.007412776816636324, 0.5741722583770752, 0.9797607064247131, 0.46629416942596436, -1.365424394607544, 0.9929265975952148, 0.06420603394508362, -0.2604922354221344, 0.388516366481781, -0.664875328540802], [-0.02834075316786766, -0.19161321222782135, 0.09534205496311188, -0.5405024290084839, -0.2645091116428375, -0.1643802523612976, 0.48676416277885437, 0.22749371826648712, -0.4071089029312134, -0.32684028148651123, 0.13440050184726715, -0.15842075645923615, 0.5047347545623779, -0.5182148814201355, -0.8820937275886536, 0.24011121690273285], [-0.3476572334766388, -0.069460429251194, 0.15367187559604645, -0.2698850631713867, 0.6920437216758728, 0.17596875131130219, -0.1787564903497696, -0.5049964785575867, 0.2676602900028229, 0.41862401366233826, -0.002888510702177882, 0.055467769503593445, 0.1619454175233841, 0.024509139358997345, -0.2502767741680145, -0.12890730798244476], [0.17961737513542175, 0.16044779121875763, -0.2124592512845993, -0.23291340470314026, 0.11873947083950043, -0.004773444030433893, 0.1598421037197113, 0.015239065513014793, -0.06776763498783112, 0.2211744487285614, -0.25037598609924316, 0.3448040187358856, -0.26092833280563354, -0.20742560923099518, 0.1643514782190323, 0.013430358842015266], [0.03855074197053909, -0.1452416032552719, -0.01928200200200081, -0.06548430025577545, 0.40855565667152405, -0.1882951855659485, -0.1317029893398285, 0.06099744141101837, -0.2537943124771118, 0.05085265636444092, 0.09135853499174118, 0.33999955654144287, 0.3041514754295349, -0.43382272124290466, 0.22499363124370575, -0.21150311827659607], [0.05080495402216911, 0.5174763798713684, 0.679351806640625, 0.02400694601237774, 0.009550980292260647, 0.03318294510245323, 0.5527927279472351, 0.19570112228393555, 0.07994425296783447, 0.28679442405700684, 0.2421666830778122, -0.019813040271401405, 0.3506263792514801, -0.109525665640831, -0.12147010117769241, -0.08213066309690475], [-0.10885452479124069, 0.2789950966835022, -0.21708440780639648, -0.04378775879740715, -0.013952049426734447, -0.05264322832226753, -0.2862001061439514, 0.3306756615638733, 0.06212162226438522, 0.4363996088504791, -0.0007059030467644334, 0.006413631606847048, 0.23090581595897675, 0.2208959460258484, -0.20927317440509796, 0.04401160031557083], [-0.2068360596895218, 0.2486681491136551, 0.17463916540145874, 0.4394926428794861, -0.06917960941791534, 0.23809915781021118, 0.2223484069108963, 0.1938258856534958, 0.06091464310884476, -0.4295705258846283, -0.019769201055169106, 0.2384101003408432, 0.21596932411193848, 0.011554987169802189, -0.12866415083408356, 0.105223648250103], [-0.4268014132976532, 0.2461388111114502, -0.23407164216041565, 0.07635729014873505, -0.28884589672088623, -0.18865498900413513, -0.0544729046523571, -0.2216302752494812, 0.06740763038396835, -0.17519955337047577, -0.2996450364589691, -0.023065416142344475, 0.19414234161376953, -0.09493257850408554, -0.12716563045978546, 0.2706814408302307], [-0.36326882243156433, -0.4444097876548767, -0.08336411416530609, -0.23355473577976227, 0.06985899806022644, 0.004914992954581976, 0.0757238119840622, -0.047045301645994186, 0.1287451684474945, 0.4052148461341858, -0.44733160734176636, 0.2929726541042328, -0.044131722301244736, 0.010553731583058834, 0.027570877224206924, 0.44031065702438354], [0.20414365828037262, 0.08869247883558273, -0.08631595969200134, 0.11595145612955093, -0.002597829792648554, -0.13646627962589264, 0.08735489100217819, -0.19170457124710083, 0.220547154545784, 0.33844396471977234, 0.05113837867975235, 0.23164618015289307, 0.0012835683301091194, -0.2048533856868744, 0.5974368453025818, 0.5381355881690979], [0.4933232069015503, -0.01730862446129322, 0.2557821571826935, 0.06433814018964767, 0.2591248154640198, -0.08149894326925278, 0.26785650849342346, 0.010102814063429832, 0.4752764105796814, 0.11176761239767075, 0.45374947786331177, -0.026216253638267517, -0.04355185106396675, -0.2503732144832611, 0.20450058579444885, 0.06475231796503067], [0.33089137077331543, 0.11252649128437042, 0.11078286916017532, 0.14155907928943634, 0.014950410462915897, 0.014875869266688824, -0.09157484769821167, 0.1150970533490181, 0.29122045636177063, 0.023605942726135254, 0.4503050446510315, -0.17610949277877808, -0.1672528088092804, -0.2158413976430893, 0.49514463543891907, -0.03912166506052017], [0.23338201642036438, 0.3233765959739685, -0.05120399594306946, -0.014249139465391636, 0.34945955872535706, -0.1977212131023407, 0.12619516253471375, -0.15591348707675934, 0.029848303645849228, -0.02734983153641224, 0.021062364801764488, -0.020489942282438278, -0.2064249962568283, -0.31414568424224854, 0.1873399168252945, -0.12624657154083252], [-0.023518187925219536, 0.10278376191854477, -0.014274495653808117, 0.20900395512580872, 0.15979303419589996, -0.01610398106276989, 0.2308388203382492, 0.11178451776504517, 0.25010472536087036, 0.313610702753067, 0.45624402165412903, 0.3578120470046997, -0.3381132483482361, 0.057047344744205475, 0.3156978189945221, -0.37277159094810486], [-0.4065691828727722, -0.08142993599176407, 0.05825197324156761, -0.1389951854944229, 0.20795242488384247, -0.1577347218990326, 0.43427368998527527, 0.06939470022916794, 0.2058623880147934, 0.03552456945180893, -0.0960688441991806, 0.3267348110675812, -0.2949184775352478, -0.19332823157310486, 0.2525770366191864, -0.30545228719711304], [-0.2903258800506592, -0.20691269636154175, -0.03509139269590378, 0.1555793434381485, 0.03524243086576462, 0.15130974352359772, 0.029095204547047615, 0.24616020917892456, -0.20862986147403717, 0.3107220232486725, 0.08911915123462677, -0.23510393500328064, -0.12821029126644135, -0.06792330741882324, -0.0271907988935709, 0.022221650928258896], [-1.298367977142334, -0.03160017356276512, -0.18860593438148499, -0.09967325627803802, 0.1125890389084816, 0.031109627336263657, -0.18004637956619263, -0.22946123778820038, 0.1598404198884964, -0.33775651454925537, 0.2287362515926361, 0.03256009891629219, 0.39775651693344116, -0.4878511130809784, 0.1625072956085205, -0.48816823959350586], [-0.47581738233566284, 0.3482367694377899, 0.3992997407913208, -0.31737184524536133, 0.034775566309690475, 0.10404333472251892, -0.3150913119316101, 0.09322314709424973, 0.36822307109832764, 0.43326836824417114, 0.39200448989868164, 0.14795538783073425, -0.11170657724142075, -0.21021707355976105, -0.16487084329128265, -0.26866820454597473], [0.2788167893886566, -0.15870381891727448, -0.36717650294303894, -0.1633705198764801, -0.7192167043685913, -0.09756308048963547, 0.13874255120754242, -0.2788989245891571, -0.5043779611587524, -0.6131452918052673, 0.728853166103363, 0.34164315462112427, 0.4230475127696991, 0.07409379631280899, 0.23820388317108154, 0.31269460916519165], [0.03747912123799324, -0.005827376153320074, 0.033510997891426086, 0.01733710803091526, -0.4602881968021393, 0.1364794820547104, 0.6525179743766785, 0.4647400379180908, 0.22438038885593414, -0.21682414412498474, 0.8369669914245605, 0.26840150356292725, 0.915856122970581, -0.20529939234256744, -0.22867520153522491, -0.34876877069473267], [-0.45385318994522095, -0.2597561478614807, 1.0177831649780273, -0.04350046068429947, -0.4007580578327179, 0.8939034938812256, 0.1350526511669159, -0.06962383538484573, 0.31880834698677063, -1.0571353435516357, 0.5316076874732971, 0.32588136196136475, -0.08615893870592117, 0.17683613300323486, 0.49432939291000366, -0.08677440136671066], [0.34180960059165955, 0.11257366836071014, -1.6608662605285645, -0.5577970743179321, -1.0609912872314453, 0.42834874987602234, 1.0501503944396973, 0.27293768525123596, 0.26898640394210815, -1.0392277240753174, -0.5707746148109436, 1.0249093770980835, -0.010302809998393059, -0.1526920646429062, -0.6250723004341125, 0.6387677192687988], [-0.8060332536697388, -0.031766075640916824, 0.23479478061199188, -1.6254724264144897, 0.42004936933517456, 1.0250096321105957, -1.0836957693099976, 1.8938697576522827, -0.3837580680847168, -0.20437641441822052, 1.7404189109802246, 1.4004141092300415, -1.1778005361557007, -1.790568232536316, -0.9712525606155396, 0.7014934420585632], [0.0036014358047395945, 0.051413506269454956, -0.3003399670124054, 0.07173255831003189, 0.19397927820682526, -0.11396203190088272, -0.0887380912899971, 0.024060919880867004, -0.1956358402967453, 0.1488434225320816, 0.04079250618815422, -0.048907842487096786, 0.22030647099018097, -0.22777433693408966, -0.025230253115296364, -0.05901020020246506], [0.1469496786594391, -0.2073649764060974, -0.3155606687068939, 2.0023245811462402, 1.888624906539917, -1.828725814819336, -0.6053425073623657, -1.611398696899414, -1.501926302909851, 1.8041658401489258, 0.48348209261894226, 1.0053287744522095, 2.0104219913482666, 1.0550332069396973, -0.6792435646057129, -0.2446960210800171], [1.4772906303405762, 0.5248708724975586, 0.5899598598480225, 0.05237506330013275, 0.2153838723897934, 0.3180137872695923, 0.17608723044395447, 0.5954998135566711, -0.07677391916513443, -0.519485592842102, -2.4276623725891113, 1.306917667388916, -0.19782564043998718, 0.26942408084869385, -1.495580792427063, -1.8554272651672363], [-0.011948168277740479, 1.0759421586990356, -0.11141184717416763, -0.3836277425289154, 1.3827012777328491, 0.5753713250160217, -1.0303906202316284, 1.7573373317718506, 0.4322156012058258, -0.012330980040133, -1.0273891687393188, -0.1918778121471405, 0.24837036430835724, -0.20213933289051056, -1.1885603666305542, -0.8947503566741943], [-0.0068091885186731815, -0.7876873016357422, 0.016233714297413826, -0.00024342106189578772, 0.0695880874991417, -0.12584127485752106, -0.02122405916452408, 0.2545127868652344, -0.5974482297897339, 0.002134371316060424, 0.20715676248073578, 0.04009481891989708, -0.04690453037619591, -0.5879741311073303, 0.5984678864479065, 0.8826187252998352], [0.3969918489456177, -0.8355052471160889, 0.4535028636455536, -0.007734796032309532, -0.7570382952690125, -0.08043982833623886, 0.14183419942855835, 0.33380886912345886, 0.9947024583816528, 0.48587197065353394, 0.14283320307731628, 0.3953227400779724, -0.2741343080997467, 0.3090358078479767, 0.0821898877620697, -0.5159913897514343], [-0.20377574861049652, 0.2951492369174957, -0.13093538582324982, -0.05592992901802063, 0.4101414978504181, -0.13133837282657623, 0.233056902885437, 0.2236330509185791, -0.19601985812187195, 0.18305902183055878, 0.025064431130886078, 0.40738511085510254, 0.6594337224960327, -0.14296984672546387, -0.48676225543022156, -0.34772804379463196], [-0.18890945613384247, -0.05530090257525444, 0.11353518813848495, 0.22996573150157928, 0.10749534517526627, -0.1877622902393341, -0.13554520905017853, 0.3124978840351105, -0.08449908345937729, 0.047863949090242386, 0.19625911116600037, -0.2810930609703064, 0.18211649358272552, 0.11008470505475998, -1.1003769636154175, 0.19721415638923645], [-0.047030456364154816, 0.45632490515708923, 0.2662826180458069, 0.4768318235874176, 0.3069690465927124, 0.076565682888031, -0.1438494324684143, 0.23858080804347992, -0.46276259422302246, 0.03736855834722519, 0.2163333147764206, -0.3127132058143616, 0.15351584553718567, -0.09805706888437271, -0.39128491282463074, 0.46386218070983887], [0.04960980266332626, 0.03799797594547272, -0.10737507045269012, 0.44691741466522217, -0.4207715094089508, 0.10748802870512009, -0.2970031201839447, -0.1147724837064743, -0.007934190332889557, 0.11590203642845154, -0.04736275598406792, 0.08322831988334656, 0.014594608917832375, -0.12005320936441422, -0.2272193282842636, 0.4727688431739807], [-0.042315904051065445, 0.14207139611244202, 0.31354162096977234, 0.4302285313606262, 0.21851417422294617, 0.15523380041122437, -0.06487402319908142, 0.2552332282066345, -0.0801837220788002, 0.1517067402601242, 0.6071189045906067, -0.30649927258491516, 0.3704228103160858, -0.593284547328949, -0.05326082184910774, 0.03986014798283577], [-0.06344780325889587, -0.022569535300135612, -0.09230294823646545, 0.5632910132408142, 0.24160154163837433, 0.41301995515823364, -0.037991899996995926, -0.05832905322313309, -0.33716294169425964, 0.31974563002586365, 0.07930762320756912, -0.28414490818977356, 0.2626017928123474, -0.1072007566690445, -0.17662492394447327, 0.09029382467269897], [-0.17796726524829865, 0.11019968241453171, 0.19770251214504242, 0.2512958347797394, -0.07507605105638504, -0.32224777340888977, -0.19713681936264038, 0.014806732535362244, -0.22736917436122894, 0.043979428708553314, -0.19249069690704346, -0.20330321788787842, 0.022859778255224228, -0.07551348954439163, -0.25371527671813965, 0.13719123601913452], [0.308047890663147, 0.2915622293949127, -0.22954191267490387, -0.03508058190345764, 0.017856832593679428, -0.3380550742149353, -0.24999754130840302, -0.4131757915019989, 0.1414412409067154, 0.13864865899085999, 0.12983281910419464, 0.19222767651081085, -0.019329924136400223, -0.15699250996112823, -0.17316403985023499, 0.507047712802887], [0.4170985221862793, 0.2120121270418167, 0.10796576738357544, 0.2641494870185852, 0.11652582138776779, -0.17523401975631714, -0.32478219270706177, -0.18178389966487885, -0.07312405109405518, 0.03350762650370598, -0.31522905826568604, 0.09260046482086182, 0.20883546769618988, -0.08199670910835266, 0.1620962768793106, 0.5496591329574585], [0.7205398082733154, -0.16548612713813782, 0.263492614030838, 0.040658798068761826, -0.15002596378326416, -0.14128024876117706, -0.07846066355705261, -0.12276493012905121, 0.14296625554561615, 0.2929796278476715, 0.16046977043151855, -0.2138107866048813, -0.11159324645996094, -0.4647197127342224, 0.07588493078947067, 0.4454686641693115], [0.4295714199542999, -0.16335782408714294, -0.08161686360836029, 0.1341278851032257, 0.05550302565097809, -0.23924073576927185, -0.011670166626572609, 0.3013739287853241, -0.003241217928007245, 0.3296724259853363, 0.45789557695388794, 0.313440203666687, -0.10768226534128189, -0.1438027322292328, 0.11957511305809021, 0.19826214015483856], [-0.4088992476463318, 0.13019563257694244, -0.07581859081983566, 0.2141469269990921, -0.01578536443412304, -0.3408043384552002, 0.2765917181968689, 0.21038873493671417, 0.22973155975341797, 0.3883086144924164, 0.20517995953559875, 0.4326915144920349, -0.09688766300678253, 0.04349655658006668, 0.2803565561771393, -0.44018861651420593], [-0.04212372377514839, -0.1779394894838333, -0.25890815258026123, 0.14518046379089355, -0.23830634355545044, -0.2544245421886444, -0.040820542722940445, 0.24049627780914307, 0.08626274764537811, 0.3987555503845215, -0.24347135424613953, -0.042119160294532776, -0.10286300629377365, -0.35437917709350586, -0.27357879281044006, -0.2530766725540161], [-0.4354645609855652, 0.380825936794281, 0.14480939507484436, -0.0837206020951271, 0.14776511490345, -0.30501773953437805, 0.010120613500475883, -0.09439501911401749, 0.3053264617919922, 0.38273146748542786, 0.13694050908088684, 0.4837381839752197, 0.17093302309513092, -0.23466120660305023, -0.06311879307031631, -0.5292569398880005], [-2.3364551067352295, 0.3667202889919281, -0.020335016772150993, -0.369610458612442, 0.20970584452152252, -0.10734870284795761, -0.02364002726972103, -0.2969667613506317, 0.438438355922699, -0.020277641713619232, 0.07346419245004654, 0.5176957249641418, 0.3266928195953369, 0.0833747461438179, 0.6725324392318726, -0.42018136382102966], [-0.08241604268550873, 0.0018094192491844296, 0.16835050284862518, -0.2646412253379822, 0.06646599620580673, -0.05243154987692833, 0.22736336290836334, 0.20849454402923584, -0.13483312726020813, -0.0865328311920166, 0.3582488000392914, 0.07083679735660553, -0.2748226225376129, 0.27314507961273193, -0.5567582845687866, -0.44027769565582275], [0.8608484864234924, -0.2043384462594986, -0.0071100834757089615, 0.3116030693054199, 0.49039116501808167, 0.1387079805135727, 0.68830406665802, -0.05342455208301544, 0.06636663526296616, 0.031158752739429474, -0.0034264163114130497, 0.4363066554069519, 0.3578294515609741, 0.044411733746528625, 0.022245684638619423, 0.06339598447084427], [0.6370542049407959, 0.01011376827955246, 1.2812516689300537, 0.1938263475894928, -0.35092616081237793, -0.056404903531074524, -0.10800130665302277, 0.36668431758880615, -0.01935221441090107, -0.8251352310180664, 0.7314175367355347, 0.0072743529453873634, 0.5778747797012329, -0.17454825341701508, 0.7509806156158447, -0.4421149790287018], [0.08550365269184113, 0.11246664822101593, -1.3261795043945312, 0.18614494800567627, 0.4936158061027527, 0.7789938449859619, -0.5277760624885559, -0.9775724411010742, 0.3466424345970154, -0.4460810422897339, 0.0518328920006752, 0.46114349365234375, 0.6628962159156799, -0.45203179121017456, -0.006837948691099882, 0.5245097279548645], [0.1519252061843872, -0.27158302068710327, 0.34499046206474304, -0.17343181371688843, -0.5909748077392578, 0.5914502143859863, 1.0495928525924683, -0.1408066600561142, 1.0912928581237793, 0.21256090700626373, 0.7029940485954285, 0.9049962759017944, 0.5019202828407288, -0.39805418252944946, -0.08514381945133209, 0.47956582903862], [-0.9740180969238281, -0.28185999393463135, -0.5357064008712769, 0.053523529320955276, -0.7175440788269043, 0.9646692276000977, 1.1925663948059082, -0.007231296505779028, -0.017715059220790863, -0.7187997102737427, -0.058968570083379745, 1.4392304420471191, 0.3547327220439911, -0.36378270387649536, 0.3955286145210266, -0.12216757982969284], [-1.243571400642395, -1.01254403591156, 0.23154234886169434, 0.9272817373275757, 1.4600939750671387, -0.13494311273097992, -0.09637439250946045, 0.1255723536014557, -0.35421523451805115, 1.0073796510696411, -0.3958113491535187, -0.4431813657283783, 0.6058512926101685, -0.6685666441917419, 1.0800782442092896, -0.4929668605327606], [0.039856601506471634, -0.0017036795616149902, -0.27806758880615234, 0.15051119029521942, 0.1312650442123413, -0.07609590888023376, -0.04910735413432121, 0.06161728873848915, -0.1827893704175949, 0.274965763092041, -0.013692555017769337, -0.004911600612103939, 0.1647404581308365, -0.22128933668136597, -0.06101233884692192, -0.08087543398141861], [0.325886994600296, -0.2717129588127136, -0.09155432879924774, -1.223710298538208, -0.1507607251405716, -0.06300864368677139, -0.44347745180130005, 0.8023031949996948, 1.0147629976272583, -0.3388133943080902, 0.33124253153800964, 0.8460161089897156, 0.25074470043182373, -0.7654479146003723, -0.5397474765777588, -0.21001282334327698], [-0.5310516953468323, 1.4476416110992432, 0.05766620486974716, -0.37000712752342224, 1.2375683784484863, -0.7617375254631042, 1.0145925283432007, -0.3223439157009125, -0.16489899158477783, 0.7135776281356812, 1.1551318168640137, 0.08602796494960785, 0.49436238408088684, 0.6290507912635803, 0.5888087153434753, -0.6815357804298401], [-1.0604532957077026, -0.10994336754083633, 0.7644110918045044, 0.37226852774620056, 1.3170000314712524, -0.5632473826408386, -1.3522014617919922, 0.28416237235069275, -0.8633934259414673, -0.9280956387519836, 0.7018203139305115, 0.5739741325378418, 0.05164715275168419, -0.22042541205883026, 0.9790946841239929, 0.5412299633026123], [0.27298256754875183, -0.6264218091964722, 0.7984232902526855, -0.30543261766433716, 0.24129226803779602, 0.23562557995319366, 0.2251499742269516, 0.10006062686443329, -0.44826367497444153, -0.3570215106010437, -0.32285258173942566, 0.1575523465871811, 1.1035723686218262, 0.25178682804107666, -0.5675956010818481, -0.9708150029182434], [-0.7633161544799805, -0.2505124509334564, -0.10108834505081177, 0.0383952334523201, 0.21547281742095947, -0.25874871015548706, -0.8871236443519592, 0.35951897501945496, 0.6014975905418396, 0.36288753151893616, -0.47874194383621216, -0.9000760316848755, 0.25027328729629517, -0.8877601027488708, -0.5108007192611694, 0.5588761568069458], [0.5503181219100952, 0.22191499173641205, 0.040855396538972855, 0.3902891278266907, -0.21479788422584534, -0.10119809210300446, -0.5327574014663696, 0.425794392824173, -0.91628497838974, 0.15913662314414978, 0.431545615196228, -0.46233677864074707, -0.5719265341758728, -0.5881883502006531, 0.12110424041748047, 0.7032090425491333], [0.18306617438793182, -0.40186992287635803, 0.21766352653503418, 0.040639739483594894, 0.07580699771642685, 0.3757106363773346, -0.3332781195640564, 0.5892810225486755, -0.21134646236896515, -0.01701449789106846, 0.5703509449958801, -0.21867868304252625, -0.210440531373024, -0.3877636194229126, -0.2951386272907257, -0.08570777624845505], [-0.21498340368270874, -0.08999364078044891, 0.19277611374855042, 0.6744113564491272, -0.4572695195674896, -0.19241197407245636, -0.9979557991027832, 0.13158416748046875, -0.24076111614704132, 0.30318957567214966, -0.08377189189195633, 0.5878690481185913, 0.0021766889840364456, 0.29709115624427795, 0.18776056170463562, 0.4155340790748596], [-0.20395760238170624, 0.24752750992774963, -0.3214249908924103, 0.07317806035280228, 0.0351712591946125, 0.5313106179237366, -0.056644003838300705, -0.10416485369205475, -0.016566863283514977, 0.11209766566753387, 0.45817285776138306, -0.13518787920475006, 0.5001997351646423, -0.23645761609077454, -0.7713404297828674, 0.18533480167388916], [0.07063142955303192, -0.4386109411716461, -0.10459963977336884, 0.2987460494041443, -0.09109999984502792, 0.022672751918435097, -0.9951581358909607, 0.46437790989875793, -0.5178393125534058, 0.34910517930984497, 0.1367223560810089, -0.1810222864151001, -0.14569011330604553, -0.293223112821579, -0.30117958784103394, 0.19436907768249512], [-0.10228122770786285, 0.27793022990226746, 0.27725428342819214, 0.23802126944065094, -0.09917682409286499, -0.14075814187526703, -0.7513874173164368, 0.20612937211990356, 0.07960496842861176, -0.29601866006851196, 0.1619243025779724, -0.13835737109184265, 0.3930647671222687, -0.6003636121749878, -0.26155659556388855, 0.04975927621126175], [0.17508256435394287, 0.07555484026670456, -0.11406707018613815, 0.004314383026212454, -0.20089048147201538, -0.1834433525800705, -0.6398157477378845, -0.3155008554458618, -0.29225388169288635, -0.2830715775489807, 0.02993333898484707, -0.06916021555662155, 0.2785426676273346, 0.1051957905292511, -0.3432510495185852, 0.008308151736855507], [0.14096170663833618, 0.09094090014696121, -0.09390142560005188, -0.02125898189842701, 0.07284006476402283, -0.39382341504096985, -0.5020248293876648, 0.015598809346556664, 0.21839572489261627, 0.14831611514091492, -0.13899892568588257, 0.36515840888023376, 0.053696852177381516, -0.22530503571033478, -0.48763200640678406, 0.7417548894882202], [0.6872471570968628, 0.40631502866744995, 0.05529871955513954, 