{"layer_1": {"weights": [[-0.013775147497653961, -0.00030812621116638184, 0.016110330820083618, 0.006976202130317688, -0.0046039968729019165, -0.06279762834310532, -0.002013683319091797, -0.021371476352214813, 0.03309992700815201, 0.07939460873603821, -0.03582148998975754, -0.03857025131583214, -0.04247934743762016, 0.06454786658287048, -0.004262231290340424, 0.04829034209251404], [-0.01600775122642517, 0.013475403189659119, 0.06005068123340607, -0.025256995111703873, 0.03997042775154114, 0.07714332640171051, -0.015680283308029175, -0.005896762013435364, 0.013586483895778656, -0.02110055834054947, -0.04641817882657051, 0.004496335983276367, -0.06199761480093002, -0.06766868382692337, 0.012474589049816132, 0.08461733162403107], [0.07221956551074982, -0.018713876605033875, -0.01125887781381607, 0.051410868763923645, 0.0696323961019516, -0.07080966234207153, -0.03816365823149681, -0.07922810316085815, -0.0015037879347801208, -0.0702902302145958, 0.03769299387931824, 0.029571175575256348, 0.026598580181598663, 0.06745047867298126, -0.002021797001361847, -0.03406286984682083], [-0.026476774364709854, -0.08366497606039047, -0.0818377435207367, 0.015627630054950714, -0.06180381774902344, 0.0565999299287796, 0.03713613003492355, 0.054473698139190674, -0.034538548439741135, 0.03134705871343613, -0.07538138329982758, 0.032273851335048676, -0.06539977341890335, 0.0404234379529953, 0.009641379117965698, 0.08584970235824585], [0.06390264630317688, 0.015298612415790558, -0.06433604657649994, 0.055175408720970154, -0.06638392060995102, 0.06530734896659851, -0.05808711796998978, 0.008842669427394867, 0.05545036494731903, 0.05036516487598419, 0.053735628724098206, -0.0030968189239501953, -0.025898374617099762, 0.040601685643196106, 0.0738091766834259, -0.03579741716384888], [0.01040206104516983, 0.04887983202934265, 0.04781913757324219, -0.038310691714286804, 0.026723474264144897, -0.04825447499752045, -0.03211209923028946, 0.062126293778419495, -0.030197545886039734, 0.06323327124118805, -0.08106157183647156, 0.015709996223449707, -0.05317654833197594, -0.04820525273680687, 0.028480589389801025, 0.04773661494255066], [-0.02383825182914734, 0.04267905652523041, -0.0036873817443847656, 0.08374176919460297, -0.06324465572834015, 0.08631880581378937, -0.017986275255680084, -0.05664392560720444, 0.051036328077316284, 0.08034566044807434, 0.010615207254886627, 0.03205416351556778, 0.013424709439277649, -0.0822078064084053, 0.04775141179561615, 0.0066233351826667786], [-0.006044104695320129, -0.013139404356479645, -0.020806394517421722, 0.0218488946557045, 0.06008706986904144, 0.08194684982299805, 0.008320629596710205, -0.08224064111709595, -0.016836240887641907, -0.056367866694927216, -0.016543522477149963, -0.08390091359615326, -0.039782680571079254, 0.002375371754169464, -0.04773712903261185, 0.08252501487731934], [-0.016014568507671356, -0.07502414286136627, -0.0635540559887886, -0.06137337535619736, 0.030885212123394012, 0.07821415364742279, 0.04894481599330902, -0.01898203045129776, 0.0730452835559845, 0.07659676671028137, -0.027558714151382446, -0.08116091042757034, 0.04351721704006195, -0.06846188008785248, -0.026588913053274155, -0.04699637368321419], [-0.0648992508649826, 0.07430925965309143, -0.01845848560333252, -0.06091390550136566, -0.019018881022930145, 0.05821649730205536, -0.007628582417964935, 0.0400717556476593, 0.012176230549812317, -0.03866196796298027, -0.06968269497156143, -0.005760692059993744, 0.05225507915019989, 0.08301275968551636, 0.015068061649799347, -0.001539386808872223], [-0.013125546276569366, 0.011073872447013855, 0.07447642087936401, -0.02112170308828354, -0.014994427561759949, 0.08165962994098663, -0.04006842523813248, -0.043477147817611694, -0.05289635807275772, -0.010851047933101654, 0.0827874094247818, 0.030153729021549225, -0.045986395329236984, -0.07998602092266083, 0.04568244516849518, 0.058263570070266724], [-0.07700838148593903, -0.01470862329006195, 0.024882197380065918, -0.059838905930519104, 0.015580452978610992, -0.0478895902633667, 0.04141400754451752, -0.06080663949251175, -0.014576561748981476, 0.07486575841903687, 0.022207915782928467, 0.06610777974128723, 0.023289665579795837, 0.07304875552654266, 0.005631648004055023, -0.01795516163110733], [-0.00413533067330718, 0.3934021294116974, -0.16076605021953583, 0.045626819133758545, 0.3863058388233185, -0.029378239065408707, 0.2903708517551422, -0.2950376272201538, -0.09219146519899368, 0.01773313246667385, 0.08196771889925003, 0.07196024805307388, -0.058903347700834274, 0.031351394951343536, -0.06902839243412018, 0.4379657804965973], [-0.386558473110199, 0.6700892448425293, -0.4035874903202057, 0.040247999131679535, 0.17638632655143738, -0.028018847107887268, 0.29391273856163025, -0.10290772467851639, 0.21205748617649078, 0.12159955501556396, 0.240579754114151, 0.1703997105360031, -0.1028975248336792, 0.0632014125585556, 0.0816352516412735, 0.6757093071937561], [-0.29390662908554077, 0.15952111780643463, -0.3252088129520416, 0.07186964899301529, -0.27962201833724976, 0.0014901190297678113, 0.0543639175593853, 0.36606839299201965, 0.6451725959777832, 0.06394831836223602, 0.1910644769668579, 0.35558822751045227, 0.04236343502998352, 0.0693131685256958, -0.06796278804540634, 0.5950315594673157], [0.008385436609387398, -0.09042897075414658, -0.16055242717266083, 0.06840692460536957, -0.09115776419639587, -0.09167705476284027, -0.042840346693992615, 0.015253023244440556, 0.25024160742759705, 0.1349075734615326, 0.08145339041948318, 0.05628964677453041, -0.04079582169651985, 0.033174753189086914, 0.025724291801452637, 0.11618275940418243], [0.02393544465303421, 0.007658608257770538, 0.059901297092437744, -0.08280304074287415, 0.009299375116825104, 0.07063159346580505, -0.08259522169828415, 0.00011061131954193115, 0.06857249140739441, -0.08288651704788208, -0.031967565417289734, 0.046144723892211914, 0.07880066335201263, -0.07354272902011871, -0.0703752189874649, -0.04357406497001648], [-0.06442898511886597, -0.07838501781225204, 0.009842775762081146, 0.05782446265220642, 0.014133460819721222, 0.020176947116851807, 0.005422897636890411, -0.048978280276060104, 0.030274540185928345, -0.08245009183883667, -0.06743162870407104, 0.04521644115447998, 0.0024708211421966553, -0.005214624106884003, -0.0010498538613319397, -0.03649582341313362], [0.05924119055271149, 0.03542179614305496, 0.03132862597703934, 0.03195899724960327, -0.045877084136009216, 0.04870358109474182, 0.018420889973640442, -0.0695994645357132, 0.051575735211372375, 0.04946048557758331, -0.002967067062854767, -0.050422459840774536, 0.07068751752376556, 0.0796070247888565, 0.00962308794260025, 0.07197512686252594], [0.06560695171356201, 0.014290548861026764, -0.0779963880777359, -0.06790986657142639, 0.03179154545068741, -0.08535591512918472, 0.005843304097652435, -0.04687153920531273, 0.0349087193608284, 0.05694563686847687, -0.05934026464819908, -0.0719519779086113, -0.0317116379737854, 0.04886525869369507, 0.011315576732158661, -0.018252670764923096], [0.026256009936332703, 0.014173313975334167, 0.050471678376197815, 0.08183497190475464, -0.05334329605102539, -0.08069303631782532, 0.056689366698265076, -0.030952919274568558, -0.018513038754463196, 0.04758843779563904, -0.008450731635093689, -0.06279727816581726, -0.0453968420624733, -0.017121903598308563, 0.03205001354217529, 0.04563744366168976], [-0.009968064725399017, -0.031849998980760574, -0.07218917459249496, 0.03324340283870697, -0.03089037910103798, 0.08462269604206085, 0.08420577645301819, -0.06825755536556244, 0.08021336793899536, 0.0007994323968887329, 0.04263506829738617, 0.06091207265853882, 0.046786174178123474, -0.036648284643888474, -0.0621914342045784, 0.03565114736557007], [0.01868259906768799, 0.015629447996616364, 0.00700368732213974, -0.05128040909767151, 0.07499539852142334, 0.06389324367046356, 0.04813176393508911, 0.022728070616722107, -0.06355021893978119, -0.0824463739991188, -0.04916468635201454, 0.07975687086582184, 0.06395851075649261, -0.041160501539707184, 0.014966614544391632, -0.059077564626932144], [0.0024979934096336365, 0.004356160759925842, 0.021758578717708588, 0.010142870247364044, -0.0653747022151947, 0.022161126136779785, 0.028048306703567505, -0.05133198946714401, 0.0649283230304718, -0.06171371042728424, 0.05945168435573578, 0.07147844135761261, 0.08233745396137238, 0.06431147456169128, 0.03534799814224243, 0.07329489290714264], [0.07443375885486603, 0.036835312843322754, 0.03427460789680481, 0.026988692581653595, 0.05572034418582916, 0.0047391727566719055, 0.07538844645023346, 0.01835382729768753, 0.052660733461380005, -0.07139250636100769, 0.04269316792488098, 0.03880736231803894, 0.05101962387561798, 0.043652549386024475, -0.01879238337278366, 0.06796464323997498], [0.03913126885890961, 0.0864238291978836, 0.06365865468978882, 0.07527685165405273, 0.017327241599559784, -0.02501007169485092, 0.03530839830636978, 0.07763828337192535, 0.0236215740442276, 0.06813149154186249, 0.07207612693309784, 0.045004263520240784, -0.016453802585601807, -0.08482427895069122, 0.043835341930389404, 0.008762143552303314], [0.0662643313407898, -0.02052907645702362, -0.048317886888980865, 0.04622155427932739, -0.05478706210851669, 0.003880932927131653, -0.03860205039381981, 0.025639966130256653, 0.08052800595760345, 0.06695146858692169, 0.04408003389835358, -0.07404087483882904, -0.016212396323680878, 0.020696505904197693, -0.03479732573032379, 0.06887505948543549], [-0.04913140460848808, 0.05834874510765076, -0.01572287827730179, -0.042457565665245056, 0.001462392508983612, -0.00016144663095474243, 0.06781525909900665, 0.0632702112197876, 0.05952955782413483, -0.04079173132777214, -0.032520096749067307, 0.07409074902534485, -0.026309426873922348, -0.06320278346538544, -0.07755940407514572, -0.08113956451416016], [-0.07930074632167816, 0.053703635931015015, -0.031155388802289963, 0.07206587493419647, -0.00954330712556839, -0.05084621161222458, -0.0562739223241806, 0.07152073085308075, 0.04992395639419556, 0.0565754771232605, 0.08130395412445068, -0.0812382772564888, -0.05832691863179207, 0.08610686659812927, 0.05584999918937683, -0.015721723437309265], [0.034146346151828766, 0.06925658881664276, -0.025307975709438324, -0.074817955493927, -0.06260835379362106, -0.05502668023109436, -0.0047060102224349976, 0.06650479137897491, 0.050071731209754944, 0.059710025787353516, 0.050451040267944336, 0.04548908770084381, 0.05506052076816559, 0.03740306198596954, 0.04626402258872986, 0.039588555693626404], [0.07150468230247498, 0.04963091015815735, 0.05379217863082886, -0.02946300432085991, -0.004735291004180908, 0.01318521797657013, 0.021909594535827637, -0.03421555832028389, 0.0052964091300964355, 0.030791431665420532, 0.06945432722568512, -0.02889515459537506, 0.028732389211654663, 0.024197831749916077, 0.018640682101249695, 0.06441684067249298], [-0.06203653663396835, 0.0380532369017601, 0.01429487019777298, 0.05060476064682007, 0.08230093121528625, -0.014740981161594391, 0.057872772216796875, -0.05384005978703499, 0.015166260302066803, -0.03471502661705017, -0.0666581243276596, -0.06955121457576752, 0.039908260107040405, -0.0803661197423935, -0.07618580013513565, -0.01792003959417343], [0.02514246106147766, 0.13518929481506348, 0.029424471780657768, 0.04741142690181732, 0.06723997741937637, -0.05683329701423645, -0.11134056746959686, -0.18907058238983154, 0.12934178113937378, 0.02606927789747715, 0.010810238309204578, -0.08467181771993637, 0.0026539266109466553, 0.03759797662496567, 0.04549400508403778, 0.2296779900789261], [-0.07184017449617386, 0.40108028054237366, -0.0622643418610096, -0.04861081391572952, 0.29505759477615356, 0.03969399631023407, -0.14707186818122864, -0.2595108449459076, 0.029938064515590668, -0.11537335067987442, -0.02673625387251377, 0.052284982055425644, 0.02043864317238331, -0.08241789788007736, -0.08464638143777847, 0.3267975449562073], [0.08544619381427765, 0.8050392866134644, 0.4744226634502411, 0.007792428135871887, 0.5331623554229736, 0.040739621967077255, -0.2744828760623932, -0.6678094267845154, 0.537421464920044, -0.13318051397800446, -0.007499321363866329, -0.635004460811615, -0.6429834365844727, 0.08036129176616669, 0.03854146599769592, 0.7073044180870056], [0.1297999918460846, 1.0520416498184204, 0.7239871025085449, 0.16714458167552948, 0.7140706181526184, 0.14602385461330414, -0.2570977210998535, -0.8715344667434692, 0.17072802782058716, 0.1408063918352127, -0.19036473333835602, -0.5828152298927307, -0.7859510779380798, -0.0943329706788063, 0.015539608895778656, 0.8582166433334351], [0.057013221085071564, 0.5793686509132385, 0.8956426978111267, 0.27973732352256775, 0.17068998515605927, 0.1196855902671814, -0.1597064882516861, -0.2944633364677429, 0.013850031420588493, 0.391055703163147, -0.04710852727293968, 0.00854992400854826, -0.6109216213226318, -0.39951619505882263, -0.018235288560390472, 0.4498029947280884], [0.16965320706367493, 0.0957879051566124, 1.0682811737060547, 0.4140082895755768, 0.48708048462867737, 0.4302532374858856, -0.2296258807182312, -0.04398593306541443, 0.36869344115257263, 0.5672876238822937, -0.08875951170921326, 0.2337544560432434, -0.535495400428772, -0.2281896024942398, -0.08028712123632431, 0.5309202075004578], [0.0005487045855261385, 1.23923921585083, 0.43438106775283813, 0.46418580412864685, 1.1652930974960327, -0.5526036620140076, -0.16034859418869019, -0.13384301960468292, -0.5975956916809082, 0.055900417268276215, -1.057920217514038, 0.6368198990821838, -0.46993279457092285, -0.4553064703941345, -0.03869250789284706, 1.164495587348938], [-0.03406202048063278, 0.2514458894729614, 0.27381423115730286, 0.29485198855400085, 0.9294458031654358, 0.1775902360677719, -0.08189806342124939, -0.08898966759443283, -0.8670823574066162, 0.37084320187568665, 0.6325893402099609, 0.8442701101303101, -0.16676725447177887, -0.7204844355583191, 0.029996253550052643, 0.8640744090080261], [-0.19383393228054047, 0.517367422580719, 0.24810856580734253, 0.34172338247299194, 1.1073354482650757, 0.6034597754478455, -0.3416423797607422, -0.7132413983345032, -0.4958714246749878, -0.34594929218292236, 0.5796219706535339, 1.0085607767105103, -0.3500021994113922, -0.6561114192008972, -0.08456985652446747, 0.1582326591014862], [0.2702709138393402, 0.4544719159603119, -0.18770502507686615, 0.35347723960876465, 1.62830650806427, 0.38846150040626526, -0.20506376028060913, -0.5476212501525879, -1.0606348514556885, -0.3571034073829651, 0.6789500713348389, 0.6142433285713196, 0.24118052423000336, -0.08513759821653366, -0.0204908549785614, 0.2867242395877838], [0.9749201536178589, -0.22540698945522308, -0.2375507652759552, 0.8773803114891052, 0.05538000166416168, -0.06550835072994232, 0.6690167784690857, 0.5576833486557007, -1.1740131378173828, -0.4429348409175873, -0.19768285751342773, 0.5389353632926941, 0.520317018032074, -0.48496419191360474, 0.030242353677749634, -0.8711116313934326], [0.958651065826416, 1.5552927255630493, -0.2536439001560211, 0.9630034565925598, 1.1866718530654907, -0.09163206815719604, 0.7820056676864624, -1.4507548809051514, -0.8068734407424927, 0.2305615246295929, 0.36654403805732727, 1.0006672143936157, 0.016373679041862488, -0.3652975559234619, -0.08205140382051468, 1.4529635906219482], [0.5001818537712097, 0.061130672693252563, -0.19347788393497467, 0.6852372884750366, 1.63299560546875, -0.7764518857002258, -0.3429088592529297, -0.8226627707481384, 0.5932619571685791, 0.8944032788276672, 0.4782167375087738, 0.9184156060218811, 1.028576135635376, -0.4167632460594177, -0.02432021126151085, 1.2429213523864746], [0.22291429340839386, 0.6939930319786072, -0.7633190751075745, -0.4982244074344635, 1.656789779663086, -0.9301041960716248, -0.3066379427909851, -0.8059110045433044, 0.08152130991220474, 0.8817805051803589, 0.43291449546813965, 0.5370999574661255, 0.9892128109931946, -0.7194830179214478, -0.08213155716657639, 1.5422120094299316], [0.1391550898551941, 1.6171011924743652, -0.6656251549720764, -0.07654517889022827, 1.468637228012085, -1.183134913444519, 1.2524566650390625, -0.3419013023376465, -0.7077065110206604, -0.10879348963499069, -0.5230494737625122, 0.35846275091171265, 0.9844751954078674, -0.5962414741516113, 0.05157868564128876, 1.0174132585525513], [-0.18094004690647125, 1.742149829864502, 0.991257905960083, -0.07050096988677979, 1.3323078155517578, -0.7083756327629089, 0.0552719384431839, -1.3940191268920898, -0.7567795515060425, -0.18015934526920319, 0.21694590151309967, -0.09440300613641739, 0.4700635075569153, -0.3473159968852997, 0.0026884302496910095, 1.4055331945419312], [-0.1602429449558258, 1.28423273563385, 0.883800208568573, -0.10919995605945587, 1.208245038986206, -0.5468261241912842, -0.633313775062561, -1.3658698797225952, -0.3173375725746155, -0.0866808071732521, 0.5478015542030334, -0.22748880088329315, 0.27482670545578003, -0.23815177381038666, 0.030220940709114075, 1.2673166990280151], [0.0015638360055163503, 1.451120138168335, 0.897847592830658, 0.024429362267255783, 1.0931832790374756, -0.1385001242160797, -0.25222834944725037, -1.3434195518493652, -0.6247330904006958, -0.07816018164157867, 0.2830049395561218, -0.2709798514842987, -0.04931825399398804, -0.19568653404712677, 0.01230592280626297, 1.219732403755188], [0.008880858309566975, 1.400623083114624, 1.073760747909546, -0.08786545693874359, 1.0333701372146606, -0.43015164136886597, -0.9459426403045654, -0.6916322708129883, -0.053757570683956146, 0.05854173004627228, -0.5271499752998352, -0.787302553653717, -0.8183002471923828, 0.03209221363067627, 0.029583647847175598, 1.2155168056488037], [-0.06249236688017845, 1.0045305490493774, 0.9893022179603577, -0.08565516024827957, 0.9033437371253967, -0.719438374042511, -0.9110715985298157, -0.2988455295562744, 0.19521145522594452, -0.0015593543648719788, -0.09316777437925339, -0.7681570649147034, -0.9038076400756836, -0.06832849979400635, -0.07222646474838257, 0.9654979109764099], [-0.03414314612746239, 0.04785408079624176, -0.017279192805290222, 0.04104706645011902, -0.06375110149383545, -0.026118848472833633, -0.07166575640439987, 0.03691038489341736, -0.012289851903915405, 0.03750140219926834, 0.025420978665351868, -0.042104944586753845, -0.054104018956422806, 0.05447085201740265, 0.08400784432888031, 0.005087375640869141], [0.033938758075237274, -0.035643838346004486, 0.013381168246269226, -0.07544983178377151, 0.0507514625787735, 0.08383519947528839, -0.04061734303832054, -0.04125649109482765, 0.02380327880382538, -0.00038111209869384766, 0.06777574121952057, 0.06084306538105011, -0.035294316709041595, 0.02963799238204956, -0.06406713277101517, 0.049990370869636536], [-0.06357544660568237, 0.03773403912782669, -0.030419528484344482, -0.04879499226808548, 0.0001308247447013855, 0.04540844261646271, 0.06278088688850403, -0.05492711812257767, 0.07604476809501648, 0.06006342172622681, -0.06713178008794785, -0.07495992630720139, 0.08319208025932312, -0.08301851898431778, 0.07568591833114624, 0.0063543543219566345], [0.03874257206916809, 0.034891724586486816, -0.013900868594646454, 0.0047158002853393555, -0.07098902761936188, -0.0015839636325836182, -0.030711010098457336, 0.058265671133995056, 0.08484150469303131, 0.039611995220184326, -0.04899837076663971, -0.07219067960977554, 0.029095850884914398, -0.06765967607498169, -0.04411507770419121, -0.0523957759141922], [0.00011833012104034424, -0.058386631309986115, -0.031050976365804672, -0.08217570185661316, 0.023731648921966553, -0.01287844032049179, -0.03601997718214989, 0.028136953711509705, -0.015836670994758606, -0.07707548141479492, -0.023900382220745087, -0.02657202258706093, 0.008073173463344574, 0.027722693979740143, -0.058383531868457794, 0.07572868466377258], [-0.02451689913868904, -0.003523111343383789, -0.05294845253229141, 0.015727750957012177, -0.022252224385738373, -0.06383026391267776, 0.07815250754356384, 0.07030431926250458, 0.020703978836536407, 0.034446150064468384, -0.04577496275305748, -0.06677750498056412, -0.03351233899593353, -0.07580786198377609, -0.014476589858531952, -0.07423535734415054], [-0.08587086945772171, 0.17523834109306335, -0.029361989349126816, 0.04548177123069763, 0.11706403642892838, -0.026910685002803802, -0.041506409645080566, -0.112029068171978, 0.09264560788869858, 0.07949185371398926, -0.0038755303248763084, 0.0816890150308609, 0.06808319687843323, 0.015587389469146729, 0.003077387809753418, 0.1395200937986374], [0.9926998019218445, -0.9068506360054016, -1.094831109046936, 0.10192353278398514, 1.191519856452942, -1.0699951648712158, -0.2833470404148102, -0.9474308490753174, 0.2675655484199524, -0.21186606585979462, 1.0694745779037476, 0.8879090547561646, 0.055063646286726, -0.2868606150150299, 0.07752323150634766, 1.097475528717041], [0.9918569326400757, -0.4206315577030182, -0.9682671427726746, -0.5270832777023315, 1.2129018306732178, -1.1087353229522705, 0.3149949014186859, -1.152633547782898, -0.3993963599205017, -0.4922868013381958, 0.9785996079444885, 0.8644843697547913, -0.13175605237483978, -0.13100798428058624, 0.08078990876674652, 1.2316771745681763], [-0.024623697623610497, 1.0450323820114136, 0.7493533492088318, -0.5458673238754272, 0.6328001022338867, 0.07861008495092392, 0.4116882383823395, -0.9241131544113159, -0.7073414325714111, -0.8777180910110474, -0.2861100137233734, 0.07787419110536575, -0.413387268781662, -0.06413044035434723, -0.01652749627828598, 0.5832263827323914], [-0.7350730299949646, 1.0587818622589111, 0.18664057552814484, -0.7986985445022583, 1.150939702987671, 0.5391259789466858, -0.27024853229522705, -0.6981387138366699, -0.5181196331977844, -0.6132906675338745, 0.461739718914032, 0.1236027181148529, -0.7198731303215027, -0.10519787669181824, 0.018180735409259796, 1.5825425386428833], [-0.6908470988273621, 1.565024733543396, 0.37985900044441223, -0.7309069037437439, 1.7147644758224487, 0.7072750926017761, 0.022252004593610764, -1.3477098941802979, -0.4053064286708832, -0.14696133136749268, 0.6145638227462769, 0.12534387409687042, -1.0112242698669434, 0.24669726192951202, 0.06809379160404205, 1.9241746664047241], [-0.8573309779167175, 1.2221283912658691, 1.8795474767684937, -0.6158643960952759, 1.0039608478546143, 0.7574506998062134, -0.2788802683353424, -0.24547633528709412, -0.0898040384054184, -0.1504286527633667, -0.7306217551231384, 0.10079741477966309, -1.3106778860092163, -0.8074818849563599, -0.07755535840988159, 2.362898588180542], [-0.8821351528167725, 0.1845405399799347, 2.0183145999908447, -0.8197104930877686, -0.07877673208713531, 0.7448973059654236, -1.405098795890808, 0.5868781208992004, 0.4494040310382843, 0.4674524664878845, -1.5698267221450806, -0.13979369401931763, -0.8358103632926941, 0.5376966595649719, 0.0673038512468338, 2.3839588165283203], [0.4827580451965332, 0.38710522651672363, 0.9755955934524536, -0.23780272901058197, 0.14456811547279358, 0.1459805965423584, -0.6941578984260559, 0.023190991953015327, 0.4082620143890381, 0.470877468585968, -1.1531871557235718, 0.17309537529945374, -0.29552367329597473, 0.5339776873588562, -0.04435894638299942, 1.955223798751831], [0.4601579010486603, 0.8163483142852783, -0.3603212833404541, -0.7538718581199646, 1.301327109336853, -0.9139537811279297, -0.14720387756824493, -0.12150731682777405, -0.03098037652671337, 0.13259318470954895, -0.5041142702102661, 0.7611631751060486, 0.36759060621261597, 0.7991912364959717, -0.029477272182703018, 1.862329363822937], [0.14604488015174866, 0.8483547568321228, -0.21518173813819885, -1.163942813873291, 0.9294026494026184, -2.065124988555908, 0.0798572227358818, 0.15314657986164093, -0.15351267158985138, 0.3225966989994049, 0.12688209116458893, 0.37043964862823486, -0.2232033759355545, 0.5107883214950562, -0.07149803638458252, 1.568414568901062], [0.299421101808548, 1.1226764917373657, -0.17732442915439606, 0.3636048436164856, -0.9499111771583557, -1.4149894714355469, -0.6378169059753418, -0.008820670656859875, -0.7189167141914368, 0.11998138576745987, -0.49365124106407166, -1.297552466392517, 0.3184316158294678, 0.6323549151420593, 0.04426167905330658, 0.55987548828125], [0.46898677945137024, 0.9485810995101929, -0.1321725994348526, 0.0735991820693016, -0.09823474287986755, -0.9396552443504333, -0.42932623624801636, 0.5131686925888062, -0.4681476056575775, 0.21113723516464233, -0.2578544020652771, -0.774056077003479, 0.6390964984893799, 0.25270354747772217, -0.0266190804541111, 0.5039882063865662], [0.1633777767419815, 0.9491677284240723, -0.2236861288547516, 0.14631463587284088, -0.5889624357223511, -1.2400307655334473, 0.2798151671886444, -0.03963960334658623, 0.47059720754623413, 0.1686486303806305, -0.7056993842124939, 0.45153647661209106, -0.10546368360519409, 0.17194440960884094, -0.023089386522769928, 0.536970317363739], [0.1828629970550537, 1.1131755113601685, -0.9420583248138428, 0.023581963032484055, -0.05235423892736435, -1.3528722524642944, -0.3550962805747986, -0.3989734351634979, 0.17441436648368835, -1.0133981704711914, -0.5541765689849854, -0.6990759372711182, -0.3505624830722809, 0.4215174615383148, 0.08472093939781189, 0.6000227928161621], [-0.22238962352275848, 0.775284469127655, -0.9255752563476562, 0.21904902160167694, -0.4249204993247986, -0.649763822555542, 0.5295355319976807, -0.2862482964992523, -0.22102971374988556, -1.3899153470993042, 0.18228836357593536, -0.29723575711250305, 0.17144158482551575, 0.013937894254922867, 0.06513267755508423, 0.9182830452919006], [-0.11383727937936783, 0.2952798306941986, -0.2822769582271576, 0.03978769853711128, -0.6185570955276489, 0.1915898621082306, -0.5335620641708374, -0.4776906967163086, -0.09124576300382614, -1.3705759048461914, 0.04579852148890495, 0.3312254846096039, 0.24394173920154572, 0.28397336602211, 0.07199259102344513, 0.5705191493034363], [-0.03896312043070793, 1.035550832748413, -0.12695959210395813, -1.4425694942474365, -0.16271401941776276, -1.8061158657073975, -0.5436222553253174, -1.4088603258132935, -0.941379964351654, -0.6812204718589783, -1.3359068632125854, -0.6126725673675537, -0.1701107919216156, 0.21392057836055756, -0.004075989127159119, -0.16885258257389069], [0.012660790234804153, 0.8284501433372498, 0.12746292352676392, -0.8258887529373169, 0.18551068007946014, -1.1927602291107178, -0.03916667774319649, -1.3400591611862183, -0.25307169556617737, -0.8080646991729736, -1.3657305240631104, -1.0119924545288086, -0.3012574017047882, -0.0992305651307106, -0.023649469017982483, 0.41685909032821655], [-0.49793142080307007, 0.5406138300895691, 0.2039826661348343, -0.4795404076576233, 0.8135617971420288, -1.3734217882156372, 0.5329809784889221, -1.0052598714828491, -0.270944207906723, -0.5666887760162354, -0.3825497627258301, 0.17647196352481842, -0.49356716871261597, 0.07174056023359299, 0.033199407160282135, 0.8641396760940552], [-0.3529934287071228, 0.5381144881248474, -0.006451816763728857, -0.31427010893821716, 0.6766995787620544, -0.9527153968811035, 0.6646552085876465, -1.0202968120574951, -0.41025856137275696, -0.546220600605011, -0.5704755783081055, 0.36724114418029785, -0.4275871217250824, 0.22830280661582947, -0.05940798670053482, 0.03928747773170471], [-0.12362531572580338, 0.14967858791351318, -0.06505849212408066, 0.7038021683692932, 0.12568970024585724, -0.8455139398574829, -0.2839362621307373, -1.318264126777649, 0.17067262530326843, -0.0072130062617361546, -0.6713869571685791, 0.05270451307296753, -0.6673198938369751, 0.7129197120666504, -0.04717518389225006, 0.12179989367723465], [-0.006209596525877714, 0.3559265434741974, -0.2701549530029297, 0.661091685295105, -0.38945525884628296, -0.36734092235565186, 0.5242201089859009, -0.31102272868156433, 0.7280236482620239, 0.021755274385213852, -0.9024583101272583, -0.7598305344581604, 0.12679818272590637, -0.40547582507133484, -0.039974603801965714, 0.7519261837005615], [0.015807637944817543, -0.33635568618774414, -0.35631614923477173, 0.1581753045320511, -0.25463175773620605, -0.4395853877067566, -0.15009714663028717, 0.16663359105587006, 0.8248141407966614, -0.05191381648182869, -0.6486556529998779, -0.2748114764690399, -0.068112812936306, -0.010243676602840424, -0.014289267361164093, 0.553862452507019], [-0.06737587600946426, -0.07210623472929001, 0.0852193683385849, 0.05215193331241608, -0.07662728428840637, 0.047434478998184204, -0.08400265127420425, -0.0018597319722175598, -0.002220243215560913, -0.07642578333616257, -0.04123770073056221, 0.047292232513427734, 0.0590696781873703, 0.007012419402599335, 0.007340200245380402, 0.004735417664051056], [0.08092734217643738, -0.06396378576755524, 0.08208982646465302, -0.045939646661281586, -0.003917582333087921, 0.026039645075798035, 0.009392455220222473, 0.07788212597370148, -0.028069186955690384, 0.0798596739768982, 0.009401269257068634, 0.02295053005218506, 0.02519086003303528, 0.026859045028686523, 0.028248697519302368, -0.0239269956946373], [0.024810507893562317, 0.044899165630340576, 0.06951215863227844, 0.07211966812610626, 0.04261946678161621, 0.02481069415807724, -0.08321384340524673, -0.03092776983976364, -0.016395166516304016, 0.0004088208079338074, 0.062344297766685486, -0.020646847784519196, 0.030653178691864014, -0.07945133000612259, -0.07424388825893402, 0.03674483299255371], [-0.0028043240308761597, -0.03157220408320427, -0.01826786994934082, 0.02489219605922699, 0.047880545258522034, 0.060987263917922974, -0.011123508214950562, -0.06458825618028641, 0.006316177546977997, 0.06039102375507355, -0.005676187574863434, -0.040970150381326675, 0.07363839447498322, -0.008207052946090698, 0.06331110000610352, 0.08106055855751038], [0.6353929042816162, 0.6444479823112488, 0.019686518236994743, 0.5094417929649353, -0.721466064453125, -0.12403564900159836, 0.7326721549034119, -0.7651814818382263, 0.3282250761985779, 0.7420335412025452, -0.6326249837875366, 0.035475701093673706, 0.035023756325244904, 0.1474544107913971, -0.06704491376876831, -0.49251794815063477], [0.828832745552063, -1.09192955493927, -1.196699619293213, 0.2316632866859436, 1.0316781997680664, -1.194659948348999, -0.07571835070848465, -0.8948648571968079, 0.364160418510437, 0.06105029210448265, 0.9978188276290894, 1.1293143033981323, 0.20595033466815948, 1.0228792428970337, 0.028181321918964386, 1.189947247505188], [-0.7994571328163147, -0.48777109384536743, -1.430140495300293, -0.11205141246318817, 0.3670997619628906, -1.1293997764587402, 0.39051464200019836, -0.4512048661708832, 0.1778438836336136, -0.6348270177841187, 0.17895875871181488, 0.8357483148574829, 0.2203410267829895, 1.0536359548568726, -0.013093337416648865, 1.8835182189941406], [0.3277699649333954, 0.1581331193447113, 0.10404150187969208, -0.18216665089130402, 1.8610860109329224, -0.814384400844574, 0.21609659492969513, -0.048375822603702545, -0.003939446527510881, 0.10770542174577713, 0.4901271462440491, 0.01891448348760605, 0.39339661598205566, 0.5822733640670776, 0.010676965117454529, 0.274383008480072], [-0.03087199106812477, 0.3470136225223541, 1.2807735204696655, -0.060916487127542496, 0.3822191059589386, 0.075154148042202, -0.5874840021133423, -0.45657771825790405, 0.40727925300598145, 0.8519739508628845, 0.23737479746341705, -0.745818555355072, -0.4471116364002228, 0.41348814964294434, 0.056835904717445374, 0.5641046166419983], [0.024380875751376152, -0.29727205634117126, 1.5448706150054932, 0.2272803783416748, 0.09406138956546783, -1.2264090776443481, -0.43227913975715637, -0.8790127635002136, 0.5679283142089844, 1.2376375198364258, -0.2722400426864624, 0.023402320221066475, -0.5501269698143005, 1.0408408641815186, 0.036683015525341034, -0.35260507464408875], [0.2807876765727997, 0.47653651237487793, 0.35027027130126953, -0.24103133380413055, 0.7009000182151794, -0.8231936693191528, -1.0712653398513794, -0.7837069034576416, 0.6210512518882751, 0.9679500460624695, 0.018133431673049927, -0.03182725980877876, -0.005786490626633167, 0.8142741322517395, 0.08057492971420288, 0.5931196808815002], [-0.6832922697067261, 1.1164860725402832, -0.1031433567404747, -0.3314732313156128, -0.15400569140911102, -0.31681132316589355, -0.5439133048057556, -0.3554348349571228, 0.1466137170791626, 0.7355715036392212, 0.6639971733093262, 0.16316340863704681, -0.7521410584449768, 0.3753836452960968, 0.08589425683021545, 1.3244723081588745], [-0.042535752058029175, 0.39071357250213623, 0.09304039180278778, 0.08602342754602432, 0.20803867280483246, -1.0212713479995728, -1.0706747770309448, 0.2763102948665619, -0.31997600197792053, 0.7327340841293335, 0.2747141718864441, 1.1008996963500977, -1.3983529806137085, 0.8094377517700195, 0.013356328010559082, 0.4698884189128876], [0.2878420352935791, 0.4024697542190552, 0.3968280851840973, 0.07734313607215881, 1.2030000686645508, -1.0695793628692627, -0.058338187634944916, 0.21987760066986084, -0.2660500705242157, 0.627084493637085, -0.6459343433380127, -0.018754683434963226, -0.6054514646530151, 0.04618619754910469, 0.035875529050827026, 0.40145257115364075], [-0.5918208956718445, 0.2703852951526642, 0.08242999762296677, 0.26307058334350586, 0.5893645882606506, -1.8114553689956665, -0.04047732800245285, -0.16597327589988708, 0.33622950315475464, 0.8362444639205933, -0.002866793191060424, -0.28870558738708496, 0.12471508234739304, 0.599105954170227, 0.021016336977481842, 0.280671089887619], [-0.3374754786491394, 0.5315966606140137, 0.12317583709955215, 0.46421942114830017, 0.7091402411460876, -1.4124813079833984, -0.31317856907844543, -0.5057616233825684, 0.907584011554718, 0.40132835507392883, 0.3560919761657715, -0.6274953484535217, 0.10312606394290924, 0.1798497587442398, 0.005185246467590332, 0.9608530402183533], [0.4088495075702667, -0.01475069485604763, -0.2147209793329239, -0.20689229667186737, 1.078127384185791, -1.4746407270431519, -0.2275780439376831, -0.0574771948158741, -0.05359962582588196, 0.07347919791936874, 0.7367988228797913, -0.7682585120201111, -0.02542729489505291, 0.10042548179626465, 0.012206338346004486, 0.2752751111984253], [0.7267534732818604, 0.12901842594146729, -0.11032353341579437, -0.2733762562274933, 0.7408522367477417, -1.1784474849700928, -0.08109448105096817, 0.16838616132736206, 0.39344334602355957, -0.13294029235839844, 0.20911405980587006, -0.5552152395248413, -0.47526606917381287, 0.5302605032920837, -0.0036968812346458435, -0.09018422663211823], [0.28823739290237427, 0.08713963627815247, -0.6336299777030945, 0.059492431581020355, 0.5454006195068359, -0.9502178430557251, -0.4788125455379486, -0.05051730200648308, 0.5778642892837524, -0.4281781315803528, -0.01176025066524744, -0.4828743636608124, -0.7362069487571716, 0.06847173720598221, 0.06667092442512512, -0.1347092092037201], [0.003396241692826152, -0.060049448162317276, -0.7149443626403809, 0.12719690799713135, 0.4620318114757538, -0.6166225671768188, -0.3405914306640625, -0.1881287544965744, -0.06693651527166367, -0.16322681307792664, -0.028772052377462387, -0.12100397050380707, 0.011268519796431065, -0.09145056456327438, 0.06903617084026337, -0.11876530200242996], [-0.10692526400089264, 0.06706736981868744, -0.7738624811172485, 0.07685481011867523, -0.18981745839118958, -0.8788563013076782, -0.14041030406951904, -0.1541171371936798, 0.20941926538944244, -1.3316254615783691, -0.22343403100967407, 0.1608886867761612, 0.6192248463630676, -0.05101596936583519, -0.02706841379404068, -0.015976425260305405], [-0.17988276481628418, 0.21457365155220032, -0.4571334421634674, -0.2925719916820526, 0.07611402124166489, -1.3500694036483765, -0.054740533232688904, -0.21038824319839478, -0.005804617423564196, -1.0022194385528564, -0.27553340792655945, 0.33976808190345764, -0.38958415389060974, 0.0013474298175424337, 0.08451138436794281, 0.41867440938949585], [-0.06290937960147858, -0.6952875852584839, -0.1155223548412323, -0.12435363233089447, 0.0026578721590340137, -1.0636374950408936, 0.30486977100372314, -0.6232547760009766, 0.32274046540260315, -0.27461934089660645, 0.043137628585100174, 0.15985892713069916, -0.30458515882492065, 0.7286214828491211, -0.014846861362457275, -0.28586313128471375], [-0.624886691570282, 0.45455095171928406, -0.2841837406158447, 0.1257043480873108, -0.00664833327755332, -1.2812671661376953, 0.15401805937290192, -0.3404325246810913, 0.27235147356987, -1.3349753618240356, -0.017999932169914246, -0.17086796462535858, 0.3116439878940582, -0.06897848099470139, -0.03297213464975357, 0.4072326123714447], [0.1424856334924698, 0.5375088453292847, 0.4797753691673279, -0.32236427068710327, -0.2632744312286377, -0.1616506278514862, 0.33351781964302063, -0.12801332771778107, 0.06698750704526901, -1.083937406539917, 0.45558691024780273, 0.0469442643225193, 0.4544594883918762, -1.0792372226715088, -0.07951880246400833, -0.35036396980285645], [-0.10054732859134674, 1.0108730792999268, 0.34256163239479065, -0.13697269558906555, 1.0111286640167236, 0.28433385491371155, 0.4895636737346649, 0.37488093972206116, 0.371307373046875, -0.5081071257591248, -0.3382645547389984, 0.4027473032474518, -0.6000404953956604, -0.36918479204177856, -0.058205943554639816, -0.04496713727712631], [0.543201744556427, 0.8179181814193726, -0.6725323796272278, 1.0947614908218384, 1.273255705833435, -0.48057821393013, -0.9905223846435547, -0.6686598062515259, 0.8038857579231262, -0.2677842974662781, -0.4601365923881531, 1.520034670829773, -0.2939484715461731, 0.266316682100296, 0.026261255145072937, 0.8570924997329712], [0.8834381699562073, -0.9911941885948181, 0.36194905638694763, 1.2948620319366455, -0.8154651522636414, 0.1829386055469513, -0.1266261488199234, -0.3220568895339966, 1.09889554977417, -0.11793425679206848, 0.9202130436897278, 1.3739455938339233, -0.651945948600769, 0.12224800139665604, 0.06866663694381714, -0.815106213092804], [-0.3396639823913574, -0.5965386629104614, -0.08992444723844528, 0.6689684391021729, -0.17755676805973053, -0.7594545483589172, -0.30955061316490173, -0.6559816598892212, 1.0396686792373657, 0.02320193313062191, 0.5578162670135498, 0.5065150260925293, 0.2743622958660126, -0.44020307064056396, 0.05743318796157837, 0.11204555630683899], [-0.0780937671661377, -0.004732795059680939, 0.053259894251823425, 0.02001117169857025, -0.009022757411003113, 0.04796317219734192, -0.08350970596075058, 0.07741300761699677, 0.028494901955127716, 0.01870613545179367, 0.04102490842342377, -0.0030869245529174805, -0.0782831683754921, -0.03732358664274216, -0.016267582774162292, -0.04441310465335846], [0.07591645419597626, 0.009266085922718048, -0.030639097094535828, 0.08385853469371796, 0.02674984186887741, 0.06509928405284882, -0.0663377121090889, 0.018412671983242035, 0.03018643707036972, 0.06254081428050995, 0.014562711119651794, -0.06926220655441284, 0.029235199093818665, 0.07086248695850372, 0.04899586737155914, 0.07397067546844482], [0.13002879917621613, -0.04821659252047539, 0.07122375071048737, 0.03841705247759819, 0.08038055151700974, -0.06833447515964508, 0.006657740101218224, 0.1058085560798645, 0.04290912672877312, 0.06106795743107796, -0.13442884385585785, -0.04125785827636719, -0.06456274539232254, 0.11531427502632141, -0.02519690990447998, -0.12994101643562317], [1.0072224140167236, 0.5464978814125061, -0.482647567987442, 0.7725073099136353, -0.4405093491077423, 0.07052851468324661, 0.9758943319320679, -0.5154752731323242, 0.7340545654296875, 0.8217901587486267, -1.0061684846878052, -0.5988048315048218, -0.348225474357605, 0.6678419709205627, -0.05067276954650879, -0.9192216992378235], [-0.5729733109474182, -1.306924819946289, -0.7484142184257507, 0.7129635810852051, 0.7282307147979736, -0.37519726157188416, 1.254845380783081, 0.30419760942459106, -0.04497763141989708, 0.0509953498840332, -1.1189250946044922, 1.408975601196289, -0.5101274847984314, 0.6679466366767883, 0.021847426891326904, -0.7196642756462097], [-0.5860580205917358, 0.3927592933177948, 0.9056851267814636, 0.7553468346595764, 0.9783285856246948, -0.8494808673858643, 0.49462011456489563, -0.48756733536720276, -0.028613703325390816, -0.0005670962273143232, -1.3009291887283325, 0.4614865779876709, -1.1796332597732544, -0.9148606657981873, -0.012976206839084625, -0.8409671783447266], [-1.0753114223480225, 0.34021469950675964, -0.5444105863571167, 0.7355406880378723, 0.4826679825782776, -1.2756743431091309, 0.4610254764556885, -0.4666267931461334, -0.09311465173959732, 0.19778090715408325, -0.42234912514686584, -0.4272457957267761, -0.6555415391921997, 0.1711399257183075, 0.008827656507492065, 0.3675340712070465], [-0.5986800193786621, -0.3004147708415985, 0.5680867433547974, 0.8411446213722229, -0.004056155681610107, 0.40839046239852905, -0.20293819904327393, 0.04723558574914932, 0.39162346720695496, 0.9271184206008911, 0.19195516407489777, 0.13649602234363556, -0.3157012462615967, 0.7144809365272522, -0.05899030715227127, 0.2313244491815567], [-0.4030385911464691, 0.09517350792884827, 0.29046571254730225, 0.6080806851387024, 0.44126319885253906, 0.5503831505775452, -0.7217859625816345, 0.1983923316001892, -0.7995964884757996, 0.08748592436313629, 0.841491162776947, 0.6503809690475464, 0.19304729998111725, 0.6537158489227295, 0.01828477531671524, 0.11337433755397797], [-0.03847721964120865, 0.5650343894958496, 0.014852186664938927, 0.5857431888580322, 0.4109053611755371, -0.44798776507377625, -0.0007958465139381588, -0.04937383159995079, -0.24913233518600464, 0.24926918745040894, -0.13330449163913727, -0.3182075321674347, -0.4865376353263855, 0.28011569380760193, 0.08232679963111877, -0.055045850574970245], [-0.050712332129478455, 0.6643263101577759, -0.3047850430011749, 0.6999411582946777, 0.4585265815258026, -0.43248632550239563, -0.7025015354156494, 0.06404547393321991, -0.3096844255924225, 0.16869403421878815, 0.20676593482494354, -0.14614951610565186, -0.04238172620534897, 0.4534223675727844, 0.0007483735680580139, 0.20048142969608307], [-0.24915052950382233, 0.3873871862888336, -0.2945500910282135, 0.10278188437223434, 0.4677277207374573, -0.3888506591320038, -0.302558958530426, 0.23163019120693207, -0.06235199049115181, 0.4453234374523163, -0.07061238586902618, -0.31625601649284363, -0.01851002499461174, 0.5256666541099548, -0.00017992407083511353, 0.49575039744377136], [0.3968702256679535, 0.1568891555070877, -0.4132938086986542, 0.11151683330535889, 0.5542910099029541, -0.21021902561187744, 0.14120295643806458, -0.16146127879619598, -0.02595769800245762, 0.37355053424835205, 0.37359127402305603, -0.10352446138858795, 0.35004922747612, -0.11241061240434647, -0.0855371430516243, 0.25387880206108093], [0.0775962769985199, 0.2504512071609497, 0.009972008876502514, 0.3185447156429291, 0.36829498410224915, 0.013998568058013916, 0.1641274243593216, 0.13151752948760986, -0.05038268119096756, 0.19099880754947662, 0.17232486605644226, -0.03486461564898491, 0.4077754318714142, 0.1820230931043625, -0.043553583323955536, -0.03280240669846535], [0.3046150505542755, 0.22816801071166992, 0.6031412482261658, 0.017138727009296417, 0.36168521642684937, -0.15519067645072937, -0.17167693376541138, 0.04936664178967476, -0.13252907991409302, 0.2552506625652313, -0.09973040968179703, -0.30555784702301025, -0.16960139572620392, -0.048841677606105804, 0.002351626753807068, -0.051155056804418564], [0.3954051733016968, 0.3143194019794464, 0.1340891718864441, 0.22316673398017883, 0.08495493978261948, -0.26127806305885315, -0.40030157566070557, 0.49023401737213135, -0.22226135432720184, -0.08193130046129227, 0.23157747089862823, -0.2282496690750122, 0.0416586734354496, 0.29548388719558716, -0.02782314643263817, 0.07555245608091354], [0.42040616273880005, -0.007895300164818764, -0.5353232622146606, 0.04645475745201111, -0.010134922340512276, -0.09609195590019226, 0.21441102027893066, 0.10531233251094818, -0.08868841826915741, 0.2639791965484619, 0.4768822193145752, 0.1448199301958084, 0.17563846707344055, 0.24006104469299316, 0.014982946217060089, 0.18155038356781006], [0.6024135947227478, 0.28303995728492737, 0.11956258118152618, 0.26883986592292786, 0.19724717736244202, -0.21745964884757996, 0.060773905366659164, 0.4436710774898529, 0.08540384471416473, -0.1608179211616516, 0.32879048585891724, -0.01394093781709671, 0.06791173666715622, -0.028837470337748528, -0.001765809953212738, 0.2777864634990692], [0.551336944103241, 0.042625945061445236, 0.1718343198299408, 0.15781989693641663, 0.0014756870223209262, 0.09891392290592194, -0.0034718953538686037, 0.41705769300460815, -0.11144418269395828, -0.21406079828739166, 0.30440473556518555, 0.0681765004992485, -0.030784497037529945, 0.21382535994052887, -0.001067526638507843, 0.33650803565979004], [0.01020003017038107, -0.060800328850746155, 0.3190692365169525, 0.08342697471380234, -0.15153728425502777, -0.48254936933517456, 0.09581173211336136, 0.1270570307970047, 0.08587012439966202, 0.30687403678894043, 0.14856649935245514, 0.6486790180206299, 0.1001715213060379, 0.32986754179000854, -0.05121134594082832, -0.188374325633049], [0.41655221581459045, 0.07377474755048752, -0.04120699316263199, 0.008202224969863892, 0.3214629590511322, -0.9367771744728088, 0.26272130012512207, 0.3237498104572296, 0.27502161264419556, -0.3599100112915039, 0.042224835604429245, 0.3048407733440399, 0.04538239166140556, -0.13053710758686066, -0.03447648137807846, -0.1073201447725296], [0.36081838607788086, 0.2962114214897156, 0.04171748459339142, -0.1248696818947792, -0.030579209327697754, -0.4272500276565552, -0.018549440428614616, 0.33050066232681274, 0.4031042456626892, -0.6255668997764587, -0.05414920300245285, 0.20472387969493866, 0.23519040644168854, 0.004328275565057993, 0.026883184909820557, -0.1155356839299202], [-0.2852662205696106, 0.3571183681488037, -0.1425495445728302, -0.4187188446521759, 0.40521398186683655, -0.10142778605222702, 0.1768309324979782, 0.44287118315696716, -0.28416964411735535, -0.028958911076188087, 0.08332467824220657, -0.12688970565795898, 0.5306680202484131, 0.1169232726097107, -0.07636906206607819, -0.34306925535202026], [0.2796498239040375, 0.0951356440782547, 0.1503729373216629, -0.2775672376155853, 0.13401183485984802, -0.05158909037709236, -0.017939245328307152, 0.39845147728919983, -0.15214568376541138, 0.2174462527036667, 0.18043743073940277, 0.6166108250617981, 0.22120630741119385, -0.17503878474235535, -7.061660289764404e-05, -0.5138472318649292], [-0.6445615291595459, 0.2584426999092102, 0.23178306221961975, -0.00584368733689189, -0.39881208539009094, -0.1445036232471466, 0.3694060742855072, -0.2556118369102478, -0.4799182116985321, -1.2800047397613525, 0.49934181571006775, 0.7177083492279053, -0.24142271280288696, -0.45622870326042175, 0.06229616701602936, 0.041109275072813034], [-0.8197287321090698, -0.8407918810844421, 0.11427526921033859, 0.19472813606262207, -0.3349134624004364, 0.36802151799201965, 0.682966411113739, 0.3943336308002472, 0.23346471786499023, -1.1993815898895264, 0.2183571755886078, 0.2692530155181885, -0.6257714033126831, 0.7890446186065674, -0.06714976578950882, 0.08039601147174835], [-1.3644434213638306, -0.8548347353935242, 0.9747819900512695, 0.5270811319351196, -0.4107089638710022, -0.7407500147819519, -0.4834645986557007, 0.4901468753814697, 0.3043918311595917, -0.5921050310134888, 0.9288637042045593, 0.549400269985199, 1.030142903327942, 0.6708580255508423, 0.051473468542099, -0.9106189608573914], [-0.6462119817733765, -0.23191264271736145, -0.9467395544052124, 0.3284090459346771, 0.5860157012939453, -0.5821219086647034, -0.4504595398902893, 0.8629482388496399, 1.051491618156433, 0.006940785795450211, 0.24757257103919983, 1.2128592729568481, 0.24886532127857208, -0.0457950085401535, -0.021913893520832062, -0.2379821538925171], [-0.7426956295967102, 1.0790603160858154, 0.1001950055360794, -0.647193431854248, 1.0857731103897095, -1.0610897541046143, -0.6829961538314819, 0.059528689831495285, 0.7242411971092224, -0.04963095113635063, -0.9391619563102722, 0.03132576122879982, -0.06210501864552498, 0.03794059902429581, 0.02601819485425949, 1.2448310852050781], [-0.015454605221748352, 0.04950949549674988, 0.029973722994327545, -0.02681294083595276, -0.08183526247739792, -0.057471029460430145, -0.06022144481539726, 0.001947261393070221, -0.08587759733200073, -0.08623672276735306, -0.011084571480751038, -0.03888913244009018, -0.030595239251852036, 0.02235744148492813, -0.014776639640331268, 0.041790589690208435], [0.033524416387081146, -0.032767247408628464, 0.062289223074913025, 0.047282442450523376, -0.06644196063280106, 0.015064962208271027, 0.05984474718570709, 0.04149682819843292, -0.05946061760187149, 0.0737321674823761, 0.028935536742210388, 0.04684002697467804, 0.06008046865463257, -0.06034594774246216, 0.02219463884830475, -0.013712704181671143], [1.2766178846359253, 1.4671969413757324, 0.44367676973342896, 0.8866445422172546, 0.07574421167373657, -0.9529030323028564, 1.2775861024856567, -0.7926232814788818, 0.3344580829143524, 0.40094950795173645, -1.6784988641738892, -0.3461170792579651, -0.30514994263648987, -0.01705821417272091, -0.048072922974824905, -0.07637340575456619], [-1.1981513500213623, -0.8843506574630737, -0.8388977646827698, 1.026443600654602, 0.12814731895923615, -0.7306444048881531, -0.214763343334198, 1.5189462900161743, -0.64899080991745, 0.03066999465227127, -0.8246864080429077, -0.09771917015314102, 0.05226856470108032, 1.5597760677337646, -0.01228545606136322, 0.93509441614151], [-0.1845114380121231, 0.6225456595420837, 0.1540844887495041, 1.4226698875427246, 1.3818279504776, -1.6928784847259521, -0.8432638645172119, 0.19458192586898804, 0.40532705187797546, 0.5358290076255798, -0.3131682276725769, -0.6476500034332275, -0.11265063285827637, 0.4535881578922272, 0.07986325025558472, -0.1284354329109192], [-0.34427815675735474, 0.4800148010253906, 0.4115919768810272, -0.17747314274311066, 0.006342330481857061, 0.08272898197174072, 0.8597009181976318, -0.26141613721847534, -0.026539195328950882, 0.20272500813007355, -0.5449041724205017, -0.017655547708272934, -0.549518883228302, -0.3486339747905731, 0.031286753714084625, -0.48128122091293335], [-0.09774594753980637, 0.48122087121009827, 0.4167792499065399, -0.03866507112979889, 0.5689359307289124, -0.3456729054450989, 0.4653814435005188, -0.21536637842655182, 0.0635022297501564, 0.17890918254852295, -0.11754833906888962, 0.1445252001285553, -0.6372128129005432, 0.08798389881849289, 0.039694562554359436, 0.24872176349163055], [-0.4688413739204407, -0.059025783091783524, 0.2204996943473816, 0.5571075081825256, 0.8512216210365295, -0.3914131820201874, -0.05689806863665581, 0.24002279341220856, 0.16163212060928345, 0.13333489000797272, -0.14637456834316254, 0.20454466342926025, -0.29377272725105286, 0.49657219648361206, 0.07834434509277344, 0.06632860749959946], [0.052195072174072266, 0.1121397614479065, 0.25936609506607056, 0.06743312627077103, 0.07028108835220337, 0.48794394731521606, -0.2565464377403259, -0.2728683352470398, -0.04743829369544983, 0.19443799555301666, -0.20566177368164062, 0.2455717921257019, 0.035900332033634186, -0.10723768174648285, -0.07051389664411545, 0.18154510855674744], [0.24342836439609528, 0.11566969752311707, 0.2203216254711151, 0.01871494948863983, 0.22826921939849854, 0.42471563816070557, 0.2501778304576874, -0.19870446622371674, 0.20176249742507935, 0.020600691437721252, -0.1903783231973648, 0.19095410406589508, 0.03538752347230911, 0.008549371734261513, 0.0005377071211114526, -0.11798592656850815], [0.08988159894943237, 0.30751606822013855, 0.15077978372573853, -0.10420765727758408, 0.26112478971481323, 0.14839637279510498, -0.38798171281814575, 0.18366597592830658, -0.04675602540373802, 0.07820027321577072, 0.03424818068742752, 0.05187727510929108, 0.2349381148815155, 0.35028329491615295, -0.06658385694026947, 0.27782994508743286], [-0.1400889903306961, -0.3026508688926697, 0.0313076488673687, 0.19630372524261475, -0.22384165227413177, 0.33387598395347595, -0.10558034479618073, 0.45351314544677734, -0.13642039895057678, 0.3910856544971466, 0.2818523347377777, 0.43409058451652527, -0.25919896364212036, 0.3431864082813263, -0.015915686264634132, -0.10528209805488586], [-0.23477408289909363, -0.03273816034197807, -0.05814634636044502, 0.13013190031051636, 0.15525081753730774, 0.2616196274757385, 0.10256367176771164, 0.4667220413684845, 0.05667157098650932, 0.08833689987659454, -0.10296984761953354, 0.09805241972208023, 0.16390560567378998, 0.08342428505420685, 0.027278117835521698, -0.27505284547805786], [0.11636880040168762, 0.15736311674118042, -0.15784470736980438, 0.18876616656780243, 0.011531313881278038, 0.19511200487613678, -0.16920417547225952, -0.06093386188149452, 0.19469019770622253, 0.1568964719772339, -0.011918125674128532, 0.35844650864601135, -0.24805398285388947, 0.16986839473247528, 0.06027935817837715, 0.20192226767539978], [0.2135760337114334, 0.28001707792282104, -0.25595200061798096, 0.1900324672460556, 0.4275796711444855, 0.04422423243522644, -0.20360535383224487, 0.0921044796705246, -0.3015611469745636, -0.0400477796792984, 0.0389445461332798, 0.0049961325712502, -0.140239879488945, 0.010967563837766647, -0.03274833410978317, 0.26630184054374695], [0.22071103751659393, 0.09862399846315384, -0.058247942477464676, -0.10752362757921219, 0.19394397735595703, 0.13844960927963257, 0.32387807965278625, -0.04176447167992592, 0.01943240314722061, 0.1855744868516922, -0.14839231967926025, -0.11540274322032928, -0.15538151562213898, 0.003958346322178841, -0.04884258285164833, 0.06752291321754456], [0.30697259306907654, -0.00472937012091279, 0.05372622609138489, 0.025708526372909546, 0.06796758621931076, 0.07700462639331818, -0.0417507141828537, 0.35305655002593994, 0.41594693064689636, 0.04454930126667023, -0.09914033114910126, 0.050345782190561295, 0.47217828035354614, 0.1345449537038803, -0.007895536720752716, -0.21546974778175354], [0.21966776251792908, 0.24427185952663422, -0.31800246238708496, 0.03192826732993126, 0.19826145470142365, -0.10871204733848572, -0.07067538052797318, 0.29092010855674744, -0.1293666958808899, -0.22226211428642273, 0.1641313135623932, -0.00984970759600401, 0.27733758091926575, -0.10809233784675598, -0.07830675691366196, 0.1437033712863922], [0.2043915092945099, -0.02940879389643669, 0.13026659190654755, -0.23201532661914825, -0.009714274667203426, -0.0625930204987526, -0.2978381812572479, 0.19264069199562073, -0.08362341672182083, 0.06899098306894302, -0.09124883264303207, 0.07501671463251114, -0.25030627846717834, 0.15108579397201538, 0.06619538366794586, 0.22432363033294678], [0.31131038069725037, 0.23655644059181213, 0.12117104232311249, 0.09629268199205399, 0.28490933775901794, -0.35535866022109985, -0.17973239719867706, 0.3774622678756714, -0.20866163074970245, -0.22060483694076538, 0.033957671374082565, 0.19875960052013397, -0.06216082349419594, 0.19153708219528198, 0.011659696698188782, 0.18674179911613464], [0.3169373869895935, 0.02064112201333046, 0.12770427763462067, 0.46790948510169983, -0.2603130340576172, -0.4687480628490448, -0.26787900924682617, 0.41104450821876526, 0.03860170394182205, -0.44317948818206787, -0.03779607266187668, 0.14177624881267548, 0.02922971174120903, 0.18792642652988434, -0.029839633032679558, 0.3467850387096405], [-0.00029465643456205726, 0.3536493480205536, -0.03291383385658264, 0.03685698285698891, -0.34767502546310425, -0.16627217829227448, -0.37302669882774353, 0.17593449354171753, -0.08763563632965088, -0.2478548288345337, 0.03502199426293373, -0.21248191595077515, -0.026591815054416656, 0.10636067390441895, -0.05251443758606911, 0.10974875092506409], [0.24339914321899414, 0.07153238356113434, -0.444652795791626, -0.11274274438619614, -0.17060895264148712, -0.4554840326309204, -0.12793980538845062, 0.12361086905002594, -0.13820968568325043, -0.005861190613359213, 0.14270684123039246, -0.18496498465538025, 0.2827494144439697, 0.25650376081466675, -0.004767225589603186, 0.10267642885446548], [0.14615152776241302, 0.3856073319911957, -0.08446626365184784, -0.2859437167644501, -0.3619020879268646, -0.30112171173095703, 0.11478672176599503, -0.25698402523994446, 0.2308625429868698, -0.08862892538309097, -0.2570265829563141, -0.4898068904876709, -0.10204627364873886, 0.11551699787378311, -0.010312825441360474, 0.045224934816360474], [-0.6238563060760498, 0.09220215678215027, -0.09325619786977768, 0.12964001297950745, -0.32308229804039, -0.1245460957288742, 0.7634975910186768, -0.2399435192346573, -0.5417306423187256, -0.932021975517273, -0.21210086345672607, 0.06776037812232971, -0.18677034974098206, 0.025316687300801277, 0.072724848985672, 0.64772629737854], [-0.35819679498672485, 0.48334458470344543, 0.600297749042511, 1.370113730430603, 0.13622647523880005, 0.0891529768705368, -0.36822137236595154, 0.7235280275344849, -0.09164495021104813, -0.9974721074104309, 0.05208292230963707, 0.06025109812617302, -0.31678304076194763, -0.0424216203391552, -0.0014743655920028687, 0.030206862837076187], [0.017528336495161057, 0.5173577666282654, -1.1732971668243408, 0.14590103924274445, 0.6631172895431519, -0.005354707129299641, -0.49453967809677124, 0.3376520574092865, 1.476853370666504, -0.34096577763557434, 0.13460199534893036, -0.30952027440071106, 0.21779832243919373, -0.3712675869464874, -0.001973189413547516, 0.718096137046814], [-0.9128252863883972, 0.9720516204833984, -0.3722916543483734, -0.6638041734695435, 0.7900862693786621, -0.38063839077949524, 0.07021669298410416, 0.16730360686779022, 0.6703824996948242, -0.23628725111484528, -0.9823920726776123, 0.4750061631202698, -0.16536635160446167, 0.5093474984169006, 0.08350576460361481, 0.7573460936546326], [0.07216356694698334, -0.04380984231829643, -0.026128534227609634, 0.07639993727207184, -0.04412979632616043, -0.05299350619316101, -0.0813184306025505, -0.06939515471458435, -0.07753705978393555, -0.07626944035291672, -0.02088908851146698, 0.023151181638240814, -0.0803874284029007, 0.06622906029224396, 0.08284859359264374, 0.07256993651390076], [0.31363943219184875, -0.1504737287759781, -0.10907096415758133, 0.17174941301345825, 0.2890707552433014, -0.22145725786685944, -0.06728290766477585, 0.14916901290416718, 0.3092113733291626, 0.25765180587768555, -0.3847085237503052, -0.30244335532188416, -0.0677744597196579, 0.08200113475322723, -0.030746091157197952, -0.05563673749566078], [0.056647103279829025, -0.3586176633834839, 0.7347298264503479, 0.5618812441825867, -0.5351395010948181, -0.17922206223011017, 0.297538697719574, 0.4094989597797394, -0.4711742103099823, 0.1395210325717926, -0.041420869529247284, 0.8166897892951965, 0.9217076897621155, -0.35902222990989685, -0.06973342597484589, 0.8286268711090088], [0.6399621963500977, -0.028079155832529068, 0.8459992408752441, 1.026947259902954, -0.17021222412586212, 0.14351344108581543, 0.15972445905208588, -0.5472604632377625, 0.6007709503173828, 0.9838351607322693, -0.9250417351722717, 0.43328121304512024, 0.15808440744876862, -0.03455543518066406, 0.002099759876728058, -0.39976054430007935], [-0.4038463234901428, 0.5424255132675171, 0.11953961104154587, -0.7512933015823364, 0.3571869432926178, -0.12711359560489655, -0.24759984016418457, -0.6873772740364075, 0.7819415926933289, 0.48570120334625244, 0.6970171332359314, -0.22992518544197083, 1.2033880949020386, -0.0186658576130867, -0.0507437102496624, 0.5988818407058716], [0.33176615834236145, 0.4198698103427887, 0.220960333943367, -0.7536826729774475, 1.024943470954895, 0.3092908561229706, 0.4528205394744873, -0.7691172957420349, 0.11208360642194748, 0.1661868840456009, 0.4537094533443451, -0.1681405007839203, 0.8865934610366821, -0.38842570781707764, -0.0004192445776425302, 0.4018254280090332], [0.0008443085243925452, 0.06834957748651505, 0.11005642265081406, 0.14801497757434845, 0.09146881848573685, -0.3060078024864197, 0.15205071866512299, 0.02152678370475769, 0.5248183012008667, 0.3088488280773163, 0.03275294601917267, 0.015403753146529198, -0.5295034050941467, 0.41490378975868225, -0.0057167611084878445, -0.08371224999427795], [-0.42760545015335083, 0.009932925924658775, 0.15732061862945557, -0.16240663826465607, -0.07147292792797089, -0.008029495365917683, 0.0682409480214119, 0.5046829581260681, 0.41057446599006653, 0.1573745608329773, 0.06851957738399506, 0.10800427943468094, -0.12127447128295898, 0.17480012774467468, 0.06337504088878632, 0.011609687469899654], [-0.012590820901095867, 0.0006401966093108058, 0.0625644326210022, 0.0476859025657177, 0.13049012422561646, 0.05303047224879265, 0.09639663249254227, -0.018150370568037033, 0.010424629785120487, 0.22007012367248535, -0.016041502356529236, 0.4032934308052063, 0.19234634935855865, 0.10129383206367493, 0.06612608581781387, -0.14911548793315887], [-0.529313325881958, -0.1658385545015335, 0.21502090990543365, 0.2572394609451294, -0.41886112093925476, 0.27228978276252747, -0.053348101675510406, 0.2626069486141205, 0.09698469191789627, 0.28415945172309875, -0.3192185163497925, 0.2387579083442688, 0.3415750563144684, 0.012243328616023064, -0.019696956500411034, -0.4055885076522827], [-0.0711866244673729, -0.14900313317775726, -0.24112185835838318, 0.15245161950588226, -0.4521864950656891, -0.28110694885253906, -0.03552637994289398, -0.20698754489421844, 0.3346235752105713, 0.33928802609443665, -0.2610788643360138, 0.42199650406837463, 0.08400987088680267, -0.10656566917896271, -0.028021473437547684, -0.17207632958889008], [-0.07226543128490448, 0.01684773527085781, 0.008218464441597462, 0.17404283583164215, -0.42860740423202515, -0.016980528831481934, 0.3441491425037384, -0.08304817974567413, -0.09678996354341507, 0.5368388891220093, 0.06814354658126831, 0.16269248723983765, -0.03298013284802437, -0.02899680659174919, 0.014482086524367332, -0.04287172108888626], [0.011010841466486454, 0.08566581457853317, -0.31547221541404724, 0.2329247146844864, -0.11496502161026001, 0.28879880905151367, 0.031967248767614365, 0.1657383292913437, -0.14858782291412354, 0.21671414375305176, 0.08000761270523071, 0.27931293845176697, 0.11145908385515213, -0.07633605599403381, 0.016063954681158066, 0.040567632764577866], [-0.04179672524333, -0.2331632822751999, -0.39092758297920227, 0.06278406828641891, -0.13994063436985016, 0.014594892971217632, 0.18958403170108795, 0.04787423834204674, 0.19261164963245392, 0.44619089365005493, 0.10586173832416534, 0.24467654526233673, -0.06340688467025757, 0.1724979430437088, -0.08448667824268341, 0.03776254504919052], [0.1412871927022934, -0.08831379562616348, -0.09205314517021179, 0.20441961288452148, -0.2067248523235321, 0.0960502028465271, 0.026269925758242607, 0.020647266879677773, -0.21245379745960236, 0.24853265285491943, 0.06457304209470749, 0.3428496718406677, -0.16088370978832245, 0.07174193114042282, 0.07209781557321548, 0.0722615122795105], [0.20603050291538239, 0.059652794152498245, -0.26843732595443726, 0.4713841676712036, 0.08910554647445679, 0.09896986186504364, -0.030888846144080162, 0.030222957953810692, 0.27590858936309814, -0.16072186827659607, 0.031686749309301376, 0.3340087831020355, -0.3758676052093506, 0.21693362295627594, 0.025584634393453598, 0.2971910238265991], [0.42448854446411133, -0.24016337096691132, -0.3323655128479004, 0.07388056069612503, 0.16626696288585663, 0.06211724504828453, 0.11232259124517441, 0.11510400474071503, 0.23198828101158142, 0.028898419812321663, 0.058906350284814835, 0.3721185326576233, -0.14246219396591187, 0.1347898691892624, -0.07153823226690292, 0.07435866445302963], [0.34850630164146423, -0.05756355822086334, -0.04295188933610916, 0.25368282198905945, -0.006100588943809271, 0.4093058705329895, 0.09805057942867279, 0.15219338238239288, -0.11711010336875916, -0.0919620618224144, 0.09242086857557297, 0.21287991106510162, -0.0027027344331145287, 0.17130200564861298, -0.07670605927705765, 0.09964082390069962], [0.4892611801624298, -0.38174179196357727, -0.034942902624607086, 0.11025542765855789, -0.10082383453845978, 0.10417121648788452, 0.1331927329301834, 0.10160617530345917, -0.0571669265627861, 0.06940366327762604, 0.058226171880960464, 0.3087661564350128, 0.2192603349685669, 0.00782395526766777, -0.056963805109262466, 0.007027885410934687], [0.14342543482780457, -0.359907865524292, 0.18524765968322754, -0.03818657994270325, -0.08635372668504715, 0.06940315663814545, -0.03673074394464493, 0.399314820766449, 0.04555001109838486, -0.21241290867328644, 0.49161094427108765, 0.15711277723312378, 0.19133616983890533, 0.024003535509109497, 0.02589443139731884, 0.1225656196475029], [0.00979605969041586, -0.04033682867884636, 0.4533577561378479, -0.008864174596965313, -0.05337711051106453, -0.15446382761001587, 0.205921933054924, 0.13413192331790924, -0.23660732805728912, -0.14407934248447418, -0.023061659187078476, 0.28635793924331665, 0.12377772480249405, -0.06734165549278259, 0.009632467292249203, -0.1800965964794159], [0.19365359842777252, -0.44391998648643494, 0.07018174231052399, -0.022790754213929176, -0.06847544759511948, 0.197791188955307, -0.005473993718624115, -0.0433880090713501, -0.540848970413208, 0.18082356452941895, -0.04031730815768242, 0.1744164675474167, -0.15001104772090912, -0.22985439002513885, -0.004591785371303558, -0.10327893495559692], [-0.13096025586128235, -0.03664451092481613, -0.2987760901451111, 0.01222295593470335, 0.3220401704311371, 0.0685553029179573, 0.2864072918891907, -0.309076189994812, 0.007364676799625158, -0.35076990723609924, 0.3045172691345215, -0.1115579903125763, -0.010093450546264648, -0.13204143941402435, -0.05423592031002045, 0.5973663926124573], [-0.33931654691696167, 0.12558087706565857, 0.2727675139904022, 0.2092713564634323, -0.13174080848693848, 0.3323357105255127, 0.20374642312526703, 0.2570432722568512, 0.46409904956817627, 0.037207335233688354, -0.04833366721868515, -0.2568800151348114, 0.23046638071537018, 0.15010413527488708, -0.015588742680847645, -0.10489008575677872], [-0.80516517162323, 0.4033653438091278, -0.2749200165271759, -0.13600347936153412, 0.09353514760732651, -0.36040636897087097, 0.5775117874145508, -0.20348459482192993, -0.15379676222801208, -0.4358144700527191, -0.08349273353815079, 0.12805557250976562, 0.8299217224121094, 0.11710052937269211, -0.04093430936336517, 0.11622542142868042], [-0.582288920879364, 0.7133281826972961, -0.47562575340270996, 0.3938899040222168, -0.1221655011177063, 0.08983130753040314, 0.33820804953575134, 0.44802263379096985, -1.2541252374649048, -1.657063603401184, -0.849367082118988, 0.23664934933185577, 0.5175262689590454, 0.42304736375808716, -0.09037350118160248, 1.124358892440796], [0.14066310226917267, -0.37570300698280334, -1.2091434001922607, 0.049715157598257065, 0.013171210885047913, 0.10899364203214645, 0.12283407896757126, 0.10335879772901535, 0.16477420926094055, -1.0535238981246948, 0.3856050372123718, -0.6627249121665955, 0.6422805786132812, 1.1152499914169312, 0.04680295288562775, 0.7837719917297363], [-0.5867385268211365, 0.3752322494983673, -1.071580410003662, -0.2546650171279907, 0.7987543344497681, -0.5623331069946289, 0.1734870821237564, -0.47332775592803955, 0.7473387718200684, -0.5435031056404114, -0.348449170589447, 0.03036622889339924, 0.43465331196784973, -0.31301453709602356, 0.07767561078071594, 0.3722454309463501], [0.004762246273458004, -0.04530181363224983, 0.013994722627103329, -0.0440654382109642, 0.004114079754799604, 0.1120506152510643, 0.10135756433010101, 0.03436974063515663, 0.06523733586072922, 0.03927316516637802, -0.001892347470857203, -0.0382169745862484, -0.0063551017083227634, 0.03255247324705124, -0.002760574221611023, 0.050574664026498795], [0.9582031965255737, -0.8416204452514648, -0.08505520969629288, 0.8387529850006104, 0.7547799944877625, -0.5774602890014648, 0.8127574324607849, 0.38419729471206665, 0.8174393773078918, 1.2211838960647583, -1.0345611572265625, -0.9328816533088684, 0.7373631000518799, 0.3846506178379059, 0.028568655252456665, -0.9161049723625183], [-0.7894910573959351, -0.820377767086029, 0.6350314617156982, 0.6212847828865051, -0.13330219686031342, 0.43238717317581177, -0.20269890129566193, 0.48832303285598755, -0.6534240245819092, 0.4063926935195923, 0.6585168838500977, 0.715776264667511, 0.4400234818458557, 0.536750316619873, 0.06192031502723694, 0.9576177000999451], [-0.13170994818210602, -1.0912160873413086, 0.3443984389305115, -0.13715283572673798, 0.09198419749736786, 0.527161717414856, 0.5542348623275757, -0.7479166984558105, 1.0920132398605347, 1.4687011241912842, 0.5471039414405823, 1.1411480903625488, 0.600607693195343, 0.7940588593482971, -0.07598993927240372, -1.0822830200195312], [0.7248497605323792, -0.040977124124765396, 0.4187328517436981, -0.13745644688606262, 0.3397493064403534, 0.1606673300266266, 0.5152934193611145, -0.11005299538373947, 0.3672359883785248, 1.002680778503418, -0.35707879066467285, -0.9739795327186584, 0.20042531192302704, -0.37957456707954407, -0.04242311045527458, 0.6907668709754944], [0.562084436416626, -0.23784156143665314, -0.44235020875930786, -0.3466123342514038, 0.77072674036026, 0.15891152620315552, -0.21043437719345093, 0.2324165552854538, -0.14566998183727264, 0.02030217833817005, 0.15133923292160034, -0.728659987449646, 0.7582330107688904, 0.02600189484655857, -0.02004305273294449, -0.48572081327438354], [-0.0053229439072310925, -0.1717599630355835, 0.07346397638320923, -0.13839112222194672, -0.45305314660072327, 0.1790936440229416, 0.23906460404396057, 0.022794591262936592, 0.24975471198558807, 0.3135603666305542, -0.18292838335037231, 0.13891613483428955, -0.3492768704891205, 0.09922836720943451, 0.05673221871256828, -0.15674377977848053], [-0.324584424495697, 0.08702971786260605, 0.3321710526943207, -0.23747412860393524, 0.07248345762491226, -0.15275782346725464, 0.0774758979678154, -0.452422171831131, 0.3549194931983948, 0.3461455702781677, 0.3016505539417267, -0.0920213982462883, 0.047285668551921844, -0.11757339537143707, -0.02686200849711895, -0.21414664387702942], [-0.4087280333042145, -0.27366653084754944, 0.08518536388874054, 0.051029838621616364, -0.13006098568439484, -0.05441511794924736, -0.113242506980896, 0.2543065547943115, -0.2435339242219925, 0.29383301734924316, -0.10690054297447205, -0.016469236463308334, 0.029575776308774948, 0.041453082114458084, -0.027678435668349266, -0.0845947340130806], [-0.001213736948557198, -0.013124356977641582, -0.1899518519639969, 0.1795358955860138, 0.033542584627866745, 0.32496193051338196, 0.2217741459608078, -0.24877429008483887, 0.082298643887043, 0.3386250138282776, 0.1679331511259079, -0.03307148069143295, 0.05295424535870552, -0.07069949060678482, 0.014763541519641876, -0.06914842128753662], [-0.21806418895721436, 0.31125035881996155, -0.2695208191871643, 0.05797266215085983, 0.24363723397254944, 0.12569838762283325, 0.2564581632614136, -0.06862875819206238, 0.22959482669830322, -0.08501638472080231, 0.29336297512054443, 0.2698287069797516, 0.026452884078025818, -0.029600048437714577, 0.05868067219853401, -0.13034631311893463], [-0.140112042427063, 0.17698326706886292, 0.19080784916877747, -0.0005215374985709786, 0.024299904704093933, -0.18061672151088715, -0.20179559290409088, 0.04025803133845329, 0.15253111720085144, 0.2960766851902008, 0.2572250962257385, 0.419678658246994, -0.046952806413173676, 0.0047443280927836895, 0.00796421431005001, 0.11575164645910263], [0.13488787412643433, -0.012790960259735584, 0.20422425866127014, 0.08593226969242096, 0.025180019438266754, -0.13055212795734406, 0.21720515191555023, -0.0003758951788768172, 0.013627526350319386, 0.1609068661928177, 0.10124917328357697, 0.38288408517837524, 0.06729330867528915, 0.14542265236377716, -0.03356152027845383, -0.197181835770607], [-0.098481185734272, 0.007186731323599815, 0.14872786402702332, 0.27025046944618225, -0.22727426886558533, 0.06210257112979889, 0.03887339308857918, 0.13339416682720184, -0.14957042038440704, 0.31202468276023865, 0.04920782148838043, 0.39678385853767395, -0.1793944090604782, 0.16780529916286469, 0.06635144352912903, -0.17073430120944977], [-0.15218831598758698, 0.10054057836532593, -0.02682476118206978, 0.1858963966369629, -0.08103334903717041, -0.36652958393096924, 0.21175336837768555, -0.034594908356666565, -0.014033939689397812, 0.2802833318710327, -0.11725781857967377, 0.28497180342674255, -0.10931295901536942, 0.16051740944385529, -0.039447009563446045, 0.3445311188697815], [0.048360731452703476, -0.03343670442700386, -0.06429310888051987, 0.28987905383110046, 0.14176180958747864, -0.05827004089951515, 0.19317828118801117, 0.41247034072875977, 0.01944904215633869, -0.03928990662097931, -0.0040722498670220375, 0.36607977747917175, -0.05840890109539032, -0.01716078631579876, 0.0033569741062819958, -0.10624893009662628], [0.6745424270629883, -0.023053519427776337, -0.23434272408485413, 0.27023565769195557, -0.1672271341085434, 0.04219091683626175, 0.19705714285373688, 0.21662075817584991, -0.024149402976036072, 0.1576402336359024, 0.019658425822854042, 0.346859872341156, 0.09422339498996735, 0.04434613883495331, -0.0025853770785033703, 0.026406502351164818], [0.26131200790405273, 0.13809840381145477, 0.054778747260570526, -0.08741039782762527, 0.059817370027303696, 0.536382257938385, 0.21382196247577667, 0.0312926322221756, -0.01804727502167225, 0.131968691945076, 0.03587358072400093, 0.20735284686088562, 0.18994739651679993, 0.15393516421318054, -0.08619076758623123, 0.15434592962265015], [0.38595154881477356, 0.01122512947767973, 0.19564667344093323, 0.21149782836437225, -0.03946032002568245, 0.1688857078552246, -0.019055569544434547, -0.12868072092533112, -0.2070901095867157, -0.0857573002576828, 0.1154453381896019, 0.3495074212551117, 0.47137898206710815, -0.12475144863128662, 0.06428739428520203, 0.03324699401855469], [0.45358002185821533, 0.34915468096733093, 0.024757012724876404, -0.04447638615965843, -0.23992685973644257, -0.038164280354976654, -0.024248046800494194, 0.1405089795589447, 0.04921382665634155, -0.0669669434428215, -0.009665747173130512, 0.1894644945859909, 0.25122374296188354, 0.04625243321061134, -0.07770959287881851, 0.07552799582481384], [0.35255593061447144, 0.16568194329738617, -0.21523524820804596, -0.11438656598329544, -0.17031291127204895, 0.13824549317359924, 0.03636962175369263, -0.017924491316080093, 0.06430274248123169, -0.17292436957359314, -0.016647767275571823, 0.171894371509552, 0.5012272000312805, 0.22970163822174072, -0.049266789108514786, 0.028063271194696426], [0.178985595703125, 0.1554468870162964, 0.09890756756067276, 0.20055395364761353, -0.2604180872440338, 0.20283177495002747, 0.002557347994297743, -0.04746096953749657, -0.007871533744037151, -0.03229031711816788, -0.01223780307918787, -0.10638535022735596, 0.2800675928592682, -0.10825085639953613, -0.09497933834791183, 0.10551275312900543], [0.1065182313323021, 0.15739873051643372, 0.1639675796031952, -0.32602858543395996, -0.11412130296230316, 0.051299188286066055, 0.10311590135097504, -0.08351524919271469, -0.264504075050354, -0.7353651523590088, 0.27810677886009216, -0.2960791289806366, 0.35887691378593445, -0.08132815361022949, 0.04908616468310356, 0.28920793533325195], [0.14319293200969696, -0.062114495784044266, 0.08653594553470612, 0.167779341340065, 0.18912546336650848, 0.33266010880470276, 0.4027203321456909, -0.1167101189494133, -0.541631817817688, -0.33708393573760986, 0.404526025056839, -0.3423973321914673, 0.5655166506767273, -0.0956231877207756, -0.10554499179124832, -0.5242910981178284], [-0.34192585945129395, 0.09707418829202652, 0.05269229784607887, -0.11892620474100113, 0.11697816848754883, -0.17571407556533813, 0.20797206461429596, -0.14748863875865936, -0.06496261060237885, -0.22931823134422302, 0.02634180523455143, -0.30978330969810486, 0.02641361765563488, 0.36756768822669983, 0.000536111241672188, 0.06662286072969437], [-0.2903887927532196, 0.15616269409656525, -0.3567555844783783, 0.31844502687454224, -0.21073786914348602, 0.27303510904312134, -0.0655607134103775, -0.21033591032028198, -0.20647598803043365, -0.9642655253410339, 0.07588919252157211, -0.1250552237033844, 0.36193978786468506, 0.522932767868042, 0.053848374634981155, 0.870455801486969], [0.6881611347198486, 0.060023386031389236, -0.244358092546463, -0.2437225878238678, 0.14042508602142334, -0.2640654444694519, 0.5531495213508606, 0.8803113102912903, 0.6752488017082214, -0.9592505693435669, -0.14888852834701538, -0.5139872431755066, 0.6279065608978271, 0.8874116539955139, 0.08155645430088043, -0.02931617759168148], [-0.8887287378311157, -0.20398473739624023, -0.8180015683174133, -0.25279366970062256, 1.0990488529205322, -1.2580080032348633, -0.2466941773891449, -1.0356249809265137, 1.2704071998596191, -0.6031510829925537, 0.48024487495422363, 0.03540664538741112, 0.9595280885696411, 0.2727173864841461, -0.07564212381839752, 0.09473894536495209], [1.2261052131652832, -0.8580437898635864, -1.1617770195007324, 0.12922334671020508, 1.2202016115188599, -1.0347236394882202, -0.3569735288619995, -1.0569254159927368, 0.11768297851085663, 0.18694160878658295, 1.2226060628890991, -0.7888182401657104, -0.024496426805853844, 0.004624992609024048, 0.030552171170711517, 0.8424170017242432], [0.15724261105060577, -0.8826188445091248, 0.5565537810325623, 0.6555997133255005, 0.14006629586219788, 1.329804539680481, -0.24708081781864166, -1.370235800743103, 0.9820244908332825, 1.1575896739959717, -0.6145493388175964, -0.39431026577949524, 0.21666844189167023, -0.788347065448761, 0.029802516102790833, 0.13858187198638916], [-1.1283687353134155, 0.10077908635139465, 0.9948076009750366, -0.37885427474975586, 0.6049361228942871, 0.25374460220336914, 0.48652487993240356, 0.016155513003468513, -0.14336009323596954, -0.53139328956604, 1.6293262243270874, 0.24125391244888306, 0.7931275963783264, -0.12550470232963562, 0.07736410200595856, 0.41890206933021545], [-0.4040275812149048, 0.09516952186822891, -0.21104103326797485, -0.34225746989250183, 0.5836818218231201, 0.5906471014022827, 0.9330304265022278, 0.40307173132896423, -0.3042106330394745, 0.6671371459960938, 0.6182389259338379, -0.11831642687320709, 0.1254374384880066, -0.07456422597169876, 0.05581535026431084, 0.1209811195731163], [-0.5050915479660034, 0.17277902364730835, -0.07875395566225052, -0.21270783245563507, 1.1623786687850952, 0.19195005297660828, 0.5323446989059448, 0.3973700702190399, -0.2942800521850586, 0.5791613459587097, -0.249427929520607, -0.7272487282752991, 0.04559926316142082, -0.19131024181842804, 0.004954587202519178, -0.17600077390670776], [0.0037308032624423504, 0.009024995379149914, -0.34001272916793823, -0.190809965133667, 0.36626091599464417, 0.29108166694641113, -0.06310489028692245, 0.1416579633951187, 0.10247182101011276, -0.26672759652137756, 0.037124961614608765, -0.09902611374855042, -0.11986767500638962, 0.2270343005657196, 0.07587919384241104, -0.2231161892414093], [-0.008893238380551338, 0.32068967819213867, -0.0559513196349144, -0.112664595246315, 0.25193163752555847, 0.3214211165904999, 0.036235786974430084, -0.09862039983272552, -0.12055982649326324, 0.008191497065126896, 0.23637521266937256, -0.011001717299222946, -0.402400940656662, -0.05752710998058319, -0.009318043477833271, 0.2982863187789917], [0.010517594404518604, 0.15794788300991058, -0.03973350673913956, 0.21569369733333588, 0.250009149312973, 0.038989752531051636, 0.13219758868217468, -0.3065583407878876, 0.275659441947937, 0.14633870124816895, -0.18121746182441711, -0.21642859280109406, 0.32056528329849243, -0.012485054321587086, 0.019932182505726814, -0.13978764414787292], [0.0022188674192875624, -0.04835507646203041, -0.06653230637311935, 0.23730240762233734, -0.05476654693484306, 0.3911353349685669, -0.044850509613752365, -0.08182809501886368, -0.08833511918783188, 0.2811375558376312, 0.12796629965305328, 0.13239020109176636, -0.04717937111854553, 0.14688505232334137, -0.012080506421625614, -0.02609694004058838], [0.20435751974582672, 0.1395319402217865, -0.1307498663663864, -0.07207300513982773, 0.26181840896606445, 0.4837316870689392, 0.27335870265960693, -0.04327123239636421, 0.003815337549895048, 0.09887104481458664, 0.2369072288274765, -0.09066171944141388, -0.030661890283226967, 0.05042361840605736, -0.030382944270968437, 0.1806839108467102], [-0.021124374121427536, 0.07612303644418716, 0.10416219383478165, 0.24636773765087128, -0.052510183304548264, 0.3020893931388855, -0.014219916425645351, -0.195828378200531, 0.12423454970121384, 0.7827106714248657, 0.1623377948999405, -0.11909915506839752, -0.014540943317115307, 0.2766476273536682, 0.05347519740462303, 0.024972261860966682], [-0.22960487008094788, 0.12501278519630432, 0.0699310153722763, 0.1258368343114853, -0.02937968820333481, 0.14856654405593872, -0.015312924049794674, 0.1196364313364029, 0.17510710656642914, 0.007717621047049761, 0.11449065804481506, 0.32509657740592957, -0.011728024110198021, 0.19049032032489777, -0.04789310693740845, 0.09501580893993378], [-0.20591673254966736, 0.23812760412693024, -0.07107685506343842, 0.4206165075302124, 0.03740093484520912, 0.11663258075714111, -0.07247930020093918, -0.3352590799331665, 0.1713586300611496, 0.11789602041244507, 0.128768190741539, 0.1946660876274109, 0.021092643961310387, 0.040395837277173996, -0.0649188756942749, -0.33019936084747314], [-0.3819386661052704, 0.10746554285287857, -0.10340924561023712, 0.21374650299549103, -0.08433979004621506, -0.06569793820381165, -0.061884067952632904, 0.036571796983480453, 0.12351962178945541, 0.17907612025737762, -0.30734798312187195, 0.25222933292388916, 0.1121123656630516, 0.2034451961517334, -0.08080071210861206, 0.03693337365984917], [-0.19152449071407318, 0.34793904423713684, -0.21422095596790314, 0.1724635362625122, -0.18429528176784515, -0.03568396717309952, 0.03366021439433098, -0.26736775040626526, 0.23564158380031586, 0.42960989475250244, -0.07217232137918472, 0.6727800369262695, -0.14881843328475952, 0.059485238045454025, -0.07792918384075165, -0.014660906977951527], [0.2840304374694824, -0.013666278682649136, -0.22498169541358948, 0.006715118419378996, 0.19256146252155304, -0.10940027981996536, 0.15808163583278656, -0.05628245696425438, -0.1071283370256424, 0.40431860089302063, -0.19128964841365814, 0.35900598764419556, 0.18502548336982727, -0.026938926428556442, -0.07079967111349106, -0.16947908699512482], [0.42655402421951294, -0.2065996378660202, -0.1813916712999344, 0.31257084012031555, 0.08905740827322006, 0.0917724072933197, -0.017541904002428055, -0.041895512491464615, -0.24415412545204163, 0.26035284996032715, 0.06933478266000748, 0.5513970851898193, 0.25036320090293884, -0.01887873373925686, -0.02672174945473671, -0.31165996193885803], [0.35071203112602234, 0.13720054924488068, -0.10143665969371796, 0.06774702668190002, 0.11336851119995117, -0.013270117342472076, -0.05162076652050018, -0.12097004055976868, -0.031351637095212936, 0.18563589453697205, 0.039245158433914185, 0.13755230605602264, 0.13941001892089844, -0.07438282668590546, -0.0026474061887711287, 0.3823903501033783], [0.3659326732158661, -0.25749069452285767, 0.39100006222724915, 0.01940956898033619, 0.09230568259954453, 0.0938793271780014, 0.2553524374961853, 0.043943725526332855, 0.026946738362312317, 0.08886025846004486, 0.3381219506263733, 0.18240177631378174, 0.17404121160507202, 0.2888142466545105, -0.08856911212205887, -0.21777907013893127], [0.36367082595825195, -0.04591098427772522, 0.16753216087818146, 0.09450999647378922, 0.02059885859489441, -0.0946274921298027, -0.023797577247023582, 0.4175424575805664, -0.017367303371429443, -0.2351677417755127, 0.10489662736654282, 0.19927124679088593, 0.1649559885263443, 0.05290794372558594, 0.016470838338136673, 0.04274269565939903], [0.46272042393684387, -0.006793667562305927, 0.048278678208589554, 0.05389516428112984, 0.06982105225324631, 0.2581429183483124, -0.0064591881819069386, -0.20847781002521515, 0.01796947605907917, -0.1967102587223053, 0.36678430438041687, 0.12746389210224152, 0.37084341049194336, 0.12195827811956406, -0.030197011306881905, -0.23587127029895782], [0.1730499416589737, -0.023433759808540344, 0.0809129998087883, -0.21810396015644073, -0.05941767990589142, 0.028671851381659508, -0.01277876365929842, 0.1577894687652588, 0.17881810665130615, -0.18443083763122559, 0.3306417167186737, 0.2521635591983795, 0.13693393766880035, 0.3406291902065277, 0.04276396334171295, -0.38969945907592773], [0.520603597164154, -0.30888402462005615, -0.28742241859436035, 0.019589576870203018, 0.16423973441123962, -0.11317556351423264, -0.07056538015604019, -0.08554955571889877, 0.15030699968338013, 0.11483174562454224, 0.23444999754428864, 0.013541759923100471, 0.22869141399860382, 0.17236731946468353, -0.0030612549744546413, -0.1426798403263092], [0.058428697288036346, -0.057779017835855484, 0.1313648521900177, 0.45298728346824646, -0.1870979517698288, 0.4903372526168823, -0.6300427317619324, -0.17423787713050842, -0.33666282892227173, -0.035924188792705536, 0.8122214674949646, 0.027717238292098045, -0.0973956361413002, 0.05153416842222214, -0.05655169486999512, 0.029888302087783813], [-0.7745166420936584, -0.3383829593658447, -0.15219928324222565, 0.21882501244544983, -0.22700321674346924, 0.11971498280763626, 0.9275506734848022, -0.21430744230747223, -0.5176670551300049, -0.5136440396308899, 0.9187474250793457, -0.03569050505757332, 0.15119041502475739, 0.24096056818962097, 0.022988738492131233, -0.09425994753837585], [-0.4165997803211212, 0.1796402484178543, 0.006222215015441179, -0.16466869413852692, -0.36964625120162964, 0.6362980008125305, 0.6518506407737732, 0.49976930022239685, 0.5889585614204407, -0.11713579297065735, 0.5835549831390381, -0.5841066837310791, 0.11592630296945572, -0.14471393823623657, 0.07706323266029358, -0.287488728761673], [0.5610105991363525, -0.10686806589365005, -0.43676769733428955, 0.35101816058158875, -0.7870407104492188, 0.06093057617545128, 0.12477577477693558, 0.7059873342514038, 0.9594055414199829, -0.5981602072715759, -0.09562426060438156, -0.34247565269470215, 0.9650604128837585, 0.6993550658226013, -0.07347497344017029, 0.38174521923065186], [0.24995647370815277, -0.3245045244693756, 0.2317117154598236, 1.3175724744796753, -0.1894407868385315, -0.3014286756515503, -0.2535316050052643, 0.9904351830482483, 0.3119463324546814, -0.3262891471385956, 0.0724661648273468, -0.6543787121772766, -0.08529387414455414, 0.8400152325630188, -0.012773275375366211, -0.183717742562294], [-0.008453073911368847, -0.24895931780338287, 0.25293856859207153, 0.31361645460128784, 0.31914132833480835, 0.899672269821167, 0.3603699207305908, -0.05987446755170822, -0.03644409775733948, 0.320939838886261, 0.6224790215492249, 0.11186330020427704, 0.03855957090854645, -0.287846177816391, -0.03525562211871147, -0.09810739755630493], [0.9249390959739685, 0.5131322741508484, 1.260556697845459, 0.12655514478683472, -0.09464342147111893, 0.22302775084972382, 1.7762962579727173, -0.6644583940505981, -0.6455478072166443, 0.5276342630386353, -0.17454853653907776, 0.7932982444763184, -0.33583229780197144, 0.10106080770492554, 0.020326457917690277, 0.30994677543640137], [-0.47385919094085693, 0.20994770526885986, -0.03287945315241814, -0.24932105839252472, 0.9832001328468323, -0.2656129002571106, 0.3056316077709198, 0.7757413387298584, -0.8295753598213196, -0.04566945508122444, 0.7457093596458435, 0.3339603841304779, 0.8514072895050049, -1.5397260189056396, 0.04017402231693268, -0.3513771593570709], [0.03850880637764931, -0.06956594437360764, -0.5242670774459839, -0.4589914083480835, 0.3334270417690277, 0.4604693055152893, 0.4860416650772095, 0.09983954578638077, 0.8663711547851562, 0.3064265251159668, -0.534805953502655, 0.634606659412384, -0.5397324562072754, -0.1241707056760788, 0.07679393887519836, 1.2268024682998657], [0.09673945605754852, -0.5961306095123291, 0.34667378664016724, 0.4091448485851288, 0.6073141694068909, -0.06833864748477936, 0.026590419933199883, -0.8664169907569885, 0.5208399295806885, 0.41887855529785156, -0.32282817363739014, -0.1455390751361847, -0.4287623465061188, -0.1295875757932663, 0.013796383515000343, 0.15303659439086914], [-0.3507005572319031, -0.22834545373916626, 0.3041633367538452, 0.32119664549827576, -0.20269885659217834, 0.14529721438884735, -0.6063411235809326, -0.008433045819401741, 0.6673516035079956, 0.45673641562461853, -0.09965384006500244, -0.3877943158149719, -0.4896050989627838, 0.30631962418556213, -0.05177623778581619, -0.39906102418899536], [-0.31334587931632996, -0.18948866426944733, -0.11131392419338226, -0.08492586761713028, 0.24786494672298431, 0.11473173648118973, 0.46064293384552, -0.22737987339496613, 0.171750009059906, -0.013350515626370907, 0.16549289226531982, 0.36486199498176575, -0.020383119583129883, 0.009914599359035492, -0.001061829156242311, -0.12308267503976822], [-0.048834092915058136, 0.514270007610321, 0.01384267769753933, 0.11819717288017273, 0.12810756266117096, 0.15420939028263092, 0.18215005099773407, -0.20597527921199799, 0.004269576631486416, 0.14861449599266052, -0.1706009954214096, -0.05166583135724068, -0.2530137300491333, 0.024476371705532074, 0.043614063411951065, 0.02096286229789257], [0.13000397384166718, 0.13465581834316254, -0.06186551973223686, 0.15651170909404755, 0.15818557143211365, 0.09183342009782791, 0.0752028301358223, -0.05905908718705177, 0.5255040526390076, -0.21152080595493317, 0.13715729117393494, 0.02207496017217636, 0.04715024679899216, 0.128782719373703, 0.021797699853777885, -0.29867690801620483], [-0.14135608077049255, 0.18597827851772308, 0.036720480769872665, 0.2389334738254547, 0.22693419456481934, -0.0029058153741061687, -0.04760691151022911, -0.12820708751678467, 0.2002563774585724, -0.3828064501285553, -0.019444243982434273, 0.1111360564827919, 0.0032887381967157125, -0.09045170992612839, -0.03197324648499489, -0.32977721095085144], [-0.03353587165474892, -0.14329519867897034, 0.021814236417412758, 0.19427840411663055, -0.031320035457611084, 0.04205849766731262, 0.019536659121513367, -0.06898906826972961, 0.03600183129310608, -0.1700194776058197, -0.04260575771331787, 0.3243579566478729, -0.09415827691555023, -0.09080604463815689, -0.045128945261240005, 0.14553838968276978], [-0.33325085043907166, 0.04508921876549721, -0.10386940091848373, 0.10379624366760254, -0.11300269514322281, 0.231368288397789, 0.10292389243841171, -0.24130019545555115, 0.18009251356124878, -0.45131611824035645, 0.2219889760017395, -0.014131837524473667, -0.3103504478931427, 0.07412008196115494, -0.06791727244853973, 0.16283008456230164], [-0.24894754588603973, -0.183534175157547, -0.11425071209669113, 0.04012787714600563, -0.1290682852268219, 0.19479353725910187, -0.10854359716176987, -0.1836298704147339, 0.28094759583473206, 0.02569597400724888, -0.020404789596796036, 0.016487862914800644, -0.09060074388980865, -0.012258056551218033, -0.0020291348919272423, -0.18104447424411774], [-0.4090171754360199, -0.32014039158821106, -0.056784737855196, 0.40486302971839905, 0.01138316560536623, -0.006237780675292015, 0.27665966749191284, -0.15029369294643402, -0.14488141238689423, -0.16450901329517365, -0.05860253423452377, 0.16019630432128906, -0.36050882935523987, -0.28912150859832764, 0.05254723131656647, 0.10888832062482834], [-0.6914635896682739, -0.20867541432380676, -0.12854555249214172, 0.39743438363075256, 0.052595511078834534, 0.07463265210390091, 0.29418981075286865, -0.37066370248794556, -0.16620199382305145, 0.014838699251413345, -0.28587964177131653, -0.11678654700517654, -0.2739451825618744, -0.1089605912566185, -0.02758207730948925, 0.11529374122619629], [0.06240119785070419, -0.18450044095516205, -0.4914152920246124, 0.0006725005223415792, -0.32302454113960266, -0.014840562827885151, 0.3405897319316864, -0.38932138681411743, -0.08974795043468475, 0.30190977454185486, -0.3667352497577667, -0.13698279857635498, -0.21147987246513367, 0.05580047890543938, -0.10802493244409561, 0.10078315436840057], [0.21656225621700287, -0.16759267449378967, -0.2056073248386383, -0.12861879169940948, 0.000764127355068922, -0.020240899175405502, 0.2524251937866211, -0.1129821389913559, -0.013177965767681599, 0.1582174003124237, -0.02489212155342102, -0.2651006281375885, -0.13674308359622955, -0.1157105341553688, -0.05155486613512039, -0.17567476630210876], [0.27208954095840454, -0.3615987002849579, 0.18396219611167908, 0.1971178948879242, -0.16415390372276306, 0.09172210842370987, 0.33840999007225037, -0.07797978818416595, -0.04233050346374512, 0.23165519535541534, 0.2606254518032074, -0.14946110546588898, 0.03131968155503273, -0.05983910337090492, 0.04465225338935852, -0.18917296826839447], [0.3580896854400635, -0.16843393445014954, -0.15104840695858002, -0.015779681503772736, -0.353650838136673, 0.0057305386289954185, -0.0643346756696701, -0.04300032556056976, 0.13333287835121155, 0.24909192323684692, 0.2692132890224457, -0.11251531541347504, 0.11226650327444077, -0.1792667806148529, -0.06922448426485062, -0.1926833987236023], [0.6281610131263733, -0.25785234570503235, 0.16646002233028412, -0.025083111599087715, 0.052926793694496155, 0.02333320677280426, -0.0840371698141098, 0.23949168622493744, -0.04424109309911728, -0.19529497623443604, 0.09963151812553406, -0.04414377361536026, 0.21247312426567078, -0.3406151235103607, 0.05937220901250839, -0.15096347033977509], [0.4567006230354309, -0.18826988339424133, 0.35621050000190735, -0.12242921441793442, 0.4123554229736328, 0.24022428691387177, -0.016055339947342873, 0.19785025715827942, -0.171525239944458, -0.13431045413017273, 0.2672508656978607, -0.07636840641498566, 0.4197935163974762, -0.15997712314128876, -0.06476878374814987, -0.21779850125312805], [0.35276487469673157, 0.13855424523353577, 0.2745930552482605, 0.026928897947072983, -0.019394611939787865, 0.10143648087978363, -0.0026609720662236214, 0.2522730529308319, 0.08270146697759628, -0.20747196674346924, 0.2850322723388672, -0.1540086418390274, 0.39923539757728577, -0.007003520615398884, 0.026414358988404274, -0.4191734194755554], [0.29579466581344604, 0.09231991320848465, 0.058156803250312805, 0.03501390293240547, 0.07464925944805145, 0.2782127857208252, -0.1073712557554245, 0.17024457454681396, 0.4119012653827667, 0.21999181807041168, 0.01600627787411213, -0.29804113507270813, 0.5122057199478149, 0.10135891288518906, -0.061207011342048645, -0.3375185430049896], [0.270592600107193, 0.04262616112828255, 0.42387712001800537, 0.43347835540771484, -0.08917903155088425, 0.12180811166763306, 0.22717326879501343, -0.0989162027835846, -0.015437174588441849, -0.44684112071990967, 0.5116720795631409, -0.03238300606608391, 0.05596975237131119, -0.5799717903137207, 0.0788097158074379, -0.2924346625804901], [-0.8785528540611267, 0.14116638898849487, 0.12530216574668884, -0.18750961124897003, 0.3125600814819336, -0.3892744481563568, 1.0878267288208008, -0.7141932249069214, 0.16982756555080414, -1.1145342588424683, 0.9498456716537476, -0.25250422954559326, 0.1985260546207428, 0.09288676828145981, 0.08005312830209732, 0.6468842625617981], [-0.32858288288116455, 0.385898619890213, -0.46190014481544495, 1.2119120359420776, 0.35239094495773315, -0.3853320777416229, -0.1775064766407013, 0.027797600254416466, -0.5861474871635437, 1.0097099542617798, 0.833544135093689, -1.1014513969421387, 1.0711627006530762, -0.01949584297835827, -0.014361796900629997, -0.19481511414051056], [0.3377191722393036, 0.06700335443019867, -0.210306778550148, 0.7920294404029846, -0.7074089646339417, 0.5537077784538269, 0.09345134347677231, 0.8080505728721619, 0.3579166531562805, -0.3864666223526001, 0.22892479598522186, 0.17252568900585175, 0.4687773883342743, 0.3704729974269867, -0.0016081442590802908, -0.8545087575912476], [0.22612236440181732, -0.8953796029090881, -0.1795322597026825, -0.6000127792358398, -0.5123282074928284, 0.8249648809432983, 0.9048231840133667, -0.9432805180549622, 0.7843796610832214, 0.11471143364906311, 0.3912504315376282, 1.1866716146469116, 1.030855417251587, -0.365682989358902, 0.04292076826095581, -1.0051592588424683], [0.09843602031469345, -0.2514491081237793, 0.413839191198349, 0.16135765612125397, 0.33858710527420044, 0.8320486545562744, 0.4142637252807617, -0.0840882658958435, 0.035398729145526886, 0.40016284584999084, 0.6711621284484863, 0.07777760177850723, -0.04695691913366318, -0.2906797230243683, 0.05254301428794861, -0.22852462530136108], [0.9967014193534851, 0.9168218970298767, 1.2460898160934448, -0.7863694429397583, -0.30151253938674927, 0.5952696800231934, 1.2447035312652588, -0.119000643491745, -0.771661639213562, 0.5000015497207642, -0.8246185183525085, 1.029271125793457, -0.4099656939506531, -0.04540185630321503, -0.025643128901720047, 0.7081533074378967], [0.24461714923381805, -0.7051194906234741, 0.3182024657726288, -0.10192035138607025, 0.8798432946205139, 0.3844652473926544, 0.159135639667511, -0.07437008619308472, -1.1841267347335815, 1.1465829610824585, 0.4925112724304199, 0.9967758655548096, 0.8124691843986511, -0.9260889887809753, 0.06617759168148041, -0.8158101439476013], [0.26462098956108093, -0.03441225737333298, -0.4240473508834839, 0.5525635480880737, 0.41265952587127686, -0.11638414114713669, 0.33145636320114136, 0.06813371926546097, 0.5773131847381592, 0.4176029860973358, -1.7225096225738525, 0.9167485237121582, -0.11089026927947998, -0.6053996682167053, 0.025576002895832062, 1.106571912765503], [-0.8565776348114014, -0.37737980484962463, 0.4632119834423065, 0.7432676553726196, -0.15554462373256683, -0.006795851048082113, 0.3194423019886017, -0.19447067379951477, -0.21473176777362823, -0.15586765110492706, 0.298766165971756, 0.07227862626314163, 0.17570596933364868, -0.6179214119911194, 0.010102532804012299, -0.09862876683473587], [-0.15321138501167297, -0.15415926277637482, 0.28808683156967163, 0.10285836458206177, -0.5562523007392883, 0.19259962439537048, -0.17540386319160461, -0.10579238086938858, 0.4799903333187103, 0.05748981237411499, 0.23943501710891724, 0.02405843883752823, -0.03407488018274307, -0.07926462590694427, -0.03439773619174957, -0.08210296928882599], [-0.37157806754112244, 0.2208281010389328, -0.17901062965393066, 0.6578071713447571, 0.13588911294937134, 0.4450705647468567, 0.17278315126895905, -0.0024481003638356924, 0.4247969090938568, -0.17592307925224304, -0.29569223523139954, 0.27193593978881836, -0.3668215274810791, -0.1307072937488556, -0.07104615867137909, 0.030837036669254303], [-0.15079671144485474, 0.32764962315559387, 0.15890377759933472, 0.19455640017986298, 0.17752394080162048, 0.3470418453216553, -0.2222139984369278, -0.006291410885751247, 0.48154395818710327, -0.8801705837249756, -0.008652814663946629, 0.0604543574154377, -0.10348141938447952, 0.25809404253959656, 0.009030889719724655, -0.002005247864872217], [0.14310887455940247, 0.2915658950805664, 0.05036910995841026, 0.1721602976322174, -0.14410726726055145, 0.4594317376613617, -0.09399937093257904, 0.04407046362757683, 0.5274149179458618, -0.9551976919174194, 0.25911182165145874, 0.2602578401565552, 0.21419484913349152, 0.2477840930223465, -0.043696191161870956, 0.041851162910461426], [-0.3690153956413269, 0.1499825268983841, 0.19582152366638184, 0.22504979372024536, -0.1803659349679947, 0.42487484216690063, -0.1118013933300972, -0.10733851045370102, 0.37842923402786255, -0.8223838806152344, 0.20661845803260803, 0.35043489933013916, -0.10423991829156876, -0.17542274296283722, -0.07490309327840805, -0.2126486599445343], [-0.3351353704929352, 0.04256705939769745, -0.10208746045827866, 0.32274189591407776, -0.1357300728559494, 0.09640327841043472, -0.07736619561910629, 0.004603934474289417, 0.3772217631340027, -0.7196645736694336, 0.02347051165997982, 0.017454976215958595, 0.15574835240840912, -0.064865842461586, 0.06446021050214767, -0.07405702769756317], [0.027475154027342796, -0.0709168016910553, 0.15547072887420654, 0.2812296450138092, -0.15413779020309448, 0.24242256581783295, -0.044984251260757446, -0.24411563575267792, -0.016288375481963158, -0.5441681742668152, -0.004712891299277544, -0.09061304479837418, -0.1633210927248001, 0.026109276339411736, 0.04551535099744797, 0.08339142054319382], [-0.21043376624584198, -0.20317089557647705, -0.13812240958213806, 0.05129851773381233, -0.2219056934118271, -0.10539214313030243, 0.002359188860282302, -0.04110468551516533, -0.005115542095154524, -0.5207861661911011, 0.3870616853237152, -0.17318174242973328, -0.13444574177265167, -0.020858606323599815, -0.07302036881446838, 0.19865015149116516], 