{"layer_1": {"weights": [[0.03811546415090561, -0.008189141750335693, -0.05283400043845177, 0.06354008615016937, -0.08052025735378265, 0.0568564236164093, 0.037188202142715454, -0.009955637156963348, 0.0564296692609787, -0.008871950209140778, 0.03467000275850296, 0.0630781501531601, -0.009981982409954071, 0.058515146374702454, 0.004770584404468536, 0.05006280541419983, 0.044224753975868225, 0.05166439712047577, -0.0018354952335357666, -0.06315652281045914], [0.05285361409187317, 0.01477351039648056, -0.03321219980716705, -0.030557986348867416, 0.011798612773418427, -0.03197251260280609, 0.07550707459449768, -0.0054448992013931274, -0.03188623860478401, 0.028395570814609528, -0.027187496423721313, 0.03799173980951309, -0.02854727953672409, 0.07716253399848938, 0.0006869286298751831, -0.07188627868890762, 0.07942616939544678, 0.0766197144985199, -0.0696629136800766, 0.04177030920982361], [-0.013877905905246735, 0.08203096687793732, 0.016788356006145477, -0.003793664276599884, 0.017806679010391235, -0.014906130731105804, -0.0795908272266388, -0.06426505744457245, 0.04500111937522888, -0.08335950970649719, 0.03761596232652664, -0.04208344966173172, 0.03460703790187836, 0.0198504775762558, -0.002149134874343872, 0.03126826882362366, 0.03684315085411072, -0.06887634098529816, 0.03936640918254852, 0.04544900357723236], [-0.02429380640387535, -0.07105748355388641, -0.0815761387348175, -0.01089678704738617, -0.06887582689523697, 0.05558650195598602, -0.024419590830802917, -0.05790633708238602, 0.0775204747915268, -0.0060622915625572205, 0.002329513430595398, 0.05945673584938049, 0.04382547736167908, 0.05283579230308533, 0.04201401770114899, 0.018657341599464417, 0.015541896224021912, -0.036954041570425034, -0.025586839765310287, 0.04218922555446625], [0.07484325766563416, 0.05586855113506317, 0.08029267191886902, 0.08064927160739899, -0.03973805531859398, 0.07466718554496765, -0.020418092608451843, -0.04647534713149071, -0.019532889127731323, 0.08276551961898804, 0.03781314939260483, 0.08121475577354431, -0.03817757964134216, -0.029032547026872635, 0.02798990160226822, 0.070537269115448, 0.018606796860694885, -0.049716781824827194, 0.059690386056900024, 0.07012195885181427], [-0.06560827791690826, -0.05746838077902794, -0.001397743821144104, -0.07152973115444183, -0.01885528862476349, -0.0056350454688072205, -0.0590498223900795, -0.036678072065114975, 0.02226569503545761, 0.08106030523777008, -0.05264385789632797, -0.015210352838039398, -0.007200233638286591, -0.04180760681629181, -0.07336650788784027, 0.012226603925228119, 0.012274876236915588, 0.0010094419121742249, -0.08310232311487198, -0.04490562900900841], [-0.06283258646726608, -0.032145481556653976, -0.025115657597780228, 0.03190067410469055, 0.07384860515594482, 0.006779678165912628, 0.05943663418292999, -0.028628304600715637, -0.023474328219890594, -0.039854854345321655, -0.06568318605422974, -0.014817602932453156, 0.00718013197183609, 0.07513318955898285, -0.0027536526322364807, 0.018849976360797882, 0.025002747774124146, -0.06224021688103676, -0.0030681341886520386, 0.028284966945648193], [0.07155109941959381, 0.07913976907730103, -0.029186565428972244, -0.040455278009176254, -0.07995110005140305, -0.030007407069206238, 0.01571407914161682, 0.05982871353626251, -0.031997375190258026, 0.08062092959880829, -0.037834532558918, -0.013979442417621613, 0.008274614810943604, 0.06391848623752594, 0.007748812437057495, -0.08634816110134125, -0.03776777908205986, 0.015059404075145721, -0.03398612514138222, 0.04132638871669769], [0.07001194357872009, 0.03090449422597885, -0.022061258554458618, 0.053063780069351196, -0.0716169998049736, 0.04756361246109009, 0.04142870008945465, 0.07782396674156189, 0.043859705328941345, -0.007791489362716675, 0.05396789312362671, -0.03745543584227562, 0.030247747898101807, -0.03430073335766792, 0.04384778439998627, -0.018876507878303528, 0.07834099233150482, 0.044136568903923035, 0.005468443036079407, 0.06532429158687592], [0.003976285457611084, -0.08528397977352142, -0.0323101282119751, -0.060520824044942856, 0.009734950959682465, -0.04962716996669769, -0.008944034576416016, 0.07706853747367859, 0.044655635952949524, -0.05169624462723732, 0.007757365703582764, 0.07260756194591522, -0.07141987234354019, 0.07479076087474823, -0.07844312489032745, 0.003029048442840576, -0.007198050618171692, -0.012763932347297668, 0.0590367466211319, 0.048044025897979736], [-0.08039157092571259, 0.02896834909915924, -0.03844776377081871, 0.026778042316436768, 0.063255175948143, -0.030526187270879745, 0.007568188011646271, -0.016324572265148163, -0.049157120287418365, -0.06772375851869583, -0.049640290439128876, -0.041181787848472595, -0.06628638505935669, 0.07682199776172638, -0.08208388090133667, -0.06588923186063766, 0.025969520211219788, 0.06511899828910828, -0.025027219206094742, -0.01408500224351883], [0.03272275626659393, 0.06661240756511688, -0.07333186268806458, -0.06647360324859619, 0.05140554904937744, 0.02473536878824234, -0.07037605345249176, -0.04450000450015068, -0.03602224960923195, -0.054321400821208954, 0.0781724750995636, -0.06821122765541077, 0.018529541790485382, 0.05933845043182373, 0.06201128661632538, -0.0473867729306221, 0.03151651471853256, -0.003037281334400177, 0.03786052018404007, 0.024072356522083282], [-0.017781876027584076, 0.07828108966350555, -0.03916341811418533, 0.07880155742168427, -0.08550157397985458, -0.06359944492578506, 0.02450384944677353, 0.05975505709648132, 0.04273976385593414, 0.0015775710344314575, -0.0711262971162796, 0.03140626102685928, -0.044358283281326294, 0.0057631731033325195, 0.025348499417304993, 0.032775744795799255, 0.01869027316570282, -0.03319524973630905, 0.0075566768646240234, 0.03856409341096878], [0.049549564719200134, -0.1685391217470169, 0.33914005756378174, 0.0613609179854393, 0.25312042236328125, 0.24777156114578247, 0.1240982785820961, 0.08480057120323181, 0.2868824303150177, -0.34389206767082214, -0.15657277405261993, -0.3119281828403473, 0.35009753704071045, -0.056952279061079025, -0.3715333044528961, 0.2652730643749237, 1.1945697224291507e-05, 0.11885841935873032, 0.08993919938802719, -0.3702554404735565], [-0.06316220760345459, -0.09939280897378922, -0.09762744605541229, 0.02986365556716919, 0.1665821224451065, 0.03330053389072418, 0.05515546351671219, 0.11341968178749084, 0.08733487874269485, -0.15547136962413788, -0.23150576651096344, 0.030409252271056175, -0.21427713334560394, 0.14284346997737885, -0.12750229239463806, 0.12292442470788956, 0.08156935125589371, 0.056394875049591064, 0.04905995354056358, -0.004401748068630695], [0.014979720115661621, 0.023669615387916565, -0.050525762140750885, -0.005784638226032257, -0.08069833368062973, 0.04510234296321869, -0.07045156508684158, 0.04221431910991669, 0.07495389878749847, 0.05257715284824371, -0.03823269531130791, -0.06237339228391647, 0.04097817838191986, -0.041883956640958786, 0.07364216446876526, 0.02777697890996933, -0.060948360711336136, -0.0852307379245758, -0.08460289984941483, 0.04712510108947754], [0.015058048069477081, 0.06111389398574829, -0.05957665294408798, -0.03996272012591362, -0.057548888027668, -0.06893854588270187, -0.03144094720482826, -0.07854320108890533, 0.06416334211826324, 0.01788654923439026, 0.0663655549287796, 0.04465867578983307, 0.058409035205841064, -0.06214125454425812, -0.04766407981514931, -0.056273117661476135, 0.05836497247219086, -0.02832072228193283, 0.03289308398962021, -0.042389221489429474], [0.0696563571691513, 0.00818786770105362, 0.04270549118518829, -0.0657062977552414, -0.02252800762653351, -0.015053987503051758, 0.08385327458381653, 0.020588837563991547, 0.05125029385089874, -0.043356336653232574, -0.05525504797697067, -0.02166471630334854, 0.04665951430797577, 0.01035115122795105, -0.07337171584367752, 0.020787999033927917, -0.03649643436074257, -0.029474295675754547, -0.057844776660203934, 0.04697611927986145], [0.08636826276779175, 0.023817747831344604, 0.08278597891330719, -0.08017376810312271, 0.060638427734375, -0.021156631410121918, -0.0053626373410224915, -0.029756441712379456, -0.045048464089632034, 0.026741646230220795, -0.011614173650741577, -0.06732713431119919, 0.043419644236564636, -0.05636049062013626, -0.06158638745546341, -0.029376916587352753, -0.040062714368104935, 0.04146870970726013, -0.05855692923069, 0.03024420142173767], [-0.059587422758340836, 0.0343572273850441, -0.08356038480997086, 0.08466985821723938, 0.0603521466255188, -0.05085464194417, -0.049398161470890045, -0.07846831530332565, 0.02337447553873062, 0.05169770121574402, 0.06501168012619019, 0.01534116268157959, -0.06782612204551697, 0.03270751237869263, 0.003605969250202179, -0.02519839257001877, 0.07087130844593048, -0.05911770462989807, 0.061601340770721436, 0.046453624963760376], [0.012511879205703735, -0.0848216563463211, 0.04791313409805298, -0.07518671452999115, 0.03606576472520828, 0.0067723095417022705, 0.05468188226222992, -0.08549348264932632, -0.0046572014689445496, 0.013049334287643433, 0.02441314607858658, -0.08136608451604843, -0.03942616656422615, 0.0712142139673233, 0.051485851407051086, -0.002245672047138214, 0.0066771358251571655, 0.05824801325798035, -0.04237552359700203, 0.03812238574028015], [-0.011851273477077484, 0.06306500732898712, -0.00044852495193481445, 0.07001124322414398, 0.018011048436164856, 0.003299698233604431, 0.07890065014362335, -0.0699230208992958, 0.004036180675029755, -0.04689779877662659, 0.04545925557613373, -0.06711394339799881, -0.06781448423862457, 0.023483075201511383, 0.019293352961540222, -0.05259181186556816, 0.06781357526779175, 0.017312079668045044, -0.07042128592729568, 0.05574820935726166], [0.04414790868759155, -0.014757752418518066, -0.06716751307249069, 0.0741313248872757, 0.07072508335113525, -0.055055614560842514, 0.020061306655406952, 0.048297688364982605, 0.023302696645259857, 0.028253264725208282, 0.08495841920375824, -0.0388294942677021, -0.0023179203271865845, -0.06793034076690674, -0.0472731851041317, -0.0283348485827446, 0.04357510805130005, 0.05375105142593384, -0.06181395798921585, 0.07782399654388428], [-0.02600189298391342, 0.030619218945503235, -0.07457389682531357, 0.08600670099258423, -0.06450382620096207, -0.007212966680526733, 0.00027742981910705566, -0.004387594759464264, 0.07245440781116486, 0.06066747009754181, 0.08437344431877136, 0.023209810256958008, -0.012894600629806519, -0.0032808780670166016, -0.06957167387008667, -0.017480283975601196, 0.08463381230831146, -0.026548311114311218, -0.015659436583518982, -0.038054127246141434], [-0.01841772347688675, 0.006317153573036194, -0.0008671432733535767, 0.03908337652683258, 0.050881579518318176, -0.058479078114032745, 0.03673533350229263, 0.01574118435382843, 0.018234625458717346, 0.03086721897125244, -0.005580984055995941, -0.04972722753882408, -0.0269976407289505, -0.02384161949157715, 0.00574638694524765, 0.011213943362236023, -0.017813988029956818, -0.008911989629268646, 0.06943722069263458, -0.08078289777040482], [-0.0048448070883750916, -0.04835290089249611, 0.03466948866844177, 0.07159154117107391, -0.06441907584667206, 0.04298236966133118, 0.06280092895030975, 0.06007350981235504, -0.012511342763900757, -0.04298226907849312, -0.08012653887271881, -0.01387852430343628, 0.01841263473033905, -0.016663148999214172, 0.08269445598125458, -0.014866814017295837, 0.05839017033576965, -0.034554850310087204, -0.07529345154762268, -0.041918475180864334], [0.016208678483963013, 0.06092941761016846, 0.039058998227119446, -0.011284634470939636, -0.08367463201284409, 0.010808058083057404, -0.04474656283855438, -0.03969663754105568, 0.08467498421669006, -0.0186130553483963, -0.039353009313344955, 0.08500158786773682, 0.07512009143829346, 0.01680506020784378, 0.06967505812644958, 0.03696349263191223, -0.05933559313416481, -0.014484979212284088, 0.009838737547397614, -0.07627708464860916], [0.06886836886405945, -0.0306769497692585, -0.06537008285522461, -0.012056849896907806, -0.02981308102607727, 0.07846298813819885, 0.0757116973400116, -0.08328793942928314, 0.06623610854148865, 0.033308327198028564, -0.01728115975856781, 0.07190081477165222, -0.0673743188381195, 0.0007148534059524536, -0.04985080286860466, -0.039439842104911804, -0.00017067790031433105, -0.04768570512533188, -0.0449240617454052, -0.008128508925437927], [0.08095850050449371, 0.030182845890522003, -0.06817267090082169, -0.05586131662130356, 0.031219065189361572, 0.07650861144065857, 0.08328421413898468, -0.0132003054022789, 0.005467601120471954, -0.07011254876852036, 0.0563151091337204, 0.08365616202354431, -0.061483390629291534, -0.06115809082984924, -0.049744609743356705, 0.08038654923439026, -0.06248275935649872, 0.032414279878139496, -0.005203738808631897, -0.016353614628314972], [0.033930905163288116, -0.01368056982755661, -0.08341451734304428, -0.0718047171831131, -0.02015526592731476, 0.05531404912471771, -0.06692338734865189, 0.07721735537052155, -0.04870760813355446, -0.06341587007045746, 0.05187453329563141, 0.007042527198791504, 0.0036853477358818054, 0.06456352770328522, -0.033885657787323, -0.009013153612613678, 0.02963908761739731, -0.006296515464782715, -0.0044254884123802185, -0.005330860614776611], [-0.015074193477630615, 0.01736142486333847, -0.05767854303121567, -0.01612590253353119, -0.07703430205583572, 0.0480247437953949, -0.04330536350607872, 0.01561371237039566, 0.040094032883644104, 0.04527240991592407, -0.021164104342460632, 0.06667907536029816, -0.032482702285051346, -0.0073734670877456665, 0.07942810654640198, 0.021789200603961945, -0.06153284013271332, 0.01460515707731247, -0.01606862246990204, 0.04428990185260773], [0.0028928667306900024, 0.044751882553100586, -0.053537651896476746, 0.07094834744930267, 0.07196541130542755, 0.06681324541568756, 0.02855856716632843, 0.02443917840719223, 0.009574055671691895, -0.0521324947476387, 0.043251171708106995, -0.016693390905857086, 0.04136763513088226, 0.027974151074886322, 0.08492355048656464, -0.08007121831178665, 0.019880779087543488, 0.08247102797031403, -0.017723403871059418, -0.0454786978662014], [0.0647418200969696, -0.043260607868433, 0.06027725338935852, -0.01978141814470291, -0.01052790880203247, -0.04246942326426506, -0.018061041831970215, -0.06750498712062836, -0.058685578405857086, -0.01863797754049301, -0.05892712622880936, -0.08100142329931259, 0.002123534679412842, -0.08584584295749664, -0.03582707792520523, 0.04581351578235626, -0.06869974732398987, 0.08462932705879211, -0.02649492770433426, 0.04033823311328888], [-0.05596745014190674, 0.016544416546821594, 0.06127151846885681, 0.07725350558757782, -0.03357063606381416, 0.06909503042697906, -0.008883357048034668, 0.041159242391586304, -0.05161707475781441, -0.005111798644065857, -0.05159470811486244, 0.036213092505931854, -0.005069740116596222, -0.015948712825775146, -0.06564926356077194, -0.06659028679132462, 0.08490221202373505, -0.035986658185720444, -0.06633563339710236, 0.01449284702539444], [0.07453720271587372, -0.0516929104924202, 0.015393808484077454, 0.029837220907211304, -0.08080114424228668, 0.036266908049583435, -0.035950180143117905, -0.07043041288852692, 0.06772711873054504, -0.048687733709812164, -0.05832759290933609, -0.06762903928756714, 0.042082786560058594, 0.013164572417736053, -0.06537599116563797, 0.04479992389678955, 0.07014492154121399, 0.06094607710838318, 0.05567687749862671, 0.03814372420310974], [-0.09446065872907639, -0.14540408551692963, 0.1366301327943802, 0.03494846075773239, -0.07848905026912689, 0.2157193422317505, 0.09698852896690369, 0.1314532309770584, 0.1334916651248932, -0.16875241696834564, 0.08860037475824356, -0.23695892095565796, 0.3441043198108673, -0.09104759991168976, -0.1748296022415161, 0.12086279690265656, 0.015908583998680115, 0.10644537955522537, -0.0034079973120242357, 0.1042618602514267], [-0.11084076017141342, -0.27356016635894775, 0.24996306002140045, 0.05048868805170059, 0.14429733157157898, 0.6509498953819275, -0.17151038348674774, 0.29175853729248047, 0.08571159839630127, -0.1158483624458313, -0.4158247411251068, -0.5551339983940125, 0.6619991660118103, -0.09649648517370224, -0.20256316661834717, 0.3630770742893219, -0.11473856121301651, 0.3917730450630188, 0.04141761362552643, 0.09723848104476929], [0.04673732817173004, -0.058656223118305206, 0.458004355430603, -0.0805143490433693, -0.04832911863923073, 0.4640199840068817, -0.007384643889963627, 0.25270599126815796, 0.07113530486822128, 0.09788054972887039, -0.29319271445274353, -0.1384827196598053, 0.4934917688369751, -0.10128152370452881, -0.0988125279545784, 0.36089909076690674, -0.12635014951229095, 0.276120126247406, -0.021869104355573654, 0.10894960910081863], [-0.03641015291213989, 0.8826932311058044, 1.054097056388855, -0.049515560269355774, 0.6058218479156494, 0.9870855808258057, -1.0274227857589722, -0.9580192565917969, -0.459585577249527, 0.9152993559837341, -0.9957464337348938, -0.5820060968399048, 1.052394151687622, 0.3334575593471527, -0.10229887068271637, 1.1693695783615112, -0.5459356307983398, -1.0906120538711548, 0.11819327622652054, -0.5109219551086426], [-0.11912111192941666, 0.15204280614852905, 0.40896350145339966, 0.036740247160196304, 0.1132299154996872, 0.5221723914146423, -0.02327265590429306, 0.04712079465389252, 0.21225859224796295, 0.17837437987327576, -0.20881864428520203, -0.6142207980155945, 0.4503147304058075, 0.10414668917655945, -0.27226555347442627, 0.3509049415588379, -0.08510325103998184, 0.01260364055633545, 0.0917239636182785, -0.10280343890190125], [-0.3042586147785187, -0.8233215808868408, 0.06253311038017273, 0.6761468648910522, 0.5718137621879578, 0.3779779076576233, -0.03528866171836853, -0.2008104920387268, -0.31506916880607605, 1.1259145736694336, 0.060243651270866394, 0.270440936088562, -0.11666793376207352, -0.11610987782478333, -0.4715292751789093, 0.8746213316917419, -0.37161198258399963, 0.35013794898986816, 0.1565472036600113, 0.4875904321670532], [0.055044159293174744, 0.21355946362018585, 0.725790798664093, -0.12089169025421143, -0.2690088152885437, 0.9172831177711487, -0.6131939888000488, -0.4414525032043457, 0.2268032431602478, 0.5866305828094482, -0.4017567038536072, -0.7672445178031921, 0.6576171517372131, 0.30156469345092773, -0.35433903336524963, 0.6314501166343689, -0.47031348943710327, -0.08910751342773438, 0.172654390335083, -0.5114636421203613], [-0.1918201595544815, 0.5889722108840942, 0.7346187829971313, 0.731195330619812, -0.6032206416130066, 1.2165257930755615, 1.0411739349365234, 0.7611770033836365, -0.7194619178771973, -0.06587029248476028, 0.2243274599313736, -0.23508894443511963, -0.9513733983039856, -0.1324976682662964, -0.09448820352554321, 0.6185446977615356, -0.5154017210006714, 0.37080928683280945, -0.3858446180820465, -0.14408034086227417], [-0.3066774904727936, 1.0590637922286987, 0.4317606985569, -0.32281407713890076, 1.2604851722717285, 2.153088092803955, -0.8183127641677856, 1.0469714403152466, -1.2083539962768555, 0.6696739792823792, -0.24430705606937408, -0.8080533742904663, 0.22895227372646332, -0.20037847757339478, -0.12781593203544617, 1.2249059677124023, -1.6922239065170288, -0.6668676137924194, -0.01914234831929207, -0.2649346590042114], [-0.06370776146650314, -1.1933737993240356, 0.23917709290981293, -0.36128243803977966, 0.18980757892131805, -1.4781861305236816, 1.1759321689605713, -0.1995278298854828, -0.2433556467294693, 0.3961757719516754, 0.2862333655357361, 0.2682650685310364, -0.7139348983764648, 1.4877978563308716, -1.7177962064743042, -0.3573416769504547, -0.2950466275215149, 0.5569380521774292, 0.43944022059440613, -1.0373648405075073], [0.05118487775325775, -0.6471495628356934, -0.3396725058555603, -0.9263119697570801, -0.24861302971839905, 0.41902652382850647, 0.8839624524116516, 0.38126909732818604, 0.34600967168807983, 0.5092607140541077, 0.1582738161087036, -0.1552279144525528, 0.08926448225975037, 0.3974705636501312, 0.5153570175170898, 0.06262604892253876, 0.3631650507450104, 0.7462071180343628, 0.4722805917263031, -0.1122250184416771], [0.06505323201417923, 0.046038735657930374, 1.1122204065322876, 0.3366633951663971, -0.41915321350097656, 0.8656934499740601, -0.7468587756156921, -0.42442813515663147, 0.5313481688499451, 0.5738013982772827, -0.25615277886390686, -0.6421845555305481, 0.9144012331962585, 0.24663357436656952, -0.23853641748428345, 0.8184933662414551, -0.4593515992164612, -0.56668621301651, 0.30474621057510376, -0.4648018479347229], [-0.03381705656647682, -0.30085524916648865, 0.5926568508148193, 0.20380136370658875, 0.44969186186790466, 0.8137181401252747, -0.337226003408432, -0.0002805100230034441, -0.032188545912504196, 0.22876209020614624, 0.1606615036725998, -0.7370254397392273, 0.8305937647819519, 0.060135096311569214, -0.31719958782196045, 0.8081350326538086, 0.11588586866855621, 0.03237583115696907, 0.28733527660369873, -0.19630572199821472], [-0.003727367613464594, 0.6386166214942932, 0.570372462272644, 0.21546748280525208, 0.4563271403312683, 0.8996783494949341, -0.46754488348960876, -0.4114637076854706, 0.23667316138744354, 0.7248276472091675, -0.7865707874298096, -0.7587712407112122, 0.9148657321929932, 0.17717258632183075, -0.024122579023241997, 1.1483604907989502, -0.5304540991783142, -0.7475683093070984, 0.40365728735923767, -0.9092785716056824], [0.008369773626327515, 0.10906845331192017, -0.058872248977422714, -0.024822715669870377, 0.5032382607460022, 0.666900098323822, -0.9054916501045227, -0.10586701333522797, 0.023974301293492317, 0.1959880292415619, -0.13797986507415771, -0.7571046352386475, 0.673734724521637, -0.16639821231365204, 0.03116048313677311, 0.961936354637146, -0.02523767575621605, -0.6263743042945862, 0.12924648821353912, -0.0707315132021904], [-0.015582695603370667, 0.06707495450973511, -0.01631215214729309, 0.03881692886352539, 0.04637567698955536, 0.05935563147068024, -0.032514750957489014, 0.001991741359233856, -0.04638740420341492, -0.085725337266922, -0.057533301413059235, -0.05695730447769165, 0.058743640780448914, -0.0602998286485672, -0.03865784406661987, -0.08444074541330338, 0.07060621678829193, -0.06418172270059586, 0.0719400942325592, -0.012936532497406006], [0.0312189981341362, 0.007497891783714294, 0.05490781366825104, 0.06580232083797455, -0.014300458133220673, 0.03168632835149765, -0.00786617398262024, 0.05641475319862366, 0.019207030534744263, -0.05594213679432869, -0.018505483865737915, 0.06415367126464844, -0.008951961994171143, 0.08041906356811523, -0.004009798169136047, -0.0761510580778122, -0.0771404579281807, 0.06891804933547974, -0.02780577540397644, 0.023273572325706482], [0.03058461844921112, 0.019152164459228516, -0.07973850518465042, -0.053425341844558716, 0.01686353236436844, -0.02004251629114151, -0.059771180152893066, -0.0835845023393631, 0.0695517361164093, 0.039958417415618896, 0.08034484088420868, 0.08153502643108368, -0.07361837476491928, -0.0600615069270134, -0.005468897521495819, -0.025937285274267197, -0.028738658875226974, -0.009554959833621979, 0.044072121381759644, -0.05964493006467819], [-0.048217665404081345, -0.0015338659286499023, -0.046899836510419846, -0.018259480595588684, 0.022171221673488617, -0.07539490610361099, -0.0052088722586631775, -0.08536861091852188, 0.07493141293525696, 0.07272522151470184, -0.00014571845531463623, -0.08500664681196213, 0.04418864846229553, -0.06255307793617249, -0.003345407545566559, -0.059180524200201035, -0.04762719199061394, -0.04661301523447037, 0.06380526721477509, 0.058586716651916504], [-0.06702335923910141, -0.006231494247913361, 0.0622594952583313, 0.060078784823417664, 0.02901691198348999, 0.05934937298297882, 0.009137801826000214, -0.041311852633953094, -0.02431745082139969, 0.08136847615242004, 0.0206904336810112, -0.0392601415514946, -0.005014233291149139, 0.019077569246292114, 0.016959823668003082, 0.07631288468837738, -0.039414405822753906, 0.04460519552230835, 0.07814031839370728, -0.03076602891087532], [0.03265739977359772, 0.050781652331352234, 0.04185853898525238, 0.029053904116153717, -0.0635969489812851, -0.016161471605300903, 0.08184897899627686, 0.07841099798679352, -0.026154614984989166, 0.08087556064128876, 0.0586252361536026, 0.026623055338859558, -0.030136503279209137, 0.03690426051616669, -0.0096469447016716, -0.06006799638271332, 0.06678561866283417, 0.062708780169487, -0.02031341940164566, -0.07287546992301941], [0.07788325846195221, -0.03440739959478378, 0.03319164365530014, -0.0013414323329925537, 0.042757585644721985, 0.04597088694572449, 0.005982443690299988, -0.018592439591884613, 0.05975501239299774, 0.03698650002479553, 0.034881606698036194, 0.07164175808429718, -0.07103323936462402, -0.03186992555856705, 0.021290242671966553, -0.038577601313591, 0.05464041233062744, -0.08280450105667114, -0.07927072048187256, 0.03269156813621521], [0.016560643911361694, -0.06974054127931595, -0.05129152908921242, 0.07097876071929932, 0.012937337160110474, 0.08357921242713928, 0.011130467057228088, 0.04109849035739899, 0.021028876304626465, 0.059896692633628845, -0.0336572639644146, 0.015052177011966705, -0.0353240966796875, -0.076021708548069, -0.045891836285591125, -0.08467715233564377, 0.036241717636585236, 0.05114154517650604, -0.08095358312129974, -0.00688876211643219], [-0.055538780987262726, -0.06397919356822968, 0.060470253229141235, 0.03689437359571457, 0.014978379011154175, 0.004437848925590515, -0.029472481459379196, -0.04672067239880562, -0.06795629113912582, -0.03291678801178932, -0.041185662150382996, 0.03378073871135712, -0.07170873880386353, 0.03875333070755005, 0.043608635663986206, 0.06938458979129791, -0.023885734379291534, -0.044623810797929764, -0.03110436350107193, -0.05575786530971527], [-0.06630216538906097, 0.010247528553009033, -0.08241990953683853, 0.05046825110912323, 0.021784983575344086, 0.05859130620956421, -0.0320139117538929, 0.009109467267990112, 0.07211259007453918, -0.07695521414279938, -0.0059389397501945496, -0.07631810754537582, -0.07587485760450363, 0.06389722228050232, -0.07798445224761963, 0.019458018243312836, -0.0018144845962524414, -0.05061449110507965, -0.03462953120470047, -0.04875602945685387], [-0.06638462841510773, -0.009667500853538513, -0.056971825659275055, 0.0028422176837921143, 0.02133985608816147, 0.029448755085468292, -0.003963150084018707, -0.057875506579875946, -0.01858222484588623, -0.062251072376966476, -0.032819535583257675, 0.023487426340579987, 0.056503474712371826, 0.04113839566707611, -0.07740983366966248, 0.055930644273757935, 0.030693121254444122, 0.08376283943653107, -0.04767720028758049, 0.06364426016807556], [0.06415081024169922, 0.019473344087600708, -0.006825901567935944, 0.0070149898529052734, 0.01065535843372345, 0.058404237031936646, -0.014654815196990967, -0.06756392866373062, 0.04235243797302246, -0.030195843428373337, 0.00012384355068206787, 0.017393596470355988, 0.05746844410896301, -0.03722253441810608, -0.037638723850250244, 0.03030339628458023, -0.07566331326961517, 0.03739766776561737, 0.0031076818704605103, 0.038694366812705994], [-0.03397568687796593, 0.24643641710281372, 0.2772643566131592, 0.01894855871796608, -0.13507863879203796, 0.755491316318512, 0.1451486498117447, 0.22427275776863098, 0.6896698474884033, -0.8159671425819397, 0.19156809151172638, 0.029719088226556778, 0.7309275269508362, -0.3460136950016022, -0.028726663440465927, 0.3678281605243683, -0.3647374212741852, 0.24670593440532684, 0.011289561167359352, -0.3308851420879364], [-0.11347205936908722, 0.13557039201259613, 0.5464449524879456, -0.01038078311830759, -0.10179464519023895, 1.2568349838256836, -0.024029118940234184, 0.1087859719991684, 1.0146442651748657, -0.505179226398468, -0.9006521105766296, -0.49362486600875854, 0.3154301047325134, 0.5902339816093445, -0.6747714877128601, 1.142488956451416, -0.39046332240104675, -0.01804387755692005, -0.41162821650505066, -0.47443196177482605], [-0.07379855215549469, -0.42454788088798523, 0.045184165239334106, -0.6130624413490295, 1.188761830329895, 1.642495036125183, 0.5340399742126465, 0.6391677260398865, 0.6298651099205017, -0.7126819491386414, 0.1683533489704132, -0.6801853775978088, 0.837628960609436, 0.26556196808815, 0.08608436584472656, 0.24646560847759247, -0.6222621202468872, 0.37905216217041016, 0.20187824964523315, 0.34146520495414734], [-0.14735941588878632, 1.1858189105987549, 1.0771235227584839, -0.051244307309389114, 0.17941465973854065, 1.5395721197128296, 0.31792691349983215, 0.3006855547428131, -0.7218838334083557, -1.0351098775863647, -0.24597260355949402, -1.4738940000534058, 0.777073323726654, -0.4603322744369507, -1.4113298654556274, -0.6118093729019165, 0.22334972023963928, -0.6713771224021912, 1.411211609840393, -0.2344091236591339], [-0.38080933690071106, 0.14483574032783508, 1.2245991230010986, -0.5470994114875793, 0.2156929075717926, 1.6545480489730835, -1.1267757415771484, 0.20729495584964752, 0.4717543423175812, -1.3670344352722168, -0.7646936178207397, -1.5484657287597656, 1.085227131843567, 0.7615102529525757, -0.21599867939949036, -0.16572032868862152, -0.34287047386169434, 0.06080881506204605, 0.5198044776916504, -0.42630529403686523], [1.2685508728027344, 0.8129389882087708, 0.31745174527168274, -0.26630154252052307, 0.27027300000190735, 1.047057867050171, 0.9425780773162842, 1.1857695579528809, 0.17695337533950806, 0.0201902836561203, -1.4151962995529175, -2.045741558074951, 1.7386500835418701, 0.19558590650558472, -1.6450071334838867, -0.9451292753219604, -0.011273741722106934, 1.2593399286270142, 0.46328580379486084, -1.1260168552398682], [-0.7063915729522705, -0.887793242931366, 0.7364038228988647, -1.7443382740020752, 1.3357937335968018, 1.6663624048233032, 0.3968471586704254, 0.8020160794258118, 0.5387942790985107, 0.34438055753707886, -0.840384304523468, -2.2554819583892822, 0.9700843095779419, -0.08055336028337479, -1.2761098146438599, 0.42669060826301575, -0.21712340414524078, 0.9752830266952515, 2.0038902759552, -1.241053581237793], [0.15808291733264923, 1.2966911792755127, -0.3298203945159912, 0.625967800617218, -0.9910503029823303, 0.7520624995231628, -0.7931984663009644, -0.8141611218452454, 1.352333664894104, -0.4037783443927765, 0.9441224932670593, -1.7650785446166992, -0.6231305003166199, 0.08099134266376495, -2.0403711795806885, 0.16076940298080444, 0.40610170364379883, 0.7192367911338806, -0.030570412054657936, -2.4096274375915527], [0.9989011287689209, 1.5506917238235474, 0.9213712811470032, -1.1390105485916138, 0.7390689253807068, 1.7188057899475098, 0.4430152177810669, 0.6013690233230591, 0.26631036400794983, 0.6644037365913391, 0.052461255341768265, -1.2440963983535767, 0.1022583395242691, -0.4401104748249054, -1.275839924812317, -0.012483187951147556, -0.10652139782905579, -0.8473250269889832, 0.24740475416183472, -0.8389950394630432], [0.5118064880371094, 0.08222503960132599, 0.36334821581840515, 1.5693048238754272, -0.8071328401565552, 2.189891815185547, 0.36848193407058716, 1.705777883529663, -0.4566664695739746, -1.7490692138671875, 1.2223434448242188, -2.224370241165161, -1.111037015914917, 1.0547558069229126, 1.3576619625091553, -0.6701444983482361, -0.4649059772491455, 0.2822951674461365, 1.3406074047088623, -2.0237460136413574], [-0.24221250414848328, -0.45266109704971313, -0.23699870705604553, -0.3963143825531006, -0.16679814457893372, 1.042258620262146, 0.5556996464729309, 1.3769103288650513, -0.6250694394111633, -0.6422117948532104, 1.0864077806472778, -1.5075784921646118, 0.5347620248794556, -1.3734264373779297, -1.9376530647277832, 0.09969377517700195, 0.1991729736328125, -0.8103407621383667, 0.32466354966163635, -0.6134530305862427], [1.2248209714889526, -0.8364827036857605, 1.0123035907745361, -1.2895376682281494, -0.7085014581680298, 1.6848459243774414, 0.0655939057469368, -0.5586283206939697, 0.8482167720794678, -1.613096833229065, 0.5895169377326965, -0.35728365182876587, 1.2465037107467651, 0.8832316398620605, -1.1257988214492798, 0.6540277004241943, 0.23084916174411774, -0.3576890826225281, -0.7753694653511047, -2.0327563285827637], [0.18596597015857697, -0.8438383340835571, 0.6021559238433838, -0.24553750455379486, -0.18159407377243042, 1.6304694414138794, 0.49160489439964294, 0.4692818522453308, 0.3438430428504944, 0.04607217013835907, -1.0415626764297485, 0.314113587141037, 0.5620357990264893, 0.9700506925582886, -1.1162199974060059, 0.5123621821403503, 0.9305802583694458, -0.7720903158187866, 0.4620448350906372, -1.7049866914749146], [1.4824213981628418, 0.5798356533050537, 0.3903461694717407, -0.21525533497333527, 0.47099313139915466, 0.8568506240844727, 0.29742392897605896, -0.26807934045791626, 0.3415326476097107, -1.701042652130127, 0.054356649518013, -0.020124545320868492, 0.5818679332733154, 0.7273849248886108, -0.4520796835422516, 0.39364421367645264, 0.3717610836029053, 0.12779730558395386, -1.2282114028930664, -0.30198660492897034], [0.5895838141441345, 0.25498446822166443, 1.3883672952651978, -0.9121532440185547, -0.46273279190063477, 2.0484890937805176, -0.013506392017006874, -0.014783171005547047, 0.355584979057312, 0.7747577428817749, -0.6471146941184998, -1.4838837385177612, 1.2418544292449951, 0.2822367250919342, -0.7786495685577393, 1.4693938493728638, 0.2023673802614212, 0.2878734767436981, -1.147047519683838, -0.35852566361427307], [0.34608128666877747, -0.3399583399295807, 1.149989366531372, -0.43049731850624084, 0.9222089648246765, 1.842638373374939, -1.0935661792755127, -0.01934530772268772, 0.2514970302581787, -0.09913945198059082, -0.9942384958267212, -0.9851919412612915, 1.4272006750106812, 0.2986554205417633, -0.12815149128437042, 1.5999572277069092, -0.38846370577812195, -0.6207830309867859, 0.44157886505126953, -0.12644007802009583], [0.02183225378394127, 0.11953219026327133, 0.8658310174942017, -0.2975609600543976, -0.04249032586812973, 1.4994261264801025, -0.6975188851356506, 0.4266566038131714, 0.15151691436767578, 0.250440776348114, -1.0002517700195312, -1.3361011743545532, 1.6582945585250854, -0.34131431579589844, -0.864444375038147, 1.7658514976501465, -0.3207184970378876, -0.11767754703760147, 0.8214437961578369, -0.3319670855998993], [-0.051823437213897705, 0.23991596698760986, 0.5471124649047852, -0.5459633469581604, 0.5193477869033813, 0.49077799916267395, 0.21613794565200806, -0.4191247522830963, 0.662409245967865, -0.7163628935813904, -0.2839645743370056, -0.7027226090431213, 0.21000637114048004, -0.08201292157173157, -0.085003562271595, 0.3735736012458801, -0.11856885999441147, 0.5799601674079895, 0.011007040739059448, 0.7624435424804688], [-0.00885726511478424, 0.09438489377498627, -0.26920557022094727, -0.027630824595689774, 0.5496658086776733, -0.27930688858032227, 0.20543797314167023, 0.4913296401500702, -0.5725806355476379, -0.40187010169029236, -0.5946439504623413, -0.01199724618345499, -0.3315582275390625, 0.49971362948417664, -0.08336842060089111, -0.5444791316986084, 0.04277236759662628, 0.18994690477848053, 0.008977198973298073, 0.696582019329071], [0.06259465217590332, -0.0704837366938591, -0.07546598464250565, -0.07002727687358856, 0.0648735910654068, 0.03323596715927124, -0.004561632871627808, -0.08062531799077988, -0.02861207351088524, 0.06157524883747101, -0.04102643206715584, -0.053854234516620636, 0.07668296992778778, -0.04250688850879669, -0.011461101472377777, 0.044059500098228455, 0.08161488175392151, -0.054056987166404724, 0.056120648980140686, -0.08502568304538727], [0.015371747314929962, 0.010636530816555023, -0.02627524733543396, -0.06896910816431046, 0.0210801362991333, 0.023458711802959442, 0.0036170482635498047, -0.0697859525680542, 0.05488593876361847, 0.015606321394443512, -0.06938675791025162, 0.07990726828575134, 0.0856676995754242, -0.000552639365196228, -0.026179905980825424, 0.061738163232803345, -0.024572454392910004, -0.00027249008417129517, -0.0031516999006271362, 0.013690292835235596], [0.08604198694229126, 0.026569217443466187, -0.0351092591881752, -0.06670733541250229, -0.07964207231998444, -0.0513014979660511, -0.08067891001701355, -0.004748009145259857, 0.05568529665470123, -0.044176872819662094, -0.04143847897648811, -0.03582404926419258, -0.012063108384609222, 0.08364476263523102, -0.02064845710992813, 0.06263852119445801, -0.0794898048043251, 0.05203033983707428, -0.02655027061700821, -0.023998912423849106], [-0.03304174542427063, -0.003989450633525848, 0.07952049374580383, 0.022760972380638123, 0.02411331981420517, 0.05112724006175995, -0.03757889196276665, -0.02908642590045929, 0.07044978439807892, 0.07033665478229523, -0.006825365126132965, 0.08142814040184021, 0.013817600905895233, -0.0018873140215873718, -0.04527417570352554, 0.044992417097091675, 0.03280898928642273, 0.07384714484214783, 0.08116650581359863, 0.08356468379497528], [0.05649556219577789, 0.08563362061977386, 0.07058984041213989, 0.08110921084880829, 0.08576241135597229, 0.053007274866104126, 0.08470125496387482, 0.02292228490114212, -0.015750616788864136, -0.025659523904323578, -0.0573640801012516, -0.08174575120210648, -0.027482803910970688, 0.07453235983848572, -0.029616471379995346, 0.05239163339138031, -0.05616719275712967, 0.05587972700595856, -0.07914770394563675, 0.059809163212776184], [-0.06840087473392487, 0.056438520550727844, -0.01690429449081421, -0.04111827164888382, -0.01240045577287674, -0.07957087457180023, 0.030520498752593994, -0.03250342234969139, 0.08520346879959106, -0.00559554249048233, -0.025462087243795395, -0.08632412552833557, -0.030504990369081497, 0.014338374137878418, 0.019535213708877563, -0.03109915181994438, -0.015713483095169067, -0.053136929869651794, 0.053841933608055115, 0.048474401235580444], [0.011524766683578491, -0.009418077766895294, -0.06016729027032852, -0.03907386586070061, -0.04524772986769676, -0.01352834701538086, -0.026794705539941788, 0.06327763199806213, 0.06539902091026306, -0.024180136620998383, -0.05051206424832344, -0.005560815334320068, 0.05674752593040466, 0.07334141433238983, 0.005406923592090607, 0.01905394345521927, 0.02433590590953827, -0.01132500171661377, -0.059542134404182434, -0.046562716364860535], [0.01326749473810196, 0.07695931196212769, 0.04502405226230621, 0.006773337721824646, 0.03986497223377228, 0.07772588729858398, 0.017618484795093536, -0.0353521890938282, -0.03342382609844208, 0.016840338706970215, 0.047012001276016235, -0.007599472999572754, -0.0781058818101883, -0.0674562156200409, -0.006640739738941193, 0.04008764028549194, -0.0161823108792305, -0.06764781475067139, -0.027228832244873047, 0.02257949858903885], [0.005083405412733555, -0.3435254693031311, -1.033076524734497, 0.011858221143484116, 1.162203073501587, -0.788750171661377, 0.21515856683254242, 1.0578265190124512, -0.0958830714225769, 0.7044933438301086, -0.3517175018787384, 0.15699030458927155, 0.01167872454971075, -1.1348843574523926, 0.005481838248670101, 0.07805582880973816, 0.8327935338020325, 0.06189946085214615, 0.5309752821922302, 0.09474170953035355], [0.0195489302277565, 0.1936868578195572, 0.1750522404909134, -0.15681493282318115, 0.4458853304386139, 2.1822900772094727, -0.5588175058364868, 0.9132201671600342, 0.2317351996898651, -1.132331371307373, -0.7791200280189514, -1.1601678133010864, 2.0092313289642334, -0.22764800488948822, -1.1459101438522339, 1.115842342376709, -1.329968810081482, 0.6718301773071289, 0.44176480174064636, -0.5416641235351562], [0.04338451847434044, 1.5732225179672241, 0.3320135772228241, 0.1309930980205536, -1.1423932313919067, -0.16821220517158508, 1.6777836084365845, 1.026795744895935, 1.378313660621643, 0.9161252379417419, 0.20508110523223877, 1.2067973613739014, 0.2845119833946228, 0.5158218741416931, -0.8565747737884521, -1.620883822441101, 0.5673964619636536, 0.1389453411102295, -1.0660934448242188, -0.3224693834781647], [0.41994550824165344, 0.9067872762680054, 0.6880989670753479, -0.08410272002220154, 0.7850070595741272, 1.4054747819900513, -0.32435300946235657, -0.21982616186141968, 1.6996736526489258, -0.24363620579242706, -1.313942790031433, -0.29601672291755676, 1.4822181463241577, 1.1108496189117432, -0.7887942790985107, 0.4096558392047882, -0.3443138003349304, 0.0742933601140976, -0.5013019442558289, -0.2042652666568756], [-0.1136445626616478, -0.09667330235242844, 0.5428818464279175, -1.68491530418396, 1.1329267024993896, 1.8034955263137817, 0.960634708404541, -0.05290396511554718, 0.7218065857887268, -0.4729389250278473, -1.8145127296447754, -2.662369966506958, 0.9420844316482544, 0.8050228953361511, -1.7366011142730713, 0.21572881937026978, -0.007693255785852671, 1.4656237363815308, 1.2176539897918701, 0.0008053016499616206], [0.19949668645858765, -0.5515041947364807, -0.6505334377288818, -1.698392391204834, 0.4852500259876251, 0.8208786845207214, 0.41626280546188354, 0.10431694239377975, 0.8714566826820374, 0.3484555184841156, -0.8863344192504883, -0.7280892729759216, 1.5949556827545166, -0.941791296005249, -0.8364151120185852, -0.19832274317741394, 1.6043550968170166, 0.9780595302581787, 0.8638060092926025, -0.2994244694709778], [-0.7441070675849915, 0.35538917779922485, 0.054070353507995605, -0.4133172035217285, -0.44632190465927124, 1.0114437341690063, 0.4673801064491272, 1.416231393814087, 0.3407556712627411, 0.13488391041755676, -0.41941872239112854, -1.8013010025024414, -0.4983747899532318, 0.34779876470565796, 0.09507093578577042, -1.486538052558899, -0.5391464233398438, -0.7866935133934021, -0.5541892647743225, 0.5457784533500671], [1.2730261087417603, -0.5458720326423645, 0.05777131766080856, -0.27039390802383423, 0.3868860602378845, 0.8988736271858215, 0.499285489320755, 0.33946043252944946, 0.5550437569618225, -0.14459775388240814, 1.115545630455017, -1.0499818325042725, 0.5785648822784424, -0.3855052590370178, -1.2500395774841309, -0.060049913823604584, 0.8026281595230103, -0.1105923280119896, 0.14788416028022766, -1.1654945611953735], [-0.9029186367988586, 0.3964661955833435, 0.08962394297122955, -0.4326457977294922, 0.39944159984588623, 0.9990585446357727, 0.2727310061454773, -0.7553104162216187, -0.5207131505012512, 0.45895323157310486, -0.171333447098732, -0.8602386713027954, -0.23972338438034058, 0.6227203607559204, -3.1403987407684326, -0.8461785316467285, 0.47232601046562195, -1.1316003799438477, 0.11436371505260468, -0.2972297966480255], [0.3344740867614746, -0.15717390179634094, -0.9870886206626892, -0.5677011013031006, -0.0071821510791778564, 0.9984725117683411, 0.37173426151275635, 0.337049275636673, 0.11782506108283997, -0.0496031828224659, -0.1608121544122696, -0.7382645010948181, 0.9098899364471436, 0.6141478419303894, -0.7487972974777222, -0.05687260627746582, 0.3943496346473694, 0.5390870571136475, 1.0376780033111572, -1.7509703636169434], [0.634566605091095, 0.2704223096370697, 0.3010200560092926, -0.9158883094787598, 0.03998986631631851, 0.34874260425567627, 0.27661484479904175, -0.2901759147644043, 0.3474363386631012, -0.4108010232448578, 0.014030841179192066, -0.5208710432052612, 0.9756960868835449, 0.4527323246002197, -0.7024994492530823, -0.7801843881607056, 0.6118141412734985, 0.025162847712635994, 0.44106408953666687, -0.8682003021240234], [0.10362960398197174, -0.43091607093811035, 0.37506717443466187, -0.8379755020141602, 0.8592564463615417, 0.5377867817878723, -0.14282479882240295, 0.2261763960123062, 0.12091263383626938, -0.23277227580547333, 0.03441254794597626, -0.3997015655040741, -0.36769962310791016, -0.4353731870651245, 0.3102813959121704, 0.11254710704088211, -0.278529554605484, 0.7016188502311707, 0.8096529841423035, -0.929745078086853], [-0.44582629203796387, 0.31584012508392334, 0.22750645875930786, 0.21476764976978302, 0.9268932342529297, 0.7287269830703735, 0.16860191524028778, 0.37551349401474, -0.5127140283584595, 0.6101257801055908, -0.15503418445587158, -0.07589875906705856, -0.12112446129322052, -0.2905661165714264, -1.1063287258148193, -0.1949421614408493, 0.3935633599758148, -0.28198349475860596, 0.4150838553905487, -0.17950089275836945], [-0.05440264195203781, 0.14230552315711975, 0.24733613431453705, -0.786062479019165, 0.24158985912799835, 0.7585752606391907, -0.07934141904115677, 0.21735425293445587, -1.0258289575576782, 0.37378787994384766, 0.5380386710166931, -0.18477855622768402, 1.0455867052078247, -0.36501604318618774, 0.06973419338464737, 1.2785930633544922, 0.5096163153648376, -0.6170335412025452, 1.1492578983306885, -0.7479562163352966], [-0.5008036494255066, 0.5531895160675049, 0.832660436630249, -0.5297649502754211, 0.4723972976207733, -0.19914089143276215, 0.08599216490983963, -0.19413746893405914, -0.09325585514307022, -0.2799226641654968, 0.23639176785945892, -0.42278853058815, 0.3077933192253113, 0.10251154750585556, 0.28499317169189453, -0.046843454241752625, -0.06336000561714172, -0.2926332652568817, 0.5456365346908569, -0.9574214816093445], [-0.41194891929626465, -0.40254703164100647, 0.4460269808769226, -1.3789947032928467, -0.4508727788925171, 0.3134347200393677, -0.16240759193897247, 0.14991822838783264, -0.5864601731300354, -1.1235429048538208, 1.1213241815567017, -0.3344218134880066, 1.0607579946517944, -0.34090620279312134, 0.2975381314754486, 1.2504359483718872, -0.28601181507110596, 0.3651700019836426, 0.46830588579177856, -1.222935676574707], [-0.09217449277639389, -0.815250813961029, 0.9195052981376648, 0.36308592557907104, 0.2886495888233185, 0.28831544518470764, -0.03925153240561485, -0.2602258324623108, 0.032320573925971985, -1.2690961360931396, -0.43126243352890015, -0.7170300483703613, 0.7059521079063416, -0.39984723925590515, -0.5567691326141357, -0.06455879658460617, -0.22539451718330383, -0.07719844579696655, -0.2737566828727722, -0.43700605630874634], [0.3458670973777771, 0.1980840265750885, -0.3810061514377594, 0.4341140687465668, -0.16552568972110748, 0.24035979807376862, -1.0437977313995361, 0.23790986835956573, 0.2066868096590042, -0.27373161911964417, -0.20820921659469604, -0.4440629184246063, 0.300786554813385, 0.08152902871370316, 1.2022861242294312, 1.08738112449646, 0.14292918145656586, -0.11616215109825134, 0.7500401735305786, -0.16306760907173157], [0.8293499946594238, 0.7493158578872681, 0.7028005123138428, -1.190073013305664, 0.6620256900787354, 0.943611204624176, -0.30553582310676575, 0.7197742462158203, -0.18753403425216675, 1.094000220298767, -0.458953857421875, -0.3207378089427948, 1.2199620008468628, 0.7318399548530579, 0.1947888284921646, 0.3422910273075104, -0.796991765499115, -0.5821456909179688, 0.7680392861366272, 0.2134546935558319], [-0.3971254527568817, -1.2868658304214478, 0.03352077305316925, -1.7043479681015015, 0.7368258833885193, 0.396258145570755, -1.0903948545455933, 0.6198058724403381, 0.4027060568332672, -0.26359277963638306, 0.1707112342119217, -0.6362460255622864, 0.4119115471839905, 1.6097455024719238, -1.1357868909835815, -0.5695775747299194, 0.06937172263860703, -0.3096512258052826, 1.6657798290252686, 0.5870426893234253], [-0.0486903078854084, 0.0013054311275482178, 0.03459321707487106, -0.04781871661543846, 0.035819269716739655, -0.03587162867188454, -0.0694037675857544, 0.06708921492099762, -0.028407759964466095, 0.036659643054008484, 0.012636400759220123, 0.06376738846302032, -0.07558330148458481, -0.04306679591536522, 0.0817127376794815, -0.044441986829042435, -0.06343395262956619, 0.04622071981430054, -0.06340034306049347, 0.013301335275173187], [-0.02918057143688202, -0.015678860247135162, -0.05392010137438774, 0.050289690494537354, 0.08090297877788544, -0.0007162168622016907, 0.057490184903144836, 0.06911589205265045, 0.03513661026954651, 0.02280084788799286, 0.03019946813583374, 0.0070916712284088135, -0.02707359939813614, 0.012122631072998047, -0.08589521050453186, 0.0192587748169899, 0.03422475606203079, -0.08458753675222397, -0.06034495308995247, -0.027053311467170715], [0.04756303131580353, -0.01554117351770401, 0.07833641767501831, 0.08542934060096741, -0.013501815497875214, 0.06002525985240936, -0.06392758339643478, -0.021522417664527893, -0.03766864910721779, 0.0448056161403656, -0.025722753256559372, 0.0025756433606147766, -0.061668239533901215, -0.07059569656848907, 0.08345192670822144, -0.04040502384305, 0.01593416929244995, 0.08080798387527466, 0.06356531381607056, -0.05924779176712036], [0.013907380402088165, 0.04485957324504852, 0.06678161025047302, -0.08591511100530624, 0.011030785739421844, 0.07984387874603271, 0.07936002314090729, 0.044134676456451416, -0.0332413874566555, -0.05513027682900429, 0.03652770072221756, -0.003952048718929291, -0.03906138613820076, 0.03791092336177826, 0.03474382311105728, 0.033452972769737244, 0.061187997460365295, 0.06432183086872101, 0.07842829823493958, -0.008817613124847412], [0.012256138026714325, -0.04733085632324219, -0.021381333470344543, -0.02984515205025673, 0.016928553581237793, 0.01681012660264969, -0.06611751765012741, -0.08101874589920044, 0.001966319978237152, -0.030400220304727554, 0.01582949608564377, -0.06998646259307861, 0.009551256895065308, -0.032257258892059326, 0.06940370798110962, 0.018112242221832275, -0.035475172102451324, 0.03319688141345978, -0.05766081064939499, 0.007354952394962311], [-0.012993358075618744, -0.005043625831604004, -0.029037222266197205, -0.03525833413004875, -0.018250316381454468, 0.060000672936439514, -0.023643583059310913, -0.039731916040182114, -0.00024157017469406128, 0.020651012659072876, -0.020378299057483673, 0.00956183671951294, 0.003595419228076935, -0.027086451649665833, 0.061095163226127625, 0.006352409720420837, 0.06804168224334717, 0.04107411205768585, 0.053196847438812256, 0.07799023389816284], [-0.053736671805381775, -0.06023082882165909, -0.0793270543217659, -0.07687589526176453, 0.07797548174858093, -0.06634747982025146, 0.04347352683544159, -0.02340732514858246, -0.07277469336986542, -0.05790456756949425, 0.025165565311908722, 0.0051855966448783875, 0.03815517574548721, 0.01404137909412384, 0.003479406237602234, -0.029820311814546585, -0.018561653792858124, 0.012366987764835358, 0.07016472518444061, 0.06765097379684448], [1.0969762802124023, -0.18586185574531555, 0.2427794188261032, -0.28782767057418823, 0.8635570406913757, -0.9100009202957153, -0.10496585071086884, 0.5961409211158752, 0.02730622887611389, 1.1431630849838257, -0.19025979936122894, -0.37866806983947754, 1.428063988685608, -0.2516396939754486, 1.016810417175293, -0.3647187650203705, 1.2778911590576172, -0.2205873280763626, -0.25182101130485535, -0.6189455389976501], [0.8902172446250916, 1.2324318885803223, 1.0658704042434692, -0.2717514634132385, -0.14548397064208984, 1.7165921926498413, 0.2017325460910797, 0.17912371456623077, -0.6002513766288757, 0.27398058772087097, -0.8714954257011414, -0.5043027400970459, -0.7518724799156189, -0.5584617853164673, -0.4376251697540283, 0.5613480806350708, -0.6463786363601685, 0.45995089411735535, -0.5337244868278503, -1.0416055917739868], [0.6284497976303101, 0.35569819808006287, 0.17708894610404968, -0.26194337010383606, 0.33729591965675354, 1.2639360427856445, 1.3616615533828735, 0.02779925987124443, -0.6003119349479675, 0.49420464038848877, -0.7690231800079346, -0.5452346205711365, -0.11572397500276566, -0.0997655838727951, -0.6932975649833679, 0.5257676243782043, 0.26378166675567627, -0.6157087683677673, -1.2813172340393066, -0.05613872781395912], [-0.6857991218566895, -0.14796987175941467, 0.3377751111984253, -1.2026740312576294, 1.6633411645889282, -0.42155030369758606, 0.2715460956096649, 1.1147645711898804, 0.7463111877441406, -1.411806344985962, 0.18741469085216522, -1.1680619716644287, 0.12533283233642578, 0.3961173892021179, -1.3861668109893799, -0.6070446372032166, 0.024274198338389397, -0.11517663300037384, 0.7052137851715088, -0.3714883625507355], [-0.21532732248306274, 0.584185779094696, -0.13390249013900757, -0.14004747569561005, 0.6541213989257812, -0.7726789712905884, 0.6808847784996033, 1.2807788848876953, -0.8910567760467529, 0.7715124487876892, 0.818693220615387, -0.609637439250946, -0.868539035320282, 0.22476305067539215, -0.49994972348213196, -0.6528249382972717, 0.5362967848777771, -1.0163432359695435, 0.023515628650784492, -0.4863259792327881], [0.0551321804523468, -0.33004578948020935, -0.3609725534915924, -0.7515251636505127, 0.10497847199440002, 0.4010719656944275, 0.47990870475769043, 0.6377646327018738, -0.4788212478160858, 0.5570513606071472, 0.7785990834236145, -0.05418170243501663, 0.117693230509758, 0.33956852555274963, -1.038464903831482, -0.5910656452178955, 0.7234378457069397, -0.17983995378017426, 0.548896074295044, 0.24519316852092743], [0.4525664150714874, -0.18371011316776276, 0.061819493770599365, -0.6094616055488586, -0.0957535058259964, 0.9266493320465088, -0.0985528901219368, 0.633114755153656, -0.11248503625392914, 0.3250060975551605, -0.1733461171388626, -0.09922654926776886, 0.08977068960666656, 0.09935437887907028, -1.5638810396194458, -0.3080504238605499, 0.6678902506828308, -0.4681845009326935, -0.21350741386413574, -0.7185735106468201], [-0.018046719953417778, -0.41032475233078003, 0.3728604018688202, -0.5217200517654419, 0.32666319608688354, 1.5304919481277466, 0.5965994596481323, 0.8025317788124084, -0.1696052849292755, 0.4377559423446655, -0.23794926702976227, -0.381470650434494, 0.21541430056095123, 0.4310334622859955, 0.677659809589386, -0.018586156889796257, 1.3020546436309814, 0.895969033241272, 0.4152224659919739, -0.07186897099018097], [0.5576319694519043, 0.022830292582511902, 0.36072319746017456, -0.1157618910074234, 0.3668447434902191, 0.6568484902381897, 0.08378101885318756, 0.8147753477096558, 0.0459173358976841, 0.45597246289253235, 0.13340990245342255, 0.27641505002975464, 0.44455718994140625, -0.07566055655479431, 0.08965997397899628, -0.4483397603034973, 0.20754390954971313, -0.49882662296295166, 0.5819775462150574, 0.0659773051738739], [-0.11188728362321854, -0.07138347625732422, -0.09062459319829941, 0.46616703271865845, 0.9552133083343506, 0.22507761418819427, 0.10248241573572159, 0.09570068120956421, -0.009279563091695309, -0.32418110966682434, -0.33379223942756653, -0.7316216826438904, -0.07429051399230957, -0.156059131026268, -0.028600942343473434, 0.14757823944091797, 0.36682888865470886, -0.6558406352996826, 0.23522795736789703, 0.2270555943250656], [0.26592889428138733, -0.01906145177781582, 0.2862592935562134, -0.7745133638381958, 0.3443814814090729, -0.2724383473396301, 0.14929141104221344, 0.23292583227157593, -0.22082549333572388, -0.0708167627453804, 0.12025291472673416, 0.5029453039169312, -0.24246132373809814, -0.1822873055934906, -0.8724886775016785, -0.45434990525245667, 0.07591595500707626, -1.1674785614013672, 0.2185957282781601, -1.4665716886520386], [-0.29041552543640137, -0.24903374910354614, -0.2865840494632721, -0.46569404006004333, 0.018847113475203514, -0.11165810376405716, -0.0954967737197876, 0.34186679124832153, -0.11181679368019104, 0.037432316690683365, 0.6835881471633911, -0.27836906909942627, 0.013854374177753925, 0.32937532663345337, -0.6040125489234924, 0.24543464183807373, 0.3680554926395416, 0.08124314248561859, 0.10459407418966293, -1.3182086944580078], [0.13973557949066162, 0.27023863792419434, -0.36554840207099915, -0.7107082009315491, -0.7218917012214661, 0.37565699219703674, 0.477505624294281, 0.5457046031951904, -0.12320873141288757, 0.055879879742860794, 0.5070527195930481, 0.17904570698738098, 0.2190742939710617, 0.08896791934967041, -0.02899007685482502, -0.1290888488292694, 0.2964857220649719, 0.1363864541053772, 0.5666717290878296, -1.9376732110977173], [0.23570306599140167, -0.04815858229994774, 0.47192859649658203, -0.5318323969841003, -0.07911988347768784, 0.36564111709594727, -0.37360551953315735, 0.6205758452415466, -0.038374681025743484, 0.4111053943634033, -0.18612009286880493, -0.38588228821754456, -0.18386037647724152, 0.18009574711322784, -0.3434576988220215, 0.012499546632170677, 0.3934811055660248, -0.17244333028793335, 0.6619334816932678, -0.38705939054489136], [0.2678309679031372, 0.040780771523714066, 0.017433667555451393, -0.6135036945343018, -0.34818994998931885, 0.21199363470077515, 0.39848729968070984, 0.09894711524248123, 0.19439667463302612, -0.128751739859581, 0.41269364953041077, 0.497793972492218, 0.24560533463954926, 0.34265416860580444, -0.19206301867961884, 0.5359870791435242, 0.2542380094528198, 0.3307400941848755, 0.34015440940856934, -1.287760853767395], [0.030051423236727715, -0.15799427032470703, 0.5443463325500488, 0.09612800925970078, 0.05253978818655014, -0.033637624233961105, 0.22715334594249725, 0.15622831881046295, 0.11363334208726883, 0.26579758524894714, 0.03281092271208763, -0.32535573840141296, 0.2956373691558838, 0.42526552081108093, 0.0961136594414711, 0.16611847281455994, 0.5460219383239746, 0.2558603882789612, 0.26232093572616577, -0.4571692645549774], [0.05818241834640503, -0.09273815155029297, 0.4741250276565552, -0.3918718993663788, -0.4866277873516083, -0.5469865798950195, 0.20250609517097473, 0.15961767733097076, 0.24628236889839172, 0.6026999354362488, -0.15268969535827637, -0.03331504389643669, 0.5559930801391602, -0.4606230556964874, 0.48727259039878845, -0.15448717772960663, -0.8247687220573425, 0.35210150480270386, -0.3438938856124878, -0.6595897674560547], [-0.03628921881318092, -0.1316540241241455, 1.5601574182510376, -0.8119862079620361, -0.4285795986652374, 0.4197281301021576, 0.16555683314800262, -0.9764498472213745, -1.3513091802597046, 0.388017863035202, 0.5951896905899048, 0.14248771965503693, 0.3192642033100128, -0.4659426808357239, -0.523770272731781, 0.4208676218986511, -0.26441559195518494, -0.8868369460105896, 0.620555579662323, 0.2816344201564789], [-0.1932685673236847, -0.12775437533855438, 0.3822285234928131, 0.28543293476104736, -0.9497954249382019, 0.016804946586489677, -0.06676767766475677, -0.20020541548728943, -0.2709225118160248, -1.450666069984436, -0.19398249685764313, 0.30268099904060364, -0.044598162174224854, -0.4929407835006714, 0.19394148886203766, 0.4316415786743164, 0.2391204535961151, 0.6522208452224731, 0.17497047781944275, 0.472752183675766], [-1.0615593194961548, 1.5280158519744873, 2.117321491241455, -0.6636898517608643, -0.42653128504753113, 1.0007572174072266, -0.25172367691993713, 0.2235235720872879, -0.6764900088310242, 0.8133049607276917, 0.48767679929733276, -0.48240530490875244, -0.10367690771818161, -0.5048789381980896, 1.2278547286987305, 0.9498558044433594, -0.6665897369384766, 0.7009744644165039, -1.0948201417922974, -0.6201545596122742], [0.49052712321281433, 1.9677554368972778, -0.686083972454071, -0.4754771590232849, 0.29544296860694885, -0.09469828009605408, -1.0167782306671143, -1.3825747966766357, 0.5811133980751038, -0.09995879232883453, -0.7188215255737305, 1.2471622228622437, 0.5650027394294739, -0.5435305237770081, -0.4254886209964752, 2.348829984664917, -0.20008428394794464, -1.3401442766189575, 0.0928179994225502, -0.45949649810791016], [-0.050067413598299026, -1.1817612648010254, -0.09045103937387466, -0.6789427995681763, -0.784505307674408, 0.6278342604637146, -1.0724533796310425, 0.7495788931846619, 0.9474064111709595, 1.1770093441009521, 0.9264049530029297, 0.11834003031253815, 0.41020771861076355, -1.7623403072357178, -0.8683000802993774, 1.6219077110290527, 2.0192201137542725, 1.2074339389801025, 1.2549717426300049, 1.5264389514923096], [-0.14141042530536652, -0.42667537927627563, 0.1764129251241684, -0.05955115705728531, -0.17313197255134583, 0.11155487596988678, -0.04086128994822502, 0.07181394845247269, -0.16224613785743713, 0.2860705554485321, -0.10156775265932083, 0.5169007778167725, 0.3184942305088043, 0.11192679405212402, -0.6715307235717773, 0.2658555209636688, 0.4991164803504944, 0.247462198138237, 0.37160059809684753, 0.46022704243659973], [-0.06376975774765015, -0.02076227217912674, -0.0007385611534118652, -0.025252006947994232, 0.0716431736946106, 0.07077549397945404, 0.03178941458463669, -0.054834041744470596, -0.011774040758609772, 0.020055554807186127, -0.01986316591501236, 0.04506327211856842, -0.02292843908071518, -0.06546305119991302, 0.04811449348926544, -0.0527477040886879, -0.061542049050331116, 0.015510424971580505, -0.0780477374792099, 0.08066225051879883], [-0.014094516634941101, -0.08090532571077347, 0.020697787404060364, 0.049690380692481995, -0.06339568644762039, -0.052471425384283066, 0.00883302092552185, -0.00281669944524765, -0.05974937230348587, 0.055975914001464844, -0.07686986029148102, -0.08478426933288574, -0.050693683326244354, 0.010601185262203217, 0.0019153878092765808, 0.0160149484872818, 0.08078378438949585, 0.0817122608423233, 0.027509085834026337, -0.03153849020600319], [0.06529742479324341, 0.0100177600979805, 0.016846150159835815, -0.05164076015353203, -0.01028674840927124, 0.029849126935005188, -0.04166021943092346, 0.015410609543323517, 0.08267253637313843, 0.024445727467536926, -0.05570357292890549, 0.012839153409004211, 0.0608079731464386, 0.06153975427150726, 0.07637375593185425, 0.05678257346153259, 0.07385028898715973, 0.019565343856811523, -0.03236021846532822, 0.03833625465631485], [0.06369228661060333, 0.03911438584327698, -0.07568829506635666, -0.06876985728740692, 0.07231473922729492, -0.05871426686644554, -0.02189338207244873, 0.005145512521266937, -0.014874950051307678, 0.05284927785396576, -0.06680013984441757, -0.0396081767976284, 0.07412619888782501, 0.07352940738201141, 0.042445436120033264, -0.019157089293003082, 0.0720415711402893, 0.00849839299917221, -0.06632393598556519, -0.06881819665431976], [0.7954334616661072, -0.4023735523223877, -0.30201613903045654, -0.32657790184020996, 0.6081030368804932, -0.5814052224159241, 0.06019439175724983, 0.8907126784324646, -0.5083662271499634, 0.8532525897026062, -0.16344864666461945, -0.3894267678260803, 0.969689130783081, -0.7883853912353516, 1.0579277276992798, -0.5395943522453308, 1.0397541522979736, 0.09221786260604858, -0.48048895597457886, -0.10985713452100754], [-0.8505580425262451, 0.9266095161437988, 0.4301225244998932, 0.023195011541247368, 0.32111090421676636, 0.687761127948761, 0.3993006944656372, -0.22883839905261993, 0.10875876247882843, 0.1639813482761383, 0.10985174030065536, 0.09167755395174026, 0.20243428647518158, -0.9314101934432983, 1.165696144104004, -2.048262596130371, 0.9508451819419861, -1.6199549436569214, 0.009832796640694141, -0.22717392444610596], [1.157160997390747, 0.6668856143951416, -0.614313006401062, 0.8151628971099854, 0.15220420062541962, 0.10493665188550949, 1.6139227151870728, 0.534497857093811, 0.910061776638031, -0.9194945096969604, 0.1427886039018631, -0.3292626142501831, -0.9534208178520203, 0.37930163741111755, 0.18709608912467957, 0.09798729419708252, -0.8366917371749878, 0.2707504332065582, -1.9716862440109253, 0.1497080773115158], [1.2525663375854492, 1.0759737491607666, 0.3447277545928955, -2.221592903137207, 0.8355346918106079, -1.5247961282730103, 0.47015905380249023, -1.0105421543121338, 0.4823359549045563, 0.27058228850364685, 0.1784738451242447, -0.33141204714775085, 0.5986176133155823, 0.2447093427181244, -0.35034114122390747, -0.5261384844779968, -0.5797939896583557, -1.2213928699493408, 0.14144036173820496, -0.42552247643470764], [-0.20481029152870178, -0.16301025450229645, -0.29017433524131775, -0.6901452541351318, -0.4122559428215027, 0.3425711393356323, 0.7445201277732849, 0.8462443947792053, -0.8670077919960022, 0.5800168514251709, 0.1282241940498352, -0.4700256586074829, 0.2466944009065628, 0.26732513308525085, -0.1485835164785385, -0.14304174482822418, 0.6756106615066528, -0.11224795877933502, -0.8044255375862122, -0.017848627641797066], [-0.285086452960968, 0.1226404681801796, -0.10224910080432892, -0.11867781728506088, 0.9398937821388245, 0.5412433743476868, 0.31047630310058594, 0.11961329728364944, 0.7412377595901489, -0.3854740262031555, -0.4954109787940979, -1.0983314514160156, 0.47512584924697876, 0.6357117891311646, 0.6900959014892578, 0.41811996698379517, -0.4817635416984558, -1.693800687789917, 0.03334005922079086, 0.43576207756996155], [0.22980540990829468, 0.25429531931877136, 0.1786518692970276, -0.8307421207427979, -0.15823324024677277, 0.10245910286903381, 0.012074757367372513, -0.37595924735069275, 0.26671022176742554, 0.2986552119255066, 0.019918080419301987, -0.13854104280471802, -0.2274017482995987, 0.4551352262496948, -0.27048930525779724, 0.07188482582569122, -0.01826791651546955, 0.014623448252677917, -0.030445771291851997, 0.528742253780365], [0.10382276028394699, 0.02929173968732357, -0.347199410200119, -1.4529576301574707, 0.6936260461807251, -0.07053793966770172, 0.20675905048847198, 0.16382910311222076, -0.294514924287796, -0.18482358753681183, 0.3642250895500183, -0.1114724799990654, -0.11642047017812729, -0.3863793909549713, 0.05902046337723732, 0.36202025413513184, -0.05193337798118591, -1.4231616258621216, -0.12258129566907883, -0.18151316046714783], [0.30042967200279236, -0.12180636823177338, 0.006245610304176807, -0.6942070722579956, 0.37477990984916687, 0.10830158740282059, 0.25353795289993286, 0.6024848818778992, 0.35792049765586853, 0.7010428309440613, 0.13195914030075073, 0.4358958601951599, -0.26080748438835144, 0.09105166792869568, -0.2544565796852112, 0.007707436569035053, 0.38078853487968445, -0.47309410572052, 0.3012273609638214, -0.34014275670051575], [0.1938738077878952, 0.19699710607528687, -0.06835407018661499, -0.25753071904182434, 0.17766538262367249, 0.5648030042648315, 0.06301324814558029, -0.07555583119392395, -0.4014544188976288, 0.41118481755256653, -0.4222138524055481, -0.06659432500600815, -0.2301224172115326, 0.7792633771896362, -0.010050961747765541, 0.0018574357964098454, 0.3443632125854492, 0.14322341978549957, -0.34219157695770264, 0.04502888396382332], [0.1309329718351364, 0.01592080295085907, -0.2320372313261032, -0.09484810382127762, 0.2099623829126358, 0.3021236062049866, 0.045973557978868484, 0.42212796211242676, -0.1548505276441574, 0.3058452308177948, -0.219192236661911, -0.12899291515350342, -0.08106441050767899, 0.07466947287321091, -0.4087640345096588, -0.049542564898729324, 0.3455551564693451, 0.5884595513343811, 0.028870312497019768, -0.2876102328300476], [-0.0007021218189038336, 0.2223837524652481, 0.15997441112995148, -0.3210948705673218, 0.3828503489494324, -0.3604183495044708, 0.13098545372486115, 0.43919163942337036, 0.06555510312318802, 0.3014619052410126, -0.22964705526828766, 0.03819878399372101, -0.28235816955566406, -0.27427157759666443, -0.22921156883239746, 0.05933443084359169, 0.04769611358642578, -0.09733226150274277, -0.14512218534946442, -0.2602120041847229], [0.2594529092311859, -0.004028403200209141, -0.1950552612543106, -0.0005072340136393905, 0.10013005882501602, -0.18658874928951263, -0.10246086865663528, 0.3317113518714905, -0.01700698956847191, -0.0064484477043151855, -0.07914746552705765, -0.19449010491371155, -0.10757586359977722, 0.44198286533355713, -0.13781878352165222, -0.16139614582061768, 0.19897517561912537, 0.044901080429553986, 0.4511757493019104, -0.08219264447689056], [0.031811874359846115, -0.151325523853302, 0.4762648046016693, -0.4690973460674286, 0.1955965757369995, -0.47632500529289246, 0.17102746665477753, 0.21913234889507294, -0.1445818692445755, 0.12866084277629852, -0.38566306233406067, -0.024589521810412407, -0.02987085096538067, -0.37885382771492004, -0.31264224648475647, 0.09129373729228973, 0.25695034861564636, 0.2834530770778656, 0.10910232365131378, -0.7931118607521057], [-0.09047631919384003, 0.21307305991649628, -0.12499792873859406, -0.5411461591720581, -0.17501744627952576, 0.16376803815364838, 0.24088703095912933, 0.05745958909392357, 0.08774194121360779, 0.05177637189626694, -0.17129702866077423, 0.4700925052165985, 0.17148497700691223, -0.48471567034721375, -0.38950344920158386, 0.17097681760787964, 0.045816149562597275, 0.05673722177743912, 0.3848048448562622, -0.5689804553985596], [0.1932322084903717, -0.0947500616312027, 0.07214142382144928, -0.6304875612258911, 0.05043801665306091, -0.538162112236023, 0.0432017482817173, 0.4495350420475006, 0.03510788083076477, 0.4727470576763153, 0.06574677675962448, 0.126807302236557, -0.14433996379375458, 0.342473566532135, 0.011498224921524525, 0.2852363884449005, 0.06846383213996887, -0.2972000539302826, -0.18515390157699585, -0.39036130905151367], [0.44600024819374084, 0.831279993057251, 0.4289300739765167, 0.08350575715303421, 0.27143916487693787, 0.4291687607765198, -0.20453432202339172, 0.1597648710012436, 0.016261747106909752, 0.1956617832183838, -0.06690632551908493, -0.02397850714623928, -0.061408914625644684, 0.020748551934957504, -0.4154931306838989, -0.3899374306201935, 0.02393196150660515, -0.016028644517064095, 0.690371036529541, -0.5477069616317749], [0.39617595076560974, -0.37988629937171936, 0.164098858833313, -0.6120181679725647, -0.2830926179885864, 0.3222975730895996, -0.020925303921103477, -0.037159692496061325, 0.263492226600647, -0.1902078092098236, 0.12723414599895477, 0.4181503653526306, 0.2890101969242096, -0.4146648049354553, -0.29434266686439514, 0.1307348906993866, 0.4319794476032257, 0.17637231945991516, 0.2854650318622589, -0.587440550327301], [-0.232416570186615, -0.12803155183792114, 0.003279849188402295, -0.46981048583984375, 0.3128848373889923, 0.1572875827550888, 0.2717992663383484, 0.5696532130241394, -0.15509869158267975, -0.4590100944042206, 0.5780952572822571, 0.6004142165184021, 0.1139029785990715, 0.2887480556964874, 0.0980079397559166, 0.24691669642925262, 0.0787414088845253, -0.9368147253990173, -0.1915915459394455, -0.8228210806846619], [0.07361260056495667, 0.5558793544769287, -0.22389447689056396, 0.05388982594013214, -0.5476128458976746, 0.7304773330688477, 0.16421809792518616, -0.5449494123458862, -0.4212858974933624, -0.19062916934490204, 0.20947150886058807, -0.29745063185691833, 0.1803409904241562, 0.4254510700702667, -0.14978203177452087, 0.6363411545753479, 0.06096160411834717, -0.994879961013794, -0.28605806827545166, 0.267708420753479], [0.878470242023468, -0.11838260293006897, 0.3935801684856415, -0.48020246624946594, 0.28891894221305847, 1.0839651823043823, -0.5064009428024292, 0.3985790014266968, -1.2867251634597778, -0.3408204913139343, 0.6340137720108032, -0.20893792808055878, 0.6389637589454651, -0.4687260389328003, -0.19705553352832794, -0.29785510897636414, -0.33714696764945984, 0.20176129043102264, 0.45101821422576904, -2.811066150665283], [0.016554510220885277, 0.38054347038269043, 1.0203957557678223, -0.38404929637908936, 0.9995681643486023, -0.4370863139629364, -0.3262505531311035, -0.9961127042770386, -0.4951515793800354, 0.24713851511478424, -0.27365821599960327, 1.1329489946365356, -0.08515086024999619, -0.07573581486940384, 0.5998000502586365, -0.14086581766605377, -0.08056556433439255, -0.9774558544158936, -0.2898384630680084, -1.0710495710372925], [0.5421711206436157, 0.24290001392364502, -0.8464199900627136, -0.28032025694847107, 0.11851678788661957, 0.8634850382804871, -1.4623695611953735, 1.527174472808838, 0.21213211119174957, -0.18242178857326508, -0.7606252431869507, 0.6067629456520081, 0.38836348056793213, 0.32519790530204773, 0.6728106737136841, 0.10258063673973083, 0.40347155928611755, 0.8636512756347656, -1.1225382089614868, 1.2773079872131348], [0.054789043962955475, 0.11823010444641113, 0.7901033163070679, -0.0075651416555047035, 1.2529939413070679, 0.31974804401397705, -1.2475210428237915, -1.237565279006958, 1.2506464719772339, 0.2570728063583374, -0.10719183832406998, -1.306706190109253, 1.299595832824707, -0.0524655245244503, 0.1458360105752945, 0.4135321378707886, -0.1392437368631363, -0.07777039706707001, 0.9936746954917908, -0.09978688508272171], [0.041308701038360596, -0.055274758487939835, 0.020964697003364563, 0.028185874223709106, 0.049994707107543945, -0.08271962404251099, 0.041523560881614685, 0.06475499272346497, -0.016957305371761322, -0.0021060481667518616, 0.06570076942443848, 0.014838121831417084, 0.025808311998844147, -0.07692085951566696, 0.035580091178417206, -0.07553122937679291, 0.04416115581989288, 0.0416155606508255, 0.0417858362197876, 0.04202277958393097], [0.029373355209827423, 0.035043515264987946, -0.02196614444255829, 0.0845414251089096, -0.0668029636144638, -0.010229669511318207, -0.03476320207118988, 0.0035704150795936584, 0.004574276506900787, 0.01605449616909027, -0.063758984208107, -0.002429574728012085, -0.030862625688314438, -0.04243146628141403, -0.08147106319665909, 0.022900208830833435, -0.018747761845588684, 0.08227971196174622, -0.03908379375934601, 0.032242342829704285], [-0.03191163018345833, -0.04848916456103325, 0.012878701090812683, 0.03483695536851883, 0.08420799672603607, 0.07479432225227356, -0.08308588713407516, 0.058195412158966064, -0.02979695424437523, -0.06104850023984909, 0.08477586507797241, 0.01853613555431366, 0.005004942417144775, -0.03783854842185974, 0.0691162645816803, 0.0523059219121933, 0.05195736885070801, -0.061957575380802155, 0.017567694187164307, 0.014363683760166168], [-0.029872791841626167, 0.1860433965921402, 0.27235662937164307, -0.07795771211385727, -0.05583316460251808, -0.15711991488933563, -0.012344881892204285, -0.3144043982028961, 0.06050684303045273, 0.0032398372422903776, -0.0727529525756836, 0.21587993204593658, -0.2190609723329544, 0.17959776520729065, 0.26914697885513306, 0.245710551738739, -0.07556770741939545, -0.0010181082179769874, 0.03116641938686371, 0.1426907181739807], [-0.06357177346944809, 0.8566678762435913, 1.2447813749313354, 1.0472602844238281, 0.2697948217391968, -0.3640843331813812, 0.06265413761138916, 0.004561190493404865, -1.585350513458252, 0.2881346344947815, 0.3939923644065857, -1.9401278495788574, -0.6825039982795715, -0.2575632929801941, 0.6628192067146301, -0.5889254212379456, 0.02522376738488674, -1.6892750263214111, 0.31659257411956787, 1.9761239290237427], [-0.5166513919830322, 0.45318108797073364, -0.4802163243293762, 0.44923490285873413, 0.044443000108003616, 0.6906123161315918, 0.19480590522289276, 0.33759284019470215, 0.4312855005264282, 0.9115316867828369, -0.39501509070396423, -0.8540396094322205, 0.481619268655777, 0.48133325576782227, -0.6866416931152344, -0.9121297001838684, 0.10718736797571182, -1.434288501739502, -0.24250394105911255, 1.335705041885376], [0.674816906452179, 0.48788899183273315, 0.2437252551317215, 0.12462569773197174, 0.1910879760980606, 0.5365596413612366, 0.5086995959281921, -1.0581610202789307, 0.663004994392395, -0.6685448884963989, -0.7030301094055176, 0.20771440863609314, 0.07886523008346558, 0.5190883874893188, 0.34454962611198425, 0.6697837710380554, 1.2125004529953003, -0.6094333529472351, -0.3352736234664917, -1.2497196197509766], [-0.30879420042037964, 0.3775503933429718, -0.14007337391376495, 0.2561875879764557, -0.3756640553474426, 0.06300720572471619, -0.5350229144096375, 0.0753801241517067, -0.7009227275848389, -1.7722229957580566, -0.09387525171041489, -0.6014069318771362, 0.11724697798490524, -0.1135130301117897, 0.42502084374427795, -0.5688685774803162, 0.7832880020141602, -0.19931186735630035, 0.1774308830499649, 0.4239397943019867], [-0.25625699758529663, -0.6649001836776733, -0.10179691016674042, -1.168219804763794, -0.08241011202335358, 0.5449709296226501, 0.010605253279209137, 0.06499399989843369, -0.9517934322357178, -0.5351686477661133, -0.23067542910575867, -0.6461787819862366, 0.5756716132164001, 0.2573745548725128, 0.6666094660758972, 0.12596182525157928, -0.8516995906829834, -0.3733840584754944, -0.32645031809806824, 0.16446593403816223], [0.05174165219068527, -0.15943855047225952, -0.06507447361946106, -0.747992217540741, 0.2184145152568817, 0.06794567406177521, 0.5777714252471924, 0.10279995203018188, -0.9592909216880798, 0.06685617566108704, 0.05673878267407417, 0.41201192140579224, 0.4784473776817322, 0.6463274359703064, 0.4548957049846649, 0.15936563909053802, 0.10555332154035568, 0.04987998306751251, -0.5089750289916992, -0.15739774703979492], [-0.03254600241780281, -0.5305100083351135, 0.6195505857467651, -0.5409355163574219, -0.25512200593948364, 0.008062362670898438, 0.3007047176361084, -0.1441725492477417, -0.1281348317861557, 0.38527730107307434, -0.4672430157661438, 0.8109245896339417, 0.03675759956240654, -0.28236129879951477, 0.5054788589477539, -0.2391212433576584, 0.6701415181159973, -0.245306596159935, -0.29458895325660706, 0.21256932616233826], [0.20397008955478668, -0.18775774538516998, 0.03481648117303848, -0.6279889345169067, 0.0013348000356927514, -0.08067012578248978, -0.07772346585988998, 0.041029609739780426, -0.39701735973358154, 0.1695472002029419, -0.4983336329460144, -0.01946251280605793, -0.13196568191051483, 0.03451944887638092, -0.3412056565284729, -0.20087753236293793, 0.15015199780464172, 0.4481621980667114, -0.3322908580303192, 0.04469704255461693], [0.21535588800907135, -0.16984793543815613, -0.8174513578414917, -0.028905460610985756, -0.35177451372146606, -0.007910238578915596, 0.2921285927295685, 0.43451300263404846, -0.2318567931652069, 0.4808671176433563, -0.21812836825847626, -0.3645727336406708, -0.46026986837387085, 0.3273742198944092, 0.07441005855798721, 0.01984342560172081, 0.004818507470190525, -0.07687578350305557, -0.25466424226760864, -0.06919710338115692], [0.3589276969432831, -0.3276817798614502, -0.16073186695575714, 0.028899138793349266, 0.5837914347648621, -0.4411943256855011, 0.15916511416435242, 0.6479308605194092, -0.249975323677063, -0.013027934357523918, -0.10255701094865799, 0.3565100431442261, 0.0342126339673996, 0.3554885685443878, -0.15544892847537994, 0.1755627691745758, -0.09725166112184525, -0.14165577292442322, 0.10654003918170929, -0.2405158430337906], [0.07384756207466125, -0.2828502655029297, 0.1558346301317215, -0.35793787240982056, 0.07173653692007065, 0.002160044154152274, 0.11216491460800171, 0.354362428188324, -0.13791348040103912, 0.49942171573638916, -0.11878588795661926, 0.0210342425853014, 0.0027839625254273415, -0.06654887646436691, 0.30316850543022156, 0.18164652585983276, 0.2115267962217331, 0.21210995316505432, 0.2356802374124527, -0.12459713965654373], [0.011184372939169407, -0.08765584975481033, -0.6730858087539673, 0.1372898370027542, 0.06787858158349991, 0.09079629927873611, 0.3136042058467865, 0.28257566690444946, -0.40375959873199463, 0.3058947026729584, -0.10728249698877335, -0.024268440902233124, -0.05892651155591011, 0.1674913763999939, -0.10147017985582352, 0.12000057101249695, 0.06151915341615677, 0.05051545053720474, 0.2874106168746948, -0.039414290338754654], [-0.3528395891189575, -0.11846771091222763, -0.5431678295135498, -0.05882053077220917, 0.06378092616796494, 0.08635246008634567, -0.059073664247989655, 0.17892533540725708, 0.41825464367866516, 0.40648895502090454, 0.1529989391565323, -0.23252823948860168, -0.38271698355674744, -0.16549134254455566, -0.2051672488451004, 0.24574284255504608, 0.10508767515420914, 0.2354544997215271, -0.19752760231494904, 0.10095095634460449], [-0.05756259709596634, 0.18221276998519897, -0.5005807876586914, -0.3201056122779846, -0.045010343194007874, -0.3853714168071747, 0.332914799451828, 0.11502479016780853, -0.03784884139895439, -0.20433683693408966, -0.028496209532022476, 0.23906919360160828, 0.1630401760339737, -0.5782283544540405, -0.17324736714363098, 0.13017819821834564, -0.02902347221970558, 0.01979987323284149, 0.15931448340415955, -0.14174990355968475], [-0.015223227441310883, -0.16192622482776642, -0.4035094380378723, -0.38485199213027954, 0.028150681406259537, -0.4547696113586426, -0.0760943666100502, 0.3243660628795624, -0.11968766897916794, -0.6357533931732178, -0.0920431837439537, 0.3548896908760071, -0.06424669921398163, -0.23145271837711334, -0.11499223113059998, 0.22449065744876862, 0.21969282627105713, 0.19742469489574432, 0.25336217880249023, -0.4550659656524658], [-0.01408644299954176, 0.04303412884473801, -0.12044823914766312, -0.15590310096740723, 0.18025223910808563, -0.5085201263427734, 0.1374126523733139, -0.19007501006126404, -0.11361196637153625, -0.29226186871528625, -0.3029431998729706, 0.09403608739376068, -0.06250228732824326, -0.10379712283611298, -0.2238471657037735, 0.3777313232421875, 0.1261238306760788, 0.3959377408027649, 0.2565085291862488, -0.5526900887489319], [-0.10346263647079468, -0.18696868419647217, -0.10907205939292908, -0.36219853162765503, 0.08488311618566513, -0.26366153359413147, -0.04401679337024689, 0.22661533951759338, 0.18615733087062836, -0.543181836605072, 0.06648245453834534, 0.7663925886154175, 0.19907493889331818, -0.36959925293922424, 0.20493106544017792, 0.33563897013664246, 0.3233335316181183, -0.2718679904937744, 0.3673678934574127, -0.6321719288825989], [-0.3512805104255676, 0.04255754500627518, -0.27459079027175903, 0.09046623855829239, -0.32848554849624634, 0.3923075795173645, -0.10648265480995178, 0.437300443649292, -0.2607225179672241, -0.4259304404258728, 0.06860460340976715, 0.5199394822120667, -0.12910756468772888, -0.39373525977134705, 0.36604341864585876, 0.3564220070838928, 0.06414378434419632, -0.15604037046432495, 0.319358766078949, -0.2324940264225006], [-0.17574326694011688, 0.4234606623649597, -0.35623806715011597, -0.02789814956486225, 0.4189402759075165, 0.6743595600128174, 0.24920085072517395, -0.1461673527956009, -0.7501217722892761, 0.5575077533721924, -0.07068262249231339, -0.006171108223497868, -0.2163325995206833, -0.08745633065700531, 0.187009796500206, 0.16314882040023804, 0.21723224222660065, 0.05316335707902908, 0.9658827781677246, -0.21655024588108063], [0.5616288781166077, -0.24294565618038177, -0.6336488723754883, -0.06512057781219482, -0.07272663712501526, 0.12387360632419586, 0.3437150716781616, -0.20826859772205353, -0.46527740359306335, -0.6128666400909424, -0.36561891436576843, 0.6780862808227539, 0.19901522994041443, 0.19104784727096558, 0.46222612261772156, 0.3057310879230499, 0.139490008354187, 0.5428622961044312, 0.22033953666687012, -1.460877776145935], [0.08974108844995499, -0.3033871650695801, 1.5049973726272583, 0.3746550977230072, 0.04634269326925278, 0.27699577808380127, 0.24417686462402344, 0.1510346680879593, -0.12210311740636826, -0.5321905612945557, 0.17034386098384857, 0.10414888709783554, 0.37884849309921265, 0.055338576436042786, 0.20801246166229248, 1.2518936395645142, -0.24166154861450195, 0.6074612736701965, -0.1224207878112793, -0.027427280321717262], [0.10910086333751678, -0.5500380992889404, 1.2194645404815674, -0.028163855895400047, 0.8555242419242859, -0.11544762551784515, -0.8083394169807434, 1.3760305643081665, 0.38720399141311646, -0.4257376194000244, 0.4158153831958771, -0.9355752468109131, 0.2649872601032257, -0.75599205493927, -0.024768074974417686, 0.7156463861465454, 0.22241081297397614, -1.2355190515518188, 0.313791424036026, 1.1187490224838257], [0.5143727660179138, 1.48357355594635, 0.31840118765830994, -0.9589706659317017, -0.14011143147945404, 0.7107717990875244, -1.7621792554855347, 0.16152849793434143, 0.21340809762477875, -0.0323791429400444, 0.014914522878825665, -0.2374972254037857, 0.9654629826545715, -0.7380415201187134, -0.9740039706230164, 1.1541906595230103, 0.7927812337875366, 0.19302867352962494, 0.04082345589995384, -0.5873610973358154], [-0.04864492267370224, 1.4690203666687012, -1.271971583366394, 0.8458185195922852, -0.008973880670964718, 0.5869706869125366, -0.9129074215888977, -0.7742524147033691, 0.5328941345214844, -0.5612236857414246, -0.9007123708724976, 1.1639606952667236, 0.20385123789310455, -1.233533263206482, 0.27051985263824463, 0.6258735656738281, -0.0027805143035948277, 0.39801692962646484, -0.5986656546592712, -0.0799928531050682], [0.10427754372358322, -0.06290631741285324, -0.06376149505376816, 0.1389923095703125, 0.022481944411993027, 0.0504242368042469, -0.017483070492744446, 0.011730779893696308, -0.07637228071689606, -0.03507466986775398, 0.05553445965051651, -0.09464732557535172, 0.08251315355300903, -0.036689501255750656, 0.07205727696418762, -0.053304802626371384, 0.06574121862649918, 0.01605156809091568, -0.03710971400141716, 0.04005403816699982], [-0.06065039336681366, 0.03529186546802521, -0.035855088382959366, 0.01887858659029007, -0.07933444529771805, 0.009298205375671387, -0.018694765865802765, 0.06245829164981842, -0.0023025795817375183, 0.06534522771835327, 0.06910331547260284, -0.020319990813732147, 0.07008454203605652, 0.03530123829841614, 0.04001037776470184, -0.06276441365480423, 0.012517690658569336, 0.04232901334762573, -0.0670287162065506, 0.0014305487275123596], [0.012034788727760315, -0.05530581623315811, 0.06081096827983856, -0.01679667830467224, 0.03051372617483139, -0.019254818558692932, -0.08114117383956909, -0.07903701812028885, 0.08295866847038269, 0.027116812765598297, -0.08189423382282257, 0.0014926716685295105, -0.02081473171710968, -0.018651306629180908, -0.011953003704547882, 0.07128074765205383, -0.012559518218040466, 0.028184600174427032, 0.018678180873394012, 0.033858366310596466], [0.24504348635673523, 0.19454564154148102, 0.6606711745262146, 0.0005709207034669816, -0.1360623836517334, -0.2724229395389557, -0.2870925962924957, -0.06299443542957306, 1.1608359813690186, -0.32955992221832275, -0.5413374900817871, 0.7016998529434204, 0.5114991068840027, 0.29587438702583313, 0.20354822278022766, 0.7857248783111572, -0.6683515906333923, 0.6145719885826111, -0.32228362560272217, 0.4857913553714752], [-0.26731565594673157, 0.9564334154129028, -0.6560162305831909, 0.050248537212610245, -0.07347462326288223, 0.8697167038917542, 1.7606335878372192, 1.3002033233642578, -0.1316070407629013, -1.653297781944275, 1.550475001335144, -1.2973819971084595, -0.39551037549972534, -0.033927589654922485, 1.404321312904358, -1.1055138111114502, 0.6887274384498596, 0.09501764923334122, -0.43956446647644043, 1.2520983219146729], [0.08443775027990341, 0.9699188470840454, 0.08104059845209122, -0.805883526802063, 0.36643078923225403, -0.17722125351428986, 0.3630601465702057, -1.057675838470459, 1.2762975692749023, -0.3524095416069031, 0.5167884230613708, -0.409305214881897, -0.03748377040028572, 1.2733513116836548, -0.5981268882751465, -0.35908427834510803, -0.7394916415214539, -0.9332070350646973, -0.03663254156708717, 0.09119672328233719], [-0.11251673847436905, -0.04357754811644554, -0.04963556304574013, -1.3977140188217163, 0.5476258397102356, -1.058639645576477, -0.4259417653083801, 0.5575171709060669, -1.2127625942230225, -0.5723270177841187, -0.23129260540008545, -0.050201013684272766, 1.718131422996521, -0.29993531107902527, -0.8529515862464905, -0.4812246263027191, 0.8232718110084534, 0.043241236358881, -0.40279558300971985, 0.3333331048488617], [0.46808546781539917, -0.10442309826612473, -0.26888954639434814, 0.10414878278970718, 0.5585272312164307, -0.6861094236373901, 0.3519458770751953, -0.18470498919487, -0.3974187672138214, -0.31785082817077637, -0.7647711038589478, 0.19813990592956543, -0.08153386414051056, 0.43086451292037964, -0.372395396232605, -0.6187208294868469, 0.1469545215368271, -0.19916820526123047, -0.2086661010980606, -0.23578405380249023], [0.398064523935318, 0.1170918345451355, -0.04170115664601326, -0.30495232343673706, -0.12197928875684738, 0.13328248262405396, -0.40482643246650696, -0.5486046671867371, -1.3880805969238281, 0.33977314829826355, -0.5317156910896301, -0.40099236369132996, -0.057702016085386276, 0.5515589118003845, 0.21765993535518646, -0.2761905789375305, 0.3146204948425293, -0.4538663625717163, 0.04486365616321564, 0.42845484614372253], [0.2096656709909439, -0.06440689414739609, -0.3815259635448456, -1.5376801490783691, 0.05954965204000473, -0.03241417929530144, -0.0034110937267541885, 0.1492028683423996, 0.022199230268597603, -0.020198281854391098, 0.1621037721633911, 0.19726017117500305, -0.14215904474258423, 0.49377328157424927, -0.24713818728923798, 0.3586139678955078, 0.2678397595882416, 0.3243289887905121, -0.5879278779029846, 0.05217388644814491], [-0.453869104385376, 0.011369952000677586, 0.11804074048995972, -0.5759264826774597, 0.04786935821175575, 0.10463492572307587, 0.2948039174079895, 0.28923606872558594, -0.39170971512794495, 0.3938623368740082, 0.2949887812137604, 0.3661497235298157, -0.3572531044483185, 0.37764909863471985, 0.40222954750061035, -0.11850889027118683, 0.062468115240335464, -0.5505636930465698, -0.3936193585395813, 0.2794465720653534], [0.11469423025846481, -0.24122704565525055, 0.1094503179192543, 0.28991541266441345, -0.5769736170768738, 0.09234871715307236, 0.29171621799468994, 0.38749995827674866, -0.21813645958900452, 0.40508756041526794, -0.020092735067009926, 0.16697931289672852, -0.5492035746574402, 0.41833484172821045, -0.08427096158266068, 0.01480130199342966, 0.20264093577861786, -0.3700968623161316, -0.1685020476579666, 0.117463119328022], [0.16282665729522705, -0.1184161975979805, 0.015036103315651417, -0.1605401337146759, -0.0668044462800026, 0.07727925479412079, -0.04565523564815521, 0.06540832668542862, -0.24535556137561798, 0.166102796792984, -0.046313848346471786, -0.23929156363010406, 0.031330037862062454, 0.23149612545967102, 0.3164058327674866, 0.09140202403068542, 0.03512921929359436, 0.046254903078079224, 0.08088909089565277, 0.20124569535255432], [0.214195117354393, 0.13536003232002258, -0.5765088200569153, 0.7589704394340515, 0.13848328590393066, 0.5732455253601074, 0.27872416377067566, -0.019238101318478584, -0.17826932668685913, 0.5204793214797974, -0.09585054218769073, 0.3583258092403412, -0.12670160830020905, 0.18642224371433258, -0.15478640794754028, 0.08357606828212738, 0.2354888617992401, -0.10775439441204071, -0.1030159592628479, 0.4544332027435303], [0.37686970829963684, 0.014191950671374798, -0.23498879373073578, 0.5592312216758728, 0.16923053562641144, 0.27069422602653503, 0.20184829831123352, 0.2930309772491455, -0.2384752780199051, 0.10515740513801575, 0.022184710949659348, 0.04882141202688217, -0.04499392956495285, 0.24282287061214447, 0.06866493076086044, 0.2607593834400177, -0.04361738637089729, -0.21387606859207153, -0.036614447832107544, 0.9825790524482727], [-0.06427391618490219, 0.055531684309244156, -0.33799344301223755, 0.41063982248306274, 0.36692890524864197, 0.47752895951271057, 0.23540706932544708, -0.027646947652101517, -0.19363901019096375, 0.463575154542923, -0.05526740103960037, -0.09066901355981827, -0.08793782442808151, -0.2642393708229065, -0.35329470038414, 0.011568848043680191, -0.21887685358524323, 0.18473617732524872, 0.05302461236715317, 0.3380889892578125], [0.17334169149398804, 0.05061127617955208, -0.8558638691902161, -0.018800973892211914, -0.11926758289337158, 0.024285027757287025, 0.47186872363090515, 0.36137694120407104, -0.12333101034164429, 0.1610100120306015, -0.047616422176361084, 0.027931179851293564, -0.07080640643835068, -0.16213200986385345, -0.44523340463638306, -0.00488934013992548, -0.24684327840805054, -0.04950418323278427, 0.5401445627212524, 0.07369295507669449], [0.1057671532034874, 0.17700858414173126, -0.40880706906318665, 0.06553586572408676, 0.27512288093566895, -0.07217315584421158, 0.030478209257125854, 0.1316644847393036, -0.13339626789093018, -0.23359492421150208, 0.1592799723148346, 0.23224252462387085, -0.12293485552072525, -0.24840934574604034, -0.16312670707702637, 0.29284173250198364, -0.01797959767282009, 0.19482800364494324, 0.16007213294506073, -0.06778446584939957], [-0.13676932454109192, 0.057810619473457336, -0.12701262533664703, -0.21997317671775818, 0.35113173723220825, -0.2745089530944824, -0.10301829129457474, 0.12693095207214355, -0.2670387327671051, 0.20017889142036438, 0.10900970548391342, 0.2792249619960785, -0.24107512831687927, -0.1960698813199997, 0.2167922556400299, 0.09455819427967072, 0.08885889500379562, -0.011289721354842186, 0.7724846005439758, -0.004742020275443792], [0.09704980254173279, -0.02513059414923191, 0.027860259637236595, 0.30138447880744934, 0.3469102382659912, -0.6006370782852173, 0.021801522001624107, 0.08169282227754593, 0.20763207972049713, -0.1897030621767044, -0.5756100416183472, -0.00045257434248924255, 0.3146435022354126, 0.11872357875108719, 0.09206827729940414, 0.18787696957588196, 0.28739315271377563, 0.3703423738479614, 0.6353668570518494, -0.12815912067890167], [0.12138266861438751, 0.18501557409763336, -0.18009111285209656, -0.06203794106841087, 0.014363192021846771, -0.3344344198703766, 0.1815515160560608, 0.11936542391777039, -0.6765364408493042, -0.7077206373214722, 0.32571280002593994, 0.4513227641582489, 0.051912661641836166, 0.11316312849521637, 0.16405972838401794, 0.6445240378379822, 0.33296579122543335, 0.3500850200653076, 0.7380441427230835, -0.15887629985809326], [0.11519862711429596, 0.11422166228294373, 0.04090890288352966, 0.37302178144454956, 0.29793331027030945, -0.3426958918571472, 0.013945645652711391, -0.20569288730621338, 0.3371391296386719, -0.537937581539154, 0.1495971381664276, 0.2435767501592636, 0.20607973635196686, -0.22518830001354218, 0.015682511031627655, 0.6483336687088013, 0.2336902618408203, -0.04475850984454155, 0.6801936030387878, -0.2452106773853302], [-0.159977987408638, -0.00965065322816372, 0.35674068331718445, 0.18296615779399872, -0.0537760965526104, -0.05821627005934715, 0.1335887908935547, 0.08540509641170502, -0.10344590246677399, -0.27713215351104736, 0.1358395367860794, 0.46542271971702576, -0.3773600459098816, 0.4632002115249634, 0.25321727991104126, 0.5229324102401733, 0.0866345465183258, 0.9702099561691284, 0.7190127372741699, -0.25217151641845703], [-0.06257720291614532, -0.09121210128068924, -0.3740259110927582, 0.2572297751903534, 0.7738150954246521, -0.07040540874004364, -0.0385255292057991, 0.20316146314144135, -0.2617577612400055, 0.10712365061044693, -0.16240325570106506, 0.39774423837661743, 0.48088350892066956, 0.8967325091362, -0.023605145514011383, 0.10338108241558075, 0.4826085865497589, -0.31111276149749756, 0.3582668602466583, -0.5886246562004089], [0.09430133551359177, 0.0043660495430231094, 0.13577377796173096, 0.4286118745803833, 0.3568650484085083, 0.11849345266819, 0.15286625921726227, -0.16276834905147552, -0.3052707314491272, -0.3260601758956909, 0.22637872397899628, 0.7885842323303223, -0.04443827643990517, -0.104869045317173, -0.16300322115421295, 1.1079870462417603, 0.12487868964672089, 0.24999217689037323, 0.65513014793396, -1.1990480422973633], [0.9051698446273804, -0.7240914106369019, 0.34554386138916016, -0.4878670871257782, 0.6856039762496948, 0.29227370023727417, -0.254226952791214, 0.3153907358646393, 0.1958274096250534, 0.5414814352989197, 0.025222277268767357, 0.12196866422891617, 1.1464778184890747, 0.029938234016299248, 0.43073931336402893, 0.47002580761909485, 0.22466632723808289, 0.3373631238937378, 0.23749056458473206, -0.34890201687812805], [0.09743638336658478, 0.3995075821876526, 0.5133891105651855, 0.059750378131866455, -0.21915869414806366, 0.5803369879722595, -0.41027066111564636, 0.30063581466674805, -1.8756037950515747, 1.3600307703018188, -1.0612694025039673, 0.5378871560096741, -0.4256426692008972, 1.1554237604141235, -0.35934334993362427, 0.43289414048194885, 0.4445793628692627, -0.6580771207809448, -0.3494759500026703, -1.8137520551681519], [-1.955154299736023, 0.6481304168701172, -0.15056166052818298, 0.29145359992980957, 0.44649627804756165, 0.8965359926223755, -0.2680993974208832, -0.2355557084083557, -1.0354284048080444, -0.7604402899742126, -1.31252121925354, 1.8875665664672852, -0.36715322732925415, 0.808125913143158, 0.7706687450408936, 0.8196437954902649, 1.6321260929107666, 0.21468764543533325, -0.10419004410505295, 0.4252931773662567], [0.28904634714126587, 0.07759153097867966, -0.039912424981594086, 0.14801327884197235, 0.002096113981679082, -0.1252436339855194, 0.0004239305853843689, -0.24293284118175507, -0.0408514030277729, -0.08646559715270996, 0.0013229399919509888, -0.0516851432621479, 0.02944273129105568, -0.1397627294063568, 0.25427350401878357, 0.07151278853416443, 0.14598649740219116, -0.1361180990934372, 0.003384367562830448, 0.0033444580622017384], [-0.08601242303848267, -0.0695023238658905, -0.07539008557796478, 0.014116264879703522, 0.05884265899658203, 0.02840738743543625, -0.04910985380411148, 0.07018309831619263, -0.013280898332595825, -0.0161055326461792, 0.05799882113933563, -0.06318366527557373, 0.012515813112258911, -0.007029309868812561, -0.04057430103421211, -0.08086647838354111, -0.01448967307806015, 0.07148304581642151, 0.048804208636283875, -0.056539345532655716], [0.04368509724736214, 0.13356924057006836, 0.1362011432647705, -0.04589933156967163, -0.046984605491161346, -0.17495322227478027, -0.05082055181264877, -0.35522016882896423, -0.001253366470336914, -0.07931863516569138, 0.06859884411096573, 0.10721350461244583, -0.06494862586259842, 0.1100846379995346, 0.2144949585199356, 0.10944247990846634, -0.07790569961071014, -0.06937579065561295, -0.06200003623962402, 0.09260251373052597], [0.7564122080802917, 1.2188483476638794, 0.7476053237915039, 0.15990011394023895, 0.571936845779419, -1.27165949344635, -0.37471094727516174, -1.1532419919967651, -0.2203514724969864, -0.0029495381750166416, 0.45948195457458496, -0.12813833355903625, -0.16603246331214905, 0.4006306827068329, 0.8198741674423218, -0.11003637313842773, -0.7577782869338989, -0.11085644364356995, -0.15657982230186462, 0.010235329158604145], [-1.0287681818008423, 0.342780739068985, -0.014817402698099613, 0.36789923906326294, -1.2789019346237183, -0.09453757107257843, 2.1574714183807373, -0.9364396929740906, -1.3902539014816284, -2.0639586448669434, -0.08823433518409729, 0.06070438772439957, 0.03790969401597977, 0.3102729618549347, 1.2437273263931274, -1.8232804536819458, 1.555509090423584, -1.7391343116760254, -0.1596061885356903, 0.3699285089969635], [-0.7414892911911011, 0.0466327928006649, 0.020529238507151604, -0.5355528593063354, 1.0271015167236328, 0.8958489894866943, 0.3119617998600006, 0.8467245101928711, 0.14603540301322937, -0.9574570059776306, -0.09575490653514862, -0.13636326789855957, -0.09041371941566467, 0.17349828779697418, 0.8634262084960938, -1.0347790718078613, 0.9425333738327026, -0.7132028937339783, 0.9602354764938354, 0.9963111877441406], [0.6388660073280334, 0.14983995258808136, 0.5638186931610107, 1.4812393188476562, 0.6820463538169861, -0.48430854082107544, -0.21949654817581177, -0.3223098814487457, -0.22920140624046326, -0.8113791346549988, -0.09353698790073395, -0.19890962541103363, 0.0489998422563076, 0.43451881408691406, 0.1805797964334488, -0.7503442168235779, 0.2314012050628662, -0.5082142353057861, 0.10397861897945404, 0.02278180606663227], [0.2533542215824127, -0.045320965349674225, 0.03787892311811447, 0.08728022873401642, -0.1294986456632614, 0.004418527707457542, 0.44081979990005493, 0.005686126183718443, 0.018598560243844986, -0.0915662869811058, -0.3715025782585144, 0.6766874194145203, 0.31388431787490845, 0.07166999578475952, 0.29075682163238525, 0.13225163519382477, 0.28682586550712585, 0.43985944986343384, -0.949063241481781, 0.13591793179512024], [0.3182498514652252, 0.2599770128726959, 0.6718320846557617, 0.07936424762010574, 0.9526743292808533, 0.20653489232063293, -0.2566785514354706, -0.25731343030929565, -0.39131835103034973, -0.2438611537218094, -0.24651943147182465, -0.24754169583320618, 0.12081541866064072, 0.01829882152378559, -0.14739102125167847, -0.039227016270160675, 0.17632868885993958, 0.5451875925064087, -0.15544813871383667, 0.13381215929985046], [-0.10322964191436768, 0.14659488201141357, -0.2523689568042755, 0.03154170885682106, 0.29144060611724854, -0.1137927696108818, 0.04688642919063568, -0.12458418309688568, -0.624523937702179, 0.4414336085319519, -0.8816338181495667, -0.09883491694927216, 0.09955621510744095, 0.06555201858282089, 0.1047288179397583, 0.05502210557460785, 0.08054806292057037, 0.18042436242103577, -0.3222678005695343, -0.4345220923423767], [0.4528612196445465, 0.18075266480445862, -0.04138411208987236, 0.12087512761354446, -0.3033753037452698, -0.031202660873532295, 0.4035702049732208, 0.023636065423488617, 0.261473149061203, -0.24728988111019135, -0.47476810216903687, -0.010427710600197315, 0.2971411943435669, 0.3023436963558197, -0.017798131331801414, 0.07307428121566772, 0.015380931086838245, 0.3741888105869293, -0.08469679951667786, 0.3706607520580292], [0.15377001464366913, 0.24071672558784485, -0.25371310114860535, -0.9415732622146606, -0.726665735244751, -0.16239392757415771, 0.1916288286447525, 0.2073054015636444, -0.6043097972869873, 0.13586567342281342, -0.4465208649635315, -0.06825394183397293, 0.031463850289583206, 0.4071057438850403, -0.11351808905601501, 