{"layer_1": {"weights": [[-0.0535699687898159, 0.045693591237068176, -0.043089549988508224, 0.06734791398048401, -0.041970860213041306, 0.012933090329170227, 0.07592630386352539, -0.048096172511577606, -0.06292828917503357, -0.028126627206802368, -0.009980268776416779, 0.06676729023456573, -0.0671834796667099, -0.055811621248722076, -0.05981995165348053, 0.026510559022426605], [0.033799298107624054, -0.02244451642036438, 0.050062865018844604, -0.025283794850111008, -0.04273742437362671, 0.08144904673099518, -0.08073084056377411, -0.07549319416284561, -0.005945742130279541, -0.06955914199352264, 0.031017564237117767, 0.02510663866996765, 0.02623065561056137, 0.049563825130462646, 0.02785927802324295, 0.08447839319705963], [-0.05609370768070221, 0.009896501898765564, -0.002670586109161377, -0.022853150963783264, 0.029046274721622467, -0.0724102258682251, 0.08188469707965851, -0.07884498685598373, -0.030923888087272644, -0.07859703153371811, -0.05587100237607956, 0.0058668628334999084, -0.016653530299663544, 0.04505009949207306, -0.05088333413004875, -0.0590234249830246], [0.02695978432893753, -0.07625503093004227, -0.04707064479589462, 0.040973931550979614, 0.0712047815322876, 0.083864226937294, -0.07199374586343765, 0.0637933611869812, -0.05355266481637955, 0.01394210010766983, -0.08637118339538574, -0.01951279491186142, 0.048968613147735596, 0.003583155572414398, -0.05750398337841034, -0.07106044888496399], [0.030986160039901733, -0.06489297747612, -0.06243687495589256, -0.04767198488116264, -0.04258554056286812, -0.07625044882297516, -0.04256885498762131, -0.054017238318920135, 0.04207149147987366, -0.03496372699737549, -0.01491004228591919, -0.03989196941256523, 0.07382352650165558, 0.012983717024326324, -0.0027201026678085327, -0.03544231876730919], [-0.009387597441673279, -0.07675562798976898, 0.03401423990726471, -0.07440553605556488, 0.0364801287651062, -0.03414808213710785, -0.0014545619487762451, -0.06247032433748245, 0.07786905765533447, 0.08321700990200043, -0.03893040865659714, 0.03915168344974518, -0.05178658664226532, -0.05437805503606796, 0.004690296947956085, -0.013258248567581177], [-0.002285569906234741, -0.015122197568416595, -0.0695415660738945, 0.055560022592544556, -0.009934186935424805, 0.004308693110942841, 0.05814798176288605, -0.058448635041713715, 0.06714493036270142, 0.017159752547740936, -0.01746208965778351, -0.06224700063467026, 0.002014629542827606, 0.05390189588069916, -0.051702532917261124, -0.0675312727689743], [-0.03345657140016556, -0.07212857156991959, 0.01091688871383667, -0.04081488028168678, 0.07995854318141937, -0.08625786751508713, -0.020242899656295776, -0.08092484623193741, -0.04982952028512955, 0.019000299274921417, 0.021266669034957886, 0.06906378269195557, 0.06702722609043121, 0.05261823534965515, -0.009683914482593536, 0.07437565922737122], [-0.061099156737327576, -0.00874166190624237, -0.07811032235622406, -0.031413692981004715, 0.013216562569141388, -0.07639574259519577, 0.05574776232242584, -0.04610414803028107, 0.012884505093097687, -0.01918819546699524, -0.047849349677562714, -0.07589732855558395, 0.06251932680606842, -0.062993124127388, -0.02631281316280365, -0.015966832637786865], [-0.07997100800275803, 0.030935369431972504, -0.06991872191429138, -0.07683795690536499, 0.043709516525268555, -0.049100082367658615, 0.02427653968334198, -0.04244783893227577, -0.02370487153530121, 0.02436995506286621, -0.06259720027446747, 0.07112117111682892, -0.0041776373982429504, -0.05882991850376129, -0.04799072444438934, 0.02562718838453293], [-0.05852804705500603, 0.06312836706638336, -0.056984759867191315, 0.08462698757648468, -0.0038235560059547424, 0.02269129455089569, 0.01600801944732666, -0.023464493453502655, -0.012391999363899231, 0.08208200335502625, 0.0005928128957748413, 0.01055070012807846, -0.08117459714412689, 0.08152469992637634, -0.07544867694377899, 0.048402875661849976], [-0.015092752873897552, 0.013026684522628784, -0.011482514441013336, 0.005306363105773926, 0.06184558570384979, -0.007876291871070862, 0.07316432893276215, 0.07461102306842804, 0.010957114398479462, 0.08365499973297119, -0.023593947291374207, -0.03335093706846237, -0.01804986596107483, 0.08534348011016846, -0.05106210336089134, 0.06729254126548767], [-0.025487713515758514, -0.0484820194542408, -0.01643463410437107, -0.16917718946933746, 0.05211621895432472, 0.08050038665533066, 0.04559863358736038, 0.022217877209186554, 0.03653883561491966, 0.0003944157506339252, 0.0649876818060875, -0.056452710181474686, 0.05940714851021767, 0.12013422697782516, -0.05116042122244835, -0.0181255005300045], [-0.015840671956539154, 0.0904378592967987, 0.08887174725532532, -0.20171257853507996, 0.09936776757240295, -0.00970279797911644, -0.021016575396060944, -0.07750069350004196, -0.059062715619802475, 0.015189209021627903, 0.011124568060040474, 0.009791625663638115, 0.01912614330649376, -0.021526610478758812, -0.1103021427989006, 0.13608026504516602], [-0.006258673965930939, -0.06388413161039352, -0.0883350595831871, -0.156610369682312, 0.22073544561862946, 0.12422402948141098, -0.03104681335389614, 0.09986168891191483, 0.07524824142456055, 0.2752494513988495, 0.027878709137439728, 0.0217796191573143, -0.05712200328707695, 0.012535592541098595, 0.05105412378907204, 0.07389466464519501], [-0.0513899065554142, 0.017500437796115875, -0.08083108067512512, -0.1330863982439041, 0.14629755914211273, 0.03967827185988426, -0.1281030923128128, 0.13501307368278503, 0.020399777218699455, 0.10915166139602661, -0.018908873200416565, 0.06861844658851624, 0.024863123893737793, -0.020391259342432022, 0.06269525736570358, 0.09642913937568665], [0.037095680832862854, 0.05154082179069519, 0.009021103382110596, -0.0635061115026474, 0.027858003973960876, 0.08284904062747955, 0.062235355377197266, 0.004046052694320679, -0.068516306579113, -0.04535459727048874, -0.07245321571826935, 0.07735243439674377, 0.043778225779533386, 0.04957784712314606, 0.06142602860927582, 0.005500413477420807], [-0.06777012348175049, -0.016182102262973785, 0.06881330907344818, 0.07463666796684265, -0.005914874374866486, 0.029632732272148132, 0.0140504390001297, 0.06884904205799103, -0.004760526120662689, -0.05506842955946922, -0.01801631599664688, 0.03724876046180725, -0.03260229527950287, -0.07922263443470001, -0.03260547295212746, 0.05393439531326294], [0.020544417202472687, -0.0864826962351799, -0.033294714987277985, -0.012057401239871979, 0.05853235721588135, -0.015555404126644135, 0.044242143630981445, 0.054278433322906494, 0.0243397057056427, -0.0326441265642643, -0.01227455586194992, 0.05036689341068268, -0.08639845997095108, -0.022364631295204163, -0.019904382526874542, -0.037074122577905655], [-0.01029747724533081, -0.07895590364933014, -0.00913538783788681, 0.027310900390148163, 0.0697566568851471, 0.08515682816505432, -0.07890408486127853, 0.03590889275074005, 0.034502170979976654, -0.02828330174088478, 0.03806863725185394, 0.05822901427745819, -0.04437616467475891, 0.06199881434440613, -0.032852090895175934, 0.07439996302127838], [-0.041422683745622635, 0.0676012635231018, -0.026514314115047455, 0.05651506781578064, -0.02100776880979538, -0.08477185666561127, -0.01605396717786789, 0.08015982806682587, -0.054387304931879044, 0.07914905250072479, 0.02779003232717514, 0.04107138514518738, 0.01465696096420288, 0.023819714784622192, -0.041889116168022156, -0.005383938550949097], [0.061073362827301025, 0.025874152779579163, -0.06105290353298187, 0.04739139974117279, -0.012279100716114044, -0.0031559765338897705, -0.033724721521139145, -0.048159413039684296, 0.06274481117725372, -0.07112914323806763, -0.06594059616327286, -0.043973930180072784, -0.04015402868390083, 0.020791135728359222, 0.037987448275089264, 0.06379657983779907], [-0.005567640066146851, 0.030862092971801758, 0.06051903963088989, 0.06373272836208344, 0.04351520538330078, 0.03753485530614853, 0.0778430849313736, -0.048664290457963943, -0.061130210757255554, -0.018563084304332733, 0.05104026198387146, 0.07725776731967926, 0.015024885535240173, 0.02233254164457321, 0.0052116140723228455, -0.010849721729755402], [0.04834426939487457, -0.05714089423418045, 0.06720307469367981, 0.03538551926612854, -0.0031643956899642944, -0.052658580243587494, -0.082101970911026, -0.03197314217686653, -0.07650457322597504, -0.06525352597236633, -0.019755616784095764, 0.026717402040958405, -0.059675540775060654, -0.06619757413864136, 0.031565017998218536, 0.031940020620822906], [0.07506231963634491, -0.08437034487724304, -0.02153562754392624, 0.07233788073062897, -0.035386547446250916, 0.058442696928977966, 0.07481160759925842, 0.04826803505420685, -0.07285752147436142, 0.05074235796928406, -0.02078717201948166, -0.04546089097857475, 0.052387386560440063, 0.035341329872608185, 0.06108337640762329, 0.0077360570430755615], [-0.06346601247787476, 0.0384628027677536, 0.01719648391008377, -0.014085046947002411, 0.015483364462852478, 0.07493710517883301, -0.006936952471733093, -0.08281891793012619, 0.08513587713241577, -0.07860683649778366, -0.06769131124019623, 0.04670010507106781, -0.02370024472475052, 0.016757801175117493, 0.08220165967941284, -0.008613251149654388], [0.010512545704841614, -0.012255765497684479, -0.037083763629198074, 0.08000354468822479, 0.07425498962402344, -0.08087349683046341, -0.037728920578956604, -0.014278262853622437, 0.009952709078788757, -0.0524921789765358, 0.013895705342292786, 0.011922985315322876, 0.023129381239414215, -0.04144952446222305, -0.017978616058826447, -0.06042587757110596], [0.0848294347524643, 0.062168002128601074, 0.02995067834854126, 0.06520415842533112, -0.03924429416656494, -0.06208576261997223, 0.08320438861846924, -0.04767175763845444, 0.0627419650554657, -0.034652505069971085, -0.015514031052589417, -0.0020164474844932556, 0.03775654733181, 0.056399911642074585, -0.07654348015785217, -0.060340479016304016], [-0.017511315643787384, -0.010408751666545868, 0.04309576749801636, 0.010735563933849335, -0.058298468589782715, 0.08509418368339539, 0.08365334570407867, -0.03511292487382889, 0.008270233869552612, -0.002419598400592804, -0.06059669703245163, 0.06944797933101654, -0.08274960517883301, 0.08376951515674591, 0.0021415352821350098, 0.04142080247402191], [-0.05234735831618309, -0.04755879566073418, 0.028525598347187042, 0.007270142436027527, -0.03910050541162491, 0.013311274349689484, -0.07546468079090118, 0.060335710644721985, -0.06048887223005295, -0.011426225304603577, 0.07525849342346191, 0.045006975531578064, 0.03759481757879257, 0.046274200081825256, 0.032126039266586304, -0.062082499265670776], [0.032708048820495605, 0.08593149483203888, 0.019831739366054535, -0.03958535194396973, 0.03333103656768799, 0.005048185586929321, -0.003511384129524231, -0.05444185435771942, -0.025300312787294388, -0.07999563962221146, 0.06305128335952759, -0.07159467041492462, -0.06379685550928116, 0.08599065244197845, 0.03934237360954285, -0.04183528572320938], [0.006418116390705109, -0.07153528183698654, -0.02380356192588806, 0.0011416897177696228, -0.0461709201335907, 0.05601505935192108, 0.05375771224498749, -0.004125587642192841, 0.013192877173423767, -0.07092852890491486, 0.05112515389919281, -0.0015682950615882874, 0.05663236975669861, -0.0016890987753868103, 0.053149908781051636, 0.06809547543525696], [0.01514667272567749, 0.0896025225520134, 0.10628669708967209, -0.035676710307598114, -0.0910601019859314, 0.01804273948073387, 0.09571704268455505, 0.062407080084085464, 0.03682365268468857, -0.00647813780233264, 0.03695414960384369, -0.029923658818006516, 0.0035928236320614815, 0.07225927710533142, -0.05123399570584297, 0.04378145560622215], [0.03595781698822975, 0.09079187363386154, 0.07633108645677567, 0.08102594316005707, 0.007462158799171448, 0.14728769659996033, 0.1137164756655693, -0.09817413985729218, 0.034052398055791855, -0.1610698103904724, 0.029549982398748398, -0.0900268405675888, -0.05738179013133049, 0.06319980323314667, -0.048615846782922745, 0.11294030398130417], [0.0684489756822586, 0.04137202352285385, 0.21614152193069458, 0.02144843339920044, 0.20028191804885864, 0.13819923996925354, 0.09221275895833969, -0.2730501890182495, 0.0393664725124836, -0.17680588364601135, -0.08437809348106384, -0.24146594107151031, 0.10332216322422028, 0.07180632650852203, -0.14993472397327423, 0.19237105548381805], [-0.06422320008277893, -0.018107092007994652, 0.2413056194782257, -0.0028264056891202927, 0.20554350316524506, 0.1998402178287506, 0.17603957653045654, -0.26564905047416687, -0.0709504634141922, -0.13354237377643585, -0.14071834087371826, -0.12003087252378464, 0.05918567255139351, 0.024404650554060936, -0.17700627446174622, 0.29614773392677307], [-0.06902903318405151, -0.008751613087952137, 0.17688404023647308, 0.10254491865634918, 0.21084077656269073, 0.20190903544425964, 0.21396981179714203, -0.11992859095335007, 0.0309272613376379, -0.09334505349397659, -0.0021476675756275654, -0.13714273273944855, 0.041640836745500565, -0.09489971399307251, -0.18868482112884521, 0.10181349515914917], [0.0054367948323488235, -0.02044333703815937, 0.223588764667511, 0.007829907350242138, 0.14567703008651733, 0.17526230216026306, 0.1830548793077469, -0.21365587413311005, 0.07003223896026611, -0.15904174745082855, -0.11971674114465714, -0.11230450123548508, -0.06693606078624725, -0.20354418456554413, -0.10671140253543854, 0.2774932086467743], [0.14360959827899933, 0.00065491849090904, 0.24216897785663605, 0.0024726404808461666, 0.05134715884923935, 0.36738577485084534, 0.21887673437595367, -0.2216150462627411, -0.03225623816251755, -0.1346525400876999, -0.017266523092985153, -0.2405543476343155, -0.08371138572692871, -0.3193005323410034, -0.11915402859449387, 0.3237367272377014], [-0.06975691765546799, 0.056814685463905334, 0.396886944770813, -0.07450252771377563, 0.04917637258768082, 0.41384193301200867, 0.09355729073286057, -0.45272427797317505, -0.044858649373054504, -0.33929628133773804, 0.03992114216089249, -0.2785446345806122, -0.17217527329921722, 0.026922212913632393, -0.19256974756717682, 0.43875056505203247], [0.06247805058956146, 0.15276482701301575, 0.3835836946964264, -0.009718002751469612, -0.020552365109324455, 0.4613199234008789, 0.19765803217887878, -0.32176512479782104, -0.08244580775499344, -0.29499518871307373, -0.14397665858268738, -0.21663209795951843, -0.1913250833749771, 0.07643964141607285, -0.19445230066776276, 0.44487708806991577], [-0.07621882855892181, 0.012496937066316605, 0.22861100733280182, -0.20682480931282043, -0.1812787503004074, 0.37131014466285706, 0.07762088626623154, -0.207986518740654, -0.00024769100127741694, -0.15493053197860718, -0.0466921404004097, -0.3841714560985565, -0.3812495768070221, 0.09139540791511536, -0.07753516733646393, 0.3274521231651306], [0.20500805974006653, 0.0753072202205658, -0.2619684934616089, 0.17400598526000977, -0.06668461114168167, -0.1478424221277237, 0.055289436131715775, 0.14801034331321716, -0.010575119405984879, 0.10727666318416595, 0.07777421921491623, -0.3135504722595215, 0.17819927632808685, -0.122190460562706, 0.04823758453130722, -0.24318818747997284], [0.016566434875130653, -0.05114976316690445, 0.006028173957020044, 0.14822907745838165, 0.15618693828582764, 0.13857200741767883, 0.004833461716771126, -0.39293891191482544, 0.2122604250907898, -0.28216275572776794, -0.03188951686024666, -0.283368319272995, 0.22941093146800995, 0.17717266082763672, -0.22112782299518585, 0.3558330535888672], [-0.3698706030845642, 0.02865576185286045, 0.052823085337877274, -0.018103286623954773, 0.21130439639091492, 0.0968809649348259, -0.4679466784000397, -0.31471535563468933, 0.3727903664112091, -0.16719938814640045, -0.011172057129442692, -0.23787939548492432, -0.026493320241570473, 0.18535420298576355, -0.17258340120315552, 0.31347617506980896], [-0.2975587248802185, 0.05046748369932175, 0.2792971134185791, -0.28685715794563293, 0.15217047929763794, 0.24215616285800934, -0.1826108694076538, -0.22203245759010315, 0.29523593187332153, -0.2141912430524826, -0.03117934986948967, -0.25256264209747314, -0.28446125984191895, 0.2952042520046234, -0.3843298554420471, 0.5665854811668396], [0.03885125368833542, -0.0024018881376832724, 0.293039470911026, -0.02708747610449791, 0.274585098028183, 0.2849409878253937, 0.20865190029144287, -0.1925429403781891, -0.2339078187942505, -0.2786397337913513, -0.21109342575073242, -0.13443176448345184, -0.14109563827514648, -0.2382926344871521, -0.36921408772468567, 0.2655429244041443], [0.015808764845132828, -0.037160180509090424, 0.2740127444267273, -0.06084373965859413, 0.21993021667003632, 0.2669825255870819, 0.21503855288028717, -0.3300561010837555, -0.04578021913766861, -0.19695115089416504, -0.09136228263378143, -0.20418591797351837, -0.08575336635112762, -0.13901260495185852, -0.23649349808692932, 0.19837166368961334], [0.07920574396848679, 0.0061161695048213005, 0.40937113761901855, -0.14937765896320343, 0.2758326530456543, 0.32841989398002625, 0.2610584497451782, -0.333661288022995, -0.05772222578525543, -0.2516961097717285, 0.003548612352460623, -0.24874401092529297, -0.19448502361774445, -0.07411603629589081, -0.18379664421081543, 0.2521602511405945], [0.11123763769865036, -0.045190438628196716, 0.31677305698394775, -0.24057213962078094, 0.16294117271900177, 0.1480492353439331, 0.2143244594335556, -0.0999615415930748, -0.007844110950827599, -0.18478868901729584, -0.06963756680488586, -0.24800755083560944, 0.025267919525504112, -0.1703445464372635, -0.08207891136407852, 0.12685486674308777], [0.04588327184319496, 0.007993034087121487, 0.2363635003566742, -0.09739815443754196, 0.14259032905101776, 0.14160335063934326, 0.29050135612487793, -0.22034098207950592, 0.049835581332445145, -0.14987079799175262, -0.15273097157478333, -0.19943541288375854, -0.0015719307120889425, -0.06964165717363358, 0.04129515960812569, 0.2949630618095398], [-0.042332954704761505, 0.030229218304157257, 0.17871500551700592, -0.01986091583967209, 0.2874819338321686, 0.13860897719860077, 0.25808751583099365, -0.16892890632152557, -0.06863037496805191, -0.2844880521297455, -0.15741819143295288, -0.2967502772808075, 0.02931532822549343, 0.002888195216655731, -0.01858421415090561, 0.23382587730884552], [-0.08503531664609909, -0.026813559234142303, 0.04109932482242584, -0.07973793894052505, -0.028933681547641754, 0.009029321372509003, -0.03137148916721344, 0.07205957174301147, -0.009544521570205688, -0.07365090399980545, -0.08416066318750381, 0.061655983328819275, 0.033079132437705994, -0.019435718655586243, -0.07443661242723465, 0.031606003642082214], [-0.03533044829964638, -0.0753088891506195, 0.04415135085582733, -0.08060464262962341, 0.06855170428752899, -0.04154576361179352, 0.045083239674568176, 0.03558792173862457, -0.07767992466688156, 0.004940405488014221, 0.07936178147792816, 0.041296571493148804, 0.01135515421628952, 0.025728605687618256, -0.017209492623806, -0.010693959891796112], [0.07251423597335815, 0.05688948929309845, -0.011137038469314575, 0.04107902944087982, -0.011875353753566742, -0.04999559000134468, -0.06554029881954193, 0.045996516942977905, -0.055224258452653885, -0.0037711486220359802, -0.08009611070156097, 0.08604288101196289, -0.04465160518884659, -0.08593950420618057, -0.05157734453678131, -0.06371679902076721], [0.004322916269302368, -0.03265928104519844, 0.015237100422382355, 0.05522333085536957, -0.08539475500583649, -0.0389062725007534, 0.07573652267456055, -0.0292494036257267, 0.009928256273269653, -0.01529441773891449, 0.03919191658496857, -0.01876632124185562, 0.06819747388362885, -0.007828623056411743, -0.017108313739299774, -0.06778907775878906], [-0.0298159159719944, 0.05367173254489899, 0.04916584491729736, 0.026429161429405212, -0.06908833235502243, -0.021343894302845, -0.0037231668829917908, 0.07294857501983643, 0.0841359943151474, 0.03284137696027756, 0.02243291586637497, 0.054850950837135315, 0.05388197302818298, 0.038885265588760376, 0.0796339213848114, -0.05352545157074928], [-0.07693444192409515, -0.07486020028591156, 0.048683375120162964, -0.005913160741329193, 0.07898043096065521, 0.05362620949745178, 0.018717698752880096, 0.06498625874519348, -0.05038163810968399, 0.032607145607471466, -0.04652465879917145, -0.06995749473571777, -0.04283597320318222, 0.012219548225402832, -0.013333618640899658, 0.07399338483810425], [-0.0404876172542572, 0.020056866109371185, -0.04174736514687538, -0.03367681801319122, -0.014077646657824516, 0.03326642885804176, 0.09317588061094284, -0.050985805690288544, -0.09822172671556473, 0.00875247921794653, -0.005710110068321228, -0.13646969199180603, -0.08556536585092545, -0.030528876930475235, -0.09531170129776001, -0.05263398960232735], [-0.06377116590738297, -0.025434250012040138, 0.08965276926755905, -0.004090465605258942, 0.01402758527547121, 0.15125858783721924, -0.13601253926753998, -0.2140779197216034, 0.023662300780415535, -0.1737539917230606, -0.06428840011358261, -0.10907762497663498, 0.14222069084644318, 0.1661301851272583, -0.22258947789669037, 0.23231415450572968], [-0.004041899461299181, 0.09559130668640137, 0.14821447432041168, 0.02380175143480301, -0.07018931955099106, 0.34133490920066833, -0.048473525792360306, -0.16986168920993805, 0.09665405750274658, -0.22872288525104523, -0.3060462176799774, -0.1941172033548355, -0.2878653407096863, 0.21864059567451477, -0.2544034719467163, 0.22034737467765808], [0.04579654708504677, 0.0694103017449379, 0.19400006532669067, -0.15797510743141174, 0.02763151377439499, 0.2780463695526123, -0.011009280569851398, 0.016604477539658546, -0.11066802591085434, -0.057472676038742065, -0.2284167855978012, -0.06320297718048096, -0.20468561351299286, -0.17561288177967072, -0.15598157048225403, 0.28668132424354553], [0.04212532192468643, 0.09155118465423584, 0.3216002583503723, -0.24740293622016907, 0.17299270629882812, 0.21196436882019043, 0.05865546315908432, -0.2254703789949417, -0.05977175757288933, -0.14932173490524292, -0.17914395034313202, -0.26341548562049866, -0.17768627405166626, -0.22726385295391083, -0.18806752562522888, 0.41484296321868896], [-0.03499181568622589, 0.10769212990999222, 0.412392258644104, -0.13987469673156738, 0.18294629454612732, 0.35418954491615295, 0.11774750798940659, -0.3145214915275574, 0.12673448026180267, -0.3066578805446625, -0.2399396300315857, -0.21868209540843964, -0.09683825820684433, -0.2565552890300751, -0.14385472238063812, 0.3855743110179901], [-0.2289162427186966, 0.16621282696723938, 0.20814248919487, 0.10409460216760635, 0.5257411599159241, 0.3843020796775818, -0.05297772213816643, -0.2593960464000702, 0.2409953773021698, -0.17673078179359436, -0.16586877405643463, -0.2894172668457031, -0.2445019781589508, -0.2945525646209717, -0.1797831803560257, 0.6261588931083679], [-0.24547013640403748, 0.10658467561006546, 0.06217498332262039, -0.0013774328399449587, 0.7333786487579346, 0.05449264496564865, -0.07957542687654495, -0.3935868740081787, 0.34359124302864075, -0.052660901099443436, -0.3101207911968231, -0.4692853093147278, -0.07472608238458633, -0.17079928517341614, -0.0655098482966423, 0.5719435214996338], [-0.2154448926448822, 0.0021973117254674435, 0.17882674932479858, -0.09992033243179321, 0.5816418528556824, 0.20517750084400177, -0.21320979297161102, -0.43949204683303833, 0.16797412931919098, -0.22522956132888794, -0.3601020574569702, -0.4708535373210907, 0.1937464326620102, 0.004651613999158144, -0.22862304747104645, 0.5741678476333618], [-0.3151025176048279, -0.1943996548652649, 0.27513939142227173, 0.09469129890203476, 0.46893545985221863, 0.05961737036705017, -0.14624224603176117, -0.3767028748989105, 0.14178098738193512, -0.08315066993236542, -0.4045300781726837, -0.6101436018943787, 0.06992287933826447, -0.01498151384294033, -0.17873236536979675, 0.7284033894538879], [-0.178827166557312, -0.17959734797477722, 0.10458909720182419, -0.004693865310400724, 0.38918396830558777, 0.01389279030263424, -0.18832927942276, -0.4870651662349701, 0.2974488139152527, -0.3154289722442627, -0.5272616147994995, -0.6724458932876587, 0.023537397384643555, 0.00654649268835783, -0.2100144922733307, 0.5624715685844421], [-0.3023422658443451, -0.2674064636230469, 0.19181033968925476, 0.12168616056442261, 0.19823364913463593, -0.013225169852375984, -0.2605275511741638, -0.13925547897815704, 0.2972082793712616, -0.34326332807540894, -0.6398098468780518, -0.5643653869628906, 0.08791569620370865, -0.3004625737667084, -0.21109385788440704, 0.0712476372718811], [-0.11558158695697784, -0.1083977073431015, 0.1784597933292389, -0.12110494077205658, 0.13625724613666534, 0.04207463189959526, -0.20637184381484985, -0.10303331911563873, 0.15759877860546112, -0.13657450675964355, -0.5514468550682068, -0.702350378036499, 0.04545101895928383, -0.4799219071865082, -0.15132303535938263, 0.18229682743549347], [0.08047086745500565, -0.02807220071554184, 0.2990935742855072, -0.08571640402078629, 0.28800201416015625, -0.016954489052295685, 0.03469352796673775, -0.20313456654548645, 0.1587245762348175, -0.17469802498817444, -0.37370628118515015, -0.36185401678085327, 0.2963200509548187, -0.6070388555526733, -0.13825325667858124, 0.18161669373512268], [-0.1201566755771637, 0.1169549748301506, 0.05200836807489395, -0.2567901313304901, 0.3850376009941101, -0.13235701620578766, -0.003189007518813014, -0.11413710564374924, 0.15957340598106384, 0.034045860171318054, -0.5611594915390015, -0.4496058225631714, 0.24015554785728455, -0.43206584453582764, 0.0013788464711979032, 0.14261141419410706], [0.007544264197349548, 0.04179214686155319, 0.08937296271324158, -0.3711964786052704, 0.24579903483390808, -0.0035702758468687534, -0.10954209417104721, -0.08409246802330017, 0.11830873042345047, 0.1518637239933014, 0.017089324072003365, -0.318632572889328, 0.03471439331769943, -0.4238522946834564, 0.07316967099905014, 0.1013929471373558], [-0.11461394280195236, 0.05651295185089111, 0.006339751183986664, -0.1332990527153015, 0.2601431906223297, 0.15795689821243286, 0.01380211766809225, -0.2320236712694168, 0.07787693291902542, -0.021927278488874435, 0.1115938201546669, -0.15272732079029083, 0.03038429096341133, -0.36762312054634094, -0.08624138683080673, 0.09745718538761139], [0.03258534148335457, 0.29213371872901917, 0.2411610186100006, -0.025342663750052452, 0.07459785044193268, 0.278799444437027, 0.2709347903728485, -0.10311532765626907, -0.09395057708024979, -0.26503700017929077, -0.005817363038659096, -0.11799881607294083, 0.2014550417661667, -0.5530173182487488, -0.05885486304759979, 0.12998856604099274], [0.33939364552497864, 0.06313872337341309, 0.23966223001480103, -0.12513768672943115, 0.17872947454452515, 0.19318360090255737, 0.05600428208708763, -0.03304996341466904, -0.03140619769692421, -0.4546087086200714, -0.06229496747255325, -0.1659674346446991, 0.08422137051820755, -0.6255649924278259, -0.15682776272296906, 0.308165967464447], [0.4694679081439972, 0.03170471265912056, 0.2323850691318512, -0.19589553773403168, 0.09649967402219772, 0.331857293844223, -0.11077821254730225, -0.27269303798675537, 0.12735044956207275, -0.24052488803863525, -0.2143070548772812, -0.44010230898857117, -0.016317762434482574, -0.6386772990226746, -0.17236478626728058, 0.34715718030929565], [0.48681551218032837, 0.035598963499069214, 0.35040050745010376, -0.3597504496574402, 0.28253814578056335, 0.39919525384902954, 0.12289634346961975, -0.15522941946983337, -0.006232252344489098, -0.3153553307056427, -0.22940374910831451, -0.29675158858299255, -0.10212770849466324, -0.4994252622127533, -0.2001364827156067, 0.351876437664032], [0.39827316999435425, 0.030585911124944687, 0.25458627939224243, -0.22550062835216522, 0.3693651854991913, 0.3944522440433502, 0.03284303471446037, -0.3942359685897827, 0.23115494847297668, -0.2813328206539154, -0.27765876054763794, -0.30732202529907227, 0.007992138154804707, -0.37105706334114075, -0.07739073038101196, 0.3397814631462097], [0.09776861220598221, 0.04793354496359825, -0.06253550201654434, -0.14611543715000153, 0.17905014753341675, -0.013820061460137367, -0.16996879875659943, -0.20624764263629913, 0.01717241480946541, -0.2512410581111908, -0.0002607345813885331, -0.2425302416086197, -0.09317521750926971, -0.30430543422698975, 0.01220712997019291, 0.3039515018463135], [0.04387024790048599, 0.03345733880996704, -0.20041899383068085, 0.007333017885684967, 0.19346286356449127, -0.2962750494480133, -0.17280447483062744, -0.060118962079286575, 0.12917384505271912, -0.25539320707321167, 0.1428632140159607, -0.1745060682296753, -0.0016594759654253721, -0.06743944436311722, 0.19823557138442993, 0.17190222442150116], [-0.017395734786987305, -0.005671784281730652, -0.08489706367254257, 0.08476857841014862, -0.01706475019454956, 0.038179390132427216, -0.06249382346868515, 0.05180005729198456, -0.06786499917507172, 0.08169804513454437, -0.016162939369678497, 0.03320549428462982, -0.06097547709941864, -0.019650042057037354, 0.03616362065076828, 0.027821578085422516], [-0.018189944326877594, 0.04168233275413513, -0.015105471014976501, -0.008974440395832062, 0.08223257958889008, 0.02098679542541504, 0.06876088678836823, 0.04639582335948944, 9.417533874511719e-06, 0.01147652417421341, -0.004236467182636261, 0.04927605390548706, 0.05056692659854889, 0.011596530675888062, -0.008540898561477661, 0.032541319727897644], [-0.05567850545048714, -0.06736867129802704, -0.02796749398112297, 0.06630878150463104, -0.026111125946044922, -0.07077136635780334, -0.08507990092039108, -0.051343634724617004, -0.051941465586423874, -0.028950508683919907, 0.07660052180290222, 0.06678816676139832, -0.01719459891319275, 0.01026192307472229, -0.022432543337345123, -0.0395982563495636], [-0.07614041119813919, 0.024819180369377136, 0.01183919608592987, 0.03445166349411011, -0.057661689817905426, -0.006853535771369934, 0.049165889620780945, -0.04044792801141739, 0.022619277238845825, 0.013477176427841187, -0.07476668059825897, -0.048536233603954315, 0.06694713234901428, -0.08636444807052612, 0.019296102225780487, -0.00756189227104187], [0.2598654329776764, 0.009368419647216797, 0.04977622255682945, 0.2720060348510742, 0.14559052884578705, -0.12063205242156982, 0.027965985238552094, 0.05722881108522415, 0.10700979828834534, -0.26384589076042175, 0.18668630719184875, 0.1308296173810959, 0.21741627156734467, 0.2129712998867035, 0.14607177674770355, -0.1062091588973999], [0.12732869386672974, 0.0422992967069149, 0.15645502507686615, 0.23307807743549347, 0.052531808614730835, 0.11094436794519424, 0.000504592782817781, -0.23476435244083405, 0.12131638824939728, -0.33811843395233154, 0.0009275828488171101, -0.20490750670433044, 0.42847099900245667, 0.11820042878389359, -0.1117313951253891, 0.20406384766101837], [-0.03074599802494049, 0.17879332602024078, 0.10744531452655792, 0.1268104910850525, -0.010934068821370602, 0.2757607698440552, 0.42333653569221497, -0.13399183750152588, -0.3205368220806122, -0.4737033247947693, -0.0847114697098732, 0.002437752205878496, 0.07620943337678909, -0.03872160241007805, -0.030345657840371132, 0.08888216316699982], [-0.11666673421859741, -0.1394519954919815, 0.021454215049743652, -0.21828648447990417, -0.15807825326919556, 0.012686056084930897, 0.18332503736019135, 0.09774520248174667, 0.13812300562858582, -0.1516977846622467, -0.1785009354352951, -0.12018899619579315, 0.09630594402551651, -0.13549745082855225, -0.2340901792049408, 0.39686739444732666], [-0.07271651178598404, -0.18665039539337158, 0.19212743639945984, -0.20936599373817444, 0.043013159185647964, 0.11124367266893387, -0.13008733093738556, -0.2739611566066742, 0.23001421988010406, -0.2520298361778259, -0.11631667613983154, -0.02381495200097561, 0.13892745971679688, -0.22010710835456848, -0.1497984230518341, 0.485232412815094], [0.011090951971709728, -0.08366072177886963, 0.0005438409862108529, -0.14206822216510773, 0.007667463272809982, 0.011152907274663448, -0.1488005518913269, -0.5048575401306152, 0.3244710862636566, -0.18902957439422607, -0.11228449642658234, -0.18648169934749603, 0.13839603960514069, -0.16113601624965668, 0.04306137189269066, 0.2871527075767517], [-0.3973180949687958, 0.025486357510089874, -0.04229607805609703, 0.1486736536026001, 0.036430686712265015, 0.13929562270641327, 0.011000143364071846, -0.5310887098312378, 0.46087130904197693, -0.42730435729026794, -0.13635145127773285, -0.3275323510169983, 0.19968418776988983, -0.08176645636558533, 0.233053520321846, 0.3807031214237213], [-0.3613281548023224, -0.024014485999941826, -0.14515167474746704, 0.09103111177682877, 0.40139660239219666, 0.09100410342216492, -0.18894922733306885, -0.513137936592102, 0.419922798871994, -0.24601243436336517, -0.4950816333293915, -0.4903985857963562, 0.22742849588394165, -0.2061237394809723, 0.10698774456977844, 0.5555227994918823], [-0.42571771144866943, 0.0732496976852417, -0.16071899235248566, -0.019409459084272385, 0.21883873641490936, 0.1633610725402832, 0.013878170400857925, -0.4199036955833435, 0.36758339405059814, -0.2012968361377716, -0.6226845979690552, -0.532080888748169, 0.07985410839319229, -0.050723955035209656, -0.022750265896320343, 0.5206050276756287], [-0.5986446142196655, -0.15890195965766907, -0.09990287572145462, 0.1007930114865303, 0.18965885043144226, 0.17951950430870056, -0.15812772512435913, -0.059195831418037415, 0.35170355439186096, -0.2196003794670105, -0.4721778929233551, -0.5852145552635193, 0.08329138159751892, -0.012255826964974403, -0.09367202967405319, 0.6952983140945435], [-0.5036125779151917, 0.08751340210437775, -0.14712348580360413, 0.03501373901963234, 0.09376232326030731, 0.09986303001642227, -0.04395880922675133, -0.3179999589920044, 0.3272033929824829, -0.4074358642101288, -0.35383448004722595, -0.5541160106658936, 0.22302842140197754, 0.14760078489780426, 0.061462271958589554, 0.33346831798553467], [-0.5050820708274841, 0.3254925608634949, 0.08289996534585953, -0.3247716724872589, 0.15149177610874176, 0.1833943873643875, -0.25749024748802185, -0.4537188708782196, 0.44731828570365906, -0.3011972904205322, -0.27912288904190063, -0.7543480396270752, 0.09204946458339691, -0.05973935127258301, 0.03226634860038757, 0.33179971575737], [-0.4635993540287018, 0.24819251894950867, 0.11823157966136932, -0.36073437333106995, -0.21538898348808289, 0.16972216963768005, -0.15105733275413513, -0.30681854486465454, 0.229270339012146, -0.2208530306816101, -0.24394491314888, -0.5043725371360779, 0.09709431976079941, -0.006489844061434269, -0.042394012212753296, 0.26015010476112366], [-0.30974313616752625, 0.18588505685329437, -0.004950770642608404, -0.188948392868042, -0.09343189746141434, 0.12175871431827545, 0.04543067887425423, -0.36732739210128784, 0.2525799572467804, -0.19414940476417542, -0.22591693699359894, -0.29284921288490295, 0.15747138857841492, -0.10751770436763763, 0.07167971879243851, 0.19828230142593384], [-0.3858090341091156, 0.0641774833202362, 0.054533086717128754, -0.17360860109329224, -0.01276931818574667, 0.032009754329919815, -0.004129493609070778, -0.35449904203414917, 0.0920567587018013, -0.020197244361042976, -0.23064620792865753, -0.35821786522865295, 0.14425301551818848, -0.12860745191574097, -0.005774399731308222, 0.29202744364738464], [-0.22311453521251678, 0.043976135551929474, 0.03362134471535683, -0.15054307878017426, -0.14510700106620789, -0.04124503582715988, 0.05944918096065521, -0.11603844165802002, 0.16804154217243195, 0.006537496577948332, -0.15311118960380554, -0.2174084335565567, 0.07282109558582306, 0.047005973756313324, 0.07330864667892456, 0.09985655546188354], [-0.2854567766189575, 0.19159311056137085, 0.03712131828069687, -0.16618919372558594, -0.1406286656856537, 0.13097134232521057, 0.286933034658432, -0.2179252952337265, 0.05874007195234299, -0.05563317984342575, -0.03524569794535637, -0.023481497541069984, 0.030217887833714485, -0.09131768345832825, -0.030874677002429962, 0.20735463500022888], [-0.2182982712984085, 0.31616076827049255, 0.1799471378326416, -0.1358880251646042, 0.008246313780546188, 0.20019204914569855, 0.1507832109928131, -0.03909901902079582, -0.07157780230045319, -0.23532167077064514, -0.007496093399822712, -0.14623349905014038, 0.003202404361218214, -0.1640099287033081, -0.047318052500486374, 0.2864168882369995], [-0.11266154795885086, -0.011038625612854958, -0.06364955753087997, -0.15073655545711517, -0.2754693925380707, 0.07966477423906326, 0.3500235378742218, 0.08434619009494781, 0.011511244811117649, -0.31412193179130554, 0.0029452343005687, -0.1362491101026535, 0.13175319135189056, 0.045535169541835785, -0.013752593658864498, 0.22039064764976501], [-0.07344655692577362, -0.16736949980258942, 0.12554073333740234, -0.2636883854866028, -0.08737151324748993, 0.22094225883483887, 0.25751781463623047, 0.005599201191216707, -0.006740750279277563, -0.18975204229354858, 0.020320072770118713, -0.09100792557001114, 0.07784983515739441, -0.1590873748064041, -0.05755795165896416, 0.34827929735183716], [0.20470787584781647, 0.018146909773349762, 0.05775334686040878, -0.5717061161994934, 0.0774928480386734, 0.43677547574043274, 0.07442804425954819, 0.17584586143493652, -0.09816477447748184, -0.0357731468975544, 0.15103772282600403, -0.10539224743843079, -0.03522145375609398, -0.3767813444137573, -0.24131901562213898, 0.3899877965450287], [0.249813050031662, -0.13183476030826569, 0.16068145632743835, -0.4561862349510193, 0.028878893703222275, 0.6486176252365112, 0.15984736382961273, 0.057890161871910095, -0.08474874496459961, 0.016733799129724503, -0.007983903400599957, -0.11841017752885818, 0.04156016558408737, -0.45695725083351135, -0.1685158610343933, 0.2860526442527771], [0.020632188767194748, 0.27360478043556213, -0.1468152403831482, -0.2882082760334015, 0.2646350860595703, 0.23448999226093292, 0.01434326358139515, 0.004947665147483349, 0.11480147391557693, -0.16772013902664185, -0.052872434258461, 0.026349345222115517, 0.3203766942024231, -0.22658784687519073, -0.0051545752212405205, 0.21158695220947266], [-0.0633753314614296, 0.07796699553728104, -0.15348003804683685, -0.2016696333885193, 0.018920734524726868, -0.061560098081827164, 0.016453081741929054, 0.3068016767501831, 0.24820293486118317, -0.23606641590595245, 0.017352018505334854, -0.10382909327745438, 0.13536229729652405, 0.15038718283176422, 0.25151681900024414, -0.14790670573711395], [0.0778953805565834, 0.13198210299015045, -0.05577279254794121, -0.22042787075042725, -0.1613583266735077, 0.1470370590686798, -0.042583074420690536, 0.007810490671545267, -0.0642872080206871, -0.02919158712029457, -0.10447902977466583, -0.11398480832576752, -0.0326307974755764, 0.020559649914503098, -0.005323315504938364, -0.025918755680322647], [0.018779560923576355, 0.0455242395401001, -0.03283584117889404, 0.03900367021560669, -0.08204960823059082, 0.04155217111110687, 0.038127996027469635, -0.08010298758745193, 0.048526182770729065, -0.0005619898438453674, -0.012470543384552002, 0.07775796949863434, 0.030817098915576935, -0.06943083554506302, -0.06705998629331589, 0.03893376886844635], [-0.02573889121413231, 0.040538594126701355, -0.0501500740647316, 8.513033390045166e-05, 0.08280378580093384, -0.042604122310876846, -0.01399097591638565, -0.04688264802098274, 0.046938806772232056, 0.07768267393112183, 0.038846954703330994, 0.084363654255867, -0.039928123354911804, -0.009317643940448761, -0.0762680172920227, -0.006494119763374329], [0.039656952023506165, -0.2109367549419403, -0.0259497482329607, 0.18653474748134613, -0.1432787925004959, -0.20562909543514252, 0.08474015444517136, -0.21653908491134644, 0.19396865367889404, 0.024732019752264023, -0.0399937741458416, 0.006823610980063677, 0.1849893182516098, 0.11119940876960754, -0.09817134588956833, -0.06696135550737381], [0.13646693527698517, -0.16461578011512756, 0.0435929112136364, 0.23874321579933167, 0.1829562485218048, -0.20268428325653076, 0.12215133756399155, -0.07615157961845398, 0.2841442823410034, -0.1364259421825409, 0.25615203380584717, 0.1999657303094864, 0.20391122996807098, 0.23200733959674835, 0.1681421846151352, -0.1408332735300064], [0.19897407293319702, -0.04404963180422783, -0.0671868771314621, 0.36974653601646423, -0.14987818896770477, -0.0861060619354248, 0.2553676962852478, -0.13770805299282074, 0.15260665118694305, -0.2716519236564636, 0.1542901247739792, 0.19152304530143738, 0.24401405453681946, 0.343534380197525, 0.0673363134264946, -0.312029093503952], [-0.08264729380607605, -0.406173974275589, 0.34006327390670776, 0.049214091151952744, -0.1509440392255783, -0.1540193110704422, 0.3288089334964752, 0.03073267452418804, -0.019060911610722542, -0.12790513038635254, 0.019001247361302376, 0.0029399381019175053, 0.08450543135404587, -0.19325894117355347, -0.27857068181037903, 0.30205288529396057], [-0.32018259167671204, -0.41172847151756287, 0.16901907324790955, -0.18429945409297943, 0.08580505847930908, -0.41338858008384705, 0.04288981854915619, -0.12400449067354202, 0.15883395075798035, -0.301717609167099, -0.06608046591281891, -0.29988059401512146, 0.23644253611564636, -0.2627660632133484, -0.1842813640832901, 0.394199401140213], [-0.28323355317115784, -0.2431132048368454, -0.13914094865322113, -0.29058220982551575, 0.06693898141384125, -0.11245312541723251, -0.260707288980484, -0.19957110285758972, 0.32743534445762634, -0.145613431930542, -0.0387008972465992, -0.24496854841709137, 0.20688459277153015, -0.2923203706741333, -0.016449488699436188, 0.49303942918777466], [-0.28474414348602295, 0.029877355322241783, -0.11036013811826706, -0.3418659567832947, -0.1050075814127922, 0.0755874440073967, -0.038570184260606766, -0.13124392926692963, 0.28984275460243225, -0.008958286605775356, 0.0501965656876564, -0.3503319025039673, 0.05827106907963753, -0.19579072296619415, 0.002276692073792219, 0.2676427960395813], [-0.35794174671173096, 0.1123998835682869, 0.025635337457060814, -0.09615620225667953, -0.028415128588676453, 0.026521697640419006, 0.008096880279481411, -0.10726224631071091, 0.39177215099334717, -0.030153905972838402, -0.17988914251327515, -0.5256682634353638, 0.2469663769006729, 0.016550935804843903, -0.04293198883533478, 0.2877229154109955], [-0.30920445919036865, 0.03642859682440758, -0.1910390704870224, -0.4335063397884369, 0.002918405458331108, 0.07470666617155075, -0.20082594454288483, -0.19656206667423248, 0.3828904330730438, 0.022462839260697365, -0.1567162275314331, -0.4148878753185272, 0.22766341269016266, 0.05103323981165886, 0.14794746041297913, 0.43598711490631104], [-0.18647831678390503, -0.060925889760255814, -0.18887153267860413, -0.2136424481868744, 0.06401778757572174, -0.07499225437641144, -0.04532003402709961, -0.13362160325050354, 0.3626132011413574, -0.10851707309484482, -0.17986270785331726, -0.32772186398506165, 0.2175826132297516, 0.025739846751093864, 0.1504376232624054, 0.4399176836013794], [-0.37076136469841003, -0.025498872622847557, -0.11644056439399719, -0.08922821283340454, -0.13156135380268097, 0.09402096271514893, -0.09662020206451416, -0.07738225907087326, 0.4306350648403168, -0.03882617875933647, -0.05903419852256775, -0.059770770370960236, 0.1440771371126175, 0.07020291686058044, 0.18017219007015228, 0.30652737617492676], [-0.3373235762119293, 0.07306215912103653, -0.1922987699508667, -0.2759273946285248, 0.05618640035390854, -0.04075055941939354, -0.02921154536306858, -0.015121624805033207, 0.27872350811958313, 0.10104824602603912, -0.06569477170705795, -0.06944940984249115, 0.2488994598388672, -0.037312671542167664, 0.13246288895606995, 0.08456159383058548], [-0.16303224861621857, 0.05327049270272255, 0.06816747784614563, -0.26091212034225464, -0.024244699627161026, 0.01282963715493679, -0.02017141319811344, -0.20838817954063416, 0.30742621421813965, 0.01862831600010395, -0.20967131853103638, -0.24808312952518463, 0.16658683121204376, 0.0010570017620921135, 0.01638014055788517, 0.0010051593417301774], [-0.1603836566209793, -0.02541246823966503, -0.060820963233709335, -0.053246039897203445, 0.0728023499250412, 0.12125255167484283, -0.1473848819732666, -0.2331884801387787, 0.32134634256362915, 0.09354759752750397, -0.06677942723035812, -0.08275704085826874, 0.09313243627548218, 0.059788089245557785, 0.06894097477197647, 0.06624747067689896], [-0.20316597819328308, 0.12434885650873184, -0.07923511415719986, 0.01866566389799118, -0.10925762355327606, 0.12916558980941772, -0.021475551649928093, -0.19999223947525024, 0.29092276096343994, -0.015430706553161144, -0.05158251151442528, -0.10079151391983032, 0.15961240231990814, 0.09026536345481873, 0.22261814773082733, -0.06114008650183678], [-0.13338449597358704, 0.12014658749103546, -0.09962338209152222, 0.18571749329566956, 0.027732959017157555, 0.12032642960548401, 0.16809777915477753, 0.005855659022927284, 0.2983296513557434, 0.1254582703113556, -0.044348884373903275, -0.1396193504333496, 0.22682110965251923, -0.1789700984954834, 0.12538884580135345, 0.12872904539108276], [-0.016107825562357903, 0.04322398081421852, -0.06881242245435715, -0.09097712486982346, -0.047909386456012726, 0.16642746329307556, -0.008259997703135014, 0.025314224883913994, 0.22843806445598602, 0.11215353012084961, 0.053354356437921524, -0.060597170144319534, -0.03570595011115074, -0.0452021062374115, 0.07994584739208221, 0.15973985195159912], [-0.027332590892910957, 0.1923081874847412, -0.09015406668186188, -0.07775545120239258, -0.06946602463722229, 0.05450229346752167, 0.12088467925786972, 0.04731960967183113, 0.2340732365846634, 0.053799837827682495, 0.04196220263838768, 0.12705691158771515, 0.04993560165166855, -0.1683560460805893, 0.1904737949371338, 0.13393265008926392], [0.01976480334997177, 0.003687522606924176, -0.07264642417430878, 0.17050741612911224, -0.004470705986022949, 0.1524907946586609, -0.003484366461634636, 0.05630332976579666, 0.02852575294673443, 0.006702058482915163, 0.02142714522778988, -0.0739239826798439, 0.12100955098867416, -0.23106202483177185, 0.041567012667655945, 0.1364833563566208], [0.09975294768810272, 0.017294991761446, -0.150161474943161, 0.08713085204362869, 0.04543166980147362, 0.03980926796793938, -0.09909039735794067, 0.11856912076473236, 0.021014338359236717, 0.24339129030704498, -0.11040924489498138, -0.10858438909053802, 0.04191962629556656, -0.07117249071598053, -0.0035036862827837467, 0.1415465623140335], [0.12866036593914032, 0.19879943132400513, -0.22599488496780396, -0.014791969209909439, -0.020224958658218384, 0.27663201093673706, 0.25086885690689087, 0.26828742027282715, -0.04407086223363876, 0.003832481103017926, 0.011880048550665379, -0.035265374928712845, 0.1194152757525444, -0.056050192564725876, -0.011083482764661312, 0.0037953564897179604], [0.059151794761419296, 0.4092240631580353, -0.050932224839925766, -0.15749678015708923, -0.12309935688972473, 0.20316796004772186, -0.005987047217786312, 0.23995934426784515, -0.05375943332910538, -0.049403030425310135, 0.1079045832157135, 0.08184602856636047, -0.006783101242035627, -0.14722374081611633, -0.12916645407676697, 0.00974865909665823], [0.31137269735336304, 0.2408713698387146, -0.11028686165809631, -0.22177469730377197, -0.18221183121204376, 0.5720260143280029, 0.10732438415288925, 0.18617427349090576, -0.21441490948200226, 0.013682866469025612, -0.010254355147480965, 0.15619231760501862, -0.11337365210056305, -0.36392107605934143, 0.022227749228477478, 0.02203020080924034], [-0.16890712082386017, 0.08609535545110703, -0.5274463295936584, -0.23029309511184692, -0.35291555523872375, 0.25627419352531433, 0.34940069913864136, 0.2136877030134201, -0.3045068085193634, 0.19636446237564087, 0.2106117606163025, 0.2192949652671814, 0.1889704465866089, -0.24684377014636993, 0.23543550074100494, -0.14083422720432281], [-0.5112062692642212, 0.17990709841251373, -0.47643449902534485, -0.3451014757156372, 0.025065390393137932, 0.019883012399077415, 0.23088878393173218, -0.08744119852781296, 0.13084419071674347, 0.22829027473926544, 0.27304694056510925, 0.29477572441101074, 0.2129470705986023, 0.026513727381825447, 0.287930965423584, -0.19767943024635315], [-0.49080076813697815, 0.15013885498046875, -0.2612009346485138, -0.23064762353897095, 0.1581554114818573, 0.2787250280380249, 0.11354068666696548, -0.3512099087238312, 0.3118647038936615, 0.2923979163169861, 0.1291276514530182, 0.01292155310511589, 0.2096756398677826, 0.1096058264374733, -0.1638346016407013, 0.1595907211303711], [-0.1643172651529312, -0.05036598816514015, -0.09661191701889038, -0.20119060575962067, -0.20501422882080078, 0.26826703548431396, -0.011431009508669376, -0.23085910081863403, 0.016319433227181435, 0.37778744101524353, -0.08302399516105652, -0.22396282851696014, -0.009677395224571228, -0.1182209923863411, -0.2420104444026947, 0.2798403203487396], [-0.04518086835741997, 0.038790762424468994, -0.03968171402812004, -0.07502655684947968, 0.02013038843870163, -0.06885652244091034, -0.005588985979557037, -0.0782005786895752, -0.0819544643163681, -0.03633499890565872, -0.0011990517377853394, 0.03828488290309906, 0.06376571953296661, -0.08168036490678787, 0.0815211683511734, -0.07993258535861969], [0.052656322717666626, -0.03975732624530792, -0.012570910155773163, 0.06235948204994202, 0.01899629831314087, -0.059972722083330154, 0.036564990878105164, 0.08021295070648193, 0.03232093155384064, 0.04283700883388519, -0.03020322322845459, -0.0654013603925705, 0.0375930592417717, 0.025947697460651398, 0.024778030812740326, -0.0570870041847229], [0.28216949105262756, -0.2250467836856842, 0.17589202523231506, 0.3657187819480896, 0.35540443658828735, -0.18503384292125702, 0.012696576304733753, -0.17274606227874756, 0.3036715090274811, -0.35649555921554565, 0.05872354656457901, 0.05788701772689819, 0.3478298485279083, -0.15629486739635468, 0.0749557688832283, 0.07353448867797852], [0.18642346560955048, -0.25771364569664, -0.2208193689584732, -0.04806393384933472, 0.03475000709295273, -0.10806368291378021, 0.2575230896472931, -0.03892238065600395, 0.027282845228910446, -0.11013029515743256, -0.05884645879268646, 0.04637566953897476, 0.04264955595135689, 0.03012228012084961, 0.22606433928012848, 0.1723542958498001], [0.03603051230311394, -0.41711142659187317, 0.19064009189605713, -0.08199834078550339, 0.15813617408275604, -0.45879098773002625, 0.03291274607181549, 0.0002174438996007666, -0.08639292418956757, 0.07582525908946991, 0.07843814790248871, -0.043178457766771317, 0.17038962244987488, -0.10015372186899185, -0.22653740644454956, 0.41397106647491455], [-0.12902072072029114, -0.19900263845920563, 0.14653673768043518, 0.22041185200214386, 0.006905038375407457, -0.40511471033096313, -0.15523603558540344, 0.008487535640597343, -0.11509253829717636, -0.004381418693810701, 0.03118111565709114, -0.1032450795173645, 0.30034488439559937, -0.03018416278064251, -0.08740910142660141, -0.18141093850135803], [-0.39292120933532715, -0.10746605694293976, 0.06881629675626755, 0.1438431739807129, -0.21659976243972778, -0.16569961607456207, -0.12816306948661804, -0.14934967458248138, 0.02551138587296009, -0.024607976898550987, 0.09546291828155518, -0.1822740137577057, 0.15351107716560364, 0.04688699543476105, 0.017650621011853218, 0.05306132510304451], [-0.29958927631378174, -0.0053775729611516, -0.021772168576717377, 0.163904070854187, -0.16486592590808868, -0.05915364995598793, 0.02241317555308342, -0.1679387092590332, 0.013814156875014305, 0.0918869823217392, 0.17471332848072052, -0.13995900750160217, 0.14714935421943665, 0.0974072515964508, -0.06477180868387222, 0.145196333527565], [-0.5234218239784241, 0.13778303563594818, 0.15434187650680542, -0.015833696350455284, -0.04449599236249924, -0.12502767145633698, -0.1360505074262619, 0.033760201185941696, -0.10193188488483429, 0.12758389115333557, -0.04144781455397606, -0.3215825855731964, 0.011432225815951824, 0.1962190419435501, -0.13854309916496277, 0.07422739267349243], [-0.3342273235321045, 0.1349688321352005, 0.03336276859045029, 0.048178043216466904, -0.08748490363359451, -0.002457132562994957, -0.013013297691941261, 0.08680427074432373, -0.08946685492992401, 0.1521698236465454, -0.018250765278935432, -0.05114391818642616, 0.1314949095249176, 0.14023765921592712, -0.06317313760519028, 0.004937138874083757], [-0.4574836194515228, 0.16110916435718536, -0.020177025347948074, -0.040900155901908875, -0.05208174139261246, 0.054481346160173416, -0.04251435771584511, -0.06188896298408508, 0.07031675428152084, 0.002198729431256652, 0.0008709060493856668, -0.10119594633579254, 0.12146811187267303, 0.09827279299497604, 0.0646498054265976, 0.15918661653995514], [-0.3206178545951843, 0.1453479528427124, -0.12384714931249619, -0.10255755484104156, -0.07399065792560577, 0.011684807017445564, -0.11813391000032425, -0.04800625145435333, 0.06253503262996674, 0.24558614194393158, 0.058995913714170456, 0.05768565833568573, 0.15722766518592834, 0.11815453320741653, 0.17876742780208588, -0.0026184848975390196], [-0.3200058341026306, 0.08993463963270187, -0.12474431842565536, -0.1850941926240921, 0.020929744467139244, -0.12169884890317917, -0.11509262770414352, -0.0720117837190628, 0.08872085809707642, 0.1634959578514099, -0.0013003998901695013, 0.1225152462720871, 0.23215335607528687, 0.12295129150152206, 0.08383668959140778, -0.04623023048043251], [-0.22490623593330383, 0.23947690427303314, -0.08509469777345657, -0.20336408913135529, 0.004011910874396563, 0.03278814256191254, 0.004370003007352352, -0.16371996700763702, 0.22217944264411926, 0.10644499212503433, -0.09447450190782547, -0.0038199275732040405, 0.1555412858724594, 0.10449257493019104, 0.04852525517344475, -0.09556782990694046], [-0.08938506990671158, 0.11881200969219208, -0.11376934498548508, -0.026320479810237885, -0.0031216884963214397, 0.05400810018181801, -0.046022407710552216, -0.07913411408662796, 0.09815938025712967, 0.0834493339061737, -0.04705654829740524, -0.10724484920501709, 0.019448842853307724, -0.003955460619181395, -0.016578800976276398, 0.001637171022593975], [-0.14831237494945526, -0.06955191493034363, 0.0544721856713295, -0.026414142921566963, 0.016974620521068573, -0.051666323095560074, 0.05404515564441681, -0.0008465519058518112, 0.15906229615211487, 0.04558538645505905, -0.15130546689033508, -0.14630211889743805, 0.179862380027771, 0.009761485271155834, 0.11711001396179199, 0.006103180348873138], [-0.22092199325561523, 0.10270267724990845, -0.0966152548789978, 0.04278721287846565, -0.019844945520162582, 0.022130737081170082, 0.07932042330503464, -0.016507158055901527, 0.22499924898147583, 0.05583782494068146, 0.06226083263754845, -0.23190441727638245, 0.1621183454990387, -0.02438811957836151, 0.3352043926715851, 0.12712569534778595], [-0.08695737272500992, 0.08876166492700577, -0.06936180591583252, -0.08698615431785583, -0.10842493176460266, 0.15942808985710144, 0.09533952921628952, -0.031933948397636414, 0.12639611959457397, 0.14152215421199799, -0.006215877830982208, -0.06775002181529999, 0.10818203538656235, -0.09140060096979141, 0.2367345094680786, 0.09727899730205536], [0.01351535227149725, 0.2111566811800003, -0.14996320009231567, 0.019145196303725243, -0.05585873872041702, 0.09902838617563248, -0.021033797413110733, 0.03460391238331795, 0.15477526187896729, 0.013138722628355026, -0.13056498765945435, -0.08242971450090408, 0.02800438553094864, -0.03397341072559357, 0.1409079134464264, 0.17118193209171295], [0.10181842744350433, 0.17023001611232758, -0.17164385318756104, -0.09595348685979843, -0.12195493280887604, 0.029223185032606125, 0.11434908211231232, -0.04552779719233513, 0.24380670487880707, 0.15408216416835785, -0.01928052492439747, -0.2782222032546997, 0.12486878782510757, -0.1901898831129074, 0.02291024476289749, 0.12204504758119583], [0.16079942882061005, 0.06927027553319931, -0.33467161655426025, -0.12636350095272064, -0.09751731902360916, 0.2000320851802826, 0.09294222295284271, -0.0599641390144825, 0.2398814857006073, 0.08601951599121094, 0.07306364178657532, -0.15859246253967285, 0.17640207707881927, -0.04387929290533066, 0.16015775501728058, 0.058093853294849396], [0.15353387594223022, 0.11347219347953796, -0.3084825873374939, 0.06409873813390732, 0.1050683781504631, 0.10474634915590286, 0.020984774455428123, -0.024015087634325027, 0.22725434601306915, 0.014295108616352081, 0.17956826090812683, -0.054179634898900986, 0.15247203409671783, -0.14093543589115143, 0.008007067255675793, 0.06779931485652924], [0.1263856142759323, 0.17691339552402496, -0.3509695827960968, 0.10311755537986755, 0.005736728198826313, 0.05361635982990265, 0.0717657282948494, -0.0030468094628304243, 0.21278101205825806, -0.16894443333148956, 0.08718831092119217, -0.12887699902057648, -0.0159283559769392, -0.13586436212062836, 0.1498679667711258, -0.01564301922917366], [0.1628105193376541, 0.31928494572639465, -0.30769309401512146, 0.07344505190849304, -0.09725891798734665, 0.021214572712779045, 0.05104738473892212, 0.09751474857330322, -0.07758759707212448, -0.04981950297951698, -0.022147376090288162, -0.046324051916599274, -0.08455996215343475, -0.3120264410972595, 0.012745620682835579, 0.21541514992713928], [0.032481200993061066, 0.15134523808956146, -0.3826923370361328, -0.11045322567224503, 0.005000981502234936, 0.18441098928451538, 0.23131513595581055, 0.13314202427864075, -0.21275898814201355, 0.010017641820013523, -0.07835548371076584, 0.09968063235282898, -0.10312376171350479, -0.2518596351146698, 0.17028096318244934, 0.09135892987251282], [-0.2305525839328766, 0.11487976461648941, -0.15585120022296906, -0.33775344491004944, 0.12628985941410065, 0.09561711549758911, 0.20872390270233154, -0.18452619016170502, 0.13426204025745392, 0.21788695454597473, 0.13128486275672913, 0.14354506134986877, 0.1651424914598465, 0.07018940895795822, 0.14221476018428802, 0.07170399278402328], [-0.12669412791728973, 0.05535357445478439, -0.20296843349933624, -0.3096090853214264, -0.1974458396434784, 0.18730036914348602, 0.5113767385482788, -0.3406054377555847, -0.02328297682106495, 0.14730089902877808, 0.037552446126937866, 0.0766998678445816, 0.31870535016059875, -0.18250268697738647, 0.020403221249580383, 0.0870557352900505], [0.01286426279693842, 0.0632302463054657, -0.0005458611994981766, -0.29862016439437866, -0.13126468658447266, 0.16750481724739075, 0.13944260776042938, 0.001117287902161479, -0.1977725625038147, 0.25888577103614807, -0.22263361513614655, -0.16916127502918243, -0.06609705835580826, -0.2562977075576782, -0.2517305016517639, 0.2751147150993347], [-0.053521569818258286, -0.04677635058760643, -0.010283499956130981, -0.00890514999628067, 0.05138857662677765, 0.08178599178791046, -0.02685844898223877, -0.04899989813566208, -0.007096968591213226, -0.03948312625288963, -0.07686363905668259, 0.007907718420028687, 0.005042240023612976, 0.08309559524059296, -0.03823757544159889, 0.002615399658679962], [-0.1522589921951294, -0.06367291510105133, -0.2015584409236908, 0.1618576943874359, 0.0785248801112175, -0.10519880056381226, 0.17798170447349548, -0.15454313158988953, 0.1503322273492813, -0.21380214393138885, 0.12045746296644211, -0.12048567831516266, 0.1286771297454834, 0.16801226139068604, 0.019090278074145317, 0.22067201137542725], [-0.062400538474321365, 0.17878346145153046, -0.17190535366535187, 0.17528901994228363, -0.21467456221580505, 0.17153020203113556, 0.15552496910095215, 0.0441182404756546, 0.0801425352692604, -0.007285492494702339, 0.23166295886039734, 0.1491498053073883, 0.08466791361570358, 0.14464646577835083, 0.0767439752817154, 0.0008192517561838031], [0.16210703551769257, -0.35925713181495667, -0.059781089425086975, -0.10420051217079163, 0.037631914019584656, -0.38723379373550415, -0.011712628416717052, 0.036314383149147034, 0.12149164825677872, -0.007866119034588337, -0.1055554673075676, -0.08162666112184525, 0.059509966522455215, 0.43326032161712646, -0.2388886660337448, 0.06557423621416092], [0.16816046833992004, -0.0066595119424164295, 0.19253404438495636, -0.02164953574538231, 0.22638636827468872, -0.41486698389053345, -0.20153126120567322, 0.25952476263046265, -0.25997599959373474, 0.024526648223400116, 0.14197205007076263, -0.08217660337686539, -0.08738355338573456, 0.11641782522201538, -0.16214095056056976, 0.11494216322898865], [-0.2572205662727356, -0.03058386780321598, 0.031593646854162216, 0.06784931570291519, -0.13177892565727234, -0.2044122964143753, 0.029076017439365387, 0.32792550325393677, -0.21416880190372467, -0.03401857614517212, 0.1305968016386032, -0.06633368134498596, -0.11668185144662857, 0.18035617470741272, -0.07497023791074753, 0.06527140736579895], [-0.30046552419662476, -0.08735635131597519, -0.03249422833323479, 0.21754691004753113, -0.06505589932203293, -0.3083527088165283, -0.04763355851173401, 0.15305842459201813, -0.08991673588752747, 0.011712717823684216, 0.0641200840473175, -0.11811762303113937, 0.1337163895368576, 0.290741503238678, -0.015792185440659523, -0.023672889918088913], [-0.23018750548362732, 0.1359909474849701, -0.029690617695450783, 0.10128849744796753, -0.08312642574310303, -0.04830513894557953, 0.018843216821551323, 0.02550092153251171, -0.1248805969953537, 0.0953964814543724, -0.010731885209679604, -0.16665256023406982, -0.01844656467437744, 0.2570551335811615, -0.16071030497550964, 0.11454691737890244], [-0.3521171808242798, 0.03799765557050705, 0.004506791941821575, 0.0110541433095932, -0.052423328161239624, -0.09033127129077911, -0.019955601543188095, 0.17337638139724731, -0.17709752917289734, 0.2318427413702011, 0.2116900235414505, -0.09028651565313339, 0.1248624250292778, 0.18076090514659882, -0.22821490466594696, 0.033632826060056686], [-0.3053450882434845, 0.16223163902759552, 0.00346494372934103, 0.13152195513248444, -0.0399562269449234, -0.14086894690990448, -0.054361529648303986, 0.045323241502046585, -0.07269243896007538, 0.2155294120311737, 0.09791453927755356, 0.08816146850585938, 0.1433011144399643, 0.12992483377456665, -0.07680180668830872, 0.06730196624994278], [-0.1939164698123932, 0.0976177304983139, 0.04009387642145157, 0.22715675830841064, 0.005423231050372124, -0.0827525407075882, -0.1713986098766327, -0.011490871198475361, -0.0455736480653286, 0.1596982330083847, 0.11804826557636261, 0.04830647259950638, 0.19850657880306244, 0.15598958730697632, -0.07982779294252396, 0.037370871752500534], [-0.1026858240365982, 0.16916781663894653, 0.06109124794602394, 0.0799776166677475, -0.05910072103142738, 0.0028258091770112514, -0.2132437825202942, -0.14420603215694427, -0.05752149969339371, 0.13879315555095673, 0.03590751811861992, 0.127853125333786, 0.13493943214416504, 0.18769560754299164, -0.04157925024628639, -0.10146089643239975], [-0.1665026694536209, 0.1168646365404129, 0.0821848064661026, 0.048437394201755524, 0.06853943318128586, 0.11764542758464813, -0.1039455384016037, -0.20346643030643463, -0.05247589573264122, 0.14161498844623566, 0.14620856940746307, 0.10927946120500565, 0.13431857526302338, -0.010615216568112373, -0.022765211760997772, -0.0990002378821373], [-0.21568594872951508, 0.12593629956245422, 0.06926428526639938, 0.07492151856422424, -0.1257995367050171, 0.008403299376368523, -0.0458218939602375, -0.20156699419021606, 0.233784019947052, 0.1672830581665039, 0.014924207702279091, 0.18219849467277527, 0.08498499542474747, 0.05448703467845917, 0.009580707177519798, -0.13441075384616852], [-0.06873232871294022, 0.12361372262239456, 0.19387276470661163, 0.11798356473445892, -0.0437847338616848, 0.0348423570394516, -0.15487676858901978, -0.08652476221323013, 0.15292122960090637, 0.02867884561419487, 0.07611861824989319, 0.3246982991695404, -0.010113248601555824, 0.10660780221223831, 0.1197468638420105, -0.07180475443601608], [-0.061928972601890564, 0.02898477390408516, 0.19382312893867493, 0.056341253221035004, -0.13850688934326172, 0.12540623545646667, -0.014126303605735302, -0.18130327761173248, 0.22282977402210236, 0.13518600165843964, 0.013562913052737713, 0.21546411514282227, 0.05273321270942688, 0.07748863101005554, 0.11692449450492859, 0.014266392216086388], [-0.09709718823432922, 0.01099045854061842, 0.2266606241464615, 0.14474111795425415, -0.04082832857966423, 0.004136568401008844, -0.04942246153950691, -0.16629503667354584, 0.2142818719148636, 0.1104804277420044, -0.03969982638955116, 0.04359755665063858, 0.06612644344568253, 0.10335031896829605, 0.11580006033182144, -0.0376092791557312], [-0.03930506482720375, 0.0936785489320755, 0.13670165836811066, 0.017179913818836212, -0.12098875641822815, 0.017020333558321, 0.03598592057824135, -0.11060646921396255, 0.2541682720184326, 0.23142482340335846, -0.08956138789653778, 0.06418293714523315, -0.02311907522380352, 0.08289098739624023, 0.1703137904405594, -0.15479010343551636], [0.11278574913740158, 0.13639836013317108, 0.10783539712429047, 0.04799291864037514, -0.1488684117794037, -0.11535044014453888, 0.030975917354226112, -0.1335393786430359, 0.34287309646606445, 0.09008472412824631, -0.09430062025785446, 0.04180387780070305, 0.06967923045158386, 0.09812679141759872, 0.18731187283992767, -0.0999467745423317], [-0.0037017236463725567, 0.08306928724050522, -0.1646462380886078, 0.0743127167224884, -0.07548241317272186, 0.0742528885602951, 0.06178845092654228, -0.1310957968235016, 0.11913365870714188, 0.11796640604734421, 0.07287423312664032, 0.11547783017158508, -0.027976445853710175, 0.11389975249767303, 0.20850318670272827, -0.0911334678530693], [0.09562825411558151, 0.2031034380197525, -0.20064155757427216, -0.01118891779333353, -0.13573159277439117, -0.037918031215667725, 0.09387084096670151, -0.12863963842391968, 0.11711128801107407, 0.13514697551727295, -0.03298668563365936, 0.09299679845571518, 0.06143740937113762, 0.024317685514688492, 0.09581563621759415, -0.14899396896362305], [0.19880564510822296, 0.08026797324419022, -0.1735299825668335, -0.06380729377269745, -0.08128450810909271, -0.04895738139748573, -0.00034075105213560164, -0.09388387203216553, 0.11631010472774506, 0.11286260932683945, -0.05995083972811699, 0.040348120033741, -0.017877699807286263, 0.2100304663181305, -0.015293908305466175, 0.014227092266082764], [0.026040343567728996, 0.21124684810638428, -0.4497336745262146, 0.08997233957052231, -0.1261245310306549, 0.10075260698795319, -0.027016624808311462, 0.053966838866472244, 0.012818134389817715, -0.00902520027011633, 0.009508922696113586, -0.016349952667951584, -0.08875066041946411, 0.05233730375766754, 0.04887302592396736, 0.09314630180597305], [0.043363504111766815, 0.03324773907661438, -0.5252417325973511, -0.038586001843214035, -0.1029616966843605, 0.2012895941734314, 0.22038322687149048, 0.05707762390375137, -0.0016800981247797608, 0.03604208678007126, -0.015076926909387112, 0.05465391278266907, 0.023291632533073425, -0.15192081034183502, 0.12661558389663696, 0.11157145351171494], [-0.02842516079545021, 0.1537938117980957, -0.4726467430591583, -0.1919441819190979, -0.0678158774971962, 0.19762422144412994, 0.2912372648715973, 0.024950483813881874, -0.26381629705429077, -0.11350078880786896, 0.004837550222873688, 0.06166612356901169, -0.11733462661504745, -0.08298419415950775, 0.4074555039405823, 0.1195940151810646], [-0.06428301334381104, 0.06357140839099884, -0.24817456305027008, -0.5328359007835388, 0.16703008115291595, 0.26923587918281555, 0.19530925154685974, -0.22234301269054413, 0.04056033864617348, 0.0322483666241169, 0.10573607683181763, 0.14349591732025146, 0.1654243916273117, -0.31279703974723816, 0.32205259799957275, 0.09600204229354858], [-0.015568166971206665, 0.05355639383196831, -0.33543282747268677, -0.3734831213951111, 0.14906561374664307, 0.08362584561109543, 0.11784766614437103, -0.07142883539199829, -0.04176337271928787, 0.02955254539847374, 0.1692134141921997, 0.3084292709827423, 0.22991503775119781, -0.22717438638210297, 0.3876371383666992, 0.03711536154150963], [0.05993930250406265, 0.26892122626304626, -0.09902705252170563, -0.1833946853876114, 0.09519913792610168, 0.11669380217790604, -0.0004427515668794513, -0.019266806542873383, -0.06337945908308029, 0.004606765229254961, -0.13330689072608948, -0.15169061720371246, 0.026312626898288727, -0.11230750381946564, -0.1276097595691681, 0.16345514357089996], [0.026253990828990936, 0.0063221026211977005, 0.10010674595832825, -0.01280613336712122, 0.02815253846347332, 0.031719379127025604, -0.09263981133699417, 0.14370304346084595, -0.08851830661296844, 0.044470153748989105, -0.1175076812505722, 0.054296739399433136, 0.022209426388144493, 0.1106240525841713, 0.02555108070373535, -0.09414196759462357], [-0.2760384976863861, 0.13298116624355316, -0.2641509473323822, 0.22099439799785614, 0.26016560196876526, -0.29239022731781006, 0.2525818347930908, -0.14752212166786194, 0.03920077160000801, -0.33982500433921814, 0.04975028708577156, -0.13304513692855835, 0.3700554072856903, 0.01788877695798874, -0.00040006189374253154, 0.25379976630210876], [-0.36789894104003906, 0.09287280589342117, -0.14900535345077515, 0.1224193125963211, 0.15966667234897614, 0.018638618290424347, -0.0954885184764862, 0.04783926531672478, 0.07333524525165558, 0.15754356980323792, -0.0031757759861648083, -0.01464614924043417, -0.13752053678035736, 0.37927550077438354, -0.1601617932319641, 0.12746405601501465], [-0.31032025814056396, -0.09306008368730545, 0.09526942670345306, 0.05770600959658623, 0.16453737020492554, -0.5364073514938354, -0.14028668403625488, 0.16212967038154602, -0.006314935628324747, 0.12391766905784607, -0.06282108277082443, 0.07441673427820206, 0.07676628977060318, 0.5477491617202759, -0.28595679998397827, -0.0884898453950882], [0.03177069500088692, -0.05528601258993149, 0.02345752716064453, -0.059385303407907486, 0.11680345982313156, -0.742290198802948, -0.05962301045656204, 0.22047188878059387, -0.02720857411623001, 0.027722500264644623, 0.07046996057033539, -0.41153010725975037, 0.23158274590969086, 0.04587307944893837, -0.2971839904785156, 0.27571991086006165], [-0.022725127637386322, 0.05895010381937027, -0.2939421236515045, 0.025552881881594658, -0.03798964247107506, -0.18049484491348267, -0.05514277145266533, 0.15124915540218353, -0.1628473848104477, -0.1713705062866211, 0.2061665654182434, -0.25633886456489563, 0.05363857001066208, 0.009927937760949135, 0.11831710487604141, 0.2750927805900574], [-0.3848839998245239, 0.05163257569074631, -0.021263714879751205, -0.05789780244231224, -0.10536621510982513, -0.18757878243923187, -0.03024258278310299, 0.09076663851737976, -0.024262866005301476, 0.07089873403310776, 0.14940068125724792, -0.10463010519742966, 0.04484434425830841, 0.2355019599199295, 0.03716904670000076, 0.13537657260894775], [-0.24309001863002777, 0.04702155664563179, 0.09835681319236755, 0.18669670820236206, 0.10730642825365067, -0.004184302873909473, -0.11094295233488083, 0.22468338906764984, -0.2625766694545746, -0.03957298770546913, 0.09359350055456161, -0.22095127403736115, 0.027903614565730095, 0.19731567800045013, -0.09322677552700043, 0.17338788509368896], [-0.40834012627601624, 0.05365657061338425, -0.05539558827877045, 0.04753066226840019, 0.10496799647808075, 0.029535828158259392, 0.012998506426811218, -0.028419937938451767, -0.17477776110172272, 0.10789414495229721, 0.2355671525001526, -0.018913470208644867, 0.11384603381156921, 0.07540563493967056, 0.039893243461847305, 0.058102406561374664], [-0.18880684673786163, 0.11492234468460083, 0.0441109761595726, 0.2497372329235077, 0.0593426451086998, -0.045109137892723083, 0.005378545727580786, 0.07658734917640686, -0.13365010917186737, 0.18897384405136108, 0.15680696070194244, 0.007179659325629473, 0.06533315032720566, 0.12208332866430283, -0.031571563333272934, 0.041117820888757706], [-0.057117123156785965, 0.22710657119750977, 0.03705495223402977, 0.10660450905561447, 0.049216289073228836, 0.13028326630592346, -0.006263553164899349, -0.025055784732103348, -0.04378212243318558, 0.1721813678741455, 0.12991885840892792, 0.09549212455749512, 0.14195309579372406, 0.14377248287200928, -0.019987741485238075, -0.0930110290646553], [-0.16190358996391296, 0.25556981563568115, 0.10959289222955704, 0.09259752929210663, 0.06294023245573044, 0.047498732805252075, -0.17179617285728455, -0.02400256134569645, -0.0625726580619812, 0.05008520558476448, 0.07936295866966248, 0.09819000214338303, -0.010573252104222775, 0.03213877975940704, -0.021709585562348366, -0.020803920924663544], [-0.05224023759365082, 0.2053520530462265, 0.12493424862623215, 0.12320472300052643, -0.04552557319402695, -0.0575551800429821, -0.05790848284959793, -0.23824700713157654, -0.027317270636558533, 0.1781395822763443, -0.040371570736169815, 0.1589246541261673, 0.04360737279057503, 0.20452237129211426, -0.007310422137379646, -0.027286957949399948], [-0.05836596339941025, 0.21384790539741516, 0.18431198596954346, 0.12334009259939194, -0.013470434583723545, 0.015079325996339321, -0.2700667381286621, -0.16234003007411957, 0.10297221690416336, 0.15484872460365295, 0.018286632373929024, 0.17851732671260834, -0.05969187244772911, 0.11492116749286652, 0.029657239094376564, -0.03146903216838837], [0.036929380148649216, 0.1465354561805725, 0.3621993660926819, 0.17710299789905548, -0.09191033244132996, 0.03532121330499649, -0.05133994668722153, -0.16574949026107788, 0.2962426245212555, -0.00643491605296731, 0.05692683532834053, 0.285297691822052, 0.031945161521434784, -0.058608878403902054, 0.12033238261938095, 0.11949189752340317], [-0.08496449142694473, -0.030431505292654037, 0.30877262353897095, 0.03185124322772026, -0.10029657185077667, 0.02295079454779625, -0.035766758024692535, -0.11858082562685013, 0.21495544910430908, 0.15047861635684967, 0.00993218645453453, 0.2828059792518616, -0.05332224443554878, 0.0358428955078125, 0.1294345110654831, 0.04716821387410164], [0.044600605964660645, 0.16664257645606995, 0.23471815884113312, 0.14913970232009888, -0.14626993238925934, -0.05519014596939087, -0.07349412888288498, -0.1883675903081894, 0.268087238073349, 0.1519472599029541, 0.10705184191465378, 0.20510411262512207, -0.08022186160087585, 0.0460694320499897, 0.2477269172668457, -0.15183207392692566], [0.13239489495754242, 0.12329498678445816, 0.02085806243121624, 0.21525926887989044, -0.12584716081619263, 0.012086375616490841, -0.01661629229784012, 0.02173890545964241, 0.12665300071239471, 0.09817168116569519, -0.06835736334323883, 0.21141020953655243, -0.09835424274206161, 0.1687515377998352, 0.1571284830570221, -0.00954393483698368], [0.07060323655605316, 0.19321736693382263, -0.10880540311336517, 0.06688748300075531, -0.039253074675798416, 0.022041436284780502, -0.006387700326740742, 0.005863253027200699, 0.17107830941677094, 0.22146861255168915, 0.023855457082390785, 0.01965617947280407, 0.0066842492669820786, 0.1914166957139969, 0.03074999526143074, -0.09859246015548706], [0.09850466251373291, 0.24596886336803436, -0.24265919625759125, 0.15616819262504578, -0.09342971444129944, -0.09767983853816986, 0.07825326919555664, -0.04185406118631363, 0.1525973528623581, 0.11650872230529785, -0.025690658017992973, 0.10800524055957794, -0.03804824873805046, 0.13587401807308197, 0.1152186393737793, 0.022786421701312065], [0.12863828241825104, 0.20309384167194366, -0.15031015872955322, 0.06511563807725906, 0.01403052732348442, -0.014021588489413261, 0.11101588606834412, -0.04855445399880409, 0.10623475909233093, 0.03790568932890892, -0.002111174399033189, 0.14484840631484985, 0.005331533960998058, 0.11732291430234909, 0.1737043857574463, -0.06742247939109802], [0.20193074643611908, 0.11270684748888016, -0.1606115847826004, -0.0918000340461731, 0.16043171286582947, 0.0440632626414299, -0.012425108812749386, 0.061135340481996536, 0.0693601667881012, 0.03700488060712814, -0.034220628440380096, 0.15990252792835236, -0.0048326486721634865, 0.04334317147731781, 0.12948305904865265, -0.09060398489236832], [0.12320269644260406, -0.03128693625330925, -0.2257305234670639, 0.13991564512252808, 0.24810443818569183, 0.09546277672052383, 0.06822402030229568, 0.10495525598526001, 0.10801877081394196, 0.09489540010690689, 0.1461256444454193, -0.018983693793416023, -0.020117932930588722, 0.1776113659143448, 0.15158261358737946, 0.005819042678922415], [0.157883882522583, -0.107989601790905, -0.4557541608810425, -0.0033652272541075945, -0.08895155787467957, 0.29946815967559814, 0.0349036306142807, 0.10219880193471909, -0.005618004128336906, 0.10347449779510498, 0.13288770616054535, 0.14368322491645813, -0.1605384349822998, 0.13641640543937683, 0.15176692605018616, 0.061403945088386536], [-0.10808724164962769, -0.07923343032598495, -0.3494402766227722, -0.27967700362205505, -0.0012079551815986633, 0.5281176567077637, 0.07763783633708954, 0.020315520465373993, -0.08937188237905502, 0.015948567539453506, 0.0539887398481369, 0.08070356398820877, -0.2828505337238312, 0.03994108363986015, 0.11680816113948822, 0.21498067677021027], [-0.15851938724517822, -0.07468952983617783, -0.23472264409065247, -0.3701246380805969, 0.11389917880296707, 0.2692430019378662, 0.23403474688529968, 0.016496727243065834, -0.09126985818147659, -0.06777109205722809, 0.3195202350616455, 0.36440563201904297, 0.25934723019599915, -0.2547003924846649, 0.49621811509132385, 0.20499597489833832], [-0.027214540168642998, 0.16191314160823822, -0.02104690670967102, -0.222665473818779, 0.3381752669811249, -0.10237041860818863, -0.06993502378463745, 0.08408103138208389, 0.022644739598035812, 0.17710278928279877, -0.08431678265333176, 0.11129005998373032, 0.06438688933849335, -0.3938907980918884, 0.20090709626674652, 0.27390795946121216], [0.0634908378124237, 0.26686739921569824, -0.25417041778564453, -0.1456402838230133, 0.06137771159410477, 0.22459837794303894, 0.04691653698682785, -0.045548781752586365, -0.004057250451296568, -0.18940016627311707, 0.01159921195358038, -0.04431842267513275, 0.06387338042259216, -0.05739467591047287, -0.06266206502914429, 0.17550888657569885], [-0.07769984751939774, 0.07199148088693619, 0.006574941333383322, 0.06244483217597008, -0.2293165773153305, 0.20775845646858215, -0.1360289752483368, -0.15778425335884094, 0.18783701956272125, -0.19926829636096954, -0.07377277314662933, -0.1842852234840393, 0.021463701501488686, 0.32246583700180054, 0.14741186797618866, 0.2409910410642624], [-0.3061176538467407, 0.17583870887756348, 0.2982964813709259, 0.20322185754776, 0.3406078815460205, -0.14330774545669556, 0.06414448469877243, 0.06079449877142906, -0.19151251018047333, -0.17775319516658783, -0.2693638503551483, 0.1467982977628708, 0.28237250447273254, 0.3603026866912842, -0.2256229966878891, -0.2946932911872864], [-0.20812666416168213, -0.03681959584355354, -0.08465783298015594, 0.20910201966762543, 0.10697445273399353, 0.09304705262184143, -0.029556410387158394, 0.34585461020469666, 0.1794486939907074, 0.13948096334934235, 0.03596390411257744, -0.14968565106391907, -0.1056719571352005, 0.19838562607765198, 0.1089930385351181, 0.051379840821027756], [0.035447537899017334, -0.2231927514076233, 0.0010740738362073898, 0.2593611478805542, 0.06532327830791473, -0.3053126335144043, 0.02026025950908661, 0.0871918648481369, 0.04535022750496864, 0.11315400898456573, -0.08028095215559006, -0.16212715208530426, 0.08414964377880096, 0.29267561435699463, -0.17039582133293152, -0.017454804852604866], [0.0568280890583992, -0.18630684912204742, -0.11582102626562119, -0.011529827490448952, 0.29093775153160095, -0.6645039916038513, -0.08951332420110703, 0.18201909959316254, 0.035346850752830505, 0.058675576001405716, 0.0676715150475502, -0.4201241135597229, 0.10017116367816925, 0.15370263159275055, -0.2678133249282837, 0.2607889473438263], [-0.0202878937125206, -0.004842722322791815, -0.11051518470048904, 0.018278446048498154, 0.005879800766706467, -0.11402925103902817, -0.06367558240890503, 0.14938507974147797, -0.16986826062202454, -0.022165339440107346, 0.13709723949432373, -0.025963321328163147, 0.0820135846734047, 0.0893935039639473, -0.03636251017451286, 0.176121324300766], [-0.10395925492048264, -0.18981514871120453, -0.06379631161689758, 0.0014265368226915598, 0.11372950673103333, -0.022735759615898132, -0.14657150208950043, 0.17148518562316895, -0.07558563351631165, 0.16506104171276093, 0.22194187343120575, 0.049048762768507004, 0.009139561094343662, 0.3040437698364258, -0.08152764290571213, 0.007914555259048939], [-0.002361175836995244, -0.07705976814031601, 0.019027385860681534, 0.14627763628959656, 0.16501633822917938, 0.01405674684792757, 0.018067574128508568, 0.13413304090499878, -0.15825583040714264, 0.126889169216156, 0.15028934180736542, -0.03519555181264877, 0.12284301221370697, 0.205022394657135, -0.16657981276512146, 0.03908701241016388], [-0.2513497471809387, 0.060661301016807556, 0.15438134968280792, 0.09031330794095993, -0.006075908429920673, 0.1325012892484665, -0.08384574204683304, -0.004949667025357485, -0.0243586003780365, 0.19396521151065826, 0.08002716302871704, 0.17068062722682953, 0.07283691316843033, 0.17034566402435303, -0.09991319477558136, -0.02633075602352619], [-0.28663408756256104, 0.030453097075223923, 0.053017884492874146, 0.02571292221546173, -0.005355035420507193, 0.19453787803649902, -0.017719164490699768, 0.07676184177398682, -0.1692637801170349, 0.1806359589099884, 0.08496785163879395, 0.012963930144906044, 0.07931910455226898, 0.16565728187561035, 0.007856120355427265, -0.03083903156220913], [-0.09414543211460114, 0.050960760563611984, 0.03704240173101425, 0.048946503549814224, 0.09961016476154327, 0.06692124158143997, 0.02365940995514393, 0.042397670447826385, -0.05984582006931305, 0.06141412630677223, 0.11222227662801743, 0.09070233255624771, 0.0013069304404780269, 0.0589103028178215, -0.0871366485953331, 0.00921008549630642], [-0.09963205456733704, 0.2227320522069931, 0.010364711284637451, 0.13722434639930725, 0.03647797182202339, 0.13427717983722687, -0.015498190186917782, -0.026430249214172363, -0.16595813632011414, 0.21051651239395142, -0.010252256877720356, 0.08198511600494385, -0.1184721440076828, 0.15058748424053192, -0.02958923578262329, 0.04491820186376572], [0.06215907633304596, 0.26525887846946716, 0.07266392558813095, 0.1029919758439064, 0.04885553568601608, 0.13502807915210724, 0.03663276880979538, -0.11315669864416122, -0.08988605439662933, 0.07528260350227356, 0.024404728785157204, 0.19261528551578522, 0.014210802502930164, 0.18379415571689606, -0.0923093855381012, 0.13580140471458435], [0.2203143835067749, 0.1696704775094986, 0.13068068027496338, 0.0881473496556282, 0.1309829205274582, 0.13555561006069183, 0.008057443425059319, -0.14937320351600647, 0.06968030333518982, 0.20277997851371765, 0.020977074280381203, 0.1078830137848854, 0.10066791623830795, 0.13362979888916016, -0.05244580656290054, 0.07244260609149933], [0.10437620431184769, 0.19073152542114258, 0.27059850096702576, 0.12061750143766403, 0.08951406925916672, -0.07373064011335373, -0.05017124488949776, -0.08210489898920059, 0.1380482167005539, 0.11887534707784653, 0.03488297387957573, 0.27748191356658936, 0.08478236943483353, 0.19442345201969147, 0.04076245427131653, 0.16222888231277466], [0.0386323481798172, 0.20024117827415466, 0.2735852599143982, 0.12255088984966278, -0.017993059009313583, -0.0762847363948822, -0.013875619508326054, -0.07143855094909668, 0.26607680320739746, 0.10296759754419327, 0.031302109360694885, 0.14256732165813446, 0.0177385862916708, 0.2506154179573059, 0.028941603377461433, 0.09045346081256866], [0.017617227509617805, 0.09282690286636353, -0.028262455016374588, 0.059806182980537415, -0.135344460606575, -0.025473983958363533, -0.008082949556410313, -0.11029177904129028, 0.37072238326072693, 0.06462042778730392, 0.21391111612319946, 0.20563079416751862, -0.0831853374838829, 0.3520398736000061, 0.12006478011608124, 0.14569203555583954], [0.11900191009044647, 0.136882022023201, -0.04675411432981491, 0.1447390913963318, 0.08058042824268341, -0.05096949264407158, 0.009443663991987705, 0.040232934057712555, 0.20104193687438965, 0.08137734234333038, -0.013330325484275818, 0.037721581757068634, -0.019855866208672523, 0.1917564570903778, 0.06318747997283936, 0.060685668140649796], [0.09620047360658646, 0.13006995618343353, -0.2133975327014923, 0.06280866265296936, -0.13797111809253693, -0.12534059584140778, 0.1465839296579361, -0.025721538811922073, 0.25042665004730225, 0.09575287997722626, 0.1994711309671402, 0.14552636444568634, -0.1117849126458168, 0.3027023673057556, 0.037508100271224976, -0.10563531517982483], [0.15500210225582123, 0.06512311100959778, -0.27538374066352844, 0.07502711564302444, 0.1016186773777008, -0.11496022343635559, 0.05450805276632309, -0.09647257626056671, 0.2315809726715088, 0.09245362132787704, 0.08455146104097366, 0.1167093813419342, -0.06438063085079193, 0.17451654374599457, 0.1381618082523346, 0.019203543663024902], [0.09347981959581375, 0.020271845161914825, -0.11311804503202438, 0.1320851892232895, 0.10061392933130264, 0.016978492960333824, 0.07235293835401535, 0.07471475750207901, 0.0852411612868309, 0.0047598606906831264, 0.08942980319261551, 0.011375417932868004, -0.1478710174560547, 0.16627849638462067, 0.024171950295567513, 0.01288007665425539], [0.05865178629755974, 0.021656591445207596, -0.14060010015964508, -0.015663232654333115, 0.11190576106309891, 0.059082236140966415, 0.03639986366033554, 0.10386505722999573, 0.07052953541278839, 0.04205680638551712, 0.012851295061409473, 0.25802159309387207, -0.18056459724903107, 0.2355719804763794, 0.09090118110179901, -0.0774364322423935], [0.13032770156860352, -0.06377486139535904, -0.1793188452720642, 0.03282085433602333, 0.15468063950538635, 0.10025018453598022, 0.152811661362648, -0.010635691694915295, 0.1985401064157486, -0.02798968367278576, 0.07980974018573761, 0.09423896670341492, 0.0788554772734642, 0.20324137806892395, 0.09359174221754074, 0.04986492544412613], [0.24046558141708374, 0.09642899036407471, -0.229452982544899, 0.18673354387283325, 0.07383996993303299, 0.3976118564605713, 0.014044316485524178, 0.05129527673125267, 0.05278683453798294, 0.01282957661896944, 0.13741469383239746, 0.006352155469357967, -0.29676419496536255, 0.3676615357398987, 0.2743542194366455, -0.06328701227903366], [0.030788499861955643, -0.025746509432792664, -0.13907435536384583, -0.22604769468307495, -0.21828001737594604, 0.7378348708152771, 0.13338713347911835, 0.20249958336353302, -0.061840783804655075, 0.061946600675582886, 0.36201438307762146, 0.26686421036720276, -0.3057585060596466, 0.07736849784851074, 0.3865227699279785, 0.010440133512020111], [-0.022223489359021187, 0.005882152356207371, -0.28865987062454224, -0.10897926241159439, -0.1047409251332283, 0.3112937808036804, 0.3402905762195587, 0.24480746686458588, 0.060692813247442245, 0.19920916855335236, 0.33974021673202515, 0.8117448687553406, -0.006616899278014898, -0.23960568010807037, 0.5058932304382324, 0.07547302544116974], [-0.11544332653284073, 0.354825884103775, -0.09737510979175568, -0.006858991924673319, 0.43789154291152954, -0.020973317325115204, 0.07855607569217682, -0.10056527704000473, 0.1773887276649475, 0.2867327034473419, 0.12991321086883545, 0.3632529079914093, 0.030923990532755852, -0.20188002288341522, 0.327119380235672, 0.13141177594661713], [-0.18415646255016327, 0.25063151121139526, -0.3416779935359955, 0.13509325683116913, 0.22254879772663116, 0.004952389281243086, 0.3116215467453003, -0.17855583131313324, 0.014361179433763027, 0.09876621514558792, 0.28432440757751465, 0.40181002020835876, 0.1179267168045044, 0.1326674222946167, 0.16561567783355713, -0.04761114716529846], [-0.12580634653568268, 0.03096693754196167, -0.005145765841007233, -0.020787229761481285, 0.21393920481204987, -0.027478765696287155, 0.03594919666647911, 0.15135084092617035, -0.001965200761333108, -0.043157655745744705, -0.015007879585027695, 0.011491889134049416, -0.025609342381358147, 0.0510614737868309, 0.003042225493118167, -0.042533304542303085], [-0.08372880518436432, 0.12989553809165955, 0.3520528972148895, 0.3567793667316437, 0.22217226028442383, -0.17841164767742157, 0.0678359717130661, 0.23025232553482056, -0.17220743000507355, -0.15394821763038635, -0.12287978827953339, 0.15927040576934814, 0.05610581114888191, 0.2982580363750458, -0.22181592881679535, -0.23207606375217438], [-0.18065479397773743, -0.012256640009582043, -0.16360913217067719, 0.14702868461608887, 0.0371464267373085, -0.050464075058698654, 0.07703839987516403, 0.10480070859193802, 0.08678152412176132, -0.16574999690055847, 0.25817349553108215, -0.04388061538338661, 0.04798007383942604, 0.07187369465827942, 0.1572100669145584, 0.09446036070585251], [-0.13876965641975403, -0.32241398096084595, -0.13992150127887726, 0.11465395987033844, 0.17497564852237701, -0.1929541379213333, -0.011895465664565563, -0.05587361380457878, 0.014965880662202835, -0.06908822059631348, 0.00025043851928785443, -0.15505605936050415, 0.029132746160030365, 0.30041593313217163, -0.18045705556869507, 0.012020042166113853], [0.07464001327753067, -0.10542335361242294, 0.011133544147014618, -0.13290749490261078, 0.19255511462688446, -0.5204974412918091, -0.0753675028681755, 0.05395025014877319, -0.09836213290691376, -0.15792880952358246, 0.001526751322671771, -0.18305188417434692, 0.12725333869457245, 0.21281611919403076, -0.32584288716316223, 0.06533706933259964], [0.015371042303740978, -0.1002836748957634, -0.07446742802858353, -0.06816023588180542, 0.16598919034004211, -0.2852640748023987, -0.2791542410850525, 0.08381340652704239, -0.26026490330696106, 0.040347013622522354, 0.09795175492763519, 0.037174373865127563, -0.08601830154657364, 0.2715921103954315, -0.038092732429504395, 0.08208313584327698], [-0.25037601590156555, -0.16635504364967346, 0.04094791039824486, 0.03082398697733879, 0.08027435094118118, -0.03280412405729294, -0.011351941153407097, 0.012027466669678688, -0.01811937987804413, 0.13030992448329926, 0.13931474089622498, 0.17487189173698425, 0.10645418614149094, 0.13933998346328735, -0.042724255472421646, -0.07443365454673767], [-0.28126341104507446, -0.01246330700814724, 0.07507414370775223, 0.04636538773775101, 0.1250891089439392, 0.022802947089076042, -0.04663617163896561, -0.030820846557617188, -0.10683666169643402, -0.0035062835086137056, 0.10367098450660706, 0.11528792977333069, 0.14637503027915955, 0.15061500668525696, -0.16686855256557465, 0.023800287395715714], [-0.5105270147323608, -0.0231604166328907, 0.09054000675678253, 0.11435810476541519, 0.21162152290344238, 0.20825836062431335, 0.10906518250703812, 0.06001093611121178, -0.020618969574570656, 0.08281241357326508, 0.22116994857788086, 0.20733344554901123, 0.13169051706790924, 0.11650301516056061, 0.050226498395204544, -0.07448312640190125], [-0.33243387937545776, 0.010307665914297104, -0.03291888162493706, 0.18595096468925476, 0.2261783480644226, 0.18060491979122162, -0.02148323692381382, 0.06044262275099754, -0.08790209889411926, 0.10446751117706299, 0.1085074171423912, 0.16004620492458344, 0.009160248562693596, 0.13729698956012726, -0.057816434651613235, -0.03511117026209831], [-0.10880044847726822, 0.08669359236955643, 0.17290925979614258, 0.18087458610534668, 0.10877595841884613, 0.15871931612491608, -0.17063814401626587, 0.03464671969413757, -0.0398973785340786, 0.11030733585357666, 0.13243483006954193, 0.12333536893129349, 0.029535457491874695, 0.024733450263738632, -0.07173556834459305, -0.11615097522735596], [0.05624251440167427, 0.1377616822719574, 0.13380296528339386, 0.09909331798553467, 0.15982648730278015, 0.247963085770607, 0.012070256285369396, 0.04767361283302307, -0.19847580790519714, 0.14918097853660583, 0.05315827950835228, 0.1986742615699768, 0.1312694251537323, 0.04636717587709427, -0.018064573407173157, -0.07622391730546951], [0.20653226971626282, 0.23033785820007324, 0.09750564396381378, 0.11153747886419296, 0.09407324343919754, 0.05426546186208725, 0.04023471102118492, 0.02140829712152481, -0.06793628633022308, 0.08271858841180801, 0.04242362082004547, 0.12490679323673248, 0.10124623030424118, 0.15324446558952332, -0.096086785197258, 0.019838113337755203], [0.27024444937705994, 0.1718132197856903, 0.13013263046741486, -0.3131811022758484, 0.12282470613718033, -0.08709265291690826, -0.047274164855480194, -0.07903433591127396, -0.02560381032526493, -0.05273960530757904, 0.04845624417066574, 0.15557420253753662, 0.07532505691051483, 0.315998911857605, 0.025359319522976875, 0.10362357646226883], [0.25667130947113037, -0.039822377264499664, 0.3405798673629761, -0.256264328956604, 0.23732900619506836, -0.12086999416351318, 0.07329989224672318, -0.11562050879001617, -0.07752233743667603, -0.10880246013402939, -0.1144038587808609, 0.11642995476722717, 0.1466044783592224, 0.3691825270652771, -0.12122628837823868, 0.056096307933330536], [0.1748535931110382, -0.10080267488956451, 0.19023217260837555, 0.03151736781001091, 0.07987109571695328, -0.3705993592739105, -0.010572793893516064, -0.022267624735832214, 0.15396063029766083, -0.0015000910498201847, -0.17405851185321808, 0.04280512034893036, 0.13919669389724731, 0.22055664658546448, 0.1180160790681839, -0.045720480382442474], [0.046102870255708694, -0.13175788521766663, -0.16789673268795013, 0.05579499900341034, -0.07759495079517365, -0.37133800983428955, 0.003296351758763194, 0.0649089589715004, 0.13680846989154816, -0.03866015002131462, 0.000566151225939393, -0.13965998589992523, -0.12721344828605652, 0.3522844612598419, 0.21648144721984863, 0.1768772453069687], [-0.05579618737101555, -0.08385950326919556, -0.23610436916351318, 0.019285151734948158, -0.008851222693920135, -0.16186828911304474, -0.02185249514877796, 0.05478661507368088, 0.19052840769290924, 0.03227423131465912, -0.010195676237344742, 0.008394951932132244, -0.09576587378978729, 0.35049542784690857, 0.07631341367959976, -0.017997480928897858], [-0.00456837797537446, 0.037630196660757065, -0.183156356215477, 0.06126567721366882, 0.02817446179687977, -0.2074238359928131, 0.037112101912498474, 0.18123164772987366, 0.14413121342658997, 0.04215792566537857, 0.02802257053554058, -0.04545071721076965, -0.161016047000885, 0.2124946415424347, 0.06324542313814163, -0.035350363701581955], [0.09556804597377777, -0.037486620247364044, -0.1741984486579895, -0.053035009652376175, -0.06611811369657516, -0.10002987086772919, 0.09715615212917328, 0.09838356822729111, 0.1706995815038681, 0.1590229719877243, -0.0036873577628284693, -0.04990312084555626, -0.13788539171218872, 0.18766312301158905, -0.06794513016939163, 0.04418127238750458], [-0.15383410453796387, -0.0930350124835968, -0.17208313941955566, -0.07287707179784775, -0.058306459337472916, -0.02405541203916073, 0.08568112552165985, -0.019800769165158272, 0.07019130140542984, 0.0744914636015892, 0.029572470113635063, -0.004752839915454388, -0.2047320008277893, 0.20151053369045258, -0.02492440678179264, 0.08936528861522675], [0.12201046198606491, -0.0038946473505347967, -0.2153804898262024, -0.09435802698135376, 0.01908757910132408, 0.08565028011798859, 0.28559374809265137, 0.10140318423509598, -0.0019010750111192465, -0.022290289402008057, 0.10938621312379837, 0.15107569098472595, 0.004849191289395094, 0.06447213143110275, -0.053155478090047836, 0.05052415654063225], [0.09944633394479752, 0.08822853863239288, -0.18038123846054077, 0.21673612296581268, 0.16503652930259705, -0.033292077481746674, 0.2606581449508667, 0.05307922139763832, 0.11972495168447495, -0.00917148683220148, 0.1856437772512436, 0.1375160813331604, -0.02010936848819256, 0.19811059534549713, 0.0018031839281320572, 0.08754561096429825], [0.18620909750461578, 0.04780338332056999, -0.19944459199905396, 0.0956592708826065, 0.08400335162878036, 0.32250577211380005, 0.10221299529075623, 0.00643333001062274, 0.016013098880648613, 0.01855299063026905, 0.08355943113565445, 0.10257131606340408, -0.3481235206127167, 0.17172811925411224, 0.08242949098348618, 0.12931135296821594], [0.21796785295009613, 0.08487764000892639, 0.030611414462327957, -0.2276405394077301, -0.15930412709712982, 0.7283548712730408, 0.16536037623882294, 0.10083352774381638, 0.04913470894098282, -0.16403916478157043, 0.24055150151252747, 0.47662046551704407, -0.3035842776298523, 0.4203560948371887, 0.4420997202396393, -0.04423511400818825], [-0.08616688847541809, 0.1407320499420166, -0.3619077503681183, -0.44085222482681274, 0.20621167123317719, 0.29059088230133057, 0.5451449155807495, -0.11526773869991302, -0.06505414098501205, -0.010416259989142418, 0.5143990516662598, 0.7849785089492798, -0.11322885751724243, 0.09985780715942383, 0.5740314722061157, -0.020268505439162254], [0.02329169772565365, 0.012600523419678211, -0.16827334463596344, -0.20043796300888062, 0.582914412021637, -0.08003536611795425, 0.13800491392612457, -0.16550110280513763, 0.06543917208909988, 0.12192989885807037, 0.25282275676727295, 0.6047319769859314, -0.012019475921988487, 0.07758986204862595, 0.32275286316871643, -0.10063273459672928], [0.22265052795410156, 0.2143130600452423, 0.10510183125734329, 0.1019720733165741, 0.1979874223470688, -0.17227798700332642, -0.22437448799610138, -0.2384711652994156, -0.26498955488204956, 0.12371495366096497, -0.18633019924163818, 0.2902737557888031, 0.06608549505472183, 0.28681471943855286, 0.25298741459846497, -0.24036894738674164], [-0.11627223342657089, -0.03052610531449318, -0.0010441101621836424, -0.07023033499717712, 0.1197279542684555, -0.08155427128076553, -0.04849814996123314, 0.15589043498039246, -0.009279740042984486, -0.0426156148314476, -0.07344067096710205, 0.15699397027492523, -0.016606364399194717, 0.10497195273637772, 0.0332331657409668, -0.14944468438625336], [0.20544680953025818, 0.2257886677980423, 0.440826952457428, 0.3291414976119995, 0.31565767526626587, -0.04088961333036423, -0.0032515041530132294, 0.2154315561056137, -0.17420460283756256, -0.019166838377714157, -0.1739771068096161, 0.012083432637155056, -0.05652211233973503, 0.1305347979068756, -0.11733540892601013, -0.15058933198451996], [0.05910127982497215, 0.03317134454846382, -0.08574217557907104, -0.16614824533462524, 0.0007648886530660093, -0.15097257494926453, 0.02355738915503025, 0.18680965900421143, -0.1544979363679886, -0.02993868663907051, 0.00923885591328144, -0.0705227479338646, -0.1359982192516327, 0.27446791529655457, 0.19939321279525757, 0.0505436509847641], [-0.14923587441444397, -0.16317231953144073, -0.17311032116413116, -0.2457198202610016, 0.12885770201683044, -0.3543948829174042, -0.016920214518904686, 0.04780326411128044, -0.02026575431227684, -0.00793777871876955, -0.07722465693950653, -0.26203739643096924, 0.12896332144737244, 0.26198810338974, -0.02245158515870571, 0.15697631239891052], [-0.11621606349945068, 0.048908866941928864, -0.1790221631526947, -0.09735432267189026, 0.2815616726875305, -0.42331117391586304, -0.0228404700756073, 0.03759860247373581, -0.2945740818977356, -0.0465468131005764, 0.12024412304162979, 0.019989782944321632, 0.03658200055360794, 0.25535720586776733, -0.1367870271205902, -0.05922270938754082], [-0.09807277470827103, 0.1160859540104866, 0.017514290288090706, -0.253467857837677, 0.26864093542099, -0.06344447284936905, -0.28735601902008057, -0.028502332046628, -0.32739195227622986, 0.11014717817306519, 0.11080954968929291, 0.0609516017138958, -0.09323380142450333, 0.2402113974094391, 0.021670645102858543, -0.004177221097052097], [-0.4660698175430298, -0.06535610556602478, 0.09576574712991714, 0.03967262804508209, 0.3256087303161621, 0.033018968999385834, -0.20066355168819427, -0.09201505780220032, -0.09673494100570679, 0.09683520346879959, 0.1480402648448944, 0.10003455728292465, -0.006472513545304537, 0.02992573380470276, -0.12139682471752167, -0.07735989987850189], [-0.6599758267402649, -0.025641463696956635, 0.07615970075130463, 0.05539989471435547, 0.2315216213464737, 0.15049706399440765, -0.03602083399891853, -0.08113285899162292, -0.1067688837647438, 0.02463028021156788, 0.21640585362911224, 0.1381698101758957, 0.06702516973018646, 0.025334496051073074, -0.0545123815536499, 0.01758282259106636], [-0.3662254512310028, 0.0002923491701949388, 0.127070352435112, 0.24081604182720184, 0.167250856757164, 0.20589561760425568, 0.04951654374599457, 0.05193709582090378, -0.18273526430130005, 0.02892378158867359, 0.16814252734184265, 0.23184776306152344, 0.006900099106132984, -0.06084824353456497, 0.04364975169301033, -0.0007681158604100347], [-0.2314373403787613, 0.09464279562234879, 0.24870818853378296, 0.0971594974398613, 0.16609561443328857, 0.35354164242744446, 0.069303497672081, 0.014831542037427425, -0.16493278741836548, 